-0.0026341022457927465
0.0030004517175257206
0.0006558092427439988
-0.026909077540040016
0.006363654974848032
0.013260139152407646
-0.011178030632436275
0.020639143884181976
-0.0036373210605233908
-0.012325017713010311
-0.012628897093236446
-0.007205668371170759
-0.019321264699101448
-0.024960018694400787
-0.011885237880051136
-0.0083258505910635
-0.009574515745043755
-0.016657589003443718
0.009180383756756783
-0.01535425242036581
0.0071358345448970795
0.030736668035387993
0.013239149935543537
-0.007752807345241308
0.004744824022054672
0.01117531768977642
0.015948541462421417
-0.01671190746128559
-0.0010130117880180478
-0.003716746112331748
0.006526924669742584
-0.012040619738399982
0.00904268678277731
-0.0008327887044288218
0.00886472500860691
-0.02630690671503544
-0.014588376507163048
0.0029433327727019787
0.0029717544093728065
-0.019124861806631088
-0.004792214836925268
0.013827590271830559
0.009880215860903263
-0.018416738137602806
0.01973443292081356
0.0016941032372415066
0.012419860810041428
-0.005584245081990957
-0.010612198151648045
0.00039846947765909135
0.004273305647075176
-0.013298474252223969
0.020661478862166405
0.016962796449661255
0.002795165404677391
0.0007421363843604922
0.0131675498560071
0.0032212913502007723
0.010458281263709068
0.016511235386133194
0.0009171652491204441
0.003938764333724976
-0.005653419531881809
0.01937183178961277
0.007523753680288792
0.013436861336231232
-0.013185102492570877
-0.010026267729699612
0.0071919746696949005
-0.002316551748663187
-0.018894720822572708
0.01251916028559208
0.0019583452958613634
0.00738356402143836
-0.009666427038609982
0.020188655704259872
0.007665189448744059
0.01852942258119583
0.015710173174738884
0.018581707030534744
-0.006931369658559561
0.017089812085032463
0.009126757271587849
-0.03887597471475601
-0.02411579340696335
-0.006871520541608334
-0.011647721752524376
0.007881664671003819
0.00180456368252635
0.028480224311351776
-0.019378574565052986
-0.0162945706397295
0.010467849671840668
-0.013027038425207138
-0.008421075530350208
-0.02920972928404808
-0.0024856377858668566
-0.00871414877474308
-0.01639692485332489
-0.009305369108915329
-0.015931233763694763
-0.026346419006586075
-0.001109052449464798
0.022589296102523804
0.0021386577282100916
-0.023211544379591942
-0.01408461108803749
-0.005622431635856628
-0.020090458914637566
-0.030284499749541283
-0.049573566764593124
0.02328314073383808
0.014954191632568836
-0.007750129792839289
-0.003948152530938387
-0.03762908652424812
-0.024219755083322525
-0.010193871334195137
-0.007703753188252449
-0.004131203982979059
-0.002955291885882616
-0.006217366550117731
-0.01207573339343071
-0.0070167784579098225
-0.003894809167832136
-0.01695258915424347
-0.024584971368312836
0.0055352989584207535
-0.008337034843862057
-0.007075915578752756
-0.024022893980145454
-0.006368630565702915
0.0007341966265812516
0.0052883257158100605
-0.022181440144777298
-0.026972055435180664
-0.017990123480558395
-0.01639282889664173
0.002148494590073824
-0.01612211763858795
-0.01611168682575226
0.0065931458957493305
-0.020045071840286255
0.006414865143597126
-0.012600503861904144
-0.007623844780027866
0.011410568840801716
-0.04508429765701294
-0.00920180045068264
-0.0155625119805336
-0.013590242713689804
-0.0014374066377058625
-0.01946561224758625
0.020737452432513237
-0.010475561954081059
0.006322902161628008
0.008322865702211857
-0.01079071220010519
-0.018903439864516258
0.005862408317625523
-0.0020188617054373026
0.0324360728263855
0.04058088734745979
-4.081984661752358e-05
0.010885864496231079
-0.016543686389923096
-0.0005336474278010428
-0.0229034386575222
0.004629464820027351
-0.0048402356915175915
0.01018710620701313
0.017954211682081223
0.004821051377803087
0.006183073855936527
0.014419419690966606
-0.012093684636056423
-0.00874604657292366
0.0019488449906930327
0.014684731140732765
0.012463933788239956
0.007052310276776552
-0.004178253468126059
0.01204824447631836
-0.02019907534122467
0.009914351627230644
0.013978103175759315
-0.0010321135632693768
0.0057393754832446575
0.0014019262744113803
0.0006011277437210083
-0.0005578984273597598
0.024423619732260704
0.02307569608092308
-0.014610383659601212
0.011185277253389359
0.03460836037993431
0.016943830996751785
0.004329523537307978
-0.025606408715248108
0.012278500944375992
-0.0258099976927042
0.00853648129850626
0.020437270402908325
0.022556859999895096
0.022966038435697556
0.008841977454721928
-0.013893909752368927
0.0038719067815691233
-0.009304553270339966
0.02322031743824482
-0.014948601834475994
0.006925828754901886
0.0050069550052285194
-0.01730210706591606
0.0010364344343543053
-0.010222934186458588
-0.009694947861135006
0.03453439846634865
0.00613366300240159
0.011581976898014545
-0.020529408007860184
-0.021955981850624084
0.0053109051659703255
0.03410135209560394
-0.005807926412671804
0.029406050220131874
-0.008795393630862236
-0.005250477232038975
-0.019087733700871468
0.030350198969244957
0.018444981426000595
-0.021224677562713623
0.01843182183802128
0.013831978663802147
0.017848167568445206
-0.004476198926568031
0.035857610404491425
0.021761979907751083
0.010880486108362675
0.040254540741443634
-0.002004923764616251
-0.0030348291620612144
0.009329278022050858
-0.016303807497024536
0.0009625289821997285
0.018673421815037727
-0.01656709611415863
0.014963587746024132
-0.003720560809597373
-0.0076734391041100025
-7.925393219920807e-06
0.00397319532930851
-0.009597917087376118
-0.016832958906888962
5.85242742090486e-05
-0.006412587594240904
0.008297685533761978
0.0048206704668700695
-0.0011466905707493424
0.0048868716694414616
0.017348701134324074
0.003922188654541969
-0.007808004505932331
0.016051294282078743
0.009880201891064644
-0.010143579915165901
0.020912451669573784
-0.006320321932435036
-0.023139089345932007
0.0011645996710285544
0.02246841974556446
-0.006695322692394257
0.018310634419322014
0.01462251041084528
-0.011654186993837357
-0.01430593803524971
0.012973994947969913
-0.009686518460512161
-0.0062350803054869175
0.013180285692214966
0.00675428519025445
0.04641788452863693
-0.02796228416264057
-0.015111241489648819
0.028715748339891434
0.009199139662086964
-0.0053709931671619415
-0.006036050617694855
-0.007214028388261795
-0.009242139756679535
0.0018536358838900924
-0.0031078115571290255
-0.008400416001677513
-0.01676616258919239
0.00409355666488409
0.00624264357611537
-0.0012470176443457603
-0.012919135391712189
0.0035818698816001415
0.011006226763129234
-0.013281607069075108
0.002639536280184984
0.008995314128696918
0.006542052607983351
-0.012031206861138344
0.01714876852929592
0.017949359491467476
-0.010581386275589466
-0.02696171961724758
-0.01356402225792408
-0.009717283770442009
-0.0021175898145884275
0.03537040576338768
0.01839207112789154
0.026676248759031296
-0.0010594063205644488
-0.0033949457574635744
-0.004883785732090473
0.013426880352199078
-0.013947544619441032
-0.019559090957045555
-0.023294690996408463
-0.03783416375517845
-0.01463665533810854
-0.021322861313819885
-0.03095177747309208
-0.030822396278381348
0.0019437909359112382
0.0028637098148465157
-0.02119814045727253
0.010448387823998928
-0.011315694078803062
-0.00426087062805891
0.0226469486951828
-0.012867482379078865
-0.01101780217140913
0.01233613584190607
-0.02005731128156185
-0.02183650992810726
-0.006806705612689257
-0.010487658903002739
-0.02629769779741764
-0.009957882575690746
-0.012966195121407509
-0.0024831860791891813
-0.007094037253409624
0.017997238785028458
-0.006425746250897646
0.007906917482614517
-0.012287241406738758
0.009817623533308506
0.002667406341060996
-0.021524420008063316
0.0027511408552527428
-0.009207457304000854
-0.01754148118197918
-0.0017103179125115275
-0.014588471502065659
0.00442465441301465
0.03440522029995918
0.012724758125841618
0.030884932726621628
0.0013089978601783514
-7.008361717453226e-05
-0.0023165300954133272
-0.003798932768404484
-0.011148275807499886
0.017209935933351517
-0.00675748847424984
-0.0001369442034047097
-0.008916579186916351
-0.016281109303236008
-0.004491994623094797
0.011331715621054173
-0.0015909303911030293
-0.008819262497127056
-0.004939871374517679
0.0045731631107628345
-0.010949202813208103
0.012890319339931011
-0.006658643949776888
-0.002560542430728674
0.0027964848559349775
0.011224720627069473
-0.022054525092244148
-0.003927077166736126
-0.0066467467695474625
-0.018840409815311432
-0.021686960011720657
-0.0007406596560031176
-0.027281448245048523
0.005044829566031694
-0.020708775147795677
-0.034102778881788254
-0.02237364649772644
-0.01665571704506874
-0.027916260063648224
-0.009897725656628609
0.005525234155356884
0.016013378277420998
-0.014895083382725716
0.0035090723540633917
0.009000281803309917
-0.008398175239562988
-0.03747941181063652
0.020726503804326057
-0.005879881326109171
0.009176796302199364
-0.020297421142458916
-0.007314813788980246
-0.0016965663526207209
-0.0014029393205419183
0.003222900442779064
0.029211904853582382
0.012486547231674194
-0.020099766552448273
0.021169744431972504
-0.025299614295363426
0.031815055757761
-0.0010644543217495084
-0.010448961518704891
-0.02341875620186329
0.014563932083547115
0.021244710311293602
0.01652979664504528
-0.0032435778994113207
-0.020436981692910194
-0.036982402205467224
-0.008721319027245045
0.005457496270537376
0.0011048094602301717
0.002201209543272853
0.002951171016320586
-5.993876766297035e-05
0.0005578473792411387
-0.003690644633024931
0.005376274231821299
-0.02476462535560131
0.009272921830415726
0.009608054533600807
0.009164679795503616
0.009088017977774143
0.007484221365302801
-0.011946155689656734
0.021394899114966393
0.027922332286834717
0.014691764488816261
-0.0024957824498414993
0.028887180611491203
0.013422432355582714
0.0017173107480630279
0.0025018067099153996
-0.021252909675240517
-0.0008242424810305238
0.0042182630859315395
0.008598137646913528
0.018734611570835114
0.008562197908759117
-0.008825520984828472
0.01746169663965702
-0.013693380169570446
0.0021955259144306183
0.010771744884550571
0.0028693152125924826
0.031031537801027298
0.008546017110347748
-0.01419766340404749
-0.002247170079499483
0.018739743158221245
-0.012904837727546692
0.04037049040198326
-0.0007753840764053166
0.0018671059515327215
0.00727929687127471
-0.026508083567023277
-0.01760883256793022
-0.024141862988471985
0.002957673743367195
-0.015916667878627777
0.00162734545301646
0.01113204751163721
0.014574144035577774
-0.008191907778382301
-0.007658114191144705
-0.01845211163163185
-0.009041878394782543
0.004088250454515219
0.044481631368398666
-0.023663507774472237
-0.005254740361124277
-0.019529173150658607
0.003285997314378619
0.005466697737574577
-0.004955843091011047
0.007680478040128946
-0.003302555764093995
-0.002624786226078868
-0.011094445362687111
0.023922057822346687
0.018079478293657303
-0.018134770914912224
0.005220369435846806
-0.013559116050601006
0.019447922706604004
0.01098137442022562
0.026868708431720734
-0.006680103484541178
-0.000893890974111855
-0.003492427058517933
-0.019666986539959908
-0.018510863184928894
-0.000762615876737982
-0.016382109373807907
-0.01586245931684971
-0.013717285357415676
0.017527921125292778
-0.0011418905341997743
-0.006334641017019749
-0.011117573827505112
0.01315924059599638
-0.0234640222042799
0.00027993376716040075
-0.0003627325058914721
0.02379702776670456
-0.0027352971956133842
-0.022222669795155525
0.013414893299341202
0.010442993603646755
-0.02351231314241886
0.01683192513883114
0.004369906149804592
-0.01324326079338789
-0.0028605025727301836
0.005421197973191738
0.0019924042280763388
-0.0006866378244012594
-0.0003909207880496979
0.01780591905117035
0.018390579149127007
0.028472768142819405
-0.03383549302816391
-0.010777567513287067
-0.012371198274195194
-0.001910991151817143
-0.0016381499590352178
0.017288483679294586
-0.003981265239417553
-0.0151668731123209
-0.010780933313071728
0.0053807711228728294
-0.000339466700097546
0.0003388483019080013
-0.010161546990275383
-0.0040265945717692375
-0.00347511051222682
0.004235921427607536
-0.0014677199069410563
0.013207032345235348
0.007557958364486694
0.00019396556308493018
0.0030048012267798185
0.008628295734524727
-0.011192644014954567
0.0384657122194767
-0.02622009441256523
-0.020250702276825905
-0.006387236528098583
0.021905815228819847
-0.007340040523558855
0.0052752867341041565
-0.01170855201780796
0.008400884456932545
0.002852990524843335
-0.004721979144960642
0.02311803586781025
-0.007603915873914957
0.0028135930188000202
-0.011700763367116451
-0.004411829635500908
0.011845514178276062
-0.0017631585942581296
-0.0122603178024292
-0.00212104176171124
0.012071759440004826
0.006752271205186844
-0.00019127871200907975
-0.025104859843850136
0.012693097814917564
0.01606161892414093
0.00812640879303217
0.0013856630539521575
0.0030086671467870474
-0.014110606163740158
0.0197836272418499
-0.0009230112773366272
-0.01842796429991722
0.007805925328284502
0.01531922910362482
-0.012767521664500237
-0.00901658646762371
0.018030645325779915
0.024853119626641273
0.01778831146657467
0.008864044211804867
-0.009442184120416641
-0.001365219010040164
0.0129315834492445
0.00901330728083849
0.016654863953590393
-0.00543205626308918
0.027479857206344604
-0.031780850142240524
-0.013331402093172073
0.005579187534749508
-0.013278024271130562
-0.01921878196299076
-0.013306875713169575
0.004239038564264774
0.030246378853917122
-0.008199007250368595
0.008300757966935635
0.018992779776453972
0.010643205605447292
0.031324271112680435
0.01928325928747654
0.0033642144408077
0.019668931141495705
0.0022673204075545073
-0.019630275666713715
0.020147208124399185
-0.011432801373302937
-0.007607298903167248
0.015071316622197628
-0.003039528615772724
-0.009343016892671585
-0.0041656820103526115
0.002297190250828862
-0.005098502151668072
-0.014498664066195488
-0.02767290733754635
-0.03872094675898552
0.005424881353974342
0.013504219241440296
-0.001281087752431631
0.03746509179472923
0.0015154132852330804
0.024035029113292694
-0.02055654302239418
0.009840586222708225
0.010351882316172123
0.03859664872288704
-0.011904951184988022
-0.021718023344874382
0.008377794176340103
0.014690709300339222
0.022630920633673668
-0.0037628663703799248
0.015570479445159435
-0.009398967027664185
0.005353622138500214
0.01958356238901615
-0.011155752465128899
0.015190161764621735
0.005462179891765118
0.02299468405544758
0.02925962395966053
-0.0015236434992402792
0.0066008553840219975
-0.0319385901093483
-0.010486447252333164
-0.004461714532226324
0.031852882355451584
0.013736489228904247
0.013560856692492962
0.0070907073095440865
-0.01675260439515114
-0.025469722226262093
0.019752137362957
0.026715440675616264
-0.0046859499998390675
0.01768183335661888
0.03249644488096237
0.014553272165358067
0.02610139735043049
0.011341439560055733
-0.0022270854096859694
0.03523687273263931
-0.011892260983586311
-0.018682658672332764
-0.0055245268158614635
-0.007073158863931894
-0.005266961175948381
0.00759461335837841
-0.018464667722582817
-0.016897117719054222
0.010126909241080284
0.013006175868213177
-0.0018250870052725077
0.00066651456290856
-0.011207228526473045
0.013562729582190514
-0.018152721226215363
-0.02648657187819481
0.006065153982490301
0.03971058130264282
-0.014285479672253132
0.01800120249390602
-0.014039183035492897
-0.018762001767754555
-0.01177784614264965
-0.01644882746040821
0.009042320773005486
-0.0072730290703475475
0.017516884952783585
-0.000730155676137656
0.010212457738816738
0.02378545142710209
0.008128585293889046
0.008026006631553173
0.011922052130103111
0.0062416112050414085
-0.024624858051538467
0.029461029917001724
-0.014182696118950844
-0.018671689555048943
-0.014057254418730736
0.007987160235643387
-0.021080732345581055
-0.02755984663963318
-0.0035690139047801495
0.0015993115957826376
0.009472022764384747
0.018271658569574356
-0.0023741915356367826
0.0011842894600704312
-0.0005772221484221518
0.008781807497143745
0.0027804188430309296
0.0006797260721214116
0.01587691903114319
-0.007035912945866585
0.0025486627127975225
-0.01792539283633232
0.008491243235766888
0.004337542690336704
0.024508344009518623
0.0036686246749013662
0.01025222148746252
-0.013395674526691437
0.00045705822412855923
0.010312841273844242
0.015229283832013607
0.03990733623504639
-0.008080904372036457
0.013760228641331196
-0.006586275063455105
0.006606577429920435
-0.031479958444833755
0.024665217846632004
0.0034374247770756483
0.020973045378923416
0.019383728504180908
-0.020880110561847687
0.0071465433575212955
0.010406458750367165
2.2273352442425676e-05
-0.019182484596967697
0.006313532590866089
-0.0001689054333837703
0.008866432122886181
-0.004766577389091253
-0.014493430033326149
0.0032175651285797358
0.007334600202739239
0.020694267004728317
-0.0004997214418835938
0.018819725140929222
0.03914675489068031
-0.027095353230834007
-0.01829301007091999
-0.01986801065504551
-0.009404818527400494
0.004155193921178579
0.00538367684930563
-0.004666259046643972
-0.013018970377743244
-0.024451998993754387
-0.008923113346099854
-0.014602923765778542
0.0025529402773827314
-0.03076646290719509
0.011168962344527245
-0.006811285391449928
-0.007596700452268124
-0.00931913685053587
0.0014918956439942122
-0.0023428360000252724
0.0004439779440872371
-0.010809930972754955
0.008849826641380787
-0.021022116765379906
-0.008037963882088661
-0.010818365029990673
-0.006481536198407412
-0.0020680755842477083
0.022325918078422546
-0.01923389546573162
0.004084397107362747
0.0007723307353444397
0.0017226345371454954
-0.01745365746319294
-0.013190239667892456
-0.007411207538098097
-0.0017550167394801974
0.0012925786431878805
-0.006702873855829239
-0.00705876387655735
0.0062745180912315845
-0.018067575991153717
-0.009485533460974693
-0.020855937153100967
0.008960423059761524
0.021293573081493378
0.01702466793358326
0.021014558151364326
0.008823314681649208
-0.009827747941017151
-0.022293327376246452
0.024294931441545486
-0.011173941195011139
-0.007575334515422583
0.006118220277130604
-0.02065267041325569
-0.016264421865344048
0.026456667110323906
-0.014781685546040535
0.018653523176908493
0.025487517938017845
0.024105805903673172
0.0047888378612697124
0.023329349234700203
0.000358056538971141
0.02515447698533535
0.017093626782298088
0.01780346781015396
0.02468658611178398
0.00900846254080534
0.0023610489442944527
0.026087580248713493
-0.014110191725194454
-0.0005421196692623198
0.0008949768962338567
0.021150073036551476
0.004848394077271223
-0.030503246933221817
-0.007502521853893995
-0.03371838852763176
-0.0289133433252573
0.015690958127379417
0.00620474386960268
-0.010853264480829239
0.019523821771144867
-0.016188213601708412
0.008988961577415466
0.00918942503631115
-0.0028591847512871027
-0.010911243036389351
0.01084805279970169
0.04878360033035278
-0.0019686701707541943
0.026842892169952393
-0.00487152673304081
0.013488855212926865
-0.014523016288876534
-0.027584539726376534
0.0061227865517139435
0.0048171402886509895
0.0021566106006503105
-0.037560705095529556
0.03077469952404499
0.01997658982872963
0.018479693681001663
0.0030368207953870296
0.009382489137351513
0.00045242768828757107
0.061649736016988754
-0.00864159595221281
-0.026913361623883247
0.006352656986564398
0.007798524107784033
0.013179883360862732
-0.0016665998846292496
0.020865146070718765
0.009948029182851315
0.008813613094389439
0.014840609394013882
0.003321063471958041
0.003634185064584017
0.02873958647251129
-0.022120336070656776
-0.007156715728342533
0.010351779870688915
0.016432855278253555
0.011682718060910702
-0.0058058020658791065
-0.0006929716910235584
0.02657780982553959
0.008796662092208862
-0.031688809394836426
0.018948687240481377
-0.008585857227444649
0.03422841802239418
-0.015236840583384037
-0.005970911122858524
0.0011068870080634952
-0.018394405022263527
-0.019245903939008713
-0.036360565572977066
0.003983925096690655
0.041236892342567444
0.013816175982356071
-0.007330393418669701
0.003883176250383258
0.002436736598610878
-0.02162485010921955
-0.014522737823426723
-0.00016280755517072976
0.0006256555207073689
-0.01679769530892372
0.023083152249455452
0.00971144251525402
-0.008220692165195942
0.0011595463147386909
-0.020982954651117325
-0.0066540357656776905
-0.014097250998020172
0.0034066822845488787
-0.007757535669952631
-0.014738213270902634
-0.021343475207686424
0.0054122875444591045
0.003974677994847298
-0.004618508741259575
-0.015462147071957588
-0.007622864097356796
0.012210519053041935
-0.004845313262194395
-0.008875720202922821
-0.010274786502122879
0.007348249200731516
-0.006034925114363432
0.002365758642554283
0.021052828058600426
-0.008568771183490753
-0.011630198918282986
-0.02733229659497738
-0.02064776048064232
0.004495242610573769
-0.0186487827450037
-0.011564268730580807
0.0004590466560330242
-0.006183132994920015
-0.02443521097302437
-0.00711865397170186
-0.014393708668649197
-0.0023544265422970057
0.021556152030825615
0.022924451157450676
-0.013725416734814644
0.00777851277962327
-0.008551321923732758
0.024221088737249374
0.0038191608618944883
0.0007094741449691355
0.016114450991153717
0.025932105258107185
0.018108295276761055
0.029305916279554367
0.0016772681847214699
-0.0030166003853082657
0.0320153646171093
-0.014034058898687363
0.027365203946828842
-0.018858226016163826
0.0025831961538642645
0.013498165644705296
-0.013501930981874466
-0.014939658343791962
-0.010903988033533096
0.018642449751496315
0.0042593455873429775
-0.0167422816157341
-0.012637916952371597
-0.04546809941530228
-0.005082311108708382
-0.02509315311908722
0.0067847310565412045
-0.017867889255285263
-0.000782497227191925
-0.006344780791550875
