0.008086185902357101
-0.019208261743187904
-0.017271971330046654
0.013633091002702713
-0.04064428061246872
-0.03650777041912079
-0.015078810043632984
0.03558209538459778
-0.06398005038499832
0.06106337159872055
-0.008756410330533981
-0.003630452323704958
-0.022498125210404396
-0.0027530784718692303
-3.68009386875201e-05
-0.031937506049871445
0.0111276526004076
0.015039573423564434
-0.0338127464056015
-0.006457204930484295
0.00931337010115385
0.0006753284251317382
-0.06910683214664459
0.013181648217141628
-0.023544277995824814
-0.03637513890862465
-0.022448793053627014
-0.0098930224776268
-0.024635346606373787
-0.04256760701537132
0.02825782634317875
-0.019658776000142097
-0.040865760296583176
0.004079909063875675
-0.027132432907819748
-0.017713865265250206
-0.01965693011879921
0.05831111595034599
-0.05440167337656021
-0.039261408150196075
-0.11597443372011185
0.06377064436674118
-0.02685127966105938
0.018301213160157204
-0.05735771730542183
-0.017816312611103058
-0.005586187355220318
0.024434952065348625
0.020700933411717415
-0.0294101070612669
0.004137649200856686
-0.007224878761917353
-0.0405983030796051
-0.013833542354404926
0.022038795053958893
-0.009985841810703278
0.0003913935215678066
-0.07638914883136749
-0.021568335592746735
-0.005931475665420294
-0.015430732630193233
0.06262286007404327
-0.0022602290846407413
-0.04996168240904808
0.00941858533769846
0.02858092449605465
-0.02321810834109783
-0.009839657694101334
-0.0469219833612442
-0.010499231517314911
0.051394738256931305
-0.03256314992904663
-0.05208728462457657
-0.03313150629401207
-0.04799706116318703
0.06335092335939407
-0.03279022127389908
0.015472075901925564
0.018750686198472977
-0.02301309071481228
0.02277039922773838
-0.025428561493754387
-0.035767607390880585
-0.014056694693863392
0.0060173324309289455
-0.0175639558583498
0.04650353640317917
0.007519767619669437
0.01290081162005663
0.012148299254477024
0.06639203429222107
0.021111994981765747
0.006025380454957485
0.007315139751881361
0.0007214912329800427
-0.011344450525939465
0.044070765376091
0.021092206239700317
-0.03891897574067116
0.030264750123023987
-0.025495348498225212
0.030607447028160095
0.010256921872496605
0.03443552553653717
-0.005553730297833681
0.003374545369297266
0.00884508341550827
0.016130011528730392
0.0012033605016767979
0.00564645417034626
-0.030424386262893677
-0.03325293958187103
-0.01328224502503872
-0.023367393761873245
0.0009621982462704182
0.03323625400662422
-0.022203898057341576
0.03665130212903023
-0.013523310422897339
0.0209973081946373
-0.031729988753795624
0.03324757516384125
-0.011514635756611824
0.03277070075273514
-0.002217252738773823
-0.012757501564919949
0.0025496273301541805
0.005354654043912888
-0.01428361888974905
-0.055427905172109604
-0.03456805646419525
0.05043512210249901
-0.030064990743994713
0.031926341354846954
-0.036514509469270706
-0.07090737670660019
-0.0729265883564949
0.05175212398171425
0.035932984203100204
-0.046289194375276566
-0.026820337399840355
-0.006156503688544035
-0.04765528813004494
-0.0016582870157435536
-0.03459218516945839
0.0035247420892119408
-0.07121103256940842
-0.013884183019399643
0.02679172158241272
0.01578143797814846
0.07539194822311401
-0.0032394127920269966
-0.025392834097146988
0.02312568575143814
0.00232112524099648
0.015060088597238064
-0.00590741541236639
0.06547203660011292
-0.0008762283250689507
0.028524041175842285
-0.027043670415878296
0.015647362917661667
0.05835793912410736
0.01015832182019949
0.006644638255238533
-0.012093009427189827
0.05913729593157768
-0.007984934374690056
-0.03528178483247757
0.014344749972224236
-0.045504357665777206
0.025150684639811516
0.0230020172894001
-0.003994747065007687
0.01550223957747221
-0.01583757996559143
-0.012275505810976028
-0.05419585108757019
-0.05710155516862869
0.021932262927293777
-0.02566547691822052
0.03167147934436798
0.011341835372149944
0.03228197619318962
0.02121945656836033
-0.021492617204785347
-0.019749129191040993
-0.031209899112582207
-0.04104319214820862
-0.01950729265809059
-0.009754025377333164
-0.005428940523415804
0.014800294302403927
0.02731957659125328
-0.011244057677686214
-0.031413089483976364
0.025786373764276505
0.04141399264335632
0.015953872352838516
-0.008026308380067348
0.0019713304936885834
0.0038151261396706104
-0.043493568897247314
-0.026737673208117485
0.03380231931805611
0.01768977753818035
0.016858039423823357
-0.03293083235621452
0.022131361067295074
0.008271644823253155
-0.03284234553575516
-0.013786465860903263
0.017078300938010216
-0.10582185536623001
-0.016729013994336128
-0.008639689534902573
-0.07669693976640701
0.0025314565282315016
0.02001025155186653
-0.05930912494659424
0.003882206277921796
-0.002719510579481721
-0.043491266667842865
-0.01676502823829651
0.0027542663738131523
-0.006039918400347233
-0.0011255060089752078
-0.014043799601495266
-0.047055017203092575
0.04448448866605759
-0.001969284610822797
-0.02342134714126587
-0.018035221844911575
0.0027817990630865097
-0.02214924246072769
0.003994778264313936
-0.015901867300271988
-0.047255709767341614
-0.011903625912964344
-0.02818533033132553
0.009311427362263203
-0.032347001135349274
-0.013294694013893604
0.013862928375601768
-0.032258328050374985
0.018668683245778084
-0.021327709779143333
0.006874286103993654
-0.028041772544384003
0.1056714802980423
-0.024120725691318512
-0.06422184407711029
0.01839885488152504
0.027476463466882706
0.035964224487543106
0.023993637412786484
0.0076148328371346
0.02072487585246563
-0.010065649636089802
-0.02650946006178856
0.014611425809562206
-0.002495874185115099
0.010657091625034809
0.01812274195253849
-0.01908268593251705
0.016553090885281563
-0.03494543209671974
-0.021535955369472504
-0.010527156293392181
-0.01994299329817295
0.018626047298312187
0.028393283486366272
-0.0008509711478836834
-0.06504300236701965
0.01982991397380829
-0.01548031996935606
0.012203683145344257
-0.023869004100561142
0.018505852669477463
-0.029606802389025688
0.028014108538627625
-0.03153728321194649
-0.016376161947846413
0.01290386263281107
0.008214755915105343
0.008867749013006687
-0.021072862669825554
-0.008564211428165436
0.022957630455493927
-0.00610072398558259
0.029875706881284714
-0.02278948202729225
0.003830837784335017
0.020936647430062294
-0.021220283582806587
-0.006119139026850462
-0.001494359690696001
-0.05505959317088127
0.01589568890631199
-0.01637152023613453
-0.02997373230755329
-0.034844476729631424
-0.022500252351164818
-0.010645763017237186
-0.009888464584946632
0.040542908012866974
-0.00017131578351836652
-0.03654211387038231
-0.0023380746133625507
0.03561226651072502
-0.0009405745659023523
0.011004595085978508
-0.00542618939653039
0.0734976977109909
0.01777360588312149
0.021011045202612877
-0.017532551661133766
0.0017229918157681823
-0.02939440682530403
-0.04190331697463989
-0.001232640235684812
-0.04658331722021103
-0.0065563456155359745
0.04275849834084511
-0.028634611517190933
0.015711158514022827
0.004287743475288153
0.002800585934892297
-0.005137560423463583
-0.006485313177108765
-0.021197516471147537
-0.0057582855224609375
-0.012730740010738373
0.008478079922497272
0.004060750361531973
0.0079703563824296
0.001188379363156855
-0.0008708367240615189
0.03987593576312065
0.023243576288223267
0.042030416429042816
0.07951880991458893
-0.0005238793673925102
0.03576646372675896
-0.01970823109149933
-0.01690443605184555
0.0493352897465229
0.000715163885615766
-0.02689582295715809
-0.02453838847577572
-0.05963483825325966
0.02177847921848297
-0.051934272050857544
0.02694040909409523
0.02172456681728363
0.0009813301730901003
0.0024790498428046703
-0.01800556294620037
0.007030683569610119
-0.023569755256175995
-0.03194962069392204
-0.0195094496011734
-0.006467873230576515
-0.010245977900922298
-0.0020420271903276443
-0.011268813163042068
-0.011741351336240768
-0.043131764978170395
0.010859807021915913
-0.0162876695394516
-0.01400159951299429
-0.022294100373983383
-0.03861762210726738
0.010203530080616474
0.048666585236787796
-0.03570833429694176
-0.03125982731580734
-0.0067545645870268345
-0.04116974398493767
-0.03244749829173088
-0.006934391334652901
-0.02775612287223339
0.006395560689270496
-0.002201577415689826
-0.04349777102470398
-0.05137668177485466
0.0025130021385848522
-0.05488347262144089
0.06988417357206345
-0.031491126865148544
-0.01962808333337307
0.038871679455041885
-0.012506353668868542
-0.019235974177718163
-0.047010019421577454
0.0012937114806845784
-0.02302096225321293
0.0382123626768589
0.0688399001955986
-0.004313434474170208
-0.006792616099119186
0.026074012741446495
-0.041413795202970505
-0.054059118032455444
0.023547254502773285
-0.024759817868471146
-0.025146767497062683
0.017501909285783768
-0.00098182144574821
0.0020256710704416037
0.034458186477422714
-0.0027622771449387074
-0.07958639413118362
-0.019623592495918274
-0.00017108258907683194
-0.009755072183907032
-0.08058588206768036
0.014769467525184155
-0.01570526696741581
-0.02110440842807293
0.0026555340737104416
-0.06264390796422958
0.00784619152545929
1.1478166925371625e-05
0.04259394109249115
-0.06507306545972824
0.012918464839458466
-0.11502639204263687
0.0075904750265181065
0.05230257287621498
0.011689652688801289
-0.06257285177707672
-0.02876809425652027
-0.016007471829652786
0.051822956651449203
-0.014948606491088867
-0.019804034382104874
-0.04070855304598808
-0.004161029122769833
-0.06303806602954865
-0.06270342320203781
0.15713459253311157
0.005515249911695719
0.020722605288028717
-0.04665418714284897
0.013679535128176212
0.015387652441859245
0.10006892681121826
0.023015540093183517
0.03516996651887894
0.03762402385473251
0.014403077773749828
0.012346720322966576
-0.024065125733613968
-0.033199600875377655
-0.05088294297456741
0.004512499086558819
-0.027603691443800926
0.022583842277526855
0.016356414183974266
-0.03738763555884361
-0.011175253428518772
-0.06952043622732162
0.0203599464148283
0.013973023742437363
-0.008213884197175503
-0.08044406771659851
0.010038172826170921
0.0115019790828228
-0.052626244723796844
0.08203644305467606
0.03567164018750191
-0.035164788365364075
0.0787939578294754
0.029954975470900536
-0.02930275723338127
0.050446320325136185
-0.03813498094677925
-0.06924627721309662
0.03102758899331093
0.06656724214553833
0.017684707418084145
-0.040765728801488876
0.003670033300295472
-0.04619516432285309
0.01627449132502079
-0.09873826056718826
-0.03502470627427101
-0.031725525856018066
-0.04846751317381859
-0.040064696222543716
0.017738044261932373
-0.025711949914693832
-0.03868366405367851
-0.013678748160600662
0.025606954470276833
-0.013779827393591404
-0.016433153301477432
0.004207208286970854
-0.020841587334871292
0.027673538774251938
-0.011080430820584297
-0.00033534577232785523
-0.0030195743311196566
-0.0553412102162838
-0.10471086204051971
-0.016670187935233116
-0.05945023521780968
-0.009747284464538097
0.10423491150140762
-0.08298417925834656
0.014259844087064266
-0.019502289593219757
-0.04783592373132706
0.002651640446856618
-0.017943596467375755
-0.0015971338143572211
-0.021274691447615623
0.019826624542474747
-0.023252420127391815
0.037981752306222916
0.019612446427345276
0.05051356926560402
-0.025674233213067055
-0.009302596561610699
-0.023866809904575348
-0.04833519086241722
0.011985953897237778
0.05280827358365059
0.039809372276067734
0.014702524058520794
0.013790717348456383
-0.03350447490811348
-0.011266942135989666
0.010935629718005657
0.019221384078264236
-0.00358814699575305
0.021845471113920212
0.0022958992049098015
-0.039384160190820694
-0.02925572730600834
-0.05637837573885918
-0.0066350712440907955
0.0008711330592632294
0.05043330043554306
0.030229691416025162
-0.014172687195241451
-0.023024413734674454
-0.005163578782230616
0.020579669624567032
0.0032198047265410423
-0.007447004318237305
-0.007565970532596111
-0.031019238755106926
-0.024353381246328354
-0.05303147807717323
-0.02765006013214588
0.07470931112766266
0.050551220774650574
-0.0999559760093689
-0.005031687673181295
-0.009526878595352173
0.025079404935240746
0.012954623438417912
-0.018528450280427933
-0.039906784892082214
0.01397473644465208
-0.008527605794370174
0.033014968037605286
0.013540281914174557
-0.006296793930232525
0.03349538519978523
-0.007133801933377981
-0.025277771055698395
-0.01887061446905136
-0.003059850074350834
0.0020887504797428846
-0.0029796084854751825
-0.018744342029094696
0.013209594413638115
-0.006362232379615307
0.020885981619358063
-0.05899409204721451
-0.08005546778440475
0.010394898243248463
-0.014176764525473118
-0.0034308882895857096
0.011077490635216236
0.021191515028476715
-0.011805319227278233
-0.0008338891202583909
0.02236037328839302
-0.021282771602272987
0.025755446404218674
-0.03349168226122856
-0.02819124609231949
-0.04246963560581207
0.058876000344753265
-0.029116516932845116
0.011240009218454361
0.0076669733971357346
-0.023585688322782516
0.0029974698554724455
0.024605905637145042
0.03158561885356903
0.044674575328826904
-0.01592596061527729
-0.002280249260365963
0.01093427836894989
-0.03908446058630943
0.004891561344265938
-0.014373012818396091
0.025620637461543083
0.006581289693713188
0.0041427467949688435
0.061829522252082825
0.015099350363016129
-0.018007885664701462
0.0211490411311388
-0.002277438761666417
0.017789525911211967
-0.05973334237933159
-0.012535208836197853
-0.017311928793787956
-0.015813512727618217
-0.02200162224471569
-0.023333733901381493
-0.019750313833355904
-0.0009119246387854218
-0.007359265349805355
0.026154913008213043
0.025793099775910378
0.001324797747656703
0.016726884990930557
0.026472782716155052
0.03550352901220322
-0.018248992040753365
0.03410390019416809
-0.08019590377807617
0.01275560725480318
-0.11284337192773819
0.04016834497451782
-0.010320499539375305
0.017115149646997452
-0.022120293229818344
-0.021015608683228493
0.013890775851905346
-0.01806880161166191
0.014626814983785152
0.015897443518042564
0.037151649594306946
0.011211697943508625
-0.08263816684484482
0.032752618193626404
-0.06523799151182175
-0.016410745680332184
0.029707934707403183
-0.032822392880916595
-0.004956456366926432
-0.0014948833268135786
0.016790378838777542
-0.02244914136826992
-0.05266536399722099
0.005283585283905268
0.0025461544282734394
-0.0004099581274203956
-0.0317632295191288
-0.04132096469402313
0.0030175261199474335
-0.02590840309858322
0.0014015322085469961
0.020785879343748093
-0.03785702958703041
0.05533550679683685
0.0014714235439896584
-0.02481871284544468
-0.005633513443171978
-0.015354610979557037
-0.029166284948587418
0.0026998999528586864
0.04213593155145645
-0.027939962223172188
0.035611703991889954
0.01695067249238491
0.029024692252278328
0.022982528433203697
-0.012837466783821583
0.013814128004014492
-0.014008980244398117
-0.009145097807049751
-0.02904435060918331
-0.0069763013161718845
-0.0038402073550969362
0.013905912637710571
0.019190983846783638
-0.13689729571342468
-0.011604251340031624
0.08045459538698196
-0.00422552740201354
-0.01842258870601654
0.0035642548464238644
-0.0013654588256031275
-0.0038360937032848597
0.0014193342067301273
0.01524270698428154
-0.014845112338662148
0.032455261796712875
-0.026169538497924805
-0.004521362017840147
-0.0017872077878564596
-0.05313510820269585
0.004659965168684721
0.008962324820458889
0.014541239477694035
0.0454452782869339
0.012271064333617687
-0.0034128667321056128
-0.005922994110733271
0.010534142144024372
-0.02596072293817997
0.022473953664302826
0.016828058287501335
0.00836862064898014
-0.019764941185712814
-0.0362151600420475
-0.045177873224020004
0.01710248924791813
-2.987709376611747e-05
-0.027805155143141747
-0.0754699781537056
0.024527985602617264
0.020384781062602997
-0.035144273191690445
-0.02613031305372715
-0.086464062333107
0.0499357245862484
-0.014366461895406246
0.10332048684358597
0.027715617790818214
0.007874010130763054
-0.004321926739066839
0.03386721387505531
0.014007951132953167
0.016509171575307846
-0.007217378355562687
-0.033155061304569244
-0.03473528474569321
0.03606009483337402
0.011034567840397358
0.03788546472787857
-0.003956227097660303
0.04164733365178108
-0.00612583989277482
-0.02826068177819252
-0.000873960496392101
0.028181063011288643
-0.020830271765589714
0.010609598830342293
0.040539152920246124
0.04603779688477516
0.0002959531848318875
-0.05152451619505882
0.004037642385810614
-0.009784157387912273
0.011336208321154118
-0.0017241373425349593
0.0026916416827589273
0.02830151654779911
0.0056555927731096745
-0.03751758486032486
0.010511531494557858
-0.008823412470519543
0.023829234763979912
-0.003697176231071353
0.03628373146057129
-0.05752601474523544
-0.05004611611366272
0.07276089489459991
-0.028552433475852013
-0.03602256625890732
-0.006675782613456249
-0.028691278770565987
0.001397615997120738
0.020931320264935493
0.02796018496155739
0.019998356699943542
-0.058584947139024734
0.029780235141515732
-0.013453113846480846
0.009362633340060711
0.018486401066184044
0.053223852068185806
-0.004565776791423559
0.009310041554272175
0.06551890820264816
-0.018418090417981148
-0.023588750511407852
-0.007110239937901497
-0.033776137977838516
-0.003163171699270606
-0.004112317226827145
0.06231911852955818
0.034394968301057816
-0.022619860246777534
-0.05270172283053398
-0.04254207760095596
0.02731485851109028
0.025790894404053688
-0.07383275032043457
-0.05879141762852669
0.016255615279078484
0.026385895907878876
0.042982518672943115
-0.05813596025109291
-0.030980106443166733
0.03325968235731125
-0.037800002843141556
-0.00513484189286828
-0.0027784460689872503
-0.028517140075564384
-0.014681538566946983
0.0010524519020691514
-0.029499564319849014
0.024219434708356857
-0.01868462935090065
-0.017004260793328285
0.057896047830581665
0.048771750181913376
-0.10153090953826904
0.004087180830538273
-0.06993503868579865
0.05274760350584984
0.02997981570661068
0.040553584694862366
0.01704908348619938
-0.025211850181221962
0.0001690109056653455
0.011715177446603775
0.0007329601212404668
-1.3696685527975205e-05
0.025045940652489662
-0.05678711459040642
-0.015530098229646683
-0.018500003963708878
-0.03385677561163902
0.025449631735682487
-0.01379587221890688
0.0060416217893362045
-0.034849200397729874
0.030654041096568108
0.04332699999213219
0.022589823231101036
-0.0003061714814975858
-0.03714621439576149
0.010309784673154354
0.057964738458395004
0.013990598730742931
-0.050662748515605927
0.03222135454416275
-0.06606808304786682
-0.06621103733778
0.028275970369577408
0.014676961116492748
-0.018543753772974014
-0.02602635882794857
-0.01583268865942955
-0.005876237526535988
0.06367597728967667
-0.024608934298157692
-0.0661199763417244
-0.019346214830875397
-0.012778754346072674
0.01662593148648739
-0.06667537987232208
0.021303918212652206
-0.00788232870399952
0.02792046219110489
-0.06864747405052185
0.002372946823015809
-0.04024088382720947
0.047188613563776016
0.026754820719361305
-0.026795953512191772
0.016530873253941536
0.059302881360054016
0.006088800262659788
0.008335325866937637
0.0075031667947769165
-0.0682283565402031
0.041337043046951294
-0.0291365385055542
-0.005853415001183748
0.0717194527387619
0.012339870445430279
0.003334594191983342
0.021619530394673347
-0.0009670574800111353
-0.014487125910818577
-0.045192644000053406
-0.037031739950180054
-0.021788503974676132
-0.03824136406183243
0.023712139576673508
0.04208766669034958
0.04749484732747078
-0.0999673381447792
-0.029104862362146378
-0.05175083503127098
0.022308561950922012
0.0009524445049464703
0.0037371236830949783
-0.009490798227488995
0.015497476793825626
-0.022863423451781273
-0.05350833013653755
-0.006312682293355465
-0.007349790073931217
0.0011187581112608314
0.03206926956772804
-0.02658655308187008
0.05267443135380745
-0.025066670030355453
-0.051060933619737625
-0.062087319791316986
-0.0014197479467839003
0.030255084857344627
-0.014243992045521736
-0.05073050409555435
-0.009944084100425243
-0.04707355424761772
0.02219381555914879
-0.05194826051592827
-0.005563072860240936
-0.006054851226508617
-0.005125279538333416
-0.020748864859342575
-0.01636812463402748
0.054959576576948166
0.009848509915173054
-0.035397596657276154
0.007834106683731079
-0.017535431310534477
0.019958753138780594
-0.0037897655274719
-0.00103862548712641
0.009765968658030033
-0.015197253786027431
-0.0030459542758762836
-0.01956174150109291
-0.02427770383656025
-0.01716536283493042
0.005427814554423094
0.023530177772045135
-0.014384190551936626
-0.07423219084739685
-0.005072080995887518
0.009706594049930573
0.008443753235042095
0.01989620178937912
0.059450700879096985
0.028190212324261665
0.009701743721961975
-0.06787732988595963
-0.012732226401567459
0.045028336346149445
-0.016202183440327644
0.01611349545419216
0.012562086805701256
-0.060495927929878235
0.008204405196011066
-0.028117001056671143
-0.022155869752168655
-0.04924626648426056
0.06774039566516876
-0.0008375200559385121
-0.054069310426712036
0.03367496654391289
0.017155736684799194
-0.06279630213975906
0.024945970624685287
0.010994216427206993
-0.0407758504152298
0.005829804576933384
-0.058113645762205124
-0.013774923980236053
0.06982596218585968
-0.04499124735593796
-0.025420648977160454
0.05994216352701187
0.02927662432193756
0.016618618741631508
-0.02894570678472519
0.030042000114917755
0.004144849721342325
0.04698728024959564
0.0053535690531134605
-0.008178685791790485
-0.003504686988890171
-0.03407327085733414
-0.03605315089225769
-0.01510727871209383
-0.02698560245335102
-0.04993437975645065
-0.01817089319229126
-0.039909426122903824
-0.0575251430273056
-0.01387492474168539
-0.017427880316972733
-0.011102072894573212
-0.019426142796874046
-0.014589504338800907
-0.01960732601583004
-0.0610138475894928
0.03511720523238182
0.0027575695421546698
0.01241061557084322
0.041725996881723404
-0.06314704567193985
0.039847955107688904
0.04158327355980873
-0.05951029807329178
-0.022653479129076004
-0.06724998354911804
-0.02613157220184803
-0.04663300886750221
-0.04886795952916145
-0.003339056856930256
-0.04523894935846329
0.031230786815285683
0.010965051129460335
-0.025751128792762756
0.003120006062090397
0.026490073651075363
-0.04164323955774307
0.01881415769457817
-0.019712356850504875
-0.02254861406981945
0.005836354568600655
-0.00565990898758173
0.010767918080091476
0.01684124954044819
0.011770067736506462
-0.029036004096269608
-0.03586919605731964
0.04278593137860298
0.027098972350358963
0.009299719706177711
0.02409561164677143
0.018232805654406548
-0.006154105998575687
-0.03818269073963165
-0.030863961204886436
-0.041648879647254944
-0.01490715891122818
-0.015049336478114128
-0.006304733920842409
0.03490262106060982
0.00016431066615041345
-0.06202564388513565
-0.02497677505016327
0.007031605578958988
-0.013296595774590969
0.01078818365931511
0.019256792962551117
-0.025086671113967896
-0.006633920595049858
-0.015907978639006615
-0.02214779704809189
-0.011457662098109722
-0.005969346035271883
0.023873746395111084
0.013504629023373127
0.01105508953332901
-0.012712315656244755
-0.006834374275058508
0.0292256660759449
0.009987426921725273
-0.005358163733035326
0.014561147429049015
-0.02459901198744774
-0.0052996110171079636
-0.03630945086479187
-0.019826970994472504
-0.014672338962554932
0.006121338345110416
0.00022939090558793396
0.038934145122766495
-0.011362501420080662
-0.003061682917177677
-0.0022132645826786757
-0.014532742090523243
0.037379056215286255
0.01760990358889103
0.020643966272473335
-0.027337148785591125
-0.019960353150963783
0.018389210104942322
0.006800335831940174
-0.045226361602544785
0.0048492769710719585
0.018879484385252
0.0250116977840662
-0.016591785475611687
0.005394664127379656
0.00245573534630239
0.003257318399846554
-0.005383091047406197
0.029137369245290756
0.0049313027411699295
0.003217289922758937
-0.03461761027574539
-0.03545752912759781
0.0022814131807535887
-0.013059296645224094
-0.005863370839506388
-0.01633727364242077
0.046109639108181
0.03619782254099846
-0.014077865518629551
-0.0008632145472802222
0.01548681315034628
-0.009952760301530361
-0.030812399461865425
-0.016917996108531952
0.01423606462776661
0.016147371381521225
-0.009468450210988522
-0.00609563710168004
-0.03224360942840576
0.04490410536527634
0.008325250819325447
-0.002217396628111601
-0.009887723252177238
0.022762129083275795
-0.008467216975986958
0.014661499299108982
0.0053277271799743176
0.02445974014699459
-0.021764839068055153
0.0036216285079717636
-0.04468219354748726
0.0032857086043804884
-0.0032319994643330574
0.04098627716302872
-0.007872452959418297
0.016646696254611015
-0.019648822024464607
0.008965293876826763
-0.03174411505460739
0.004713843110948801
0.021972689777612686
-0.0021254916209727526
0.00856767687946558
0.04564385488629341
-0.01114087738096714
0.026975279673933983
0.011379401199519634
0.0408896803855896
0.039992038160562515
-0.032128334045410156
0.03551250323653221
0.029945585876703262
-0.016249332576990128
-0.015505454502999783
-0.02953842468559742
0.005658774636685848
-0.028839772567152977
-0.017837204039096832
-0.015622093342244625
0.004836271516978741
0.005362627562135458
0.025918375700712204
-0.0007482864893972874
0.02990155667066574
0.0020383261144161224
0.007730584591627121
-0.05606560409069061
-0.017981329932808876
-0.023860450834035873
0.024902304634451866
-0.01727798581123352
-0.01654794253408909
-0.04268227517604828
-0.03142573684453964
0.01467493548989296
-0.013461162336170673
-0.06125672161579132
-0.015237418003380299
-0.003713635727763176
-0.004993544891476631
-0.00974862277507782
0.03345729038119316
0.028678109869360924
-0.015718037262558937
-0.020553525537252426
0.005561111494898796
-0.02014266699552536
0.019614942371845245
0.0030115225818008184
-0.018139084801077843
0.020496604964137077
-0.050325922667980194
0.0052818614058196545
0.031124236062169075
-0.014580092392861843
0.0012436670949682593
0.06268147379159927
-0.016466520726680756
0.017084717750549316
-0.006690605543553829
-0.009733748622238636
0.05235559493303299
0.026948275044560432
-0.020412618294358253
-0.024780234321951866
-0.022070305421948433
-0.029289137572050095
-0.02941099740564823
0.0035942767281085253
0.0012142002815380692
-0.04089678078889847
0.05414457619190216
0.009903992526233196
0.01788463443517685
0.0014070692704990506
0.00869991909712553
-0.015717023983597755
-0.0073282415978610516
0.00035071754246018827
0.014598042704164982
-0.007452709134668112
0.022208163514733315
0.017819494009017944
0.009248803369700909
-0.01560366153717041
-0.015736036002635956
0.014315946027636528
0.011372103355824947
0.019245274364948273
-0.02486291155219078
-0.019270503893494606
-0.0066071744076907635
-0.013987919315695763
-0.010040472261607647
0.015768464654684067
0.0067147184163331985
-0.010157808661460876
0.0054614609107375145
0.003788665635511279
0.020264603197574615
0.04542633518576622
0.031152227893471718
-0.007620978634804487
0.022016197443008423
-0.0009703311952762306
0.00791962817311287
0.0477769672870636
0.04021986573934555
0.0069704544730484486
-0.0035676464904099703
-0.07110048085451126
-0.05574486404657364
0.008428639732301235
-0.014695693738758564
0.08399368077516556
0.011652598157525063
0.0019099594792351127
0.003943373914808035
-0.05799806863069534
0.007322059944272041
0.014743327163159847
0.018497265875339508
-0.06371000409126282
0.003193267621099949
-0.0025794152170419693
0.005237611476331949
-0.01758984662592411
0.029712876304984093
0.045676399022340775
-0.02870841510593891
0.02075326070189476
-0.03582007810473442
-0.012079662643373013
0.02901211567223072
-0.03355539217591286
0.002317223697900772
-0.02823682874441147
-0.0014440793311223388
-0.017108891159296036
0.043512847274541855
-0.12608759105205536
-0.01848842389881611
0.019041629508137703
-0.014531726948916912
-0.026549432426691055
-0.012581772170960903
0.03848837688565254
-0.01969480887055397
-0.005316881462931633
-0.011280041188001633
0.07409637421369553
0.011741810478270054
-0.026171915233135223
0.02126030996441841
-0.0044425795786082745
0.007978457026183605
0.024982020258903503
0.007478324696421623
0.045590903609991074
0.004635528661310673
0.02542729675769806
0.007195557467639446
-0.027844591066241264
-0.023198578506708145
-0.015070488676428795
0.03885155916213989
0.02127600833773613
0.032286979258060455
-0.05585172772407532
0.006887493655085564
-0.0008374578901566565
0.004891303833574057
0.03464893251657486
-0.010133589617908001
-0.01347972173243761
-0.019713351503014565
0.02144564501941204
0.012489576824009418
0.020519282668828964
-0.0005694922874681652
0.06953064352273941
0.006226486526429653
-0.011355886235833168
-0.01282734889537096
0.0028778871055692434
0.060489196330308914
0.016537310555577278
-0.018152935430407524
-0.006206019315868616
-0.013532508164644241
-0.005023564677685499
-0.012428195215761662
0.02896028757095337
-0.008877965621650219
-0.027302414178848267
0.014868531376123428
0.018335159868001938
0.01635230891406536
-0.04525308683514595
0.005973680876195431
0.029620015993714333
-0.021681897342205048
0.00890185497701168
0.0031138858757913113
0.013578508049249649
-0.017512230202555656
-0.01835406757891178
0.001025632955133915
0.05466868728399277
0.003782870713621378
0.010046573355793953
-0.00465218024328351
-0.0057852501049637794
-0.001491343486122787
-0.024222111329436302
-0.11347726732492447
0.043995797634124756
-0.0070058065466582775
0.031096700578927994
0.09213027358055115
-0.016784995794296265
0.01937694475054741
0.002849333453923464
-0.013049417175352573
-0.0063726711086928844
-0.012639754451811314
-0.025880787521600723
0.010166967287659645
0.013408415950834751
0.0063919732347130775
-0.00579376146197319
0.02903665229678154
-0.0195933748036623
-0.027968239039182663
-0.04202301427721977
0.02644965797662735
-0.008872980251908302
0.04028491675853729
0.0002888908493332565
-0.030567970126867294
0.007187470328062773
-0.01565122790634632
-0.006440818775445223
0.007915542460978031
-0.010749712586402893
0.01272206287831068
-0.011430026032030582
-0.02790362946689129
0.02116568386554718
0.024170104414224625
-0.008549260906875134
-0.04563668742775917
0.01683695986866951
-0.10511939227581024
-0.0020587535109370947
-0.024652555584907532
0.040968332439661026
0.003766729962080717
0.0069503095000982285
0.03300942853093147
0.040936101227998734
0.020290210843086243
0.03832462802529335
-0.02595788985490799
0.030262786895036697
0.0010063599329441786
-0.015260960906744003
-0.0035865590907633305
0.03669307380914688
0.020329885184764862
0.002954504219815135
0.01660728268325329
-0.06462036073207855
-0.0001582527911523357
0.017077552154660225
0.005672521889209747
0.002632009331136942
0.0750981867313385
-0.015621519647538662
-0.008197481743991375
0.051212139427661896
0.022373398765921593
0.015573376789689064
0.01581089198589325
0.05327152833342552
0.01784469746053219
0.040010981261730194
-0.043645959347486496
0.010566889308393002
0.034452203661203384
0.05298861116170883
0.00973513349890709
-0.007093391381204128
0.020118530839681625
0.03136304020881653
0.01338208094239235
-0.0005291268462315202
0.006235840264707804
0.004377089906483889
-0.04289526119828224
-0.01616205833852291
0.07041788846254349
0.02607196383178234
0.01778164505958557
0.035149119794368744
0.008864626288414001
0.03996286913752556
0.038557861000299454
-0.0215105339884758
0.046636912971735
-0.016699809581041336
-0.008282565511763096
-0.01655116304755211
0.008420582860708237
0.06027432903647423
-0.04283279925584793
-0.025960076600313187
-0.01169170718640089
-0.020170291885733604
-0.019737856462597847
-0.005609908141195774
-0.04146115854382515
-0.0008206875645555556
-0.00863224733620882
-0.008139021694660187
-0.0065473937429487705
-0.0077311149798333645
-0.007398031186312437
0.014854603447020054
0.006750014610588551
-0.02039429172873497
-0.0016400726744905114
-0.05172719433903694
-0.0105027100071311
-0.013612252660095692
-0.037604182958602905
0.03715125471353531
0.010553107596933842
-0.0013206960866227746
0.01578853651881218
-0.02925676666200161
-0.01620185747742653
-0.09528227150440216
0.03391313925385475
-0.030848223716020584
0.010929177515208721
0.018604936078190804
-0.01964670605957508
-0.05659463256597519
0.07530155032873154
-0.058556169271469116
-0.005051001440733671
0.0315617099404335
0.023281443864107132
-0.007818869315087795
0.05803840234875679
-0.019473372027277946
-0.03812403231859207
0.028085019439458847
-0.0011856966884806752
-0.07254951447248459
0.020632879808545113
0.012037918902933598
-0.05101201683282852
0.05583089217543602
-0.10488632321357727
0.02180834673345089
-0.008455636911094189
-0.06510279327630997
-0.053987786173820496
0.016271833330392838
0.0034003176260739565
0.027432046830654144
0.026262611150741577
0.004653445910662413
-0.008188195526599884
0.03387206420302391
0.01327503751963377
-0.0003327166778035462
0.13142676651477814
-0.04031708091497421
-0.029995501041412354
-0.030599623918533325
-0.018774213269352913
0.05505453795194626
0.017447233200073242
-0.004806967452168465
-0.02431371435523033
0.00033028842881321907
0.0044137039221823215
-0.01276450976729393
-0.028208615258336067
-0.006003533955663443
-0.008853149600327015
-0.015929274260997772
-0.01978195086121559
0.0014196101110428572
0.020093418657779694
0.019715234637260437
-0.0047548809088766575
-0.0070633720606565475
-0.016892924904823303
-0.005495632067322731
-0.0228617861866951
-0.023557864129543304
0.0019410013919696212
0.0006457209237851202
-0.06048710644245148
0.0069090998731553555
-0.025917908176779747
-0.023969972506165504
-0.016332153230905533
-0.016772057861089706
-0.011675896123051643
0.018255099654197693
-0.006227799691259861
-0.0006335038342513144
-0.00021857877436559647
-0.013843126595020294
-0.004140403121709824
-0.013546548783779144
-0.007858384400606155
0.0585855096578598
0.028725240379571915
0.010027194395661354
0.11203770339488983
0.0050619132816791534
0.002801762893795967
-0.024220149964094162
-0.009878970682621002
-0.0011644309852272272
-0.008547427132725716
-0.023821543902158737
0.02228008210659027
-0.02719760127365589
0.02192826010286808
-0.01334987860172987
-0.012105146422982216
-0.00793443899601698
-0.015288690105080605
-0.01978132128715515
0.00996124092489481
0.0037969385739415884
-0.01700916513800621
0.020844759419560432
-0.02485731802880764
0.03993918374180794
-0.0028115094173699617
-0.011117491871118546
0.0040129912085831165
-0.04566077142953873
0.004620947875082493
-0.06310401856899261
-0.003309648483991623
-0.00033328909194096923
-0.0038463855162262917
0.03961724042892456
-0.01223024632781744
-0.016216866672039032
0.007885253056883812
0.01643785461783409
0.04558193311095238
0.032009877264499664
-0.012529098428785801
-0.0044912174344062805
0.03248811513185501
-0.0038413621950894594
0.07870093733072281
0.003959446679800749
-0.011855361051857471
0.030121464282274246
-0.03125645965337753
-0.040257349610328674
-0.0244952030479908
-0.0031791587825864553
-0.0003605814999900758
0.030918855220079422
0.003202273743227124
-0.0176478773355484
0.0008041146211326122
0.019655168056488037
-0.0850263312458992
0.026036499068140984
-0.00569726200774312
0.0020511953625828028
-0.0003026931080967188
-0.021978922188282013
0.045015398412942886
-0.007637495640665293
-0.005609499756246805
-0.020160570740699768
-0.00048656167928129435
-0.03138184919953346
-0.04327842593193054
-0.01771274209022522
-0.012921902351081371
-0.02150443010032177
0.01956341415643692
-0.08930326998233795
0.048490848392248154
-0.04261043667793274
0.020757609978318214
0.009778806008398533
0.03519599139690399
0.009021640755236149
-0.001699579763226211
-0.010377898812294006
-0.04152967780828476
0.005772771779447794
0.006475264672189951
0.013969707302749157
0.014593212865293026
-0.027002714574337006
-0.016283761709928513
0.02990414761006832
0.028999386355280876
-0.008574368432164192
-0.017438765615224838
-0.02793709933757782
0.03747384995222092
0.025295859202742577
-0.032182447612285614
0.00928646232932806
0.021265842020511627
0.022145142778754234
0.014861168339848518
-0.013365725055336952
-0.005648299586027861
0.008980107493698597
-0.038730595260858536
0.027616675943136215
0.04200591892004013
0.008951014839112759
-0.013396559283137321
0.0013285093009471893
-0.0012387919705361128
0.010853967629373074
0.007779805921018124
-0.015901606529951096
-0.024561947211623192
0.013334249146282673
0.01045315247029066
0.004892501514405012
0.017973268404603004
-0.09975508600473404
0.020626509562134743
-0.008264872245490551
0.016636624932289124
0.004617180675268173
0.030724769458174706
0.032491330057382584
-0.03263043612241745
0.032908111810684204
-0.2517465651035309
-0.05497145280241966
-0.009663417935371399
-0.007225845009088516
-0.0063233464024960995
0.003449719399213791
0.017392221838235855
-0.004718619864434004
0.010693210177123547
0.1192658394575119
-0.00018233558512292802
0.02395002916455269
-0.015524864196777344
0.014520167373120785
0.016548603773117065
-0.014072365127503872
0.0020422660745680332
0.024099642410874367
-0.008003056980669498
-0.031943436712026596
-0.08024122565984726
0.01962176524102688
0.0011893551563844085
0.023682713508605957
-0.0027438646648079157
-0.1322232037782669
-0.03286466747522354
0.0764862447977066
0.029981061816215515
0.020290594547986984
-0.023102033883333206
-0.009073290042579174
-0.0074746315367519855
-0.07475138455629349
0.0017039874801412225
-0.011791382916271687
0.036474667489528656
0.04088879004120827
-0.019948123022913933
0.012723775580525398
-0.08260753750801086
-0.006753587629646063
-0.14188292622566223
-0.004945520311594009
0.0036778361536562443
0.0018427977338433266
0.03315670043230057
-0.019420413300395012
0.010822569951415062
0.010116586461663246
0.021457912400364876
0.02283845655620098
0.03391282260417938
0.018569959327578545
0.044637348502874374
0.019708886742591858
0.11230291426181793
0.0036646761000156403
0.009447695687413216
0.007473725359886885
-0.0231734998524189
-0.0030175005085766315
-0.0037367339245975018
0.00949053093791008
-0.011010615155100822
-0.00489764055237174
-0.013028791174292564
-0.006474927067756653
-0.011401532217860222
-0.03102206625044346
0.022311048582196236
0.017315655946731567
-0.01612503081560135
0.11822422593832016
0.06022518128156662
0.00731527479365468
0.013544098474085331
0.024043722078204155
-0.009344417601823807
-0.02695641480386257
0.003070645034313202
0.003521007252857089
-0.02509189024567604
0.02930353581905365
5.716483428841457e-05
0.010053524747490883
0.01974589377641678
-0.0030497873667627573
-0.02120586484670639
-0.002759475726634264
0.021971823647618294
-0.015217733569443226
-0.012107444927096367
0.006105253007262945
0.006218548398464918
0.005822234787046909
-0.0012338698143139482
-0.02995799481868744
-0.01734006218612194
-0.0015866176690906286
-0.0015013815136626363
-0.023709062486886978
0.014919767156243324
0.017544161528348923
0.036124423146247864
0.0296802818775177
0.052327703684568405
0.014850991778075695
0.03187652304768562
0.001842124038375914
-0.013987616635859013
0.013618096709251404
0.03478093817830086
-0.004518389701843262
-0.05931663140654564
0.002907810965552926
0.02849755808711052
0.004453721456229687
-0.015532147139310837
-0.0096878781914711
0.02340264990925789
0.020723041146993637
-0.0145530691370368
0.020348425954580307
-0.01872992143034935
-0.0482364222407341
0.008073835633695126
-0.013776586391031742
-0.02795182168483734
0.006093889009207487
-0.04922514036297798
0.022344911471009254
0.02311667613685131
0.015978604555130005
0.04355000704526901
0.024778835475444794
-0.006367083173245192
-0.05876351520419121
-0.01465299166738987
0.01840604655444622
-0.030205564573407173
0.0063058240339159966
0.03472493588924408
0.0641273483633995
0.031882692128419876
0.015006650239229202
0.0011331391287967563
-0.009139669127762318
0.04122794792056084
0.03735097497701645
0.002330104587599635
-0.001499735633842647
-0.01931716501712799
0.016755132004618645
0.04099644348025322
-0.050951700657606125
-0.04471032693982124
-0.00022044773504603654
0.007743841968476772
-0.004886986222118139
-0.014760798774659634
0.05386887118220329
-0.03737020865082741
0.025109009817242622
-0.028820540755987167
0.004556287545710802
0.1047198697924614
-0.0005870220484212041
-0.008299420587718487
0.004983216989785433
0.06776079535484314
0.013947723433375359
0.034910187125205994
-0.011784257367253304
-0.00572224473580718
-0.016616767272353172
-0.04406677186489105
0.011156310327351093
-0.025524195283651352
0.031443845480680466
0.018688887357711792
-0.019807148724794388
-0.024803128093481064
-0.012588053941726685
0.06963936239480972
0.04031970724463463
0.02850746177136898
-0.07114255428314209
-0.05540342256426811
-0.030235910788178444
-0.015235540457069874
0.010355149395763874
-0.052180998027324677
0.034266144037246704
0.0007252164068631828
0.03131632134318352
0.05813099443912506
0.04483507573604584
0.05241105705499649
-0.014421867206692696
-0.01595519855618477
0.002597017679363489
-0.038751646876335144
0.008057249709963799
-0.0030040410347282887
-0.10377420485019684
0.025302916765213013
-0.0020414625760167837
-0.000210593017982319
-0.0848679393529892
-0.013561018742620945
-0.03495846316218376
-0.0024808282032608986
0.014111190102994442
0.03246332332491875
-0.0027748066931962967
0.08055558055639267
-0.026746947318315506
0.006804848089814186
-0.003157740691676736
-0.004104641266167164
0.002576864091679454
0.03520369529724121
0.028646301478147507
0.0010590641759335995
-0.017468474805355072
-0.009021478705108166
0.005340785253793001
-0.012916957028210163
-0.013895630836486816
0.06130148470401764
0.031563274562358856
0.003221566090360284
-0.02753203548491001
0.018846901133656502
-0.006397992372512817
-0.0524037666618824
-0.01729634776711464
0.012801307253539562
-0.0233690794557333
0.0069653051905334
-0.023924894630908966
-0.008227866142988205
0.013041950762271881
-0.026724308729171753
0.008702026680111885
0.034879833459854126
-0.050310831516981125
0.005106332246214151
-0.007297905161976814
0.048344776034355164
-0.03060184419155121
0.018916962668299675
-0.05893782898783684
-0.027383901178836823
-0.008680346421897411
0.0007772841490805149
-0.05114610493183136
0.001338023692369461
0.012580039910972118
0.0015531274257227778
0.007498115301132202
0.023325322195887566
-0.00908089429140091
0.018623342737555504
-0.01426061149686575
0.03643263503909111
0.03233184665441513
-0.012964192777872086
-0.012819631956517696
0.014525767415761948
-0.049936480820178986
-0.00912568811327219
0.01715596579015255
-0.024975743144750595
-0.035212691873311996
0.0048651923425495625
0.03249583765864372
-0.04745236784219742
-0.001310232444666326
-0.03125835955142975
-0.01361408457159996
-0.010274597443640232
0.002582610584795475
0.03265072777867317
0.011892957612872124
0.0004902411601506174
0.021342625841498375
0.015051035210490227
-0.010665269568562508
0.010421127080917358
-0.004926506895571947
-0.023977551609277725
-0.0005825765547342598
-0.0070762475952506065
-0.0014257419388741255
0.006204125937074423
-0.0020852615125477314
0.013326475396752357
0.008157516829669476
0.028954528272151947
-0.020902834832668304
-0.020823795348405838
-0.026131385937333107
-0.007707997690886259
-0.017582213506102562
0.013863512314856052
-0.008881759829819202
-0.01581396348774433
0.0022053078282624483
-0.002923066494986415
-0.009158425964415073
0.01802057959139347
-0.03572201728820801
0.006132198963314295
0.02481038309633732
0.0993601381778717
-0.028920849785208702
-0.05794133245944977
-0.014708112925291061
0.0019119154894724488
-0.0131842577829957
0.02268691547214985
-0.06335078179836273
0.041895341128110886
-0.01661449857056141
0.014921614900231361
-0.0433916300535202
0.014195040799677372
-0.008617241866886616
-0.0031890706159174442
-0.002045952482149005
-0.00929848663508892
-0.05345965549349785
-0.021846840158104897
-0.0017803349765017629
-0.018868716433644295
0.011901254765689373
-0.03536593168973923
-0.0017860006773844361
0.025726966559886932
0.01675848849117756
0.0416283942759037
0.008351887576282024
-0.01572086475789547
0.015428955666720867
-0.030967792496085167
0.007462151814252138
-0.0005724239745177329
0.05054090544581413
-0.032959945499897
0.010457511991262436
-0.039319515228271484
-0.04371291771531105
-0.08057531714439392
-0.013636015355587006
0.021913086995482445
0.015306701883673668
-0.00034763908479362726
-0.07512779533863068
-0.02493610791862011
-0.028485441580414772
-0.0372590571641922
0.02479758858680725
-0.012082141824066639
-0.050274476408958435
0.05167616158723831
-0.054938144981861115
-0.014345387928187847
0.05304991826415062
0.019579928368330002
-0.002389869187027216
-0.022812774404883385
-0.009555324912071228
0.07941827178001404
-0.06312722712755203
-0.05121856927871704
0.0006100906757637858
-0.01998801901936531
-0.0010969382710754871
-0.015274780802428722
-0.023428503423929214
-0.0711880773305893
-0.007986611686646938
0.017720365896821022
0.014415131881833076
-0.15102998912334442
0.0055983602069318295
0.012078394182026386
-0.033938080072402954
-0.09912031888961792
0.001234735711477697
-0.027088334783911705
-0.026299363002181053
0.016222067177295685
-0.001116818399168551
-0.004122432321310043
0.04345703125
0.003923581913113594
-0.0679015964269638
-0.014482704922556877
0.016842981800436974
0.015159704722464085
-0.04469290375709534
0.02503862977027893
-0.006216826848685741
-0.01415499858558178
0.006107490975409746
0.01094609685242176
0.05959201604127884
-0.05925305560231209
0.07677939534187317
-0.016353679820895195
-0.048455871641635895
-0.05237749218940735
-0.009926208294928074
-0.03623229265213013
-0.035945191979408264
-0.026386724784970284
-0.02595004066824913
0.024340413510799408
-0.052942074835300446
0.02397078275680542
-0.004774985369294882
0.02363468147814274
0.05003447085618973
-0.027624595910310745
0.053392257541418076
-0.11152314394712448
-0.017533887177705765
0.012562258169054985
0.06317400932312012
-0.03585674986243248
-0.007390522863715887
0.014338561333715916
0.0012949936790391803
-0.03582921624183655
-0.06630723178386688
-0.009268999099731445
-0.016147630289196968
-0.012724144384264946
0.03212391957640648
-0.003170428331941366
-0.04008607193827629
0.05488775670528412
0.040270350873470306
0.0015547418734058738
0.02543620951473713
-0.006138812284916639
0.015290791168808937
0.03185596689581871
0.025569014251232147
-0.03903945907950401
-0.0547775961458683
-0.09449762105941772
-0.04404012858867645
-0.0038291101809591055
-0.014741197228431702
0.031195394694805145
0.01361751090735197
0.005347051192075014
0.00405127601698041
0.00871985498815775
-0.010106687434017658
-0.0016167281428351998
-0.046096738427877426
-0.0035923814866691828
-0.04537173733115196
-0.029251445084810257
0.06903720647096634
-0.0749904066324234
0.019190210849046707
-0.028124380856752396
-0.0414903499186039
0.022736893966794014
0.021168595179915428
3.593694054870866e-05
0.03244435042142868
-0.006719545461237431
0.01653001643717289
0.07027290016412735
0.007392548955976963
0.1039043441414833
-0.02581772394478321
-0.05047328770160675
0.0257223192602396
0.017725681886076927
-0.020900623872876167
-0.0035603002179414034
0.0563741996884346
-0.01334398053586483
0.029319701716303825
0.0033346412237733603
-0.02332775853574276
-0.003227954264730215
-0.03029801696538925
-0.005473244935274124
-0.06996986269950867
-0.024862393736839294
0.03992645815014839
-0.018013885244727135
-0.03676331788301468
-0.08071066439151764
0.022590521723031998
-0.02619561180472374
-0.01840393990278244
0.01315185148268938
0.0688592717051506
0.027519164606928825
0.008132205344736576
0.014640728943049908
-0.014969234354794025
-0.020571688190102577
-0.04836488887667656
-0.03735567629337311
0.0031019721645861864
-0.004915034398436546
-0.03608511760830879
-0.02319440431892872
0.004645074252039194
-0.00113248685374856
-0.00817690696567297
-0.015133819542825222
-0.01951974257826805
-0.0364815853536129
0.0101424315944314
0.014120440930128098
-0.11887070536613464
-0.04565625637769699
0.01145462691783905
0.07913803309202194
-0.04811754822731018
-0.010314040817320347
-0.03683580085635185
0.01109632384032011
-0.004087372217327356
0.03620456904172897
-0.0535983182489872
0.0047196289524436
-0.00793447531759739
0.018683254718780518
0.027253927662968636
0.021209193393588066
-0.0012248038547113538
-0.004213979467749596
0.043019820004701614
-0.03083714470267296
0.0004640565603040159
0.06875473260879517
-0.004552195314317942
-0.03661365434527397
-0.05447478964924812
0.006250632926821709
0.06868810206651688
-0.012654165737330914
0.03521019592881203
-0.044110387563705444
-0.05744241178035736
-0.012129763141274452
-0.007583093363791704
-0.0003594293084461242
0.06650588661432266
-0.03799877315759659
-0.003839591285213828
0.04730411618947983
0.07406236231327057
-0.020790452137589455
-0.07621411234140396
0.026086661964654922
-0.03940688073635101
0.0009056743001565337
0.041447948664426804
-0.08003029227256775
-0.021006040275096893
0.018277335911989212
-0.05057043582201004
-0.06564740091562271
-0.0519033782184124
-0.008373396471142769
-0.02510852739214897
0.011649302206933498
0.050167668610811234
-0.0012024249881505966
0.07822682708501816
-0.09961608797311783
-0.0019518161425366998
0.01621893048286438
-0.04953061789274216
-0.014954819343984127
-0.013604719191789627
0.019837167114019394
0.005367636680603027
-0.024362582713365555
-0.0002769474231172353
0.005319480784237385
-0.026666512712836266
0.06695280224084854
-0.019389530643820763
-0.059784866869449615
-0.022183392196893692
-0.042614590376615524
-0.0024773753248155117
0.0237949937582016
-0.012914488092064857
0.02302314154803753
0.012437832541763783
0.033878203481435776
0.00010219219257123768
-0.00608016224578023
0.011840462684631348
0.029410650953650475
-0.009741085581481457
-0.014143632724881172
0.01024666242301464
0.014398572035133839
-0.010798563249409199
0.03499007970094681
0.04315632954239845
-0.01458741258829832
-0.038317203521728516
0.010121692903339863
0.006639895960688591
-0.050906214863061905
-0.014035998843610287
0.029820647090673447
0.020331762731075287
0.050446752458810806
-0.00963198859244585
0.004097443073987961
-0.0020036580972373486
-0.010974475182592869
-0.026790548115968704
0.010686997324228287
0.017522884532809258
0.02583502233028412
-0.02597302943468094
-0.02307082526385784
0.03503504395484924
0.013344119302928448
-0.0186734851449728
0.006384904962033033
-0.005199973937124014
-0.016618534922599792
-0.006459339056164026
-0.015283551067113876
0.022242048755288124
0.0011919812532141805
0.017092647030949593
0.0269482284784317
-0.016139589250087738
0.04609314352273941
0.02526952140033245
0.04665223881602287
-0.02633161097764969
0.006824745796620846
-0.02783900499343872
-0.004171707201749086
0.01360071450471878
-0.04154853895306587
-0.05589437112212181
-0.012221616692841053
-0.024475494399666786
-0.0016663811402395368
0.016144858673214912
0.010948171839118004
-0.008389033377170563
0.009619464166462421
0.011303480714559555
-0.04484902694821358
-0.01941298320889473
0.04659153148531914
-0.025461964309215546
-0.01364358514547348
0.011557871475815773
-0.008442667312920094
0.03977504372596741
0.042263563722372055
-0.046596840023994446
0.005608647130429745
-0.014334042556583881
-0.02766251564025879
0.01260483916848898
-0.024360449984669685
0.025174057111144066
0.02996860258281231
0.02271643839776516
-0.017575932666659355
-0.0181813333183527
0.0040772054344415665
-0.019513506442308426
-0.014504844322800636
0.00446704775094986
0.019551323726773262
0.0020667423959821463
0.03313499689102173
0.025618672370910645
-0.0006644301465712488
0.029959121719002724
-0.03266267850995064
-0.06604669988155365
0.01351924892514944
-0.0018968837102875113
-0.016126511618494987
-0.030638372525572777
-0.014521758072078228
0.007872718386352062
-0.010663982480764389
-0.01664718985557556
0.03363906219601631
0.0032816447783261538
-0.01647258922457695
0.020796533674001694
-0.0025567717384546995
0.00566346850246191
0.024250579997897148
-0.02192581072449684
0.03853708878159523
0.008296622894704342
0.013243607245385647
-0.009697512723505497
-0.024295616894960403
-0.000184087228262797
-0.022405870258808136
-0.028067471459507942
-0.0016002306947484612
0.011396526359021664
0.02121492102742195
-0.020616792142391205
-0.024561520665884018
-0.0029623552691191435
-0.01886804774403572
-0.016940293833613396
-0.0011932189809158444
-0.008984168991446495
-0.040522851049900055
-0.015591918490827084
-0.09928048402070999
-0.010837753303349018
-0.017904585227370262
-0.016156747937202454
-0.0031937991734594107
0.009833085350692272
0.005641790572553873
0.0031163229141384363
-0.009013422764837742
0.021518558263778687
0.035107824951410294
0.010978507809340954
0.006236486602574587
-0.007089690305292606
-0.007327322382479906
-0.014930645935237408
0.008938428945839405
0.019595174118876457
-0.0082105016335845
-0.030030636116862297
0.04632333666086197
0.01709778420627117
0.029485134407877922
-0.011528758332133293
0.005124443676322699
0.0049804747104644775
-0.02120879478752613
0.006887584459036589
0.004138091579079628
0.019392412155866623
-0.005672086495906115
-0.010817226953804493
-0.006883219350129366
0.01432184036821127
-0.03973393887281418
-0.012694944627583027
0.009592778980731964
-0.0034060049802064896
0.021965928375720978
-0.018361849710345268
-0.024577850475907326
-0.0069902632385492325
0.014772065915167332
-0.002895253710448742
0.005596783943474293
0.03386128321290016
0.01826535537838936
-0.029079167172312737
0.011195274069905281
0.05650383234024048
-0.015679981559515
0.013314665295183659
-0.02463587000966072
-0.0044266399927437305
-0.01509881392121315
0.00756101543083787
-0.0006555479485541582
-0.010918858461081982
-0.01108431164175272
-0.016358276829123497
-0.013175815343856812
0.03164369985461235
-0.011129798367619514
-0.02076919935643673
-0.0065263318829238415
0.01220683567225933
-0.010710781440138817
0.022238966077566147
-0.011098598130047321
-0.013923918828368187
0.007946261204779148
-0.011839943937957287
-0.022581761702895164
0.017469624057412148
0.004731077700853348
0.03472786769270897
-0.012693734839558601
0.0017629386857151985
-0.04297997057437897
0.015669748187065125
-0.03785140812397003
-0.002690892666578293
0.017948882654309273
0.006217847112566233
0.019597923383116722
0.019672062247991562
-0.011632200330495834
0.02453252300620079
-0.020290888845920563
-0.07006143778562546
-0.006879404187202454
-0.009213236160576344
0.023169590160250664
-0.04482525214552879
-0.012208830565214157
0.027204392477869987
0.0410536527633667
0.015477458946406841
0.017082136124372482
-0.015725530683994293
-0.03242448344826698
-0.05852709710597992
-0.06575261801481247
0.010377645492553711
0.0069522550329566
-0.03255654126405716
0.009635953232645988
-0.02846345864236355
0.023288976401090622
-0.007461999077349901
-0.008987054228782654
-0.01529783196747303
0.014773798175156116
-0.0014357016189023852
0.008766308426856995
0.019231174141168594
-0.0063489871099591255
-0.0006075109704397619
0.016088970005512238
0.021793808788061142
-0.01134564634412527
-0.014920231886208057
0.020090019330382347
-0.04489687457680702
-0.018421579152345657
-0.025004103779792786
-0.03417558595538139
-0.030846884474158287
-0.04235650971531868
0.029570434242486954
-0.013478088192641735
0.014694537967443466
-0.018202314153313637
0.005116729531437159
0.021725354716181755
0.0020696541760116816
-0.005191553849726915
-0.028909610584378242
0.01770118437707424
0.0007034763693809509
0.0435824990272522
0.0003779809921979904
-0.02361050434410572
-0.033951107412576675
-0.07362592965364456
-0.012196884490549564
0.014216066338121891
0.03999263420701027
-0.010879757814109325
-0.003379118861630559
0.017400521785020828
0.10846059769392014
0.007732142694294453
-0.014304772950708866
-0.04497894272208214
-0.012890896759927273
0.011233344674110413
0.019606487825512886
0.04262073338031769
-0.038991011679172516
0.02610015869140625
-0.11572808027267456
0.0036982621531933546
-0.0058671459555625916
-0.023061925545334816
0.01971336267888546
-0.016791878268122673
-0.015855764970183372
0.0062519460916519165
-0.036974381655454636
-0.0036236445885151625
0.006375160533934832
-0.07302872091531754
-0.008510791696608067
-0.007165354210883379
-0.1496756374835968
0.009730354882776737
-0.00618303008377552
0.0008815446635708213
-0.17693622410297394
-0.048393163830041885
-0.08719693869352341
0.012761212885379791
0.0057976930402219296
0.019151873886585236
-0.01760564185678959
0.008180761709809303
0.021313846111297607
-0.03950406238436699
0.009222045540809631
0.024898646399378777
0.008289603516459465
-0.006238547153770924
-0.05387817695736885
-0.020343977957963943
0.020217105746269226
0.001961254747584462
-0.009928479790687561
-0.06709694862365723
-0.045914605259895325
-0.006000293418765068
-0.029900038614869118
-0.07852154970169067
-0.016214419156312943
-0.03078024461865425
-0.0020435114856809378
-0.03371911495923996
0.0050997063517570496
0.05857142433524132
-0.00241793692111969
-0.018140379339456558
0.019672758877277374
-0.049385666847229004
-0.046531472355127335
-0.01580076850950718
0.01581539213657379
0.024640196934342384
-0.032110489904880524
-0.01721525937318802
0.06884521245956421
0.04203849658370018
0.006390639115124941
-0.02076702006161213
0.004735390655696392
0.030240563675761223
0.008035488426685333
-0.06562353670597076
0.02557677961885929
0.018833428621292114
0.08158868551254272
-0.042069654911756516
0.0419514924287796
0.02807493880391121
0.02440900169312954
-0.0012011207873001695
-0.013409609906375408
0.03644634038209915
0.13464990258216858
-0.017380470409989357
0.0389174185693264
0.011561105027794838
0.07301744818687439
0.042520638555288315
-0.036252208054065704
-0.03134741634130478
0.016875382512807846
-0.009591558016836643
-0.005189648829400539
-0.0009325806749984622
0.0011946206213906407
-0.003824590938165784
-0.022803008556365967
0.0003194113669451326
0.00966203585267067
0.004187561571598053
0.024262940511107445
-0.0681493729352951
0.044462040066719055
0.014026351273059845
0.005984943360090256
-0.016720915213227272
-0.00495838513597846
0.05668073892593384
0.015010572969913483
0.016215020790696144
-0.003305150894448161
-0.011909665539860725
0.0014256812864914536
-0.00527611281722784
0.013949927873909473
0.013402986340224743
-0.0031352362129837275
-0.0013682347489520907
-0.018094688653945923
-0.004596808459609747
0.0721103772521019
-0.03239097818732262
0.005577870644629002
0.016427913680672646
0.0013806780334562063
-0.013455038890242577
0.005379459820687771
-0.040160663425922394
-0.005998729728162289
0.0022101642098277807
0.02558508701622486
-0.01112772710621357
0.013555580750107765
-0.010800043120980263
0.02835080958902836
0.015022609382867813
0.02556745521724224
-0.006736103445291519
-0.004411026835441589
-0.043549422174692154
-0.03440588712692261
0.011082309298217297
-0.026960821822285652
0.03433894366025925
0.020911337807774544
0.0063991425558924675
-0.04573220759630203
0.001422189874574542
0.010425584390759468
4.285544855520129e-05
0.020580053329467773
-0.002549836179241538
-0.010616498999297619
-0.0037518185563385487
0.018792910501360893
0.015047076158225536
-0.02137698233127594
0.014320501126348972
-0.008987538516521454
0.010994244366884232
0.0045592510141432285
0.01906939037144184
0.0035212247166782618
-0.027158087119460106
0.014183656312525272
0.017147475853562355
0.004220539703965187
0.02540314942598343
-0.024708177894353867
0.023348234593868256
0.004683844745159149
-0.01960393413901329
-0.018911972641944885
-0.032534409314394
-0.016844145953655243
-0.04597067832946777
-0.007810902316123247
-0.015740137547254562
0.030735259875655174
-0.014921004883944988
-0.006357194390147924
0.021508028730750084
0.005266956053674221
-0.01921049878001213
-0.03805265575647354
0.025012526661157608
0.02631743811070919
-0.008184242062270641
0.00028884646599180996
-0.04758336395025253
-0.030788201838731766
-0.014805324375629425
0.023831263184547424
0.004354557488113642
0.015873590484261513
0.019165189936757088
0.0035068714059889317
-0.004112498369067907
-0.0024069056380540133
-0.002772117964923382
0.0049594854936003685
-0.022013502195477486
-0.004589473363012075
-0.02836594544351101
-0.021314550191164017
0.0013101687654852867
-0.012032573111355305
-0.016834713518619537
-0.002641164930537343
0.004060823004692793
0.01284723449498415
0.01099604181945324
0.0038246996700763702
0.010495597496628761
-0.027987200766801834
-0.011993826366961002
0.006309996359050274
0.026081373915076256
0.023843595758080482
0.009248747490346432
0.013125217519700527
-0.01953645795583725
0.013769365847110748
-0.0024514931719750166
0.015945326536893845
-0.022325849160552025
-0.019144827499985695
0.005706697702407837
-0.00400699395686388
-0.007577009033411741
-0.006661133840680122
0.0024201348423957825
-0.03137841448187828
-0.04671374335885048
-0.0019042303320020437
-0.020027458667755127
-0.005564971826970577
0.011769607663154602
0.05730883777141571
0.030949989333748817
0.009009349159896374
-0.011007549241185188
-0.003733767895027995
-0.029981475323438644
0.006611542776226997
-0.00964363943785429
0.0005600229487754405
0.0007867039530538023
-0.020851241424679756
-0.01400613971054554
-0.014646735042333603
0.030616942793130875
-0.029494861140847206
0.025397488847374916
-0.010422888211905956
-0.01278673391789198
0.00410278607159853
0.001123131369240582
0.10145025700330734
0.021897457540035248
0.01245507039129734
0.024430423974990845
0.03314726799726486
-0.004733110778033733
0.00857292115688324
0.006633813492953777
0.014125952497124672
0.012385692447423935
0.03989874944090843
-0.019403643906116486
0.0021043987944722176
-0.012080303393304348
0.013418075628578663
0.002931934781372547
0.025065070018172264
0.010565674863755703
-0.01215782668441534
0.015781356021761894
-0.015322915278375149
0.02617054246366024
0.04810105264186859
0.01967078261077404
0.0007600400713272393
-0.008239436894655228
0.023448580875992775
-0.01000571995973587
-0.0037027564831078053
0.0024186137598007917
0.0026576556265354156
0.0025357648264616728
0.010925719514489174
0.00047627915046177804
-0.0129943722859025
-0.01552022248506546
-0.019222835078835487
-0.009632150642573833
-0.015827739611268044
-0.024429338052868843
-0.004468937870115042
-0.0017773055005818605
0.0031987123657017946
-0.00614455621689558
0.005148253869265318
0.010752503760159016
-0.02228674292564392
0.0040513211861252785
0.03380132466554642
0.028606712818145752
-0.03541947528719902
0.023226218298077583
-0.004687421023845673
0.004572950769215822
0.005568607244640589
0.015314036048948765
0.024955645203590393
-0.0385928675532341
-0.007831775583326817
0.01456096675246954
0.012529249303042889
0.006976344157010317
0.0029059085063636303
0.009007533080875874
0.0028977037873119116
0.02005644142627716
0.0005127401673234999
0.030158204957842827
-0.0072844489477574825
0.02438981458544731
-0.13101044297218323
-0.0030654279980808496
0.012269660830497742
-0.006794271990656853
-0.005268179811537266
-0.017911093309521675
0.01588265411555767
-0.042001333087682724
-0.013304163701832294
-0.023983284831047058
-0.019463760778307915
0.01546062994748354
0.004108648281544447
-0.0003297052171546966
-0.02426382526755333
0.014775652438402176
-0.02451733872294426
0.02316666580736637
0.012767188251018524
-0.013122602365911007
0.004299749620258808
-0.0005634981789626181
-0.02121972292661667
-0.00777301425114274
-0.06774890422821045
-0.0246264785528183
-0.034514594823122025
-0.014774084091186523
0.013249829411506653
0.0061925072222948074
-0.0051478552632033825
-0.049872443079948425
-0.020181749016046524
-0.011181073263287544
-0.026172438636422157
-0.014542174525558949
0.0037455586716532707
0.02088543213903904
-0.02491486258804798
-0.021470485255122185
-0.009126264601945877
-0.023776812478899956
-0.01077946089208126
-0.05029858648777008
0.006922175642102957
-0.03617556393146515
-0.014858722686767578
0.04791657626628876
0.0051825689151883125
0.0036479115951806307
0.021273501217365265
-0.021921200677752495
-0.04318543151021004
0.08804237097501755
-0.0045793792232871056
-0.0450834296643734
-0.024622559547424316
0.005398272071033716
-0.004018909297883511
0.032807327806949615
-0.01499215792864561
-0.07511553168296814
0.041858822107315063
-0.02072910964488983
0.012859905138611794
-0.019486911594867706
-0.010330991819500923
-0.01635139435529709
-0.02304994873702526
-0.009266780689358711
-0.021094774827361107
-0.06297934055328369
-0.018570657819509506
-0.036842599511146545
-0.026018571108579636
0.005739565007388592
-0.01579158939421177
-0.010004687123000622
-0.00019595367484726012
0.007381245959550142
-0.12715217471122742
-0.030120378360152245
-0.031667228788137436
0.016248568892478943
0.07659447193145752
0.03539709746837616
-0.005639081820845604
0.019317341968417168
0.00905260443687439
-0.03272097185254097
-0.014346929267048836
0.012320212088525295
-0.002632387448102236
-0.016430571675300598
0.013471988029778004
0.09148857742547989
0.03255639970302582
0.011950206011533737
0.05177373066544533
-1.5038214769447222e-05
-0.012390021234750748
0.023588884621858597
0.001518415054306388
-0.03501937538385391
0.03079480491578579
-0.03632376715540886
-0.029956523329019547
-0.0289616659283638
0.0010872543789446354
-0.01819734461605549
-0.0013229784090071917
-0.019247006624937057
0.018131211400032043
0.03889922425150871
-0.010671292431652546
0.0031084176152944565
-0.005501104053109884
0.012112555094063282
0.022931596264243126
-0.0072575719095766544
-0.02214265614748001
0.01052889320999384
0.023339498788118362
0.006657667923718691
-0.010575181804597378
0.022465305402874947
0.004275801125913858
-0.005270386580377817
-0.009403717704117298
0.007032293360680342
0.013678326271474361
0.020604856312274933
0.04524390771985054
0.05268195644021034
-0.010658828541636467
-0.01667814888060093
-0.03073439933359623
0.024533703923225403
-0.08002648502588272
0.012292152270674706
-0.01196950115263462
0.07214873284101486
-0.050239503383636475
-0.07006599754095078
0.03231184929609299
-0.04679523780941963
0.009633069857954979
0.03823472559452057
0.005911072250455618
0.0562293604016304
-0.02484372816979885
-0.023139815777540207
0.008527050726115704
-0.05717151239514351
-0.014278032816946507
0.0007636611699126661
0.006512068212032318
0.12426778674125671
0.03687706217169762
-0.019936300814151764
0.03759461268782616
0.044030480086803436
-0.09425465762615204
-0.027109244838356972
-0.1433885544538498
-0.022488398477435112
0.06769455969333649
-0.01099318452179432
0.049570199102163315
0.04878544062376022
0.02840246446430683
0.015326512977480888
-0.009537373669445515
0.0020535083021968603
0.06496536731719971
-0.013283312320709229
0.0014321946073323488
-0.009898840449750423
-0.044709984213113785
-0.13558508455753326
-0.0035089862067252398
-0.0025825155898928642
0.027809401974081993
-0.00630465941503644
-0.028164854273200035
-0.021421965211629868
-0.008809310384094715
-0.04218455031514168
-0.03876814991235733
0.03017098642885685
0.002582673216238618
-0.024729490280151367
0.04727144166827202
-0.10917734354734421
0.01900622993707657
0.024477452039718628
-0.026126625016331673
0.01162778865545988
0.005854273680597544
-0.00742634991183877
0.06848473846912384
-0.010093658231198788
-0.011906452476978302
0.09567686170339584
-0.0038193976506590843
-0.07176182419061661
0.00518744857981801
-0.10448060929775238
0.023553727194666862
-0.022490987554192543
-0.0064930967055261135
0.03510536625981331
-0.000766939832828939
0.05951494723558426
-0.0049053686670959
0.01579183340072632
0.011759662069380283
0.0025865056086331606
0.03233803063631058
-0.01984587498009205
0.02501266449689865
-0.04102310538291931
-0.015737218782305717
0.014536459930241108
0.03030618093907833
0.009713897481560707
-0.007601632736623287
0.026499934494495392
-0.03935299068689346
0.012799205258488655
-0.042052194476127625
-0.003695542924106121
-0.09711209684610367
-0.023310258984565735
0.010918822139501572
0.1019924059510231
0.006977608893066645
-0.013851714320480824
-0.0062068975530564785
-0.0271404217928648
-0.05606731027364731
0.03993522748351097
0.060758233070373535
-0.08651375025510788
-0.0017636916600167751
-0.005592068191617727
-0.013165568932890892
-0.023638255894184113
-0.04313303157687187
0.006034743040800095
-0.029265347868204117
-0.03188189119100571
0.08014576882123947
-0.024558015167713165
0.03513681888580322
-0.002142000710591674
-0.05061214417219162
0.011048799380660057
0.005816830322146416
-0.02263381890952587
-0.021471895277500153
0.015443307347595692
0.010940084233880043
0.01425789576023817
0.027421019971370697
-0.0023153023794293404
0.009799640625715256
0.016736695542931557
0.018158573657274246
0.11894126236438751
0.05704904720187187
-0.057432398200035095
-0.005469561088830233
0.06820961087942123
-0.04391249641776085
0.011468960903584957
-0.03177136182785034
-0.005148950964212418
0.013501769863069057
-0.016300808638334274
-0.050962358713150024
0.000803859846200794
-0.01984581910073757
0.022920651361346245
0.009728844277560711
-0.05257859826087952
0.006196489557623863
-0.06696520745754242
0.008956429548561573
0.0193619541823864
0.0070968493819236755
0.0656379982829094
-0.001876141526736319
-0.02185327187180519
-0.013284867629408836
0.0216908548027277
0.010003723204135895
0.033798154443502426
-0.0015284066321328282
-0.013408119790256023
-0.020952420309185982
0.053810685873031616
-0.007081233896315098
-0.11440648138523102
0.034003470093011856
-0.007880331948399544
-0.007292058318853378
0.013953340239822865
-0.004906204994767904
0.05466144531965256
0.004595508333295584
0.02120276913046837
0.03372951224446297
0.02147056721150875
0.03722909465432167
0.011543335393071175
-0.003964510280638933
0.006309953052550554
-0.02263195998966694
0.06074342131614685
-0.013262969441711903
0.01762068085372448
0.014704862609505653
0.0024583260528743267
-0.01995033398270607
0.005900609772652388
0.006182207725942135
-0.02536054700613022
0.012281144969165325
-0.012132801115512848
0.06969638168811798
-0.011625279672443867
-0.2450857311487198
-0.02887985296547413
-0.02199695259332657
-0.01925845630466938
-0.0035873358137905598
-0.06730014085769653
-0.04373404383659363
0.02938901260495186
-0.04250699654221535
-0.013305764645338058
-0.037644121795892715
-0.023376649245619774
-0.04235008731484413
-0.02718457579612732
-0.024356983602046967
-0.029233861714601517
-0.007288098800927401
-0.003973850980401039
-0.030340058729052544
-0.03419310227036476
-0.008005719631910324
-0.00974470004439354
-0.006726128980517387
-0.10276645421981812
-0.02296353317797184
-0.07273827493190765
0.006318795029073954
-0.08769307285547256
0.002975870156660676
-0.028200669214129448
0.002145949052646756
-0.02078472077846527
4.0709535824134946e-05
0.002964064944535494
-0.03244094178080559
-0.023270878940820694
-0.02133677899837494
-0.008024509996175766
0.017572153359651566
-0.01774551346898079
-0.0005756138707511127
-0.08709637820720673
-0.02338334359228611
-0.01900782436132431
0.037424713373184204
0.004242539871484041
-0.01563117839396
-0.009747820906341076
-0.0027276247274130583
0.022924037650227547
-0.004543099086731672
-0.012292820028960705
0.03809674084186554
0.01868756115436554
0.02011864073574543
-0.01943640038371086
0.06690313667058945
0.06133042275905609
-0.041389770805835724
-0.0056461854837834835
0.011444047093391418
0.016015319153666496
0.13597600162029266
-0.03175176680088043
-0.013582385145127773
0.002993835834786296
0.061098288744688034
-0.015613907016813755
-0.01994861289858818
-0.04367672652006149
-0.03150239214301109
-0.0010348557261750102
-0.011482303962111473
0.05018345266580582
-0.07512004673480988
-0.05530431121587753
-0.004198836628347635
0.007998409681022167
0.0033513337839394808
0.01644650101661682
-0.016466394066810608
-0.015293905511498451
0.015417734161019325
0.02336626872420311
-0.011889642104506493
-0.024742085486650467
0.0023983288556337357
0.0011714264983311296
0.06957856565713882
0.03152663633227348
-0.08928936719894409
-0.006667822599411011
0.0386945940554142
-0.09027738124132156
-0.027415601536631584
0.0145456837490201
0.022814171388745308
0.0029706519562751055
0.015160731971263885
-0.03496167063713074
-0.004477587062865496
0.017860624939203262
0.008457154035568237
0.04542723670601845
-0.022552870213985443
0.007739981170743704
-0.11019163578748703
0.016675060614943504
0.009490728378295898
0.03111593797802925
0.0006474439287558198
-0.013388585299253464
0.01714697852730751
0.026969362050294876
0.020869042724370956
-0.035243161022663116
0.0027781648095697165
-0.04569730907678604
0.02060018479824066
0.020609909668564796
-0.019815685227513313
0.11441225558519363
-0.009665802121162415
-0.008188115432858467
0.048698026686906815
0.012178528122603893
0.010174987837672234
-0.016672100871801376
0.008153052069246769
-0.017484091222286224
0.0079109575599432
0.030684003606438637
0.007697404827922583
-0.00180174526758492
-0.03723419830203056
-0.002718369010835886
0.041501857340335846
-0.06918507814407349
0.005367112345993519
-0.0013557967031374574
0.013391518034040928
-0.012064583599567413
-0.018975192680954933
0.019400056451559067
-0.021749231964349747
0.047596774995326996
0.0063869645819067955
-0.011040493845939636
-0.036103930324316025
-0.05005071312189102
-0.01552838645875454
0.02801154926419258
0.021540198475122452
-0.005478139501065016
0.02713005244731903
0.027491111308336258
0.07626484334468842
-0.009182759560644627
0.021388191729784012
0.020737256854772568
0.01964162290096283
-0.021547624841332436
0.045647650957107544
0.08182525634765625
0.003719939850270748
-0.00023584871087223291
-0.022287625819444656
0.16158075630664825
-0.0497271902859211
0.03157026320695877
-0.006455773487687111
-0.09182830899953842
-0.025661855936050415
0.03693988174200058
-0.02353784255683422
0.006261873058974743
0.02211475931107998
0.014966445975005627
-0.005256139673292637
-0.032305050641298294
0.03100554458796978
0.041361767798662186
-0.01535715814679861
0.0028983980882912874
0.006016903091222048
-0.011552093550562859
0.009634719230234623
0.001069441786967218
-0.0004203184216748923
0.026577120646834373
-0.027356231585144997
0.015144424512982368
-0.05217234417796135
-0.14371931552886963
-0.049604449421167374
0.05771070718765259
-0.032724782824516296
-0.09188281744718552
0.024252140894532204
-0.050203535705804825
0.10186252743005753
0.030602240934967995
0.010752256028354168
0.03104994259774685
-0.010978038422763348
-0.02033572643995285
-0.019136324524879456
0.01738526113331318
0.00968630239367485
0.009903453290462494
-0.03238263726234436
-0.05243870988488197
-0.012739366851747036
0.022809915244579315
-0.01636618562042713
0.031967151910066605
-0.020100530236959457
-0.02247266098856926
-0.0014833924360573292
-0.010459656827151775
0.010120271705091
0.0012159828329458833
0.02814839966595173
0.009884508326649666
0.015500939451158047
0.00389303732663393
-0.0002554492384660989
-0.024318303912878036
0.011940361931920052
-0.018767312169075012
-0.013675287365913391
-0.0031809781212359667
0.012639496475458145
-0.02977907285094261
0.015063333325088024
0.0015977652510628104
0.04649413004517555
-0.013190853409469128
-0.09617822617292404
0.016624266281723976
0.01701434515416622
-0.027651891112327576
-0.003053103107959032
0.022726325318217278
0.017313417047262192
0.02594710886478424
-0.01183301117271185
-0.00913748424500227
-0.022870266810059547
0.02798992022871971
0.00021218198526185006
0.0025936465244740248
0.007248835638165474
-0.02811826393008232
0.00553561095148325
-0.003672524821013212
-0.00864710845053196
0.0034207443241029978
-0.01190122775733471
-0.03114325925707817
-0.014784565195441246
0.011777321808040142
-0.008992410264909267
-0.0023433987516909838
-0.018957706168293953
-0.011513927951455116
-0.0003862410958390683
-0.010539817623794079
-0.024814436212182045
0.021877676248550415
0.030062977224588394
-0.04266248643398285
0.002891986630856991
-0.0005940990522503853
-0.04892559349536896
-0.009532182477414608
-0.03497162088751793
-0.0277243759483099
0.02207157202064991
0.012914405204355717
0.005161504726856947
-0.017963754013180733
0.02220633253455162
-0.007742076180875301
-0.006315220613032579
-0.010875321924686432
0.02243172377347946
-0.005362182389944792
0.005255357827991247
-0.018255600705742836
0.014633024111390114
0.009792855940759182
0.010514394380152225
0.0006519525195471942
0.011275557801127434
-0.007703911978751421
-0.019951708614826202
0.013276781886816025
0.016211984679102898
-0.00036214542342349887
0.013223838992416859
-0.0038297087885439396
-0.03616420552134514
0.004841716028749943
-0.0026917944196611643
-0.03520171344280243
-0.005411664955317974
-0.019671576097607613
0.04277390241622925
-0.011009646579623222
0.0007356441929005086
0.012366288341581821
-0.016404855996370316
-0.02331511117517948
0.002571163699030876
0.07548600435256958
-0.007228221278637648
-0.012897474691271782
-0.020624130964279175
0.013841941021382809
-0.0026986761949956417
0.014639340341091156
-0.0029768520034849644
-0.03409238159656525
-0.020226355642080307
-0.01000957377254963
0.03328102082014084
0.00468249898403883
-0.00757336663082242
-0.02094055339694023
0.0208890400826931
0.013242059387266636
-0.027917491272091866
-0.003656478598713875
-0.0753534659743309
0.021339768543839455
-0.007877812720835209
-0.0038367039524018764
-0.021587742492556572
0.022517504170536995
-0.023022867739200592
0.010310598649084568
0.003138309344649315
0.0674368217587471
-0.00047144186100922525
-0.003202756168320775
-0.019652780145406723
0.029919849708676338
-0.0015367859741672873
0.009531229734420776
-0.009835631586611271
0.00460439408197999
-0.01872515305876732
0.0012327550211921334
-0.05962666496634483
-0.007245236542075872
0.014483688399195671
-0.0010742124868556857
-0.015810469165444374
0.037095807492733
-0.039646826684474945
0.027980364859104156
-0.014409629628062248
-0.002640204969793558
0.018316932022571564
0.011868546716868877
0.04529203101992607
0.01120429765433073
0.07229818403720856
-0.0327371247112751
0.022073475643992424
0.04073849320411682
-0.020425716415047646
0.002542088506743312
-0.0334007702767849
-0.01597469300031662
-0.014492671005427837
-0.010894841514527798
-0.03670665994286537
-0.036741096526384354
0.0066805388778448105
0.026005718857049942
0.00922757014632225
-0.00783376395702362
-0.041466452181339264
-0.0037978566251695156
0.021732257679104805
-0.021402224898338318
-0.0030317071359604597
-0.051768627017736435
0.011711116880178452
-0.0009513957193121314
0.015504304319620132
-0.022860655561089516
-0.060085780918598175
0.04814915359020233
-0.06948540359735489
0.012205743230879307
0.04010526463389397
-0.01280892826616764
0.0064234952442348
-0.015751827508211136
-0.04781871289014816
0.010232839733362198
-0.02615188993513584
0.016222171485424042
0.013870740309357643
-0.059907808899879456
0.017389722168445587
-0.049385204911231995
-0.01321167591959238
-0.01073507685214281
-0.00622392725199461
0.01564178802073002
0.02292986586689949
0.01224478054791689
-0.034515202045440674
-0.1106836125254631
0.0017782178474590182
0.0068594347685575485
-0.03044309839606285
-0.0039007023442536592
-0.004780696239322424
-9.165662049781531e-05
0.011671134270727634
-0.07827525585889816
-0.010563838295638561
0.00275433249771595
0.031309183686971664
0.008677907288074493
0.02074263244867325
0.030681507661938667
0.011091964319348335
-0.005665857810527086
0.007154002320021391
0.0025564010720700026
0.02780359424650669
0.04101693257689476
0.03871962055563927
-0.006669029127806425
-0.017046911641955376
-0.008229696191847324
-0.0639738216996193
-0.011880092322826385
-0.03051968291401863
0.007322000805288553
0.038472894579172134
-0.04004884511232376
0.02240605652332306
0.0163286030292511
0.07403545826673508
-0.05944635719060898
-0.014230254106223583
0.010293658822774887
0.008262144401669502
-0.00908649992197752
0.0254276841878891
0.011454829014837742
-0.005693390499800444
0.022420275956392288
-0.0410265177488327
0.02086314931511879
-0.03007301688194275
-0.04242049157619476
-0.02523059956729412
-0.02852581813931465
0.02003699354827404
-0.012754375115036964
0.007403046824038029
0.0019660245161503553
-0.01983184553682804
0.019053122028708458
-0.015872929245233536
-0.015619136393070221
-0.013033261522650719
0.043733078986406326
-0.01608709804713726
-0.011311357840895653
0.015545501373708248
-0.04988958686590195
0.005533144809305668
-0.06092965602874756
-0.01635569892823696
-0.03628016263246536
0.04419862478971481
-0.006698354613035917
0.01779625378549099
0.009852172806859016
-0.03286169841885567
-0.0031187592539936304
0.013748876750469208
0.011980258859694004
-0.02679341286420822
0.004628440365195274
0.05768865346908569
0.014132995158433914
0.02532958984375
-0.05518627166748047
-0.02757611870765686
0.04046475142240524
0.01650618575513363
-0.0015411204658448696
0.02797311171889305
0.008626317605376244
0.006719394586980343
-0.006226023659110069
-0.0020282340701669455
-0.012734461575746536
-0.0035463038366287947
0.030442725867033005
-0.011820283718407154
-0.012484230101108551
-0.08317143470048904
-0.02097165770828724
0.016683436930179596
0.004318033345043659
-0.10780511796474457
-0.09088857471942902
-0.020324330776929855
0.00032604040461592376
0.026134068146348
-0.029084108769893646
-0.04930762201547623
0.0029848485719412565
-0.03670288249850273
0.013387712650001049
0.0017855365294963121
-0.00965369213372469
0.0010907829273492098
-0.01034795306622982
-0.06119740009307861
-0.008834327571094036
-0.008225975558161736
0.016850315034389496
-0.02887200005352497
-0.05166836455464363
0.02173052541911602
-0.011719213798642159
-0.007207379676401615
-0.03748016059398651
-0.009954053908586502
-0.009187662973999977
-0.024958277121186256
-0.02430691011250019
-0.010715896263718605
0.043509792536497116
-0.00022921524941921234
-0.020727749913930893
-0.016448963433504105
-0.01048672292381525
0.0003480358573142439
0.0004476001486182213
-0.0052613988518714905
-0.02249784767627716
-0.010550949722528458
0.012046084739267826
0.003715371713042259
-0.020388806238770485
0.009345130994915962
0.020119881257414818
-0.025357820093631744
-0.006183876655995846
-0.008487194776535034
-0.04167669638991356
-0.04082446172833443
0.011364786885678768
0.009792510420084
-0.014502003788948059
0.021916041150689125
0.025519603863358498
-0.022013846784830093
-0.026974821463227272
0.005567434709519148
-0.005344416480511427
0.07180275768041611
-0.028240039944648743
-0.025139614939689636
0.024949241429567337
0.020059136673808098
-0.003946247044950724
0.022216493263840675
0.026016028597950935
-0.043483052402734756
0.008074449375271797
-0.018828459084033966
-0.008856555446982384
-0.0175331998616457
-0.023694545030593872
0.05907203629612923
-0.0025006625801324844
0.05375989153981209
0.001368197612464428
0.010300245136022568
0.01893562637269497
-0.019211800768971443
0.003225590568035841
-0.0069846599362790585
0.034446410834789276
0.006754910573363304
-0.028850529342889786
0.03275495395064354
-0.008024415001273155
-0.0010817025322467089
-0.05730205401778221
0.04092103987932205
0.028348248451948166
-0.003068232908844948
-0.01845915988087654
-0.017239060252904892
-0.006185890641063452
-0.05783819779753685
0.10585679113864899
0.0019923713989555836
0.02138504944741726
-0.025117000564932823
-0.029172852635383606
-0.017533885315060616
-0.04254431650042534
0.036407798528671265
-0.010096452198922634
-0.02030307799577713
0.030142083764076233
-0.042853839695453644
-0.013873284682631493
-0.008168418891727924
-0.11919867247343063
0.023876100778579712
-0.02150990627706051
-0.03329461067914963
-0.02367384545505047
-0.019736547023057938
-0.028094977140426636
-0.0006294157356023788
-0.007973365485668182
-0.009873885661363602
-0.0042459191754460335
-0.014120128005743027
-0.028675610199570656
0.013900600373744965
0.0016162064857780933
0.0733005478978157
-0.03136707469820976
-0.03424714505672455
0.0070668356493115425
0.07558959722518921
0.039392873644828796
0.00628119520843029
-0.03657342493534088
-0.05085183307528496
0.053342364728450775
0.01376720517873764
0.01580924354493618
0.039305005222558975
-0.06733448058366776
-0.024384023621678352
-0.004613624420017004
-0.009105640463531017
-0.013154428452253342
0.043618686497211456
0.02113177441060543
0.020191628485918045
-0.04630899801850319
-0.02276301383972168
0.12269996106624603
-0.0037449528463184834
0.07521653920412064
0.0018425625748932362
-0.044455353170633316
0.05054529383778572
0.041551485657691956
-0.028496865183115005
-0.019964255392551422
-0.002062164479866624
-0.0009187143296003342
0.023165881633758545
-0.0013513073790818453
-0.036126021295785904
-0.00444966834038496
-0.03886711969971657
-0.0013700887793675065
0.012135553173720837
0.11128781735897064
0.008756396360695362
0.01387756410986185
-0.04353684186935425
0.02590063400566578
-0.006489830557256937
-0.020406508818268776
0.033840667456388474
-0.0007846282096579671
-0.016822420060634613
-0.01629948616027832
0.0038627670146524906
0.007791772484779358
-0.015411769971251488
0.014286848716437817
-0.017624851316213608
-0.007804888766258955
0.03878673538565636
0.008228505961596966
-0.01597650907933712
0.014591332525014877
-0.061306096613407135
-0.021857649087905884
-0.0353529155254364
-0.026018653064966202
0.03723297268152237
-0.01445142924785614
-0.041004568338394165
-0.04855775088071823
0.04806475713849068
0.010092915035784245
-0.045290280133485794
-0.02097962610423565
0.018780572339892387
-0.009324722923338413
0.01885337196290493
0.015600748360157013
-0.01169722992926836
-0.01605263352394104
0.009579913690686226
0.03607739508152008
-0.02339233085513115
-0.03280383348464966
0.054303500801324844
0.020128430798649788
-0.009952133521437645
-0.06666725873947144
0.012500347569584846
-0.01263770367950201
0.005073215812444687
-0.04933810979127884
0.0343949981033802
-0.023385604843497276
-0.025956962257623672
0.018098903819918633
0.11544003337621689
0.022926270961761475
-0.027059372514486313
-0.01954709179699421
-0.03211342170834541
0.0036600956227630377
0.03043302521109581
0.0125922542065382
-0.04799729958176613
0.00032819737680256367
-0.009240956977009773
-0.0326932892203331
-0.00031611803569830954
-0.03129870817065239
0.02845088206231594
-0.016257433220744133
0.07813386619091034
0.031081054359674454
0.05125657469034195
-0.02428843267261982
-0.02127516269683838
0.008059939369559288
0.07036551833152771
0.050672441720962524
-0.017522389069199562
-0.008695305325090885
0.011442499235272408
0.030595187097787857
0.001282821292988956
0.008847846649587154
-0.007611517794430256
-0.010098742321133614
0.04105061665177345
0.002345816697925329
-0.0065791974775493145
0.02465972863137722
0.05964549258351326
0.022436894476413727
-0.03274611756205559
-0.11654616892337799
-0.02917179837822914
0.01606057584285736
0.02673124149441719
0.019307250156998634
0.07805740088224411
0.01757281832396984
0.017516808584332466
-0.02946564182639122
0.01821872964501381
0.0010710168862715364
0.04407794028520584
0.00017612999363336712
-0.01065273117274046
-0.04922451823949814
-0.03379277512431145
-0.03205950930714607
-0.0242223609238863
0.018167193979024887
0.015338060446083546
0.035812318325042725
0.0815332904458046
0.03763512894511223
-0.01718207448720932
0.1127861738204956
0.04221298545598984
-0.03934790566563606
0.03257804363965988
0.015871312469244003
-0.0029485723935067654
0.005730769596993923
-0.007431758567690849
0.011187093332409859
-0.016691237688064575
0.050756242126226425
0.08540123701095581
0.012280600145459175
-0.01859259605407715
-0.147740438580513
0.010994196869432926
0.03507539629936218
-0.022717613726854324
0.04090630263090134
0.010555451735854149
-0.020559709519147873
0.009701214730739594
0.00818316638469696
-0.020720461383461952
-0.04650431126356125
0.01759970374405384
-0.05561148002743721
-0.010927862487733364
0.02920173481106758
0.04665986821055412
0.01704535074532032
-0.056914277374744415
0.004026656039059162
-0.02865060232579708
-0.005385577213019133
-0.07423754036426544
0.034430086612701416
-0.00477897422388196
-0.027325443923473358
0.02340729720890522
0.0031536035239696503
0.060726769268512726
-0.006830929778516293
-0.02279701456427574
-0.03189568221569061
-0.022167960181832314
0.007867224514484406
0.01068135630339384
-0.04884091764688492
-0.023035019636154175
-0.016793837770819664
-0.010168192908167839
-0.0725264698266983
0.005051418207585812
-0.040944647043943405
-0.00950684305280447
0.034948624670505524
0.021137375384569168
-0.02724623493850231
-0.005748641677200794
0.023371459916234016
-0.04453097656369209
0.004015000071376562
-0.054543837904930115
-0.00924697332084179
-0.04307379946112633
0.021595969796180725
0.0312759168446064
-0.036298949271440506
0.02082652784883976
0.01585547812283039
-0.010710490867495537
-0.044657088816165924
-0.002672051778063178
0.0005037515657022595
-0.006133922841399908
0.01434991043061018
-0.07079477608203888
-0.04070502519607544
-0.012512831948697567
-0.030760467052459717
0.010189458727836609
0.0066002001985907555
0.02625846676528454
-0.024420203641057014
-0.007613505702465773
-0.021096626296639442
0.009427670389413834
-0.001372103113681078
-0.014779460616409779
0.0020541928242892027
-0.03435234725475311
-0.01736333593726158
-0.0019216458313167095
0.024669956415891647
0.02164231613278389
-0.01362284179776907
0.044326916337013245
-0.04172166809439659
0.023841021582484245
-0.03244978189468384
-0.008009866811335087
0.05293850973248482
0.007105294149369001
0.059125542640686035
0.02352951094508171
-0.01153622381389141
-0.000509480363689363
-0.009884094819426537
-0.023211713880300522
-0.007736977655440569
-0.014618671499192715
0.00697436323389411
-0.024340864270925522
0.022966384887695312
0.006607890594750643
-0.01728743314743042
-0.027607576921582222
-0.0028087536338716745
-0.03665615990757942
0.01950213499367237
-0.0023149987682700157
-0.01210971362888813
-0.048703987151384354
-0.009846833534538746
-0.008052191697061062
-0.02571238949894905
0.018891923129558563
-0.06291454285383224
0.027083059772849083
-0.02979430742561817
-0.0009600690682418644
0.009331513196229935
-0.0017706622602418065
0.027787121012806892
0.03174658492207527
0.0217953659594059
-0.023428142070770264
-0.019510451704263687
0.030027441680431366
0.011904570274055004
-0.03432115539908409
0.07550133764743805
-0.007882921025156975
0.013323850929737091
0.00807622354477644
0.05352335423231125
-0.01958109624683857
-0.005408540368080139
-0.014414647594094276
-0.0023516344372183084
0.019426465034484863
-0.03608979657292366
-0.009604653343558311
0.0499698743224144
0.030462728813290596
-0.0006576802115887403
0.004388605244457722
0.01004259567707777
0.03268951550126076
0.022470159456133842
0.008793883956968784
0.03594377264380455
-0.019883759319782257
-0.04075952246785164
-0.00681240763515234
0.05980704352259636
-0.032818641513586044
-0.006061268504709005
-0.05204133316874504
0.0191016998142004
-0.0073043350130319595
0.0367027148604393
0.0070846788585186005
-0.00676296791061759
-0.03648693487048149
-0.005430961959064007
0.006645923014730215
0.0012557103764265776
0.024379046633839607
-0.12874051928520203
0.03284316882491112
0.025159306824207306
0.005750487558543682
-0.07030196487903595
-0.006674579344689846
-0.09593961387872696
-0.0029265345074236393
0.04733347147703171
0.007208839524537325
0.03877083957195282
-0.05919438973069191
-0.004901604261249304
0.06089659407734871
-0.010613523423671722
-0.028700001537799835
0.013717832043766975
-0.06309682130813599
-0.028116758912801743
0.014091571792960167
0.02727407030761242
-0.0037179337814450264
0.0025817255955189466
0.0289140772074461
-0.026890600100159645
0.03581969812512398
0.012937227264046669
-0.011217503808438778
-0.02854282036423683
-0.030753163620829582
-0.027854785323143005
-0.029847752302885056
0.08557699620723724
-0.027368031442165375
-0.06021883711218834
0.019259793683886528
0.0009979906026273966
-0.03400509059429169
0.0448344387114048
-0.017931126058101654
0.01229774672538042
-0.038887690752744675
0.014163139276206493
-0.01746428571641445
0.0391613245010376
0.025872137397527695
0.0009679410140961409
0.023516185581684113
0.054929424077272415
-0.011701024137437344
-0.005912367254495621
0.032062023878097534
-0.019620561972260475
-0.009112359955906868
0.00729764299467206
-0.039023756980895996
0.006735988426953554
-0.0019274157239124179
-0.04136090353131294
-0.02409975975751877
-0.013123011216521263
0.004779903218150139
-0.05180361121892929
0.013509553857147694
0.0016848533414304256
0.021786309778690338
-0.01548448670655489
-0.00037474423879757524
0.006198374088853598
-0.06682552397251129
-0.00320279854349792
-0.0285145603120327
0.008945995010435581
-0.0637548491358757
-0.010546263307332993
0.02187415584921837
-0.11945872753858566
-0.047428198158741
-0.0030829820316284895
0.08477567136287689
-0.0832790806889534
0.024116329848766327
0.01723804697394371
0.037404581904411316
0.004847974982112646
0.026212213560938835
-0.0313091054558754
-0.006494844797998667
-0.015165680088102818
0.019410112872719765
-0.039692461490631104
-0.06052277237176895
-0.087992824614048
0.03509381413459778
-0.005947588011622429
0.02404410019516945
0.017440423369407654
-0.044431451708078384
0.02264614775776863
-0.03764099255204201
-0.00953582488000393
0.0331394262611866
-0.038460396230220795
-0.04144362732768059
-0.002927781082689762
-0.023880843073129654
-0.005890347063541412
0.007968324236571789
-0.0036397583317011595
0.009922198951244354
0.020193608477711678
-0.0013496370520442724
-0.12385378777980804
0.033325210213661194
0.08957838267087936
-0.020923878997564316
-0.03857031837105751
0.0028873151168227196
0.00422702869400382
-0.025152431800961494
-0.02111686021089554
0.0029059662483632565
-0.05143546313047409
0.021018823608756065
-0.05483116954565048
-0.031232919543981552
-0.014154510572552681
-0.016418686136603355
-0.07043670117855072
-0.031164690852165222
0.07530950009822845
-0.04604499414563179
0.02673725038766861
-0.051135968416929245
-0.008567272685468197
-0.017806556075811386
0.009357452392578125
-6.432555528590456e-05
0.006846272852271795
0.01625705696642399
-0.012162051163613796
0.02376447431743145
-0.002953899558633566
0.012943033128976822
-0.015398195013403893
0.006624591536819935
-0.006074597593396902
5.4776715842308477e-05
0.0022179216612130404
0.017736470326781273
-0.023626182228326797
-0.061912234872579575
-0.006726824678480625
0.026169462129473686
-0.022672181949019432
0.024829210713505745
-0.0020365233067423105
0.025051621720194817
-0.010382496751844883
0.04129309952259064
0.03490665182471275
0.059301331639289856
0.06273674964904785
0.030852196738123894
-0.04162142798304558
-0.04954859986901283
-0.02115798182785511
0.04804511368274689
0.01477446872740984
0.020044874399900436
-0.00806860625743866
0.018406253308057785
-0.0627867579460144
0.0649968832731247
0.040658481419086456
0.010407289490103722
-0.04823742061853409
0.017634782940149307
0.01223436277359724
0.04777100682258606
0.01715519279241562
-0.014803510159254074
-0.01958741433918476
-0.002998117357492447
-0.004807120189070702
0.027630407363176346
-0.009759807027876377
0.02976229228079319
-0.06362718343734741
0.05741656944155693
-0.007198551204055548
-0.020589305087924004
0.01911235600709915
0.001028076047077775
-0.0030164860654622316
0.01474910881370306
0.017706070095300674
0.03284604102373123
0.0032587964087724686
-0.03412962704896927
0.008030341006815434
0.017338771373033524
-0.038898151367902756
0.01464917417615652
-0.0284841600805521
-0.07577420026063919
0.013439812697470188
-0.053573355078697205
0.04710102453827858
0.018482595682144165
-0.04053708165884018
-0.02441232092678547
-0.010581610724329948
-0.06441913545131683
0.00020638677233364433
0.014389339834451675
0.05746801942586899
-0.013547900132834911
0.009265380911529064
0.06271056085824966
-0.006286229006946087
-0.06422936171293259
0.0320420004427433
0.0324753075838089
-0.010366584174335003
0.0013927483232691884
-0.07875651866197586
-0.04912438243627548
-0.010721078142523766
-0.06746312975883484
-0.007801609113812447
0.015406442806124687
-0.03290276974439621
0.050902076065540314
0.005890247877687216
-0.00941760279238224
-0.000837937870528549
-0.018025748431682587
-0.019855372607707977
-0.03677342087030411
-0.028029117733240128
-0.06613783538341522
-0.037176769226789474
0.03095351904630661
0.018622783944010735
0.07782118767499924
0.006110953167080879
-0.028342222794890404
-0.030841240659356117
0.0200529545545578
0.017534686252474785
-0.02218005433678627
-0.018527882173657417
0.03082110732793808
-0.028099780902266502
0.010610460303723812
0.1420738399028778
-0.053753338754177094
0.025346890091896057
-0.016573447734117508
-0.034100618213415146
-0.0036044411826878786
-0.020146913826465607
0.00557900732383132
0.05009278655052185
-0.005570610053837299
0.04604704678058624
-0.01710870862007141
0.06378430873155594
-0.03198930621147156
-0.002942490391433239
-0.028701065108180046
-0.01899280585348606
-0.01850762590765953
-0.009207107126712799
0.020314212888479233
0.08877291530370712
-0.02118317410349846
-0.012207680381834507
-0.00817770417779684
0.003049346385523677
0.0647536963224411
0.010923531837761402
-0.088377945125103
-0.008272259496152401
-0.03931261971592903
-0.017656592652201653
-0.0009597494499757886
0.006656302139163017
0.019548648968338966
-0.0516781210899353
-0.006231967359781265
0.011998068541288376
-0.006965986452996731
0.013014883734285831
0.012924233451485634
0.013601834885776043
0.010218538343906403
0.06270905584096909
0.04130508005619049
0.022699670866131783
-0.002696139272302389
-0.00918043963611126
0.06879846006631851
0.009612079709768295
-0.08275870233774185
0.04612591862678528
-0.053286656737327576
-0.036559589207172394
0.06007948890328407
-0.001140290405601263
-0.028983110561966896
-0.049883220344781876
-0.07558834552764893
0.04761365428566933
0.007015653885900974
-0.010857272893190384
0.0017656056443229318
0.0829445868730545
0.020604437217116356
-0.02503802627325058
-0.0881461501121521
-0.00041140042594633996
-0.034139350056648254
-0.004775181412696838
0.04721600189805031
-0.023160183802247047
0.01900009624660015
0.007635376416146755
0.003682170296087861
-0.01996312290430069
-0.005383262410759926
-0.053884394466876984
0.10132172703742981
-0.030322536826133728
-0.007943089120090008
0.008552850224077702
-0.04167284443974495
0.062050849199295044
0.04571862146258354
-0.05833281949162483
-0.022634243592619896
-0.06845887005329132
0.022295886650681496
0.009900699369609356
-0.0093738604336977
0.03746075555682182
-0.04285377636551857
0.0029999702237546444
0.02584346942603588
-0.03374463692307472
-0.00726739875972271
0.038161806762218475
-0.07738959789276123
0.06144607812166214
-0.014525539241731167
-0.058818623423576355
-0.001177517231553793
-0.015615697018802166
0.010097215883433819
0.11954148858785629
-0.017656121402978897
0.03483745828270912
-0.0056658098474144936
-0.010010577738285065
-0.007519009057432413
0.0992792472243309
0.005083315074443817
-0.007526078261435032
0.014346636831760406
0.03298555314540863
0.0315244197845459
0.034336794167757034
-0.05350751057267189
-0.013833929784595966
-0.02025282196700573
-0.019082646816968918
-0.0046715447679162025
-0.06146303564310074
-0.04558086022734642
-0.01926494762301445
0.0011830771109089255
-0.015348275192081928
-0.03916545584797859
0.012260539457201958
0.010167115367949009
-0.014979366213083267
-0.008703863248229027
-0.03673980012536049
0.007343820296227932
0.002290503354743123
-0.06533925980329514
-0.013749022968113422
-0.009696481749415398
-0.0032345857471227646
-0.060638125985860825
-0.010647187009453773
0.008998684585094452
-0.023423876613378525
0.010970808565616608
0.009025284089148045
-0.02326008304953575
0.005476599559187889
-0.023109761998057365
0.024510663002729416
-0.022505221888422966
-0.0021988744847476482
0.005809627939015627
-0.010829495266079903
-0.02594691328704357
0.004774351138621569
-0.0018054437823593616
0.05793817713856697
-0.030773533508181572
0.006025317125022411
0.017343666404485703
-0.01674376241862774
0.08272787183523178
-0.006465808488428593
-0.04413652420043945
-0.028903909027576447
-0.04352448880672455
-0.05488757789134979
0.011519474908709526
-0.01751023158431053
-0.0367802269756794
-0.001150070340372622
-0.013653626665472984
0.12366511672735214
0.01858326978981495
-0.07058233767747879
-0.0048466636799275875
0.02303994446992874
-0.013378464616835117
-0.015861567109823227
0.02140866406261921
0.0008035875507630408
-0.003202903550118208
-0.016140708699822426
0.02796952985227108
0.011192330159246922
-0.010990964248776436
0.013989122584462166
-0.015283174812793732
-0.00589834526181221
0.06688658148050308
-0.017640436068177223
-0.0024390597827732563
-0.01697874255478382
-0.010571299120783806
-0.014468314126133919
-0.0023760416079312563
0.006326963659375906
-0.03442623093724251
-0.003683102549985051
-0.018881473690271378
-0.003489256603643298
0.011600413359701633
-0.012862034142017365
0.007594532798975706
-0.013683555647730827
-0.0249701589345932
-0.006289154291152954
-0.006130890920758247
-0.03995314985513687
-0.008634374476969242
-0.015846293419599533
0.0031089980620890856
-0.0044983974657952785
0.06000681594014168
0.0034795517567545176
-0.022326381877064705
-0.05974527820944786
0.026976441964507103
0.0015099678421393037
