0.01591559499502182
-0.31089916825294495
0.012615470215678215
0.008678142912685871
-0.027903776615858078
0.03357364609837532
0.14940403401851654
0.0014873299514874816
-0.01562776044011116
0.11897522211074829
-0.005269046872854233
0.011864832602441311
0.019217394292354584
0.03599778562784195
0.05500795692205429
0.008966339752078056
0.1329522579908371
0.019749639555811882
-0.14987210929393768
-0.04966012388467789
0.006986721884459257
0.07275909930467606
0.004013700410723686
0.16066105663776398
-0.004535967949777842
0.016027530655264854
0.01508985087275505
-0.3037275969982147
0.07015503197908401
0.028886867687106133
0.01960793137550354
0.25763553380966187
-0.10411224514245987
-0.3767355978488922
0.05535254254937172
0.04686429351568222
-0.0443260595202446
0.22773756086826324
0.026744036003947258
0.017646925523877144
-0.026338959112763405
0.006842754781246185
-0.00039322907105088234
-0.037409137934446335
0.0010809700470417738
-0.5049006938934326
0.012846937403082848
-0.01959053985774517
0.03241550549864769
-0.006136878859251738
0.0014136702520772815
0.0271214060485363
-0.11238880455493927
-0.06468725949525833
0.02220296487212181
-0.025578390806913376
-0.011013500392436981
0.06470374017953873
-0.011422539129853249
0.056220680475234985
0.036701083183288574
-0.16722534596920013
0.012692165561020374
0.013151525519788265
0.0035526002757251263
-0.0010867725359275937
-0.008288250304758549
-0.01143657322973013
-0.011308149434626102
-0.040867049247026443
0.029697611927986145
-0.008067610673606396
0.014607502147555351
0.04572299122810364
0.015301569364964962
-0.004040415398776531
0.034149765968322754
-0.007026431616395712
-0.09116680175065994
-0.017494602128863335
0.0029780096374452114
-0.02910580113530159
-0.07485561817884445
0.017705904319882393
0.024124914780259132
0.0019855580758303404
-0.018571991473436356
0.014693684875965118
-0.012953085824847221
0.02090514823794365
-0.1091957613825798
-0.015637759119272232
0.039347369223833084
0.02187037654221058
0.0187356136739254
0.0018282223027199507
-0.007196567952632904
0.00878544058650732
0.01490162406116724
0.023465471342206
-0.03924526274204254
0.05243373662233353
0.04797586426138878
0.0010096270125359297
0.052208732813596725
0.0018799208337441087
-0.01263828668743372
0.04451996460556984
0.014161359518766403
-0.027858419343829155
0.04084531217813492
0.03974113240838051
0.037831567227840424
0.010091825388371944
-0.009010939858853817
-0.0012397789396345615
0.05339479446411133
-0.002925683744251728
0.04612326622009277
0.005788455251604319
0.03528701514005661
-0.07258719205856323
0.03558828681707382
-0.008879811502993107
0.018952984362840652
-0.02344372496008873
-0.07559178024530411
-0.012621876783668995
-0.04189799726009369
0.007947780191898346
-0.16622905433177948
-0.0012199380435049534
0.008094603195786476
-0.014760835096240044
-0.017609132453799248
-0.06531967222690582
0.018222808837890625
-0.03457847237586975
-0.01867121458053589
-0.01128263771533966
0.061552368104457855
-0.03324390575289726
-0.03244403377175331
-0.018626248463988304
0.06603212654590607
0.03169071301817894
0.012716916389763355
0.013530866242945194
0.018762994557619095
-0.09340863674879074
-0.053834062069654465
0.018131475895643234
0.014166581444442272
0.02667376771569252
0.022095927968621254
-0.005917783826589584
-0.019365444779396057
0.0041432129219174385
0.003962293267250061
0.007976988330483437
-0.02807236649096012
0.01319135632365942
-0.010223472490906715
0.039478667080402374
0.02968887984752655
-0.0013304593740031123
0.011696855537593365
-0.03206413984298706
-0.041832033544778824
-0.023044370114803314
-0.011926431208848953
-0.01514651719480753
0.0010712615912780166
-0.018814686685800552
0.06442820280790329
0.05351852998137474
0.043837595731019974
0.016501491889357567
-0.015171716921031475
-0.009813492186367512
-0.03272144868969917
-0.01657925918698311
0.009610199369490147
-0.011066175997257233
-0.051095232367515564
-0.019089538604021072
-0.10530024766921997
0.03866586089134216
0.06769998371601105
0.031887270510196686
-0.018765941262245178
0.06450660526752472
0.005330801475793123
-0.039380304515361786
0.02768927812576294
0.028427492827177048
0.13062818348407745
-0.02599615976214409
0.08668623864650726
-0.007637829054147005
0.0391373336315155
-0.0008392927702516317
-0.00865719374269247
0.025674428790807724
0.0020169406197965145
-0.01466143224388361
-0.048880401998758316
0.11644288897514343
-0.12544730305671692
-0.062429577112197876
0.02095809206366539
0.06221480667591095
0.028339382261037827
-0.035904910415410995
-0.0413801334798336
0.11738824099302292
0.004006221890449524
-0.11136820912361145
-0.04295021668076515
0.31687086820602417
-0.11875325441360474
-0.006288432981818914
-0.015526406466960907
-0.031083645299077034
0.11170747131109238
0.23830997943878174
-0.04154496639966965
-0.09899333119392395
0.007391408551484346
-0.13704900443553925
-0.007953958585858345
0.018422367051243782
-0.0072806295938789845
-0.024925610050559044
0.01265469565987587
-0.050605323165655136
0.0194100271910429
0.24436938762664795
-0.021902719512581825
-0.04972190782427788
-0.026461312547326088
0.0048608784563839436
0.02538248710334301
0.006327747367322445
0.06862097978591919
-0.015557322651147842
-0.028078202158212662
-0.022788140922784805
0.05149431154131889
-0.03695676103234291
-0.03517952933907509
-0.03768428787589073
0.022031446918845177
-0.025379188358783722
0.02906179241836071
0.033645909279584885
-0.023430582135915756
0.002810954349115491
-0.03878582641482353
0.02431372180581093
-0.026305364444851875
-0.011976289562880993
0.0005224455380812287
-0.01257323194295168
0.025062408298254013
0.010626455768942833
-0.004110150970518589
-0.02486789971590042
0.0021301754750311375
0.02806597203016281
-0.002091990550979972
0.043617133051157
-0.026366936042904854
0.10082318633794785
0.04285408556461334
0.06607606261968613
0.05372832715511322
-0.030395442619919777
-0.11496634781360626
0.009774337522685528
-0.009258822537958622
0.04017294570803642
-0.07104547321796417
-0.022875525057315826
0.0249307993799448
-0.09407097101211548
-0.038309283554553986
-0.038981519639492035
-0.007532603573054075
0.019551251083612442
-0.017439987510442734
0.04908541589975357
-0.06182987615466118
0.016823329031467438
-0.02410230040550232
0.019570164382457733
0.0010252990759909153
0.018315330147743225
-0.016847047954797745
-0.04631924256682396
0.02869795262813568
0.050548337399959564
0.011171634308993816
-0.03368672356009483
-0.1706351488828659
0.016395023092627525
0.03949717432260513
-0.03448287770152092
0.0017590323695912957
0.03200685977935791
-0.060464926064014435
-0.025809409096837044
-0.09870166331529617
0.04900302365422249
0.16764643788337708
0.034197621047496796
-0.07751092314720154
0.009790712036192417
-0.03643378987908363
0.06424585729837418
-0.01854979805648327
-0.015047182328999043
-0.08863464742898941
0.09250350296497345
-0.0012955901911482215
0.06335461139678955
-0.0428767167031765
0.0044511607848107815
0.0482092909514904
0.06498727202415466
-0.06030042842030525
-0.034534525126218796
-0.013488119468092918
-0.06989606469869614
0.12127817422151566
-0.021642211824655533
0.019624821841716766
0.01312989741563797
0.0338638499379158
0.019086377695202827
0.017942119389772415
-0.13227222859859467
-0.06917475908994675
-0.009543193504214287
0.006531104911118746
-0.00011388958955649287
0.002857009181752801
-0.06342560797929764
-0.024217166006565094
0.026044584810733795
-0.006987034808844328
-0.0062080491334199905
0.03376125171780586
0.008212659507989883
-0.03170277178287506
-0.03158692643046379
0.029879555106163025
0.05382787063717842
-0.04457983002066612
0.040791429579257965
-0.04255890101194382
-0.019273100420832634
-0.04328417032957077
0.017017995938658714
0.059551700949668884
0.04489635303616524
-0.00261987978592515
-0.03355526924133301
-0.015499682165682316
-0.0011107932077720761
-0.06212495639920235
-0.10086715221405029
0.02123362012207508
-0.009342224337160587
-0.049481164664030075
0.09131867438554764
0.08911895006895065
-0.03652895241975784
-0.06081441789865494
-0.08142593502998352
-0.016512643545866013
0.009351382032036781
0.14785420894622803
0.007314889691770077
0.0543462336063385
-0.05532621964812279
-0.0016883648931980133
-0.0925716832280159
-0.057330477982759476
0.020123785361647606
-0.021575551480054855
-0.014446965418756008
-0.009690767154097557
0.04385499656200409
-0.03014460578560829
0.006141940597444773
-0.02374652586877346
-0.020155370235443115
0.040089502930641174
-0.029988331720232964
0.08881785720586777
0.06715919077396393
-0.12394818663597107
0.030631037428975105
0.0829809308052063
0.04079330712556839
0.020437974482774734
-0.05508195236325264
-0.006519010756164789
0.036932673305273056
-0.09653062373399734
-0.0484125055372715
-0.07451280951499939
0.09084956347942352
0.03518690913915634
0.04701473191380501
0.026611922308802605
-0.04203829914331436
-0.06583459675312042
0.0568736307322979
0.02442925237119198
0.042627520859241486
-0.09003803133964539
-0.07849153876304626
-0.0016038301400840282
0.02163217030465603
0.01852191425859928
-0.02408350072801113
0.034538865089416504
-0.043309200555086136
0.013485951349139214
0.023589951917529106
-0.0036712083965539932
-0.009618719108402729
0.015438004396855831
0.036298058927059174
0.0742010697722435
0.030958207324147224
-0.023112703114748
0.02292502671480179
0.12521930038928986
0.06209363043308258
-0.022425655275583267
0.041695307940244675
0.0022274951916188
0.17216967046260834
-0.026238149031996727
-0.007088241633027792
-0.011385384015738964
0.02751137502491474
-0.008243052288889885
-0.02082093618810177
0.04547860473394394
-0.07209526747465134
0.04223664104938507
-0.025154558941721916
-0.00803811103105545
-0.018424980342388153
-0.043969471007585526
0.009275049902498722
-0.01999766193330288
-0.04796276241540909
-0.05726265162229538
-0.004209022969007492
-0.019916925579309464
-0.039581213146448135
-0.043579407036304474
-0.32913878560066223
0.0028064202051609755
0.029157115146517754
-0.013352601788938046
0.006263050716370344
-0.03263038024306297
-0.05836518108844757
0.23059245944023132
0.029466459527611732
-0.010837639681994915
0.1608593910932541
0.036609549075365067
-0.05846363306045532
-0.0008217801223509014
-0.015782378613948822
0.05947393551468849
0.005270852707326412
0.012461520731449127
-0.07442398369312286
0.03710826858878136
0.034042924642562866
-0.004827124532312155
0.023730911314487457
-0.006066737696528435
0.017366716638207436
0.006032617762684822
-0.0317717008292675
-0.02534046769142151
-0.008282661437988281
0.08068506419658661
0.04915916174650192
0.020581550896167755
-0.03742951154708862
0.02157791145145893
0.004946536850184202
0.05966968461871147
-0.012471037916839123
-0.021749351173639297
-0.400259405374527
-0.008858821354806423
-0.01728213205933571
0.01804625429213047
-0.026151619851589203
-0.06178447976708412
-0.020261485129594803
-0.04415111243724823
0.06059485673904419
-0.018608851358294487
-0.054361797869205475
-0.11491189152002335
-0.049402374774217606
0.02008548378944397
-0.009103644639253616
-0.011269534938037395
0.01701419986784458
-0.035964056849479675
-0.01478319801390171
-0.03382844850420952
-0.03023860976099968
-0.0202944315969944
0.02231954224407673
0.004633263219147921
0.1271340548992157
-0.03823105990886688
-0.13017508387565613
0.06289485841989517
0.11168784648180008
-0.03811616078019142
-0.007376570720225573
-0.056755878031253815
0.10214237868785858
0.16311629116535187
-0.030263712629675865
-0.00782435666769743
0.1615906059741974
-0.009409218095242977
0.016514204442501068
0.00603404501453042
0.053346406668424606
-0.08789189159870148
0.025915484875440598
-0.1141069307923317
0.009490733034908772
-0.021014058962464333
0.0130616445094347
0.0035326306242495775
0.06671489030122757
-0.03948584198951721
0.0049960436299443245
0.045753151178359985
0.03116384707391262
-0.032936081290245056
-0.0015768110752105713
0.012634070590138435
-0.013893450610339642
-0.02505730278789997
-0.07845128327608109
-0.016756324097514153
0.03841777890920639
-0.03216942399740219
-0.026882918551564217
0.07065759599208832
-0.06927960366010666
0.008175433613359928
0.02113724872469902
-0.03949018567800522
0.11642085015773773
-0.05627605319023132
0.017308466136455536
0.1941360980272293
-0.06150141358375549
0.23639030754566193
-0.09454671293497086
-0.04209194704890251
-0.009734250605106354
0.07108115404844284
0.016199419274926186
-0.03776733577251434
-0.08248914033174515
-0.057956818491220474
-0.03353642672300339
0.029597368091344833
0.005085057578980923
-0.06027466058731079
0.025880860164761543
-0.04707637056708336
-0.03324289247393608
0.0040335641242563725
-0.01827543042600155
-0.10653053224086761
-0.11992838978767395
0.05687092989683151
0.08195915818214417
0.13742223381996155
-0.3853152394294739
-0.07881814986467361
0.015203422866761684
-0.03331770375370979
-0.04352415353059769
-0.016969388350844383
-0.032272882759571075
-0.026604922488331795
-0.025040464475750923
0.05729666352272034
-0.0015161774354055524
-0.0005605988553725183
0.09997349232435226
-0.05478482320904732
0.015135201625525951
-0.06502595543861389
0.06563833355903625
0.0022477353923022747
0.04244037717580795
0.05496520176529884
0.029499292373657227
-0.08435138314962387
0.131594717502594
-0.031322628259658813
0.019521011039614677
-0.009583965875208378
0.04260963201522827
0.03204978629946709
0.24891752004623413
-0.055469583719968796
0.12181004881858826
0.06793161481618881
-0.07393893599510193
0.05044449493288994
0.07960788905620575
-0.02150997705757618
-0.05729960650205612
0.036542292684316635
-0.04230056703090668
0.031528063118457794
-0.02779501862823963
-0.08508908748626709
0.00013030788977630436
-0.10428747534751892
0.059641946107149124
0.07084287703037262
0.021082166582345963
-0.016178417950868607
-0.00727885402739048
0.03793670982122421
-0.01782849244773388
-0.00440989201888442
-0.0461299754679203
-0.016872216016054153
0.01923351176083088
0.010320528410375118
-0.03504204377532005
-0.031042885035276413
0.1314457505941391
-0.07349744439125061
0.024792790412902832
0.031471386551856995
-0.005023338831961155
0.021914806216955185
0.08470259606838226
-0.01610836386680603
0.093433678150177
-0.02828328125178814
-0.08505362272262573
0.01681966707110405
-0.08300413936376572
0.13070529699325562
-0.1759737730026245
-0.12910106778144836
-0.2270110547542572
-0.015473531559109688
0.16706423461437225
-0.00461200624704361
0.05834512040019035
7.784571789670736e-05
0.03269655629992485
0.0037418941501528025
0.020897431299090385
0.06171802058815956
0.22743673622608185
-0.04446686431765556
0.023367736488580704
-0.009586410596966743
0.012425546534359455
-0.012089021503925323
0.04750170558691025
-0.040242306888103485
0.008454141207039356
0.0005039574461989105
-0.015910344198346138
-0.009247001260519028
0.05803868919610977
0.028622690588235855
0.06650576740503311
0.0421198233962059
-0.5410999655723572
-0.0236092247068882
-0.006320399232208729
0.012745128944516182
-0.017739903181791306
-0.04413403198122978
-0.051772501319646835
-0.017266493290662766
0.038743145763874054
0.035643674433231354
-0.002799720736220479
-0.01570500060915947
0.02891816571354866
-0.018682628870010376
-0.0931599885225296
-0.000697959098033607
0.006384796462953091
0.17714153230190277
0.001997707411646843
0.0063294293358922005
-0.07070279866456985
-0.011358886025846004
-0.008550912141799927
0.023811496794223785
0.008424900472164154
-0.28739359974861145
0.036314938217401505
-0.024695605039596558
-0.014647226780653
-0.0024935612455010414
-0.004288674797862768
0.019224658608436584
0.03926374018192291
-0.03339815512299538
0.01125407125800848
-0.013355419971048832
-0.033787380903959274
-0.0318128801882267
0.022228676825761795
0.017146294936537743
0.04063705727458
0.042375098913908005
-0.017019161954522133
-0.026192283257842064
-0.04921247810125351
-0.04665621370077133
-0.013094003312289715
-0.025395993143320084
-0.010696218349039555
0.02653353475034237
-0.061628494411706924
-0.09241091459989548
0.035288963466882706
-0.037280771881341934
0.017350036650896072
0.03967147320508957
-0.0027353400364518166
0.0812457725405693
-0.024030642583966255
-0.023337721824645996
-0.032449107617139816
0.1814139187335968
0.04488235339522362
-0.04917668178677559
-0.1372239589691162
0.03876793012022972
-0.05880218371748924
-0.027707546949386597
0.212067112326622
0.002864241600036621
-0.02941206656396389
0.006226514000445604
0.0569206066429615
0.007908634841442108
-0.02706090547144413
-0.008547467179596424
0.008311161771416664
-0.00022610585438087583
-0.011702028103172779
-0.005476810969412327
0.0610383078455925
0.008916222490370274
0.11308165639638901
0.035789914429187775
0.011709332466125488
-0.05248871445655823
-0.07941459119319916
-0.04059608653187752
0.007044366095215082
0.01690124347805977
0.028564564883708954
-0.007623957470059395
-0.00974736362695694
0.050787534564733505
-0.22103416919708252
0.24214820563793182
-0.02799225226044655
0.04112457484006882
-0.3171981871128082
-0.04585377871990204
-0.15309381484985352
-0.09237255156040192
0.33751195669174194
-0.017655231058597565
0.05653231590986252
0.019246812909841537
0.0068971761502325535
-0.01289980486035347
-0.032730381935834885
-0.03981422632932663
0.014913872815668583
-0.03864560276269913
-0.3416900932788849
-0.01359539944678545
0.029457606375217438
0.02109275758266449
-0.01955806091427803
-0.021679775789380074
-0.06520161777734756
-0.08435443788766861
-0.01451244205236435
0.05102168768644333
-0.038833342492580414
-0.03194260597229004
-0.04163595288991928
0.002884343732148409
0.052383653819561005
-0.07436370104551315
-0.022291813045740128
-0.023782551288604736
0.012686596252024174
-0.14504803717136383
-0.0005762033397331834
-0.10849592089653015
0.009922979399561882
-0.042496342211961746
-0.01315054576843977
0.024311460554599762
-0.03484484180808067
0.02078939415514469
-0.03168027848005295
0.04620223492383957
-0.004809926263988018
0.06130920723080635
0.07314411550760269
0.001971174031496048
0.023989737033843994
0.016784241423010826
0.09024578332901001
0.004921285901218653
0.14238354563713074
-0.04266316071152687
0.04262382537126541
0.005634470842778683
0.03608699515461922
-0.10294833034276962
-0.06965042650699615
0.006227964535355568
-0.015858426690101624
-0.013133551925420761
-0.08634159713983536
0.07720240205526352
-0.036541182547807693
0.00032738977461121976
-0.012636667117476463
-0.043796636164188385
-0.006335153244435787
-0.04393422603607178
0.061029039323329926
-0.028584027662873268
-0.030629586428403854
-0.026806341484189034
-0.03932975232601166
0.025879645720124245
0.00636961730197072
-0.03543467819690704
-0.02079310640692711
0.04960111156105995
-0.04973544552922249
-0.11941319704055786
-0.055502403527498245
-0.002449353225529194
-0.08499081432819366
0.03440170735120773
-0.004346748813986778
-0.021372174844145775
0.0482318252325058
-0.0620710551738739
0.10748332738876343
0.038025155663490295
-0.048582494258880615
0.047604359686374664
0.017508674412965775
0.007892834953963757
-0.012137504294514656
-0.047071367502212524
0.06818613409996033
0.11241516470909119
-0.0530548058450222
0.15643954277038574
-0.07125243544578552
-0.15772606432437897
-0.03188731521368027
0.026478338986635208
0.015357190743088722
-0.12285037338733673
-0.022186854854226112
0.0432618223130703
-0.004072688985615969
-0.05717403441667557
-0.05967702716588974
-0.022971827536821365
0.08040318638086319
-0.14298991858959198
-0.10310489684343338
0.09191235154867172
0.14635750651359558
-0.022039785981178284
0.05293741077184677
-0.05881768465042114
-0.12423812597990036
-0.07078913599252701
-0.05399468168616295
0.008151724934577942
0.15844424068927765
0.03606709465384483
0.10984164476394653
-0.0478472039103508
-0.03101179376244545
0.011081944219768047
-0.18330442905426025
-0.016798080876469612
0.03658753260970116
-0.0068829176016151905
-0.019620327278971672
-0.04102322459220886
-0.04365631937980652
0.0164024718105793
-0.00864800438284874
-0.03567315265536308
-0.2888083755970001
-0.014809554442763329
-0.08736401796340942
0.09818661957979202
-0.02826518565416336
0.02063397318124771
-0.03368987888097763
0.028619645163416862
-0.03008945845067501
0.06315922737121582
-0.00433766795322299
0.0021989173255860806
-0.0657058134675026
-0.010974539443850517
0.031836025416851044
-0.04489666223526001
0.3740716576576233
0.0731327086687088
0.011221366934478283
-0.09247639030218124
0.004276517312973738
-0.1798122376203537
0.07144569605588913
-0.2551635801792145
0.11045872420072556
0.05070529878139496
0.030889736488461494
-0.017686430364847183
0.07857101410627365
0.08044242858886719
0.0326368547976017
-0.010345466434955597
0.007305785547941923
0.04717300087213516
0.09964528679847717
-0.005923279095441103
0.03526870906352997
0.019156955182552338
0.15001018345355988
0.12027909606695175
0.06789448112249374
-0.06765827536582947
-0.002468521473929286
-0.1549750119447708
0.12337759882211685
0.0986844077706337
-0.14135675132274628
-0.047071173787117004
0.20546792447566986
0.01700127311050892
0.053316760808229446
0.0007687571342103183
-0.060700107365846634
-0.12233537435531616
-0.008387471549212933
-0.11010820418596268
-0.008534381166100502
-0.005591247230768204
-0.12566709518432617
-0.10672470182180405
-0.07336117327213287
-0.02663307823240757
-0.009974558837711811
0.046309467405080795
-0.0644288957118988
-0.0748930424451828
-0.053397491574287415
0.05408160760998726
-0.02393011376261711
-0.05720486491918564
0.04822519049048424
-0.01783067174255848
-0.07069259881973267
0.027924468740820885
-0.09913525730371475
0.04122306779026985
0.1055271252989769
-0.013516033999621868
-0.016160370782017708
0.04617149010300636
0.09145335108041763
0.08865097910165787
0.0010575695196166635
0.05578575283288956
0.001026470330543816
0.03061538003385067
0.14356237649917603
-0.04825500398874283
0.10807252675294876
-0.021038880571722984
0.0043463208712637424
-0.02060704678297043
0.06756584346294403
-0.04586545005440712
-0.020797567442059517
-0.002643751911818981
0.044650472700595856
-0.24246282875537872
-0.07150197774171829
-0.02115130051970482
0.026529381051659584
-0.03928238898515701
0.007950200699269772
-0.11108793318271637
-0.01995960995554924
0.008671717718243599
-0.04466119408607483
0.02931453473865986
0.09129194170236588
0.02838297002017498
0.05043444409966469
-0.00636670459061861
0.024388961493968964
0.0538281574845314
0.02014155685901642
-0.07210596650838852
-0.004638434387743473
-0.08997989445924759
-0.0664241835474968
-0.02586342580616474
0.08319992572069168
0.014588993042707443
0.006446351762861013
-0.03540458157658577
-0.040813371539115906
-0.016135195270180702
-0.03009694628417492
0.00019002027693204582
0.0008128741174004972
-0.008308709599077702
-0.007216265425086021
0.04496024549007416
-0.01831709034740925
-0.010298669338226318
-0.012507756240665913
-0.01386585645377636
0.051075708121061325
-0.0024745871778577566
0.00904899276793003
0.039633795619010925
-0.061244405806064606
0.04004700481891632
0.017424335703253746
0.036447495222091675
-0.059238824993371964
0.12525740265846252
0.025346005335450172
-0.002472627442330122
-0.008251963183283806
0.07051058113574982
0.13944761455059052
-0.08622731268405914
-0.04591206833720207
0.039422038942575455
-0.05241071805357933
-0.04648362472653389
0.0522325225174427
0.030526326969265938
0.020855803042650223
-0.018831947818398476
-0.024092137813568115
-0.10234244912862778
0.010388807393610477
-0.006278067361563444
0.017649689689278603
0.0499223954975605
0.022903461009263992
-0.054208315908908844
0.06068623065948486
0.14802490174770355
-0.01628669910132885
-0.01605331525206566
0.11974678933620453
-0.05711992084980011
-0.01993926241993904
0.022187694907188416
-0.07889395952224731
0.06918536871671677
0.04490159451961517
0.033273935317993164
0.011546972207725048
-0.01697245053946972
-0.05126629024744034
-0.002256807405501604
-0.0032808510586619377
-0.03834059089422226
-0.02618374302983284
-0.03298022598028183
0.039041534066200256
-0.025065002962946892
0.024259237572550774
0.059842344373464584
0.028505293652415276
0.012059340253472328
0.029286745935678482
-0.01091368030756712
0.04122471436858177
0.005052481312304735
-0.055554088205099106
0.03516301140189171
0.01166033186018467
-0.10146676003932953
0.03979383409023285
-0.07130727916955948
0.1779228299856186
-0.13427016139030457
-0.012502334080636501
0.011013484559953213
0.057567112147808075
0.09787233173847198
0.020181043073534966
-0.16573402285575867
-0.05320288985967636
0.1924012154340744
-0.001957082888111472
0.40405479073524475
0.005792749114334583
-0.00426123570650816
0.023428039625287056
0.008691060356795788
-0.04255082830786705
-0.03167102485895157
0.008937366306781769
0.029941106215119362
-0.004531411919742823
0.07027453184127808
-0.03357703238725662
-0.00814676471054554
-0.016003523021936417
-0.04501345008611679
-0.011418634094297886
-0.0043571991845965385
0.18123523890972137
0.01515668723732233
-0.06391649693250656
-0.05246143788099289
0.14148588478565216
0.026885028928518295
-0.07976111024618149
0.007657714653760195
-0.012960647232830524
-0.010792940855026245
-0.004715070128440857
0.005771854892373085
0.018936483189463615
-0.1276526004076004
-0.0722646564245224
0.018095146864652634
-0.011681843549013138
-0.0049781822599470615
-0.0007662380230613053
-0.021437542513012886
0.006952457595616579
0.019740117713809013
0.019347967579960823
0.006686150562018156
-0.02228206768631935
-0.005636709276586771
-0.07875867933034897
-0.01061269361525774
-0.00801527313888073
0.005220964550971985
-0.01792958937585354
0.01090421061962843
-0.28545111417770386
-0.00971339363604784
-0.12193508446216583
0.0009132919949479401
0.016167275607585907
-0.019778147339820862
0.05125319957733154
0.0026776480954140425
0.07980111986398697
-0.075291208922863
0.027282696217298508
0.044661153107881546
0.01490354910492897
-0.061502378433942795
0.035242509096860886
-0.07135631144046783
0.04898321256041527
-0.006493753753602505
0.039110876619815826
-0.028161393478512764
0.009605052880942822
0.038751814514398575
0.010434004478156567
0.022531304508447647
0.0066207353956997395
0.022227680310606956
0.020613200962543488
-0.0791345164179802
0.027898546308279037
0.08152913302183151
0.04195721447467804
0.00650431215763092
-0.08193592727184296
-0.061109334230422974
0.029945148155093193
0.030124051496386528
0.035845231264829636
0.03687919303774834
-0.029680045321583748
-0.010532021522521973
0.005310472100973129
-0.05384982004761696
-0.02272115834057331
0.032720472663640976
-0.00395575724542141
-0.02354986034333706
-0.02908972278237343
-0.02454405464231968
0.01320821512490511
0.028146008029580116
0.028551820665597916
-0.04222770035266876
0.025621876120567322
-0.023559805005788803
0.018332600593566895
0.08732952922582626
0.03944352641701698
0.02338230237364769
0.051762595772743225
-0.03984639048576355
0.008132698945701122
0.0061911423690617085
0.01839328743517399
-0.002814826788380742
0.027809428051114082
-0.07674618065357208
-0.037169743329286575
0.02554366923868656
-0.050524454563856125
-0.029715506359934807
0.014524449594318867
0.018068190664052963
-0.07328200340270996
-0.04137072712182999
0.028525460511446
0.015380102209746838
0.15383891761302948
0.001485068816691637
0.06584566831588745
-0.050484854727983475
-0.005271559581160545
-0.1678091287612915
0.032495204359292984
0.027188757434487343
0.058820463716983795
0.02450389973819256
0.019137652590870857
0.019895199686288834
0.06820458173751831
-0.10156629234552383
-0.0818607434630394
-0.21287842094898224
-0.01235960889607668
-0.09519137442111969
0.1428930163383484
0.06377045065164566
-0.002904182067140937
-0.010091354139149189
-0.0416252538561821
0.054570555686950684
0.03496542200446129
0.003826726460829377
-0.273680180311203
-0.1902516931295395
-0.017162583768367767
-0.0053854272700846195
-0.09433729201555252
-0.02651086077094078
0.2625763714313507
-0.23579657077789307
-0.18144798278808594
-0.06487607210874557
-0.020093850791454315
0.007885239087045193
0.035222142934799194
0.010037778876721859
0.003787985537201166
-0.05801019072532654
-0.0012263160897418857
0.012113232165575027
0.4225734770298004
-0.04019702225923538
-0.0034579657949507236
0.02281656302511692
0.015145799145102501
-0.008140265941619873
-0.019878529012203217
0.1515682488679886
-0.009080248884856701
0.022320494055747986
0.03090794011950493
0.01993619278073311
-0.05224200710654259
0.013856275007128716
-0.025107398629188538
0.01722843013703823
-0.1181972548365593
0.06139678880572319
0.023878326639533043
0.0071702320128679276
0.022642051801085472
0.0010269207414239645
-0.0002972062211483717
-0.012798462994396687
-0.024542072787880898
0.010291457176208496
-0.02355029433965683
-0.05010247975587845
0.03247440233826637
0.013127682730555534
0.025876829400658607
0.021617695689201355
-0.016384150832891464
-0.06407109647989273
0.017797747626900673
0.0019085347885265946
-0.0008214279660023749
0.011624764651060104
-0.0346878319978714
-0.022901803255081177
-0.0435519739985466
-0.0071358829736709595
-0.04684348776936531
-0.031205205246806145
-0.043869998306035995
0.02477685734629631
-0.040389303117990494
0.007774550933390856
-0.0203910693526268
0.02978922799229622
-0.008438299410045147
-0.008926022797822952
-0.005392261780798435
-0.0738387331366539
-0.017791729420423508
-0.015842217952013016
-0.010348895564675331
0.017258930951356888
0.008960016071796417
0.017198164016008377
0.0362066775560379
-0.007389624137431383
-0.018405478447675705
-0.05443879961967468
0.014956166036427021
0.08501061797142029
-0.044962018728256226
0.008168851025402546
0.018919024616479874
0.05844409763813019
-0.05100212246179581
0.028832998126745224
0.03640438988804817
-0.03132941573858261
-0.02564757876098156
-0.045302554965019226
-0.03671574220061302
0.013409300707280636
0.005290417466312647
-0.08087895065546036
-0.016565272584557533
0.0026687842328101397
-0.0003533668350428343
0.06837550550699234
-0.018538834527134895
-0.17733484506607056
0.0018236475298181176
-0.44904232025146484
0.0013562605017796159
-0.02752857841551304
-0.09499101340770721
-0.09674552828073502
-0.009651631116867065
-0.1242583841085434
-0.014342544600367546
0.013489180244505405
0.0009682115050964057
-0.0068984306417405605
-0.05622942000627518
-0.02124674618244171
-0.021257154643535614
0.06506800651550293
-0.17444035410881042
0.0073533072136342525
-0.0333738811314106
0.02845171093940735
-0.08575974404811859
0.03630278632044792
0.2856534719467163
-0.11442440748214722
-0.015456991270184517
0.04885857179760933
0.11065129935741425
-0.02397983707487583
-0.031812433153390884
0.07880938798189163
-0.09257230162620544
0.10680738091468811
-0.01699156127870083
-0.025938810780644417
0.06907197088003159
0.010925269685685635
0.055984340608119965
0.02295270748436451
-0.101058728992939
-0.09238765388727188
0.03360596299171448
0.1186191588640213
-0.004425419494509697
0.03275708109140396
-0.007423290982842445
-0.021677648648619652
0.01024530827999115
-0.025518203154206276
0.02117861807346344
0.06914608925580978
-0.05072712525725365
-0.036970123648643494
-0.13563868403434753
-0.03255421668291092
-0.02301599085330963
0.0026883974205702543
-0.07364990562200546
-0.02130000852048397
-0.21403318643569946
-0.004597182385623455
-0.0007435504230670631
-0.016313990578055382
-0.0037566772662103176
-0.05275926738977432
-0.04565559700131416
-0.0017791178543120623
-0.0028774847742170095
0.010607058182358742
-0.026400068774819374
-0.0866464227437973
-0.0211953017860651
0.03318376839160919
0.013013402931392193
-0.006842414848506451
0.03218324854969978
0.01576167158782482
-0.04207567125558853
-0.014164491556584835
-0.06691979616880417
0.03769432753324509
0.037192992866039276
-0.004061470739543438
0.07176551222801208
0.04428958147764206
-0.02880743518471718
-0.012125741690397263
-0.057484693825244904
0.0038273469544947147
0.006260865833610296
-0.001176506164483726
0.02886197902262211
-0.039663635194301605
-0.043145377188920975
0.012338420376181602
7.174565689638257e-05
-0.047629132866859436
0.00790125411003828
0.014414080418646336
-0.003418001579120755
0.0047448379918932915
0.020409928634762764
-0.04592098295688629
-0.005555674433708191
-0.005345699843019247
0.07931911200284958
-0.05327065289020538
-0.009489982388913631
-0.05639972910284996
-0.10875441133975983
-0.025496290996670723
0.024480709806084633
0.1078631579875946
-0.0958709865808487
0.02623032033443451
-0.043048471212387085
7.637673843419179e-05
-0.0004429949040059
0.018459750339388847
0.012832896783947945
0.004809663165360689
0.02318723313510418
-0.05692455172538757
0.02160351164638996
0.003996300511062145
0.014523675665259361
-0.23756834864616394
0.07734104245901108
-0.2578965127468109
0.06493912637233734
0.0751178190112114
0.013056152500212193
0.0026651693042367697
-0.041324567049741745
0.02333027310669422
0.013563890941441059
-0.02273094840347767
0.07317367196083069
-0.018305132165551186
-0.017366137355566025
0.08011145889759064
0.006760941818356514
0.10772905498743057
0.04860043153166771
0.038814302533864975
-0.010112747550010681
0.08005329221487045
0.16050517559051514
-0.005757417529821396
-0.02438000589609146
-0.2036067396402359
0.33897092938423157
0.051833491772413254
0.016861680895090103
-0.0009480097214691341
0.04627399519085884
0.008184630423784256
0.030752159655094147
0.042410437017679214
-0.07880101352930069
-0.015543595887720585
0.046768613159656525
-0.05652737244963646
0.06857594847679138
0.05780550092458725
-0.06118842959403992
0.04441847279667854
-0.14460967481136322
-0.0766449123620987
0.021239906549453735
0.04737916216254234
-0.0038241685833781958
0.03196069225668907
-0.17054219543933868
0.04078735038638115
0.00911328662186861
0.013654092326760292
-0.0786832794547081
-0.0052736070938408375
-0.2644089162349701
0.08858241885900497
-0.19669800996780396
-0.006499422248452902
0.10136923938989639
0.03302280604839325
-0.07348748296499252
-0.05212745442986488
0.08506286889314651
-0.039051152765750885
0.04352704435586929
-0.001760802580974996
-0.025400055572390556
0.008654113858938217
-0.016748487949371338
0.01329598668962717
0.0001560118398629129
-0.0070608374662697315
-0.050099726766347885
-0.018467819318175316
-0.006492513697594404
-0.036280885338783264
0.0005071171326562762
0.0037705020513385534
0.012220616452395916
0.011899424716830254
-0.011127493344247341
-0.004791054874658585
0.04221445322036743
-0.004904328845441341
-0.022075362503528595
0.039859671145677567
0.014470881782472134
0.021661916747689247
-0.00167600077111274
-0.007852492853999138
-0.015278162434697151
-0.02358378656208515
0.010072360746562481
-0.013808445073664188
0.010463180020451546
0.05076116323471069
-0.020347673445940018
-0.0046201543882489204
0.00793139822781086
0.006829615216702223
0.004686828702688217
0.04245469346642494
0.017466407269239426
-0.022228935733437538
-0.02880817838013172
0.01114646252244711
-0.01922912523150444
0.0038903364911675453
-0.03162435069680214
0.026481520384550095
0.01164071261882782
0.04078984633088112
-0.040619172155857086
0.011839183047413826
0.0014935208018869162
0.03292366489768028
0.052046459168195724
0.03398127481341362
-0.023663101717829704
-0.0071082692593336105
-0.013465037569403648
0.04187968000769615
0.006733710411936045
0.020088469609618187
0.06297539919614792
-0.04097183048725128
0.015198713168501854
-0.0071909199468791485
0.04319903999567032
-0.007613234221935272
0.07393737137317657
-0.02030728943645954
-0.005220870021730661
-0.09697703272104263
0.00777269946411252
0.005527830682694912
-0.022971438243985176
0.0061542266048491
-0.023550912737846375
-0.044438064098358154
0.038933780044317245
0.05865669623017311
0.025005269795656204
0.022939637303352356
-0.00801960751414299
0.04717395454645157
-0.1760915219783783
-0.017924964427947998
-0.12716467678546906
-0.02407294698059559
-0.0022643590345978737
-0.02360084094107151
0.04036400467157364
0.0027981088496744633
0.0037252972833812237
0.08969642221927643
-0.0754331648349762
0.024975469335913658
0.09390201419591904
-0.005818332079797983
-0.03372468799352646
0.004416870418936014
0.03450820595026016
-0.012255402281880379
-0.013638319447636604
0.034921787679195404
-0.01933079957962036
0.06478124111890793
-0.07240118086338043
-0.0465397946536541
-0.05845123901963234
0.043699655681848526
-0.04273664578795433
-0.05876722186803818
0.023438557982444763
0.018551833927631378
-0.03060915693640709
0.2041565179824829
0.01358701940625906
-0.01151338405907154
0.029315629974007607
0.015029549598693848
-0.022805510088801384
0.17033138871192932
-0.012565003708004951
-0.052938174456357956
-0.2120065689086914
-0.07454780489206314
-0.02929523214697838
0.03966445475816727
-0.13113933801651
-0.017683349549770355
-0.044020090252161026
-0.0029436692129820585
0.13930317759513855
-0.030062681064009666
-0.03412622958421707
0.08670441806316376
0.005431564059108496
0.04331156238913536
-0.002217300469055772
-0.014513766393065453
0.02686462178826332
-0.042131099849939346
0.002921190345659852
0.015701355412602425
0.02333790250122547
-0.05635169520974159
-0.06985458731651306
-0.49864864349365234
-0.028953855857253075
0.02835088223218918
0.020910916849970818
-0.008649841882288456
0.02971777506172657
0.011410958133637905
0.025023767724633217
0.00697421096265316
-0.05288708955049515
-0.08732520788908005
-0.006356652360409498
-0.030224885791540146
-0.02866259030997753
0.024388311430811882
0.3855558931827545
0.07675742357969284
-0.021297695115208626
0.04571874439716339
-0.019037971273064613
0.013789311982691288
0.09137839078903198
-0.012960365042090416
0.004325471352785826
-0.002310277195647359
-0.03920075669884682
-0.019260214641690254
0.021506786346435547
0.010819665156304836
-0.09255917370319366
-0.015696987509727478
0.02409656159579754
-0.07302767038345337
-0.010097917169332504
-0.005087006837129593
-0.012770692817866802
-0.11043346673250198
-0.030773144215345383
-0.001044897479005158
-0.02952798642218113
-0.032130368053913116
0.0561794713139534
-0.0210808664560318
0.019687123596668243
-0.03419661894440651
-0.03190062195062637
-0.08595838397741318
0.007669443264603615
-0.042239636182785034
0.027170740067958832
0.02358178421854973
-0.04965372383594513
0.3078959882259369
0.06260841339826584
0.054013874381780624
0.03486735001206398
0.04668506979942322
-0.01529145147651434
-0.03643807768821716
0.022476309910416603
0.050663720816373825
0.02505338564515114
-0.0381312370300293
0.02905433438718319
0.058988217264413834
0.025710491463541985
-0.24715258181095123
-0.2818167209625244
-0.010080941952764988
0.12015486508607864
0.005005983170121908
-0.05027427524328232
-0.0023887900169938803
-0.025908757001161575
-0.09068978577852249
-0.13380391895771027
-0.05656198412179947
0.008946377784013748
0.042573027312755585
-0.0025660169776529074
0.12578515708446503
-0.16396182775497437
-0.2888404428958893
-0.20227785408496857
-0.03653622418642044
0.12017374485731125
-0.010797540657222271
0.012879254296422005
-0.030322475358843803
-0.011943924240767956
0.029479671269655228
0.03408275172114372
-0.014031068421900272
0.014931698329746723
-0.006250489968806505
0.016442684456706047
0.09660735726356506
-0.041917044669389725
0.05760626122355461
-0.013702775351703167
0.03526227921247482
-0.018415268510580063
0.02991482801735401
0.005824908148497343
-0.09477400779724121
-0.004767513368278742
0.018854383379220963
0.035754382610321045
-0.0165864285081625
0.20709791779518127
0.05081534758210182
0.027700504288077354
-0.059148985892534256
-0.017536967992782593
-0.20143580436706543
0.04202425852417946
-0.017652828246355057
-0.02451803721487522
-0.006180779077112675
-0.06606384366750717
-0.03667347505688667
-0.014298689551651478
-0.04635433480143547
-0.015147273428738117
-0.03909293934702873
0.07746781408786774
-0.1050746887922287
0.010568410158157349
0.04772979021072388
-0.01357418391853571
-0.049126893281936646
-0.33941027522087097
-0.06483637541532516
-0.10983801633119583
-0.020234297960996628
-0.058089837431907654
-0.0789901465177536
-0.2405729740858078
-0.07658983767032623
0.006349887233227491
-0.02163328416645527
-0.04562649503350258
-0.026552418246865273
-0.04530009999871254
0.06425892561674118
0.009422332048416138
0.09467791020870209
-0.037380050867795944
0.01751936972141266
0.03858108073472977
0.01693914271891117
0.02079647220671177
0.03187115117907524
-0.1288444846868515
-0.11342928558588028
-0.008044811896979809
-0.014618076384067535
-0.0855594277381897
-0.01747736521065235
-0.07440979033708572
0.02129463665187359
0.010759152472019196
-0.01755736954510212
-0.07841822504997253
-0.025829611346125603
-0.06724755465984344
-0.059917792677879333
-0.06538142263889313
-0.18613587319850922
0.023964039981365204
0.0008531453786417842
-0.0578630305826664
-0.13554303348064423
0.459171324968338
-0.02844376675784588
0.005721282679587603
0.027651963755488396
0.034876301884651184
-0.11471705138683319
-0.04999615252017975
-0.0722220316529274
-0.03583180531859398
-0.003532145172357559
0.052354712039232254
0.06163565069437027
0.0007641403935849667
0.06364154815673828
0.005822652950882912
-0.035402100533246994
0.16088402271270752
-0.023333359509706497
0.04519382491707802
-0.015753496438264847
-0.09556333720684052
0.020047124475240707
-0.020602786913514137
-0.10148867219686508
0.07598782330751419
0.006719668861478567
-0.0022518180776387453
-0.1287040412425995
-0.05832018703222275
-0.02598390355706215
0.019015280529856682
-0.019780129194259644
-0.012493439950048923
0.07938362658023834
-0.03971405327320099
-0.04233165085315704
0.020724790170788765
-0.009137153625488281
-0.006910255644470453
0.002306535607203841
0.016669567674398422
-0.020792512223124504
0.042608827352523804
0.013521246612071991
-0.00813301932066679
0.06104709953069687
-0.09703399986028671
-0.004040743689984083
-0.034706421196460724
0.06575686484575272
-0.05772250145673752
-0.005875513423234224
-0.01569194160401821
-0.04614245891571045
0.21663464605808258
-0.02235570177435875
-0.046627435833215714
-0.01744803972542286
0.032126959413290024
-0.03745364025235176
0.017262902110815048
0.06067037209868431
-0.05192016437649727
-0.15188156068325043
-0.003737216116860509
-0.09308525919914246
-0.04582402482628822
0.0876384750008583
-0.030152875930070877
-0.053821463137865067
0.037541914731264114
0.026829587295651436
0.0178202036768198
0.0021021487191319466
-0.03370678052306175
-0.032977163791656494
-0.04058662801980972
-0.05409024655818939
-0.0073487223125994205
0.059469159692525864
-0.009070062078535557
-0.0014681731117889285
-0.04852437227964401
0.020619569346308708
0.023176345974206924
0.03688373416662216
-0.050975825637578964
0.036277782171964645
-0.08232280611991882
-0.028854036703705788
0.0225963331758976
-0.042165450751781464
0.004550857003778219
-0.06582724303007126
0.03328835591673851
-0.01107695885002613
-0.032330472022295
0.0049215322360396385
-0.0015149797545745969
0.013689756393432617
-0.004338058643043041
0.05645870417356491
0.012175153009593487
0.012798204086720943
-0.021198345348238945
0.02625235728919506
-0.01105600968003273
0.004390356596559286
-0.0386977382004261
0.0500541515648365
0.05651693418622017
0.05536162480711937
0.010764340870082378
-0.036305539309978485
0.011850746348500252
0.025243135169148445
-0.039769258350133896
-0.015409193001687527
-0.0704834908246994
-0.017105495557188988
-0.05711083486676216
-0.003739128354936838
0.046055249869823456
0.004458674229681492
0.00682947039604187
-0.02807486057281494
-0.06112434342503548
0.049134913831949234
0.036894600838422775
-0.0007748895441181958
0.009679490700364113
0.003592689521610737
0.039622459560632706
-0.04106656089425087
0.048267662525177
-0.13584460318088531
0.06700239330530167
-0.09934823215007782
-0.04117858409881592
-0.030468080192804337
-0.2129073143005371
-0.003218540456146002
-0.0006648403941653669
-0.0069070979952812195
-0.0007135698106139898
-0.1360584795475006
0.011002909392118454
0.013274491764605045
0.06192220374941826
-0.1377943605184555
0.014966391026973724
0.04321105405688286
-0.058688290417194366
-0.012947870418429375
0.055766511708498
-0.056978657841682434
-0.1315002143383026
-0.07857134938240051
-0.08075794577598572
0.0502171516418457
-0.006197767797857523
0.011128542013466358
-0.009414369240403175
0.0690981075167656
-0.19750981032848358
-0.04162103682756424
-0.1942463368177414
-0.007196332328021526
0.160281702876091
0.007624299731105566
-0.02621539495885372
-0.016193991526961327
-0.08300776034593582
-0.0571746863424778
0.01923855021595955
-0.023458490148186684
-0.01106664352118969
-0.01032192725688219
-0.0439048707485199
0.030565297231078148
0.010997085832059383
0.018340883776545525
-0.04251353070139885
0.07650841027498245
-0.002196409972384572
0.001236366922967136
-0.0016510426066815853
-0.005905222147703171
4.171171167399734e-05
0.05457494780421257
-0.021484335884451866
-0.06559374928474426
-0.4712648093700409
-0.09802670031785965
0.008126120083034039
0.31285732984542847
-0.05592723935842514
-0.08709345757961273
0.05586976930499077
-0.00012135994620621204
0.013504035770893097
-0.015601543709635735
0.05553407222032547
0.01516119297593832
-0.0036617035511881113
0.041342731565237045
0.026901591569185257
0.00787202175706625
0.2296844720840454
0.01409983728080988
-0.058200933039188385
-0.052076153457164764
-0.056024592369794846
-0.011151113547384739
-0.13358508050441742
0.01935136504471302
0.2642766535282135
0.04341747239232063
0.006788002327084541
0.13230253756046295
-0.04783407971262932
-0.08730842918157578
-0.04153960198163986
-0.002310955198481679
-0.042033419013023376
0.004925247747451067
-0.08975348621606827
0.010092451237142086
-0.02453996054828167
0.05815839022397995
-0.04914353787899017
-0.016878262162208557
0.06271650642156601
-0.00199201051145792
-0.0021241544745862484
-0.05116384103894234
-0.2757472097873688
0.1629132777452469
0.013354738242924213
-0.16139233112335205
0.013717064633965492
-0.06003524363040924
0.08138769119977951
-0.03467665985226631
0.0017213030951097608
-0.0034274044446647167
-0.18380096554756165
0.012055912986397743
-0.19745320081710815
-0.0028077038004994392
-0.33283352851867676
-0.0061299460940063
-0.07804439216852188
0.06797029823064804
-0.0358223021030426
0.10398910939693451
0.005470294505357742
0.024719825014472008
0.01262590941041708
0.21126194298267365
-0.011225814931094646
-0.18363074958324432
0.005815498530864716
-0.15541468560695648
0.048600587993860245
-0.01561013888567686
0.10191493481397629
0.11644158512353897
0.008124066516757011
0.09740207344293594
-0.0012519214069470763
0.11461856216192245
0.20422767102718353
-0.004175771027803421
0.020999610424041748
-0.0050826119258999825
0.023370089009404182
0.04366421699523926
0.009275002405047417
0.04105106368660927
-0.36858466267585754
0.05489010363817215
0.022199662402272224
0.0919516459107399
-0.0031172377057373524
0.017496919259428978
-0.008807649835944176
0.024259764701128006
0.018801875412464142
0.053018782287836075
-0.019428951665759087
0.030825627967715263
-0.030309295281767845
0.04071863740682602
-0.046221572905778885
0.0004399091121740639
0.04547131061553955
0.014925193972885609
-0.02886161208152771
-0.001150288968347013
0.1411949098110199
0.10914936661720276
-0.0014464259147644043
0.23360076546669006
0.022252559661865234
0.05448870733380318
-0.27002838253974915
-0.007074880413711071
-0.021470511332154274
0.015132611617445946
-0.17770370841026306
0.007261326536536217
-0.27108439803123474
0.042613837867975235
-0.14142584800720215
-0.0221202801913023
0.03525466099381447
0.012966425158083439
0.1357012838125229
-0.1331022083759308
-0.08300793915987015
0.024720394983887672
-0.029443707317113876
-0.021276326850056648
0.03711476922035217
-0.054215338081121445
-0.0896129310131073
-0.06882539391517639
-0.1418650597333908
0.0152049595490098
-0.02403612993657589
0.01690489426255226
-0.3424026370048523
-0.053430501371622086
0.012712610885500908
-0.026422124356031418
0.009533219039440155
-0.283794105052948
0.003728955052793026
-0.03906189650297165
-0.01123171765357256
0.016378128901124
-0.0901612788438797
0.031365908682346344
0.014296438544988632
-0.04331858456134796
0.006373476702719927
0.016619427129626274
0.09826945513486862
-0.04871389642357826
-0.12563617527484894
0.05798142030835152
-0.0311021376401186
-0.01417002733796835
-0.07226890325546265
0.11675915867090225
-0.03163166344165802
-0.015268869698047638
-0.006140337325632572
0.008993569761514664
0.018671400845050812
-0.01439718995243311
0.04243527352809906
0.04002794623374939
0.033071890473365784
-0.01616864837706089
0.03985395282506943
0.05384092405438423
-0.010230681858956814
0.011324340477585793
-0.0026538122911006212
0.010795529000461102
-0.03312383219599724
-0.022648973390460014
0.02443353459239006
0.04436640441417694
0.010016690008342266
-0.002693673362955451
-0.01930907741189003
-0.16417421400547028
-0.035186704248189926
-0.0021430584602057934
-0.01575949415564537
0.020627381280064583
0.027594633400440216
-0.30885183811187744
-0.03933059796690941
0.055004216730594635
-0.00039193336851894855
-0.10668174177408218
0.008287680335342884
-0.09109019488096237
-0.08764858543872833
0.018251195549964905
0.012892035767436028
0.053170010447502136
-0.038424983620643616
-0.013888050802052021
0.01722223311662674
-0.021936580538749695
0.07927245646715164
-0.12698757648468018
0.011917471885681152
0.02544618397951126
-0.03137829154729843
-0.02157614752650261
-0.026758581399917603
0.14602206647396088
0.028196245431900024
0.0038079682271927595
-0.004804249387234449
0.09611187130212784
0.12682396173477173
0.004822306334972382
0.0215300265699625
0.021311476826667786
0.08434125036001205
0.03375650942325592
0.006368840578943491
0.01430225558578968
0.009049966000020504
-0.029580799862742424
0.07159339636564255
0.02931158058345318
-0.005550169851630926
-0.021705295890569687
0.022019503638148308
0.0011552531505003572
-0.0555538609623909
-0.022710995748639107
0.023838741704821587
0.06519501656293869
-0.01727483980357647
0.03165194392204285
0.009067373350262642
0.019160745665431023
0.038591690361499786
-0.017064176499843597
0.05400518700480461
0.0024344974663108587
0.013254896737635136
0.041385918855667114
-0.08609636127948761
-0.23026026785373688
0.046066828072071075
0.034827668219804764
-0.023860884830355644
0.081064872443676
-0.0002128974156221375
-0.031685031950473785
-0.0030330359004437923
-0.037894438952207565
0.07583566755056381
0.023145826533436775
0.06918545067310333
0.3215334415435791
0.0004213850188534707
0.010899471119046211
-0.029559172689914703
0.0640186220407486
0.018238307908177376
-0.059736836701631546
-0.009304363280534744
-0.005649361293762922
-0.07606174051761627
0.0018673486774787307
-0.007367110811173916
0.03134843707084656
0.06079966947436333
0.02629793994128704
-0.037688687443733215
0.07487411051988602
0.15977546572685242
-0.02269020304083824
-0.03959236666560173
-0.02045644260942936
-0.022933851927518845
-0.048498447984457016
-0.020322484895586967
-0.011959400959312916
0.004304278641939163
-0.0025531540159136057
0.023292694240808487
0.0038992094341665506
0.046032100915908813
-0.018903886899352074
-0.0702534019947052
-0.011556322686374187
-0.06268608570098877
0.014595192857086658
0.03035827912390232
0.0449368841946125
0.017971789464354515
0.039997171610593796
-0.045987606048583984
-0.05165271461009979
-0.007216073106974363
-0.023433901369571686
0.015079599805176258
0.02005106955766678
-0.022334473207592964
0.019863499328494072
-0.06492553651332855
0.03038175404071808
-0.10979624092578888
0.04032517969608307
-0.029281986877322197
-0.0005892341141588986
0.006774557288736105
-0.0048175170086324215
0.028646020218729973
-0.08889195322990417
-0.013828612864017487
-0.035816144198179245
0.018493905663490295
0.03714444860816002
0.01698208972811699
-0.022385498508810997
0.10995188355445862
-0.046397410333156586
-0.025879381224513054
0.0236221794039011
0.015991775318980217
-0.09445241838693619
-0.029123246669769287
-0.03143789991736412
0.07294179499149323
-0.0055787814781069756
-0.005068195518106222
-0.09409607201814651
0.0510978177189827
0.011210999451577663
0.0812394767999649
-0.004968021530658007
0.01823350228369236
-0.04987984523177147
0.027203140780329704
0.14146417379379272
0.012234451249241829
0.021698223426938057
0.07900836318731308
0.015137891285121441
0.022162258625030518
-0.02094048075377941
-0.007045971229672432
-0.0009684848482720554
0.006774486508220434
0.020723365247249603
-0.033269453793764114
-0.0060786097310483456
0.03245900943875313
0.019061168655753136
0.02163829281926155
0.010624786838889122
-0.018926288932561874
-0.049188919365406036
0.05190400406718254
-0.015017093159258366
-0.01579369232058525
0.07443325221538544
-0.006198969669640064
-0.044843461364507675
0.0046199411153793335
0.13514328002929688
-0.061001282185316086
-0.016408272087574005
0.05680306255817413
0.03521965071558952
-0.04534323140978813
-0.18483643233776093
-0.03562856465578079
0.023944968357682228
-0.024131039157509804
-0.31790122389793396
-0.04087384417653084
-0.03862608224153519
0.05974741652607918
-0.04087621718645096
0.05744558200240135
0.07425811886787415
0.014055307023227215
-0.011164240539073944
0.03412299230694771
0.08123239874839783
0.0039756265468895435
0.01254686713218689
0.019344856962561607
0.07646260410547256
0.016246505081653595
0.03519638255238533
-0.04492012411355972
0.006411284673959017
0.03993919864296913
0.007453261408954859
0.011169214732944965
-0.04729042202234268
0.018690137192606926
0.031919822096824646
-0.006028150208294392
0.039147116243839264
0.0005711228004656732
-0.0018741304520517588
-0.08759128302335739
-0.018811827525496483
-0.016007941216230392
0.0004217976820655167
0.00146195525303483
-0.001342018018476665
0.0035803201608359814
0.06546346843242645
-0.00965625699609518
-0.009690056554973125
0.006950381677597761
0.05080030485987663
-0.002699093660339713
0.04945053905248642
-0.00987556017935276
0.06942597031593323
-0.0327100045979023
-0.04408274218440056
0.008073968812823296
0.06450183689594269
-0.04598338156938553
0.014734519645571709
0.036424703896045685
0.017131924629211426
-0.16719624400138855
0.021435515955090523
-0.04017161577939987
-0.010766650550067425
0.35420918464660645
0.02247581072151661
0.17094041407108307
-0.04188904911279678
-0.13708394765853882
0.011288451962172985
0.005329425446689129
0.06782791763544083
0.0673467218875885
-0.27297523617744446
-0.05264769122004509
-0.015876594930887222
0.06439244002103806
0.09435492008924484
-0.052034344524145126
0.033134378492832184
0.0215707179158926
0.180127814412117
-0.01603792794048786
0.025842824950814247
-0.18287573754787445
-0.05881597474217415
-0.001531573012471199
-0.21204739809036255
-0.02760038897395134
-0.039997201412916183
-0.1548364758491516
-0.007009821478277445
-0.08449570089578629
0.00818719808012247
0.0019598081707954407
0.06599113345146179
-0.02559022046625614
0.034606773406267166
-0.05168326199054718
0.08029195666313171
-0.0038496670313179493
0.010319282300770283
-0.03728612884879112
-0.11558710038661957
0.034843090921640396
-0.017017267644405365
-0.061877161264419556
0.013956711627542973
-0.01608421839773655
-0.006165404804050922
0.02516010031104088
0.08423580229282379
0.061455901712179184
-0.0053625754080712795
0.03411315008997917
-0.003622890915721655
-0.007526626344770193
0.005215795710682869
0.08324921876192093
-0.03128794953227043
-0.004847915377467871
0.17609041929244995
0.016230739653110504
-0.07746410369873047
0.02626292034983635
-0.023411335423588753
0.02293950691819191
-0.03984007239341736
-0.13249337673187256
0.01738123968243599
-0.025956420227885246
-0.051687613129615784
0.0355893038213253
-0.015571396797895432
0.03514573723077774
0.0364718921482563
0.006412274669855833
-0.1553090512752533
-0.04347265139222145
0.0032972730696201324
-0.05896835774183273
0.11009776592254639
-0.003942611627280712
-0.1962837129831314
0.04175831004977226
-0.4054375886917114
0.03153305500745773
0.04482102021574974
-0.030334163457155228
-0.08741740137338638
0.01619678921997547
0.04642077162861824
0.013890022411942482
0.009684986434876919
0.08562374114990234
0.06763093173503876
0.03780464082956314
-0.015826817601919174
0.006855159532278776
0.011720326729118824
0.03977981582283974
0.013441678136587143
-0.150556743144989
0.037131451070308685
0.08326862007379532
0.03572680428624153
-0.0034816039260476828
0.04547504335641861
0.05360867828130722
0.028683213517069817
0.01606793701648712
-0.006902477703988552
0.05780249461531639
-0.018329501152038574
0.06392960250377655
0.09860783070325851
0.04560325667262077
-0.023077556863427162
-0.0007972958264872432
0.03904169052839279
-0.014459743164479733
0.0256876852363348
-0.07359741628170013
-0.060267623513936996
-0.027803150936961174
0.10339392721652985
0.04611978679895401
0.0006365270237438381
0.024916432797908783
0.03717590123414993
0.011387230828404427
0.01679142750799656
0.0724085345864296
-0.031193649396300316
0.14005832374095917
0.03201727941632271
0.03476010635495186
0.017829013988375664
0.06362345069646835
0.005647744983434677
-0.02795606665313244
0.07758654654026031
-0.01151773240417242
0.004767206963151693
0.02306455932557583
-0.04780712351202965
-0.07683771848678589
0.005145200993865728
0.05724264681339264
0.020010126754641533
0.0669722631573677
-0.020156625658273697
-0.030182376503944397
-0.022181985899806023
-0.05385475978255272
-0.025602558627724648
0.04978896304965019
0.026354994624853134
0.015201091766357422
-0.06507696956396103
0.22322385013103485
-0.12756913900375366
-0.09048251062631607
0.01414509303867817
-0.036220483481884
-0.008863182738423347
-0.029734844341874123
-0.0762539654970169
0.2630898356437683
-0.012879887595772743
-0.03149379417300224
-0.04720587655901909
-0.04699069634079933
0.2893286347389221
0.019924931228160858
0.016977660357952118
-0.06166338920593262
-0.09010440856218338
0.017879944294691086
-0.04432319477200508
-0.1669822484254837
-0.05684904381632805
0.011342001147568226
-0.014178858138620853
-0.0026055066846311092
-0.004548954777419567
-0.04120023921132088
-0.009691118262708187
-0.024593010544776917
0.024300944060087204
0.05633339658379555
-0.03908074274659157
-0.04858427867293358
-0.004720152821391821
-0.03533964231610298
0.0411313995718956
-0.020181667059659958
-0.06283792853355408
0.022557104006409645
-0.005023660138249397
0.05315046384930611
0.012746858410537243
0.01687341183423996
-0.05592384189367294
-0.03206520155072212
0.008249886333942413
0.0734497681260109
-0.06729740649461746
0.03481446951627731
-0.045922521501779556
-0.2890620231628418
-0.08119384199380875
0.0067147123627364635
-0.2190628945827484
-0.050310976803302765
-0.2136242538690567
0.012039725668728352
0.021856078878045082
-0.04776233807206154
0.06543320417404175
-0.031485434621572495
0.028049873188138008
0.06257853657007217
0.06686199456453323
-0.10378003120422363
0.018515661358833313
-0.023726806044578552
0.019387641921639442
-0.005941484123468399
0.007930966094136238
0.011661934666335583
-0.012868803925812244
0.01240550447255373
-0.03299429267644882
-0.00918670929968357
0.021590789780020714
-0.12067072093486786
-0.07648416608572006
0.019953234121203423
0.00971698947250843
0.08410661667585373
0.002262155758216977
0.14783497154712677
-0.18298859894275665
-0.2092742919921875
-0.013941612094640732
0.10767889022827148
0.01139368861913681
0.006322542671114206
-0.015385742299258709
0.034488216042518616
-0.021584225818514824
-0.004398152697831392
0.00447613513097167
0.16628633439540863
-0.022413263097405434
-0.03215628117322922
0.04490133374929428
0.002434018300846219
0.0015857038088142872
0.044113121926784515
0.08497525751590729
0.03446045145392418
0.01949223130941391
-0.019780470058321953
0.03154214844107628
0.0457075797021389
-0.015178294852375984
-0.000853658770211041
0.0928664579987526
-0.12689338624477386
0.05971674248576164
-0.00806290004402399
0.28369808197021484
0.023152055218815804
-0.09029312431812286
0.05189400538802147
-0.23051278293132782
0.02614179067313671
0.012434713542461395
0.021061629056930542
0.02835289016366005
0.00026903263642452657
-0.29204460978507996
0.014699704945087433
0.031040824949741364
0.038417309522628784
0.04273373633623123
0.09197505563497543
0.0005307352403178811
0.03761536628007889
-0.018192922696471214
0.07443114370107651
0.09157311171293259
0.036826010793447495
-0.020611701533198357
0.08801686018705368
0.2854987382888794
0.09042239934206009
0.03870128095149994
-0.09880147874355316
0.012667587958276272
0.06337309628725052
-0.05453072115778923
0.006417081691324711
0.012351230718195438
0.04607556387782097
-0.06713655591011047
-0.05519987270236015
-0.01712842658162117
0.04514312744140625
0.02289586514234543
0.0819966197013855
0.10576071590185165
-0.07071427255868912
0.028459586203098297
-0.026958705857396126
-0.13890689611434937
0.046230513602495193
0.04466375708580017
-0.14518967270851135
0.04165463149547577
-0.07844602316617966
0.056542228907346725
-0.42439642548561096
-0.01496015302836895
0.08093179762363434
0.04266823083162308
0.14822813868522644
0.032509829849004745
0.03520077466964722
0.0027226703241467476
-0.07315880805253983
-0.4133076071739197
0.04395522549748421
0.009323599748313427
0.019230728968977928
-0.001690954202786088
-0.04352390021085739
0.026632605120539665
0.0026133423671126366
0.061169832944869995
-0.014872304163873196
-0.044493116438388824
-0.011678745038807392
0.009658463299274445
-0.03041902929544449
-0.0390426367521286
0.002452743472531438
0.018578937277197838
-0.009396124631166458
-0.07092113792896271
-0.019403796643018723
0.055745456367731094
-0.06540512293577194
-0.02215939201414585
0.20305651426315308
-0.005471822340041399
0.01394460629671812
-0.0337507501244545
0.02171144261956215
0.01770484820008278
-0.06570564210414886
-0.4069836139678955
0.0755835473537445
-0.0039745476096868515
-0.12567642331123352
0.010076497681438923
-0.08436165004968643
-0.005838627461344004
-0.04170658811926842
0.03507865592837334
-0.002891954267397523
0.06274101138114929
0.049358002841472626
-0.031637489795684814
-0.0009416142129339278
-0.007590000052005053
-0.034324951469898224
0.04889373853802681
-0.03775661811232567
0.031409598886966705
-0.024697693064808846
0.016031501814723015
0.0012165880762040615
-0.055636581033468246
0.06611540168523788
-0.009957156144082546
0.020259695127606392
0.03434571623802185
-0.006586769595742226
-0.019891180098056793
0.004910208284854889
-0.007163321599364281
0.3892970383167267
-0.03530582785606384
-0.016351502388715744
-0.01550645474344492
0.018735652789473534
0.041208360344171524
0.020026447251439095
-0.031555209308862686
-0.15786097943782806
-0.013391008600592613
-0.01748022995889187
-0.07797539234161377
-0.039357539266347885
-0.011727975681424141
0.0443633534014225
0.0021460815332829952
-0.03432422876358032
0.02613653987646103
0.004625554662197828
-0.002590719610452652
-0.03276685252785683
-0.021243784576654434
0.1303340494632721
0.3025180399417877
0.007618504110723734
0.009887355379760265
0.02100597321987152
-0.02203899621963501
0.06178339943289757
-0.0003497436991892755
-0.07047116756439209
-0.009012525901198387
-0.010051390156149864
0.062079641968011856
-0.051005713641643524
-0.03172868862748146
0.02935943566262722
-0.017485545948147774
-0.4181870222091675
-0.10017172247171402
0.0034076485317200422
-0.10474180430173874
-0.08922760933637619
-0.03189793974161148
-0.06072760745882988
-0.01527076493948698
-0.009157773107290268
-0.010073013603687286
0.005598930642008781
0.03044961392879486
0.01357401441782713
0.025608474388718605
0.03786146268248558
0.016837958246469498
0.002738205948844552
0.005948011297732592
-0.017352750524878502
-0.02069033309817314
0.0366906002163887
0.10284304618835449
-0.020947657525539398
-0.018375813961029053
-0.019260793924331665
-0.025624413043260574
-0.061611663550138474
-0.021703748032450676
0.0043656243942677975
0.03364311158657074
0.05210122466087341
-0.009036105126142502
0.007205544505268335
0.002611580304801464
-0.0023439889773726463
-0.03038175217807293
-0.11511150747537613
-0.03224177658557892
0.1029939353466034
-0.04310314357280731
0.010290171951055527
0.021659042686223984
0.10564003139734268
-0.01642650179564953
0.02099272422492504
-0.0010135292541235685
0.03708551451563835
0.20676670968532562
-0.0768904983997345
-0.08255196362733841
-0.020305145531892776
-0.0248591136187315
-0.004930557683110237
0.09652331471443176
-0.023109275847673416
-0.0924937054514885
-0.001858138362877071
-0.020246604457497597
-0.06529130041599274
-0.04235268756747246
0.0939294844865799
0.040909018367528915
0.0070104459300637245
0.003107791068032384
0.03361869230866432
-0.13693782687187195
-0.012056593783199787
-0.16011875867843628
0.07475242763757706
-0.031087467446923256
0.07782295346260071
0.0222281813621521
-0.04464108124375343
0.009571737609803677
0.03565771132707596
-0.02130427211523056
0.060254596173763275
0.026217961683869362
-0.07392117381095886
0.007325262762606144
-0.023088689893484116
-0.027756813913583755
-0.0370689257979393
0.01931564323604107
-0.0031026313081383705
0.016040101647377014
0.037358805537223816
0.015075882896780968
0.02276943437755108
-0.092893585562706
0.013824676163494587
0.003633477259427309
-0.015921669080853462
0.003722652094438672
-0.07539167255163193
0.04105261713266373
-0.005351110361516476
-0.019791090860962868
-0.05811440944671631
-0.02363959513604641
-0.007381952367722988
-0.021061087027192116
-0.04277533292770386
-0.0126526253297925
-0.05972963199019432
0.01769280433654785
0.010723572224378586
8.353189514309634e-06
-0.042589329183101654
0.006922230590134859
-0.017395544797182083
-0.01511287596076727
0.0022506939712911844
0.02523098699748516
-0.012643683701753616
-0.031367577612400055
0.046972811222076416
-0.03121587447822094
0.017671659588813782
-0.026759261265397072
0.00877491757273674
0.03720735013484955
0.02698778733611107
0.0013388368533924222
-0.03130294382572174
0.03340493142604828
0.016939152032136917
0.017674459144473076
-0.01194958109408617
0.03265780583024025
-0.004024837631732225
0.0028429508674889803
-0.0034453975968062878
0.0024374707136303186
0.012784387916326523
0.04691591113805771
0.019223453477025032
-0.026176562532782555
0.01569324918091297
-0.0510040782392025
0.017162950709462166
-0.005523303989320993
-0.003919017501175404
-0.015908258035779
-0.013572133146226406
-0.053912971168756485
0.04214135929942131
0.007812341209501028
-0.005102104041725397
0.020949721336364746
-0.04016881436109543
0.015492045320570469
0.0401681512594223
-0.054878413677215576
0.05111144110560417
-0.004381241742521524
0.0007450132980011404
0.054085321724414825
-0.016829457134008408
0.05621979013085365
0.04295283183455467
0.024390675127506256
0.0028636392671614885
-0.02915915660560131
0.04317651316523552
-0.03254289925098419
0.046356312930583954
0.039901018142700195
0.012733928859233856
0.0950339138507843
0.02654833160340786
0.010516555048525333
0.00034539427724666893
-0.0324208028614521
-0.15674425661563873
0.034368015825748444
-0.009623633697628975
-0.03731246292591095
0.002412009285762906
0.06848375499248505
-0.06130056083202362
0.09008124470710754
-0.23930248618125916
-0.05787277966737747
0.08725512027740479
0.058807916939258575
0.04474406689405441
0.04615788534283638
0.0017877942882478237
0.013633710332214832
0.005316217429935932
-0.011661730706691742
0.00421491963788867
-0.01082726288586855
-0.04314815253019333
-0.01483824197202921
0.0144176185131073
0.03943875432014465
0.032563500106334686
-0.018274255096912384
-0.0007471666322089732
-0.03444811329245567
0.11612508445978165
0.03700903058052063
0.0031413547694683075
0.20948414504528046
0.03045853227376938
-0.14315684139728546
-0.14028988778591156
0.08831902593374252
-0.039383962750434875
-0.07263804227113724
-0.17026688158512115
0.017460303381085396
-0.07848507165908813
0.03147805482149124
-0.0156653244048357
-0.00456026429310441
-0.044680800288915634
-0.08919087052345276
0.07559066265821457
-0.06698683649301529
0.016010012477636337
0.021044129505753517
-0.02177557721734047
-0.02738841623067856
-0.011337478645145893
0.049463700503110886
-0.007154950872063637
0.013862173072993755
0.08642100542783737
0.004612306132912636
0.03967820480465889
-0.030540019273757935
-0.019321201369166374
0.01531202346086502
0.00744472024962306
0.015261605381965637
-0.0032172470819205046
0.01864045485854149
0.13918790221214294
0.05698749050498009
0.02783014625310898
-0.11157888174057007
-0.04051385819911957
0.004489351063966751
0.015195067971944809
0.012436658143997192
0.08176134526729584
-0.026311403140425682
-0.07449156045913696
0.02044382505118847
0.3396826386451721
-0.1465550810098648
0.04005907475948334
-0.04951699450612068
-0.012284865602850914
0.20134784281253815
0.05641378462314606
-0.12600630521774292
-0.19764657318592072
-0.0054944162257015705
-0.034513093531131744
0.0023675819393247366
-0.04396852105855942
0.02488883212208748
0.011393314227461815
-0.04721172899007797
0.02322777733206749
0.01626702956855297
0.4541155695915222
-0.0029640409629791975
-0.0071684010326862335
0.007188963703811169
0.0007662993157282472
-0.0015617612516507506
-0.002347049303352833
-0.0936303660273552
0.006305718328803778
0.028577672317624092
-0.0070004272274672985
0.025394124910235405
-0.03954046219587326
0.0005391723825596273
0.00046696068602614105
-0.0156654454767704
-0.010878351517021656
0.05751818045973778
-0.016469810158014297
-0.11087511479854584
0.02742037922143936
0.005745860282331705
-0.00578162120655179
-0.006081586237996817
0.030748646706342697
0.042451899498701096
0.014985023997724056
0.10493020713329315
-0.018897945061326027
-0.09878439456224442
-0.05200354754924774
-0.06227059289813042
-0.12720511853694916
0.010170409455895424
0.012909045442938805
0.04249027371406555
-0.019674168899655342
0.01836838200688362
-0.039932336658239365
0.006745492108166218
-0.10193245857954025
-0.03793361410498619
0.023245496675372124
0.041565343737602234
0.04186990112066269
-0.012871134094893932
-0.016299579292535782
-0.010172011330723763
-0.048202868551015854
-0.041117750108242035
-0.017582688480615616
0.013187647797167301
-0.008095752447843552
-0.02602170780301094
0.0003027464263141155
0.014041397720575333
0.02990374155342579
-0.05237377807497978
-0.12875008583068848
0.018487168475985527
0.061716172844171524
-0.11893463879823685
-0.05429287254810333
0.09594155848026276
0.014872854575514793
-0.0799659937620163
-0.04545806720852852
0.00337711488828063
-0.05523793399333954
-0.019755585119128227
-0.030699346214532852
0.001583067118190229
0.006557320710271597
-0.041197970509529114
-0.04209497943520546
0.027047032490372658
0.02551690861582756
-0.03376832976937294
0.03964373096823692
-0.0844498947262764
0.02569456212222576
0.0037610139697790146
0.006146187428385019
0.0059546795673668385
0.01905522495508194
-0.07438335567712784
-0.016608839854598045
-0.02471924014389515
-0.05526029318571091
-0.0031000091694295406
0.008111178874969482
0.013228381983935833
-0.07775603979825974
0.05011609569191933
0.0053297048434615135
0.03355282545089722
-0.009894190356135368
-0.0666029155254364
0.012223046272993088
0.03578617423772812
-0.013296710327267647
-0.057709939777851105
0.09262172877788544
0.018294494599103928
-0.008628003299236298
-0.013519817031919956
0.0013999324291944504
-0.03988815099000931
-0.05513976514339447
0.06553665548563004
0.029084399342536926
0.0008646721835248172
-0.1435399204492569
0.027943149209022522
0.01073144655674696
0.0031772255897521973
-0.05570885166525841
0.038831677287817
-0.004378101322799921
0.01268251147121191
0.022235408425331116
0.057557251304388046
0.011772646568715572
0.023245112970471382
0.02902940660715103
0.006504714023321867
0.021097924560308456
-0.05595223605632782
-0.018740395084023476
0.028834452852606773
0.00016028599929995835
-0.0038138662930577993
0.04355185106396675
0.002625325694680214
-0.018006185069680214
-0.005842925515025854
0.017608052119612694
-0.014795050956308842
-0.00991898775100708
-0.13907255232334137
-0.04512485861778259
0.00331853237003088
0.00869038887321949
0.01190087292343378
-0.01648584194481373
-0.060714319348335266
0.013878450728952885
0.027234839275479317
0.03059622272849083
0.033239975571632385
0.027940889820456505
-0.17600539326667786
-0.1621597707271576
0.014912460930645466
0.01269418653100729
0.005512723699212074
-0.087586909532547
0.02884845808148384
0.02541416883468628
0.0033458981197327375
0.060135841369628906
0.09822796285152435
-0.3840465843677521
0.059025637805461884
0.016740920022130013
-0.06020986661314964
0.012414729222655296
0.024161936715245247
-0.034491706639528275
-0.012530489824712276
-0.49828624725341797
0.05501816049218178
0.09749675542116165
0.08664137870073318
0.01938563399016857
0.027634069323539734
0.028074605390429497
0.03768118843436241
-0.028182988986372948
0.07358577102422714
-0.06268341839313507
-0.09028632193803787
-0.14524592459201813
-0.07872168719768524
0.09052829444408417
-0.013668138533830643
-0.0019077894976362586
0.02119612880051136
0.004777104593813419
-0.022961018607020378
0.00018293362518306822
-0.016037235036492348
0.1827721893787384
-0.011130048893392086
0.04853612184524536
0.028080450370907784
-0.0036945550236850977
-0.017798392102122307
0.0008019451634027064
-0.06249622255563736
-0.006346879526972771
0.06845198571681976
0.044114913791418076
0.026475202292203903
0.1003093495965004
0.008645306341350079
0.01584632694721222
0.05266894772648811
0.19196850061416626
0.022956809028983116
0.020801324397325516
-0.14049923419952393
0.022780660539865494
-0.01811371184885502
0.04459255933761597
0.18620318174362183
-0.014945263043045998
0.014834125526249409
-0.10561726242303848
-0.0015424591256305575
-0.0457608699798584
-0.07902336865663528
0.005714306607842445
-0.013545424677431583
-0.1133120059967041
-0.02686290442943573
0.011061858385801315
0.033814072608947754
0.008783706463873386
0.08331836014986038
-0.04424197971820831
-0.009088396094739437
0.146771639585495
-0.05195653811097145
0.03242143616080284
-0.034297212958335876
-0.016609884798526764
-0.03764062374830246
0.0631900504231453
-0.008722005411982536
0.03826218098402023
-0.016401540488004684
-0.01591353677213192
0.009861751459538937
0.018699247390031815
0.04654181748628616
-0.027218764647841454
-0.012953292578458786
0.03814864531159401
0.042282894253730774
-0.014217094518244267
0.004576699808239937
-0.15014448761940002
-0.16509497165679932
0.009808884002268314
-0.057715825736522675
0.0036441099364310503
0.05173085257411003
0.013890303671360016
0.0080433813855052
0.031895920634269714
-0.030725451186299324
0.0393509604036808
0.015831466764211655
0.1464371532201767
-0.01694183424115181
0.010841858573257923
-0.05533109977841377
0.009731907397508621
-0.022647907957434654
-0.09076110273599625
-0.015921927988529205
0.059726640582084656
-0.059131041169166565
0.05714043974876404
0.021346034482121468
0.02213996648788452
-0.012245156802237034
0.05089150369167328
-0.2520897090435028
-0.10946305841207504
-0.4034096300601959
0.008159702643752098
0.005174930673092604
-0.06268933415412903
0.022200781852006912
-0.011649060994386673
-0.02075350657105446
0.02489365078508854
0.03351536765694618
-0.23346666991710663
-0.05624149739742279
-0.012507944367825985
-0.07595667988061905
0.0208148043602705
0.050521720200777054
-0.05957688391208649
-0.022582918405532837
-0.18357640504837036
0.05886572226881981
0.17629358172416687
0.07577874511480331
-0.21591275930404663
0.23397086560726166
0.01142718456685543
0.013483986258506775
0.018536929041147232
-0.14944881200790405
-0.18259084224700928
-0.05880178138613701
-0.2764587700366974
-0.06178976967930794
0.22977140545845032
-0.015434622764587402
0.02856268361210823
-0.010191417299211025
0.025219405069947243
-0.0020463860128074884
0.03682175278663635
-0.024032583460211754
-0.34798237681388855
0.0026229245122522116
0.021473441272974014
0.011626655235886574
0.012934914790093899
-0.03406468778848648
0.007476668804883957
0.12412404268980026
0.01580025814473629
0.033065732568502426
0.012760861776769161
-0.043061934411525726
0.0936487540602684
-0.009809174574911594
0.009952357038855553
0.037881314754486084
0.12059648334980011
-0.013155436143279076
0.015298107638955116
0.04200952872633934
0.010897244326770306
0.04562611132860184
-0.04455066844820976
-0.1368785947561264
-0.03622403368353844
0.02090419828891754
0.08032035082578659
0.011663265526294708
-0.07651755213737488
0.015976740047335625
0.030991194769740105
0.004926183260977268
-0.06569492816925049
0.13121744990348816
-0.0074271829798817635
-0.07614728808403015
-0.006374755874276161
-0.024398716166615486
0.1697504073381424
0.037068285048007965
-0.06964007019996643
-0.02903713844716549
0.0835152342915535
0.043109115213155746
0.05576709285378456
0.17996709048748016
-0.00757118733599782
0.003894879249855876
-0.11815691739320755
-0.0704583078622818
0.03510304540395737
-0.021851273253560066
0.11405397206544876
0.2665264904499054
0.00798706617206335
-0.020815923810005188
0.047391701489686966
0.03127959743142128
-0.07235392928123474
-0.03177908807992935
0.004208075348287821
-0.004310114774852991
0.013149539940059185
-0.02750549279153347
-0.023341674357652664
0.008510518819093704
0.003447309136390686
0.04887255281209946
-0.01502391416579485
-0.0573367215692997
0.031060123816132545
-0.036655936390161514
-0.012438063509762287
0.04311896488070488
-0.005812883377075195
0.08996837586164474
-0.1346445232629776
-0.004066672641783953
0.0022136776242405176
-0.001164472778327763
-0.03579850122332573
-0.10737176239490509
-0.014728293754160404
-0.06670917570590973
-0.05567779764533043
0.07397075742483139
0.00651629688218236
-0.038647908717393875
-0.02024121768772602
0.3871421813964844
0.030650051310658455
0.019346091896295547
0.1938944011926651
0.006585199385881424
0.030771691352128983
0.01589890383183956
-0.03250892087817192
-0.03342046961188316
-0.014379860833287239
0.03031114675104618
0.02174275740981102
-0.2427101582288742
-0.04412977024912834
-0.0020180675201117992
0.022756274789571762
-0.01616227626800537
-0.05573583394289017
-0.02587652951478958
-0.0008108221227303147
-0.029688222333788872
0.2152634710073471
0.011661432683467865
-0.005400615744292736
-0.005946551915258169
0.1261715143918991
-0.09117592126131058
0.5243037939071655
0.2806300222873688
0.3777388334274292
-0.00957623589783907
-0.3775823712348938
0.018029553815722466
0.009005295112729073
-0.02304903417825699
-0.0006329446914605796
0.004806798417121172
0.011146963573992252
-0.06756281852722168
0.10015638172626495
0.039923883974552155
0.014324219897389412
0.014274122193455696
-0.012446760199964046
0.019479786977171898
0.02296387404203415
-0.09544698148965836
-0.07900708168745041
-0.003697688225656748
-0.017413761466741562
-0.007882212288677692
-0.009816203266382217
0.013283920474350452
0.011341636069118977
0.02502540312707424
0.013434235006570816
-0.0016117378836497664
0.0036005815491080284
-0.11873119324445724
0.01696794480085373
0.0625309869647026
-0.0035722919274121523
0.12449517846107483
0.01490478590130806
-0.021287770941853523
0.015932779759168625
-0.03519177809357643
-0.019244415685534477
-0.012458516284823418
0.04063793271780014
-0.041026052087545395
-0.09329395741224289
-6.69952787575312e-05
0.010265382006764412
0.00809197686612606
-0.0404578261077404
0.0364660881459713
-0.02232426404953003
-0.04032636433839798
0.11113613843917847
-0.015222783200442791
-0.004216219298541546
-0.009479047730565071
0.0636565312743187
-0.04021414741873741
0.04836033657193184
-0.001969050383195281
0.01553753949701786
-0.026753759011626244
-0.03224102035164833
-0.03110320493578911
0.05197816342115402
0.02383321151137352
-0.022929247468709946
-0.02472706511616707
0.00046163544175215065
-0.023670513182878494
0.03746581822633743
0.03247135505080223
-0.024502255022525787
-0.08092117309570312
-0.0084403520449996
-0.06170186400413513
0.0067244335077703
-0.03234928473830223
0.031072625890374184
0.0005094005027785897
0.027509674429893494
0.011449160054326057
0.06909585744142532
-0.014532199129462242
0.04367909952998161
-0.0046086921356618404
0.038817740976810455
0.046847134828567505
-0.01715279556810856
-0.023226412013173103
-0.04324255511164665
0.04780598357319832
-0.013435264118015766
-0.021804869174957275
0.019454438239336014
0.08412240445613861
-0.07386302947998047
-0.03350888192653656
0.026778608560562134
0.00818883441388607
-0.0021517134737223387
-0.016994137316942215
0.029956353828310966
0.02940407209098339
0.006739932578057051
0.012171377427875996
-0.0219043530523777
0.016989627853035927
0.118978351354599
0.0034715081565082073
0.025514625012874603
-0.031143641099333763
-0.048976946622133255
-0.0011978931725025177
-0.07007087022066116
-0.0005404468392953277
0.17636547982692719
0.02104305475950241
-0.01831628754734993
-0.11001365631818771
0.03524083271622658
-0.02783307246863842
0.024134259670972824
-0.01890501193702221
0.019306685775518417
0.0646509900689125
-0.055960796773433685
0.004247845616191626
-0.05533852055668831
0.021352358162403107
-0.032073184847831726
-0.039105527102947235
0.014318573288619518
0.03343804180622101
0.11288059502840042
-0.020576853305101395
-0.08684234321117401
0.0035863046068698168
-0.13775478303432465
-0.06722443550825119
-0.011691251769661903
0.024146277457475662
-0.1359318196773529
-0.048920489847660065
0.02773117460310459
0.010690134018659592
0.24896939098834991
0.02611546963453293
0.13039563596248627
0.07777205854654312
-0.1724487841129303
-0.016848089173436165
-0.06112798675894737
-0.004490450024604797
-0.03700287267565727
-0.2701113820075989
0.0283141378313303
0.0007807781221345067
0.10271768271923065
-0.08563891053199768
0.001086382893845439
-0.019436193630099297
-0.010399212129414082
-0.0012909789802506566
-0.010104049928486347
-0.0442667119204998
-0.06728076934814453
0.037248823791742325
0.006410080473870039
0.04361524060368538
0.006942270789295435
-0.06863719969987869
0.06072630360722542
0.023015739396214485
-0.021771594882011414
-0.010088291019201279
-0.02847098745405674
-0.011020165868103504
-0.04272200167179108
0.01568671129643917
-0.01757720485329628
0.019280940294265747
-0.003119934815913439
-0.03825560212135315
-0.020464248955249786
-0.06377393007278442
0.011727617122232914
0.0320681631565094
-0.03703654557466507
0.032134901732206345
0.015502148307859898
0.0020430816803127527
-0.016109120100736618
0.061746012419462204
0.02830260805785656
-0.0029905629344284534
0.001480964827351272
0.010828626342117786
-0.012787822633981705
-0.029495272785425186
0.05812935158610344
0.008183704689145088
0.012441214174032211
-0.05284857004880905
-0.0028021945618093014
0.03177454322576523
0.014344156719744205
-0.052267853170633316
0.07175509631633759
0.030824877321720123
0.020573360845446587
0.0333971343934536
0.07389324903488159
-0.038969557732343674
0.05953897908329964
0.04973023384809494
-0.08383966237306595
0.0023053830955177546
-0.04534044861793518
0.008611587807536125
0.02011176571249962
0.009271820075809956
-0.017030075192451477
-0.17013724148273468
0.02136455848813057
-0.11324034631252289
0.008114917203783989
-0.06532817333936691
-0.06145474687218666
-0.0299377478659153
0.08752496540546417
0.09789687395095825
-0.04357752203941345
0.07460640370845795
-0.03455587476491928
-0.009108549915254116
0.0062097045592963696
-0.08488475531339645
0.04425172135233879
0.01622590981423855
0.079165019094944
-0.04558001831173897
0.09879697114229202
-0.0593939833343029
-0.28132274746894836
-0.03671973943710327
-0.05198117718100548
-0.09532031416893005
-0.24748080968856812
0.17395970225334167
-0.022538838908076286
-0.015182788483798504
0.11059123277664185
0.08998101204633713
0.06650136411190033
0.007171612698584795
0.013491193763911724
-0.0691542848944664
0.013671034947037697
-0.007091468200087547
0.0010647164890542626
-0.025566160678863525
-0.03798791393637657
-0.03980753943324089
0.0637412741780281
-0.0701051652431488
-0.07560674101114273
-0.024207187816500664
-0.09495951235294342
0.05730285868048668
-0.106768898665905
0.01694955863058567
0.008834895677864552
0.017146114259958267
-0.07091056555509567
0.002732541412115097
0.013051987625658512
0.04785677790641785
0.15682996809482574
-0.05213271081447601
0.18556378781795502
0.003343326738104224
0.10266478359699249
-0.08211812376976013
-0.0829835906624794
-0.04172192141413689
-0.03882966563105583
0.03467509523034096
0.035529762506484985
-0.014098462648689747
-0.02657836116850376
-0.047931089997291565
-0.05585566535592079
0.02951681986451149
0.14796307682991028
0.028845030814409256
-0.03742772713303566
0.024320444092154503
-0.017666345462203026
-0.004756369162350893
0.07815755158662796
-0.05567324161529541
0.005989893805235624
-0.009131775237619877
-0.008755723014473915
-0.00951607059687376
0.021779397502541542
-0.04450523480772972
0.05891230329871178
-0.04635960981249809
0.02303018979728222
0.07455234229564667
-0.04732987657189369
-0.009957569651305676
0.001576302107423544
0.01398372184485197
-0.0014430189039558172
0.0039533632807433605
-0.03966425731778145
-0.02603384293615818
0.01422552578151226
-0.035029444843530655
-0.059231217950582504
-0.04121316224336624
0.015077296644449234
0.021005971357226372
-0.07722772657871246
-0.018689703196287155
-0.05971396341919899
0.054239530116319656
0.05401145666837692
-0.12736618518829346
-0.0011218416038900614
0.04554400220513344
0.07137053459882736
-0.009882677346467972
-0.008457520976662636
-0.011369390413165092
-0.16127468645572662
-0.03746430203318596
-0.0014889652375131845
0.03869834169745445
-0.062021706253290176
-0.02529318816959858
0.02470390498638153
-0.007387540768831968
-0.057162314653396606
0.1165328174829483
0.002909771166741848
-0.057908039540052414
0.02831333503127098
0.03411667048931122
-0.02264474332332611
0.015039870515465736
0.0344996377825737
-0.013256162405014038
-0.006204716861248016
0.020406102761626244
-0.06801129877567291
-0.042272791266441345
-0.001068504760041833
-0.007475890219211578
-0.0031218992080539465
0.06981063634157181
0.01698363572359085
0.0398416630923748
0.006416592746973038
-0.004060720093548298
0.011076878756284714
-0.011908920481801033
-0.023333335295319557
-0.004756458569318056
-0.012446894310414791
0.04610579460859299
-0.00039186820504255593
-0.011072076857089996
0.020553210750222206
-0.11044818162918091
0.01933913677930832
-0.023493915796279907
-0.021856337785720825
0.06553983688354492
-0.029334353283047676
-0.024453412741422653
-0.006308240350335836
0.05456507205963135
0.009851879440248013
-0.06701470911502838
0.03142775967717171
-0.009353681467473507
-0.02906542643904686
-0.03039269521832466
-0.004701188299804926
-0.0026528341695666313
0.0593746192753315
0.04256798326969147
-0.014637046493589878
-0.026245633140206337
0.03085492178797722
-0.02762080356478691
-0.004254442173987627
0.008756577968597412
0.0007208475144580007
0.011879172176122665
0.046001311391592026
-0.07923918217420578
-0.029121581465005875
0.028200315311551094
0.008845051750540733
0.03657430410385132
-0.0060046641156077385
-0.015075680799782276
-0.019394325092434883
0.031141433864831924
0.0917801633477211
-0.047278035432100296
0.020242413505911827
-0.07102612406015396
-0.006095964461565018
0.01599336788058281
0.004588539246469736
-0.0017265034839510918
-0.030873052775859833
0.004332131240516901
0.02167167142033577
-0.06329897046089172
0.058900345116853714
0.017271606251597404
-0.05239296332001686
-0.013892779126763344
0.001803484745323658
-0.011242393404245377
-0.0010492997244000435
-0.014688171446323395
-0.003561080200597644
-0.015601594001054764
0.00769358454272151
-0.010996789671480656
-0.008322551846504211
0.02366274781525135
0.014073480851948261
0.0136412987485528
-0.005967430770397186
-0.026484714820981026
-0.026101648807525635
0.024160202592611313
0.002274278784170747
0.010461900383234024
0.008817325346171856
0.0037765647284686565
-0.008363215252757072
-0.002187037141993642
0.022475019097328186
0.0371062196791172
-0.037787023931741714
0.0602395236492157
-0.02993510663509369
-0.07638074457645416
-0.011608592234551907
-0.02736986055970192
0.03140101954340935
0.038332682102918625
0.052641887217760086
-0.02137444168329239
-0.012332525104284286
-0.011836896650493145
0.008160864934325218
0.0007998438086360693
0.003006664337590337
-0.06446488946676254
0.02970106713473797
-0.00013960305659566075
0.00725183030590415
-0.01593961752951145
-0.02154032327234745
-0.016676777973771095
-0.003242372302338481
-0.012019854038953781
-0.002749465638771653
0.00892697460949421
-0.021613657474517822
-0.0001971650344785303
0.07232782244682312
0.02134067192673683
-0.030587146058678627
0.017385093495249748
-0.008661836385726929
-0.012000910937786102
-0.05288729816675186
0.011500891298055649
0.00010785095219034702
-0.03418688848614693
-0.001179772661998868
0.04808320850133896
0.02093561366200447
-0.024620965123176575
-0.03276408091187477
0.043401867151260376
-0.010528022423386574
-0.0029946535360068083
-0.022737907245755196
0.01594911515712738
0.018812045454978943
0.022561954334378242
-0.016840718686580658
-0.0180132407695055
-0.0077240657992661
-0.0099141551181674
0.02204240672290325
0.021609783172607422
-0.0008405129774473608
0.001786933746188879
-0.026325799524784088
-0.02073614113032818
0.01321392972022295
-0.014501810073852539
0.009522807784378529
0.06049656122922897
0.014915837906301022
0.009364363737404346
0.02192559838294983
0.022335510700941086
-0.003942325245589018
-0.0034494323190301657
0.013051222078502178
-0.03628995269536972
0.021861441433429718
-0.01797829568386078
0.023322325199842453
0.030176660045981407
0.008503977209329605
0.00029507928411476314
0.03954610601067543
0.012601440772414207
0.0035450083669275045
-0.10114924609661102
0.03684792295098305
0.012963897548615932
0.028840091079473495
0.0037543370854109526
0.03030090406537056
-0.008311676792800426
0.007952103391289711
-0.059408172965049744
0.007527932059019804
-0.042480457574129105
-0.001356499153189361
0.05870556831359863
0.040512826293706894
-0.01551850326359272
-0.07576822489500046
-0.013030238449573517
-0.016496336087584496
-0.10457450896501541
-0.05917678400874138
-0.007858341559767723
-0.10570316761732101
-0.037521619349718094
-0.03677874058485031
0.03316385671496391
0.02210259810090065
0.0004626355948857963
0.04410402849316597
-0.06283168494701385
0.06144936382770538
0.0031393603421747684
0.03280898928642273
-0.012646859511733055
-0.09246104955673218
0.007267714012414217
0.021207522600889206
0.04139484465122223
0.0428137481212616
-0.01966962218284607
-0.0447879359126091
0.05898424983024597
0.011405381374061108
0.05556846782565117
-0.006531547289341688
0.00872344896197319
0.03276419639587402
-0.031724970787763596
0.02677631378173828
-0.019913017749786377
-0.03532232716679573
-0.15203142166137695
0.01906776987016201
-0.06700766086578369
0.029101191088557243
0.011657497845590115
0.04781612381339073
-0.04937444627285004
0.03668857365846634
-0.04094686359167099
-0.14348886907100677
0.026694295927882195
0.06880096346139908
0.07989883422851562
-0.026049669831991196
-0.047577258199453354
0.0249096117913723
-0.03441156819462776
-0.04306471347808838
0.139007568359375
-0.013854190707206726
-0.028251152485609055
-0.022007115185260773
-0.030851850286126137
-0.09814997762441635
0.0006631137803196907
0.007577074691653252
0.006232403218746185
-0.014564531855285168
-0.006931656040251255
-0.06553778797388077
0.059254713356494904
-0.054376598447561264
0.016393758356571198
-0.03924122452735901
0.034282833337783813
-0.012973743490874767
-0.004284730181097984
-0.049640484154224396
-0.001093636848963797
0.01911970227956772
-0.07059744000434875
-0.08503223955631256
0.00020726886577904224
-0.011892778798937798
-0.017247343435883522
-0.022900279611349106
-0.0033523354213684797
0.047685906291007996
-0.056927867233753204
0.015456143766641617
0.026407847180962563
-0.043115198612213135
0.07510776817798615
-0.014700552448630333
0.0004437089082784951
-0.02455979958176613
0.0437210388481617
-0.032950371503829956
0.03145050257444382
-0.01041137520223856
-0.031084850430488586
-0.015801889821887016
-0.016577918082475662
0.051897961646318436
-0.0004551369056571275
0.001209018286317587
0.0006421459838747978
0.0014893535990267992
0.038923487067222595
-0.05463351309299469
-0.013331416063010693
0.05667676031589508
0.013679830357432365
-0.0348488949239254
0.0001263608573935926
0.02624368667602539
0.029259253293275833
0.015708835795521736
0.05112003535032272
-0.14639273285865784
-0.01280629076063633
-0.015030928887426853
0.02793552353978157
-0.03915912285447121
-0.03194965049624443
-0.03651738166809082
0.021885158494114876
-0.019958583638072014
-0.05790449678897858
-0.13920918107032776
0.004013679921627045
0.0515953004360199
-0.03013329580426216
-0.08677196502685547
-0.0647558867931366
0.009187465533614159
-0.038973890244960785
-0.001459561986848712
0.015452996827661991
-0.031241727992892265
0.07864262908697128
0.014670927077531815
-0.03792078047990799
-0.013476320542395115
-0.010753737762570381
-0.030346030369400978
0.16308724880218506
-0.02312140166759491
-0.10334262251853943
0.06008812040090561
0.033379923552274704
0.067310631275177
-0.021107925102114677
0.013517629355192184
0.0173806045204401
-0.04931565001606941
-0.009199865162372589
-0.0002984876628033817
0.0057286461815238
-0.07321793586015701
-0.029620137065649033
0.013609100133180618
0.014531824737787247
-0.026889486238360405
0.02567635104060173
0.03918806090950966
0.0097459452226758
0.019652316346764565
-0.01036459393799305
-0.007062104530632496
0.04057746380567551
-0.0029212571680545807
-0.024930695071816444
0.02291448973119259
0.014128930866718292
0.10388913750648499
-0.04019436985254288
-0.026933632791042328
0.022134121507406235
0.016071919351816177
0.027802765369415283
-0.011342975310981274
-0.029210232198238373
-0.056785035878419876
0.059037186205387115
0.03342835232615471
-0.01937170699238777
-0.04072561115026474
-0.00016774324467405677
-0.04362490400671959
0.013561442494392395
-0.029276998713612556
-0.022982293739914894
0.04566070809960365
-0.018812311813235283
0.0022372305393218994
0.04202192276716232
0.05259118229150772
-0.0049443356692790985
0.01040949858725071
0.007071623113006353
-0.020848693326115608
-0.06938300281763077
0.02340615540742874
-0.02559826336801052
-0.007691259030252695
-0.04487035796046257
-0.022202497348189354
0.014019054360687733
-0.021811379119753838
0.021248050034046173
-0.011620007455348969
0.029097825288772583
-0.012090171687304974
0.025344528257846832
0.013592556118965149
0.0003985642397310585
0.00206120777875185
0.026660587638616562
-0.03871455788612366
0.005279856733977795
-0.0067227729596197605
0.05141695961356163
0.032020747661590576
-0.022097067907452583
-0.033760372549295425
0.05539264529943466
-0.017405280843377113
0.07585413753986359
-0.037865541875362396
0.05189402028918266
-0.04372768849134445
-0.045206472277641296
0.01598561555147171
0.004544181749224663
0.004546502139419317
0.0035923970863223076
0.0535631887614727
-0.05916137620806694
-0.009332730434834957
0.07984704524278641
0.03292318433523178
0.027934866026043892
-0.00526638887822628
-0.0030894235242158175
-0.006439255550503731
0.02859516628086567
-0.02856317162513733
0.003232126124203205
0.02450503781437874
-0.028149520978331566
0.09167364984750748
0.007229827344417572
0.04218325763940811
-0.03940767049789429
0.006474763620644808
0.0021812550257891417
-0.04444390535354614
0.03237150236964226
-0.2552357316017151
-0.017258932814002037
0.0279693603515625
-0.004076988436281681
0.3151983320713043
-0.017221413552761078
-0.008274600841104984
-0.009659680537879467
0.04750983789563179
0.0401327908039093
-0.007318941410630941
0.009985596872866154
-0.018232638016343117
-0.04096715897321701
0.014551241882145405
0.02581927739083767
-0.01301298663020134
-0.06947854161262512
0.030385559424757957
-0.017151175066828728
-0.02941569685935974
-0.05474524572491646
-0.1703711748123169
-0.036793388426303864
-0.0271396916359663
-0.03301664814352989
-0.09694528579711914
0.12413899600505829
-0.04751158505678177
0.17877624928951263
-0.08503670245409012
-0.007727155927568674
-0.09704750776290894
-0.01840861700475216
-0.030671436339616776
-0.008464338257908821
0.04425401613116264
-0.023343490436673164
0.010559876449406147
-0.02376171015202999
-0.018482916057109833
-0.008121217601001263
0.003506791079416871
0.016520006582140923
-0.03303949907422066
-0.005612589884549379
0.011370714753866196
0.0005269149551168084
-0.03821662440896034
-0.0030095151159912348
-0.0032797432504594326
-0.013097897171974182
-0.0023047428112477064
-0.014385885559022427
-0.023640818893909454
-0.003546934574842453
-0.012040229514241219
0.11702010035514832
-0.019025161862373352
-0.005346445366740227
-0.0037027057260274887
0.004745520185679197
0.05136111006140709
-0.0365150049328804
-0.011062194593250751
-0.04965018481016159
-0.011953845620155334
0.017265336588025093
-0.04706595838069916
0.05309081822633743
0.05974198505282402
0.08647885918617249
-0.012967015616595745
-0.0584365613758564
0.08933846652507782
-0.01455662027001381
-0.01884620450437069
0.00047635583905503154
0.014174091629683971
0.11254357546567917
0.018047543242573738
-0.08594506978988647
0.036045946180820465
0.002256991807371378
-0.019205354154109955
0.04198417812585831
-0.00429091602563858
-0.012771283276379108
0.056248828768730164
0.03627357259392738
-0.00579535448923707
0.007974726147949696
-0.021720804274082184
-0.021100899204611778
-0.07033088058233261
-0.04523685574531555
0.05425600707530975
-0.014162031002342701
-0.007353009190410376
0.08570074290037155
-0.0012535189744085073
-0.009600691497325897
0.050721168518066406
0.0011525240261107683
8.248165249824524e-05
-0.03961852937936783
-0.013119773007929325
0.006677629891782999
0.13392122089862823
0.0684426799416542
0.04122850298881531
0.011980954557657242
-0.03313060104846954
-0.03318634256720543
-0.02934427745640278
0.07940775156021118
0.010906398296356201
-0.11198701709508896
0.08368673920631409
-0.016369465738534927
0.002975659677758813
0.025006208568811417
0.08063853532075882
-0.008065498434007168
0.05965998023748398
-0.04532581567764282
0.0007767687784507871
-0.06337787955999374
0.04576709493994713
0.015601947903633118
0.046713728457689285
0.009226672351360321
0.08076811581850052
0.023618368431925774
0.04057707637548447
0.03985820338129997
0.07225171476602554
0.02578730694949627
0.010839168913662434
-0.0026574491057544947
-0.018411966040730476
0.001828824169933796
0.0010812182445079088
0.023796990513801575
0.002142577199265361
0.0067756325006484985
-0.01779901795089245
-0.03139536827802658
0.020234260708093643
0.12826362252235413
-0.019775671884417534
-0.003778105601668358
0.03715089336037636
-0.019084235653281212
0.023536888882517815
0.0024940986186265945
0.008389506489038467
-0.0971134752035141
-0.05025352165102959
0.01882600225508213
0.0016802229220047593
0.002077891258522868
0.07231345772743225
0.02936188131570816
-0.03173379600048065
-0.006558947265148163
-0.11622527241706848
-0.06924740970134735
0.03937266021966934
0.07062096148729324
0.031446557492017746
-0.016177324578166008
-0.01981879584491253
0.0034595001488924026
0.023983586579561234
-0.035709962248802185
0.041337933391332626
-0.031160833314061165
0.044618818908929825
0.03216252103447914
0.036871083080768585
-0.021893542259931564
-0.03757748752832413
-0.08539266139268875
0.049241576343774796
0.08648478239774704
-0.0027167086955159903
-0.030781874433159828
-0.028869936242699623
-0.11288004368543625
0.012667602859437466
-0.07350286096334457
-0.010631857439875603
-0.043757300823926926
-0.04263196140527725
-0.020761828869581223
0.05560656264424324
-0.030164407566189766
-0.0032661783043295145
-0.02874653972685337
0.036828603595495224
-0.021381106227636337
-0.0203695110976696
0.03576616942882538
-0.028538143262267113
-0.04553120210766792
-0.038304828107357025
-0.019756805151700974
-0.06624705344438553
0.013024602085351944
0.07536353915929794
0.0931471735239029
0.01429356262087822
-0.007279692683368921
0.02080395817756653
-0.002387855900451541
-0.014813583344221115
-0.03181551396846771
0.018458973616361618
-0.04661022126674652
0.039647508412599564
0.0643504410982132
0.0177319273352623
0.03570382297039032
0.014639610424637794
0.03331334516406059
-0.014992096461355686
0.0815119594335556
-0.05291978642344475
-0.07010138034820557
0.0365339033305645
-0.051074787974357605
0.010870048776268959
0.05685705319046974
0.05337029695510864
0.05973546952009201
-0.00514792138710618
-0.06022186949849129
0.011970571242272854
-0.029525935649871826
-0.028436928987503052
0.05501634255051613
-0.03492414578795433
-0.06587181985378265
0.11911112815141678
0.07227109372615814
-0.025730637833476067
0.08383161574602127
-0.05132654309272766
0.01581554301083088
-0.02609066665172577
0.038765937089920044
0.017710622400045395
0.012967204675078392
0.027746187523007393
0.23042507469654083
-0.03674055263400078
-0.040621113032102585
-0.002460166346281767
-0.009299189783632755
-0.005267877597361803
-0.03247584030032158
-0.04977051541209221
-0.030990341678261757
-0.022721868008375168
0.012083574198186398
0.02257886901497841
0.030914658680558205
0.026488985866308212
-0.02389388717710972
-0.017508838325738907
-0.002225713338702917
0.07553890347480774
0.005399882327765226
-0.008859671652317047
-0.04123982787132263
-0.059493307024240494
-0.01260070875287056
