-0.17778967320919037
-0.1287054866552353
0.03487876057624817
-0.14518961310386658
0.18643410503864288
-0.14127503335475922
-0.42014753818511963
-0.13340234756469727
0.2182764708995819
-0.19118961691856384
0.031087808310985565
-0.02346159517765045
-0.17244413495063782
-0.02742486074566841
-0.029477732256054878
-0.1031489446759224
0.00471830926835537
0.08279433101415634
-0.15212850272655487
0.01829521171748638
-0.2418264001607895
-0.08314818888902664
-0.049058571457862854
-0.06880265474319458
-0.2559667229652405
0.13805297017097473
-0.01645527221262455
0.20919011533260345
-0.002822972135618329
-0.026474405080080032
-0.02246175706386566
0.02862696908414364
-0.10653150826692581
-0.36982500553131104
0.2861548662185669
-0.10362351685762405
0.30803409218788147
-0.08942970633506775
0.2772148847579956
0.11361443996429443
-0.31568643450737
0.04226949065923691
0.05667150765657425
0.2369496375322342
-0.07272794842720032
0.04647492989897728
-0.05360766127705574
0.1308538317680359
0.028205540031194687
-0.13707178831100464
0.14636217057704926
-0.07166320085525513
-0.3237464725971222
-0.1582784801721573
-0.04240386188030243
-0.12779109179973602
-0.17025581002235413
0.04128960147500038
0.08911800384521484
0.07703973352909088
-0.07296373695135117
0.0682840570807457
-0.039059679955244064
0.04760341718792915
