-0.09972578287124634
-0.4755167067050934
-0.04736075550317764
-0.2698041796684265
-0.08344090729951859
-0.007201177999377251
0.04742273688316345
0.10215530544519424
-0.01698177121579647
-0.14714756608009338
0.2306578904390335
0.1446637511253357
-0.1775195449590683
0.027268290519714355
0.15587833523750305
-0.1836320459842682
0.12377800792455673
-0.15220540761947632
0.055446870625019073
-0.2881124019622803
-0.26061874628067017
0.23164290189743042
-0.32424047589302063
-0.021867599338293076
-0.2644677758216858
0.057603925466537476
-0.24646687507629395
0.04814806580543518
-0.3529581129550934
0.09499828517436981
-0.186221644282341
-0.17069664597511292
-0.016054600477218628
-0.26041319966316223
-0.3144872188568115
-0.1082746684551239
0.06594295054674149
-0.14271731674671173
-0.05698876827955246
-0.007581557612866163
-0.30059272050857544
-0.07439341396093369
-0.06826874613761902
-0.11038907617330551
0.02526177652180195
0.04892118275165558
-0.25153666734695435
0.11503774672746658
-0.37832334637641907
0.08458951860666275
-0.036842230707407
0.14388389885425568
-0.046804044395685196
-0.3087212145328522
-0.02400575578212738
0.1396752893924713
-0.09079375863075256
-0.17946892976760864
-0.11288852244615555
-0.07925168424844742
-0.14906905591487885
0.05944574251770973
-0.44332635402679443
-0.01377509068697691
