-0.026385197415947914
0.09954480081796646
-0.006836161948740482
-0.0876779705286026
0.007832224480807781
0.04065317660570145
-0.030737977474927902
0.005956134293228388
0.0016937890322878957
0.04776894673705101
0.06300383061170578
0.035760026425123215
-0.05040518939495087
0.02137228101491928
-0.009032735601067543
-0.03370193764567375
-0.0455288328230381
-0.19238322973251343
-0.06760811805725098
0.07746373116970062
-0.033957019448280334
-0.07994722574949265
0.13137884438037872
-0.12730389833450317
-0.06282491981983185
-0.0054973335936665535
-0.09152030199766159
-0.1757022887468338
-0.008295799605548382
-0.0944683849811554
0.002491496969014406
-0.03189434856176376
-0.015754859894514084
0.14372490346431732
-0.003477037651464343
0.010755950585007668
-0.05107385665178299
0.03584825620055199
0.08781926333904266
-0.04523955658078194
-0.04578491300344467
0.014689714647829533
0.06868459284305573
0.016806229948997498
-0.04771537706255913
0.0568142905831337
0.04598526656627655
-0.05066785216331482
0.005891398061066866
-0.10335230082273483
0.010281289927661419
-0.10520442575216293
-0.016556568443775177
-0.019213015213608742
-0.03452211618423462
0.020137660205364227
-0.1362050473690033
0.03960208222270012
-0.008827676065266132
-0.010836820118129253
-0.029802998527884483
0.07211893051862717
-0.06689302623271942
-0.009428655728697777
-0.030955960974097252
-0.026700185611844063
-0.14183619618415833
0.1190025806427002
0.06692895293235779
-0.21374575793743134
0.042720090597867966
0.047782108187675476
0.03390517085790634
0.0001385659270454198
-0.14822262525558472
-0.02368403598666191
-0.07433690130710602
-0.06842708587646484
-0.02007591351866722
0.014697239734232426
-0.0396202951669693
0.019393404945731163
-0.06963979452848434
-0.05577928572893143
0.007966387085616589
0.02363855391740799
-0.25781479477882385
0.006356414407491684
-0.10040547698736191
0.028046777471899986
0.015222901478409767
-0.048413414508104324
-0.15355347096920013
0.10493087768554688
0.04989238083362579
0.0656888484954834
-0.054139066487550735
0.007726470474153757
0.09409015625715256
-0.019978418946266174
-0.23560991883277893
-0.062283530831336975
0.033363379538059235
0.11016910523176193
0.07699941843748093
-0.032477863132953644
0.048089250922203064
-0.1499471217393875
-0.16503016650676727
0.12303780764341354
0.07115655392408371
0.058894794434309006
-0.048155419528484344
-0.09722049534320831
-0.18603622913360596
0.08532587438821793
-0.0516023226082325
-0.3079855740070343
-0.060410354286432266
-0.07713112235069275
-0.2728199362754822
0.028949765488505363
-0.13280458748340607
0.01726418547332287
-0.03918417915701866
0.05415309593081474
-0.037219107151031494
-0.1528293341398239
-0.176633819937706
0.08393651992082596
0.06932887434959412
-0.0826450064778328
0.11178390681743622
-0.050772104412317276
-0.04477180913090706
-0.03745491802692413
0.030361179262399673
-0.37824347615242004
0.014856632798910141
0.006824475713074207
-0.05208967626094818
-0.2950145900249481
0.08985999971628189
0.029646044597029686
0.019930249080061913
-0.08348307758569717
-0.09641562402248383
-0.02382967621088028
0.0349108949303627
-0.266256719827652
-0.16184361279010773
0.07355216145515442
0.027567798271775246
-0.11086664348840714
-0.010322147980332375
-0.09749911725521088
0.013995016925036907
0.010802166536450386
0.07844409346580505
0.013057143427431583
-0.039476051926612854
0.024805093184113503
-0.07744481414556503
-0.028419384732842445
0.01041219662874937
-0.04233008623123169
-0.16633976995944977
-0.09490825235843658
-0.03432817757129669
0.045543693006038666
-0.3000102639198303
-0.006937636528164148
0.014102996326982975
-0.2615482211112976
-0.07359806448221207
-0.10627318918704987
-0.010544213466346264
-0.07116017490625381
-0.10338842868804932
-0.029787380248308182
-0.1427689790725708
-0.051710087805986404
-0.057125627994537354
-0.05439203605055809
-0.042260173708200455
-0.008511971682310104
0.01588723435997963
-0.06535797566175461
-0.061345625668764114
-0.1450187712907791
0.03993868827819824
0.08164022862911224
-0.007759657222777605
-0.03406165912747383
0.03196883946657181
-0.0447557233273983
-0.07030646502971649
0.10213001072406769
-0.17992804944515228
-0.2117333710193634
-0.0597967654466629
-0.11596061289310455
0.039271410554647446
-0.04544324800372124
-0.18445637822151184
-0.10847637802362442
0.055780790746212006
-0.06364914774894714
0.016824547201395035
0.00016623160627204925
0.07986562699079514
-0.06723978370428085
0.07982666045427322
-0.003990539815276861
-0.19016404449939728
0.02002600021660328
0.07318057119846344
0.10323396325111389
-0.02643146738409996
0.023963188752532005
-0.04424671456217766
0.022896230220794678
0.02344355918467045
-0.02348094806075096
0.01051578763872385
-0.214937224984169
-0.12809936702251434
-0.018338458612561226
-0.0006022144225426018
-0.05162361264228821
0.056574754416942596
-0.05429699644446373
0.014145604334771633
-0.049852292984724045
0.06725453585386276
0.05171266198158264
-0.00402659410610795
0.035057149827480316
0.08278076350688934
0.010034335777163506
0.05922970920801163
-0.20429477095603943
-0.0761692076921463
0.04143187776207924
0.07751701027154922
0.07600538432598114
-0.15918605029582977
-0.08361291885375977
-0.16625112295150757
0.002296792110428214
-0.06848908960819244
0.038118697702884674
-0.09873106330633163
-0.020289912819862366
0.015394353307783604
-0.10548071563243866
