0.01971198059618473
-0.005256227683275938
-0.0037618863862007856
-0.019634807482361794
-0.012336322106420994
-0.03519601374864578
0.05076132342219353
0.07566807419061661
0.04334411770105362
0.014160259626805782
-0.008609386160969734
-0.010541201569139957
-0.04258572310209274
-0.023814357817173004
-0.05469362437725067
-0.0014017591020092368
0.04672031104564667
0.0508979968726635
0.021558629348874092
0.004163254983723164
-0.009711788035929203
-0.009320097044110298
-0.025432312861084938
-0.028273649513721466
-0.030106842517852783
-0.04822980985045433
-0.026001248508691788
-0.005909075029194355
-0.046111322939395905
0.06910662353038788
0.03315887600183487
-0.01484621036797762
0.05694650486111641
0.032123833894729614
0.03368435055017471
-0.05969807505607605
0.06398904323577881
0.07857578992843628
0.06829232722520828
0.009594716131687164
0.015680495649576187
-0.003352370811626315
0.012520466931164265
0.025704311206936836
-0.008500072173774242
0.043691202998161316
0.046315088868141174
0.07033447176218033
0.02305172197520733
-0.03445372357964516
0.00020337305613793433
0.018918411806225777
-0.01140165887773037
-0.006970406509935856
0.020825114101171494
0.005081021226942539
-0.030962249264121056
0.0035438090562820435
-0.02539457380771637
-0.041140127927064896
0.018454013392329216
0.015979450196027756
0.014319874346256256
0.027590755373239517
0.00480194715783
-0.02232983708381653
-0.017366785556077957
-0.02306532859802246
-0.07405822724103928
0.01907430961728096
0.07722914963960648
0.042866602540016174
-0.007555731106549501
0.011685913428664207
-0.023143764585256577
-0.05219419673085213
-0.033893655985593796
-0.007576596923172474
0.013562696985900402
0.1004858911037445
0.038906924426555634
0.03940418362617493
0.04503125324845314
0.04153372719883919
0.024704964831471443
0.016327468678355217
0.025745652616024017
-0.01680804044008255
-0.009530480019748211
-0.004856366664171219
-0.03911317512392998
-0.0836215689778328
-0.06106942147016525
-0.026085572317242622
0.03240446001291275
0.01766120083630085
-0.0501241534948349
-0.11793716996908188
-0.08569991588592529
-0.013747765682637691
-0.03973906487226486
-0.09052970260381699
-0.013636703602969646
0.12466760724782944
0.08050714433193207
0.026481663808226585
-0.1302388459444046
0.14614251255989075
-0.016389945521950722
-0.06786051392555237
-0.051903463900089264
0.01648232899606228
0.0052959974855184555
-0.06412995606660843
-0.02236701175570488
0.10445190221071243
-0.06215761974453926
-0.012773788534104824
-0.0293404683470726
-0.03281216323375702
-0.005451211240142584
-0.006962320767343044
-0.016352428123354912
0.004439108539372683
0.03614993020892143
0.011318362317979336
0.01144495140761137
0.03316911309957504
-0.017579039558768272
0.029996367171406746
0.010150331072509289
-0.008629241026937962
-0.028159163892269135
-0.015525647439062595
0.05531110614538193
-0.0701553151011467
-0.04115884378552437
0.0010355033446103334
-0.04791790246963501
-0.030187949538230896
-0.0032299242448061705
0.019663112238049507
0.015975167974829674
0.02439253404736519
-0.019643789157271385
0.018727468326687813
-0.012144899927079678
-0.02181098982691765
0.014934557490050793
-0.014219828881323338
-0.03267623484134674
-0.008113366551697254
-0.017219727858901024
-0.062418486922979355
-0.022055964916944504
-0.07580062747001648
0.017069514840841293
0.10646220296621323
0.049512218683958054
0.021947545930743217
-0.029584655538201332
0.007473094388842583
0.017589585855603218
0.03022928535938263
-0.03239776939153671
0.03423772007226944
0.09564132243394852
0.0013995737535879016
0.006189242005348206
0.007565142586827278
0.023820843547582626
-0.059272944927215576
-0.1037592664361
-0.0336858332157135
-0.01583704724907875
0.044140398502349854
0.004209945444017649
0.027339547872543335
0.15682318806648254
-0.022511735558509827
0.027123993262648582
0.018017997965216637
-0.0026442576199769974
0.07355108857154846
0.03144289553165436
0.026466405019164085
-0.04843603074550629
0.011058623902499676
0.04709240421652794
-0.03279437869787216
-0.007556825410574675
-0.056144051253795624
0.0064637972973287106
0.0491163432598114
-0.01708068512380123
-0.018641887232661247
-0.03844244033098221
-0.028334228321909904
0.023684943094849586
0.002953997813165188
0.00020866106206085533
0.0018280871445313096
-0.09600263088941574
-0.03856220468878746
0.03704766929149628
0.05068546161055565
-0.05804133042693138
0.04751754552125931
0.04908013716340065
0.02926647663116455
0.021123850718140602
-0.017751876264810562
-0.025521067902445793
-0.033564526587724686
-0.03363143652677536
-0.022556083276867867
0.014725733548402786
-0.019973784685134888
-0.014216846786439419
-0.028243040665984154
-0.007813474163413048
-0.02302525006234646
-0.00241145514883101
0.02897174283862114
0.0004924266249872744
-0.015361899510025978
-0.02663528546690941
0.012171778827905655
-0.03628784790635109
-0.026070041581988335
0.05673329159617424
0.0002867698494810611
0.009725417010486126
-0.023046450689435005
-0.01047598384320736
-0.0009347934974357486
-0.025307733565568924
-0.03906337171792984
-0.03173339366912842
0.03622390702366829
-0.08002766221761703
-0.22231128811836243
-0.060316380113363266
0.0007631350308656693
0.03931009769439697
0.016522876918315887
0.005818551871925592
0.019199104979634285
-0.0128392418846488
-0.004581306129693985
-0.01715184561908245
-0.017377909272909164
0.007730555254966021
0.04406975582242012
0.009535313583910465
0.0008305784431286156
0.005413345992565155
-0.003882146906107664
-0.012568789534270763
-0.04687900096178055
-0.023565616458654404
-0.02679964154958725
-0.05203910171985626
0.016791068017482758
-0.0968317836523056
-0.19320379197597504
-0.09426562488079071
-0.028570109978318214
-0.09970860928297043
-0.044825971126556396
0.04131690785288811
-0.058310795575380325
-0.05852203071117401
-0.019770251587033272
0.04242860898375511
0.05259628966450691
0.04267435148358345
0.009963996708393097
-0.061251334846019745
-0.04360748454928398
-0.04011530801653862
-0.01581854373216629
-0.009164825081825256
0.0001803402410587296
0.013903736136853695
3.002398443641141e-05
-0.00986612867563963
0.0055167521350085735
-0.006825350224971771
-8.442620310233906e-05
-0.019458604976534843
-0.023408077657222748
-0.0037593890447169542
-0.013586189597845078
0.029827293008565903
0.006713860668241978
-0.009870518930256367
-0.0024461906868964434
0.015873365104198456
0.011906956322491169
0.01221320778131485
0.019107652828097343
0.015752578154206276
-0.0068314336240291595
-0.040698904544115067
0.004137901123613119
0.0028122372459620237
0.018981020897626877
-0.031329602003097534
0.045380789786577225
0.08622606843709946
0.03496894985437393
-0.049876678735017776
-0.05365040525794029
-0.008422119542956352
0.014150409959256649
-0.008350824937224388
-0.0003344628494232893
-0.004395958501845598
-0.03583385795354843
-0.02069491520524025
0.023605505004525185
0.04178755730390549
0.027856014668941498
0.02276090905070305
0.017152778804302216
-0.011347996070981026
0.049608808010816574
0.03444922715425491
0.004428465850651264
0.02272704616189003
0.014116835780441761
-0.011488547548651695
-0.03263607621192932
-0.03062663972377777
-0.007213286589831114
-0.010726014152169228
0.0123984320089221
0.013464467599987984
-0.010153956711292267
0.024817312136292458
0.006488095037639141
0.010161759331822395
-0.009386314079165459
0.046588703989982605
-0.017098618671298027
0.010545373894274235
0.00034642996615730226
-0.009962048381567001
0.07992705702781677
-0.017159346491098404
-0.007451939862221479
-0.006213959772139788
-0.010370316915214062
-0.005309311673045158
0.02021012082695961
-0.03548673167824745
-0.0017952139023691416
0.06022331118583679
0.0659867525100708
0.007125810720026493
-0.02073674649000168
0.008322491310536861
0.0020844482351094484
0.012386282905936241
-0.006076986435800791
0.04419144615530968
0.02002870664000511
-0.04916231334209442
-0.05180324986577034
0.020222976803779602
-0.04826432093977928
-0.020214544609189034
0.03414691612124443
-0.026479080319404602
0.01869821920990944
0.02221420221030712
0.054387230426073074
-0.026664841920137405
0.009327977895736694
0.008052144199609756
-0.05023349076509476
-0.04906173050403595
-0.05579067021608353
0.01856890134513378
0.03925975039601326
0.01709778979420662
0.047823093831539154
0.022526826709508896
-0.0015336250653490424
-0.023608684539794922
0.01677076891064644
-0.013983041979372501
0.04105948284268379
0.07412678748369217
-0.01928233541548252
-0.018989188596606255
0.05852751061320305
-0.006402130704373121
-0.017870869487524033
0.06344712525606155
-0.00315774860791862
0.05292000249028206
0.008011274971067905
0.05870777368545532
-0.001394381863065064
0.01125344354659319
-0.014392697252333164
-0.003834041766822338
0.010545452125370502
-0.015173281542956829
0.017422504723072052
0.027492688968777657
0.015286900103092194
-0.05387495085597038
0.03863690048456192
-0.014299009926617146
-0.06831634789705276
-0.011034352704882622
0.030050059780478477
0.060797180980443954
-0.09461771696805954
-0.03897642344236374
-0.012710468843579292
-0.03914377838373184
-0.01805907115340233
0.015641000121831894
0.07275348901748657
0.0064084832556545734
0.0293958131223917
0.010068955831229687
-0.003539697965607047
-0.09323419630527496
0.03329852595925331
0.04602792486548424
-0.10141662508249283
-0.09904683381319046
0.0065265740267932415
-0.143791064620018
-0.22562403976917267
-0.08779933303594589
0.04029424861073494
0.014568169601261616
0.024889107793569565
0.06314986944198608
-0.15854816138744354
-0.04327337443828583
-0.007776533253490925
0.17486490309238434
0.03554471954703331
0.030894597992300987
0.008958542719483376
-0.04794454202055931
0.04058699682354927
0.032957084476947784
-0.05899235978722572
0.008409212343394756
0.05764755979180336
0.03149094060063362
-0.04230525344610214
-0.055747658014297485
-0.01468284334987402
-0.0385790653526783
-0.012295695021748543
-0.06501287966966629
-0.00437391409650445
0.07884762436151505
0.02693178318440914
-0.023316610604524612
0.008493960835039616
0.015676163136959076
-0.00468017440289259
0.006990279536694288
0.00763146486133337
-0.0069047617726027966
-0.009622731246054173
-0.0025385457556694746
-0.034688178449869156
-0.07125448435544968
-0.0698351189494133
-0.01610490307211876
0.005188572220504284
0.04202686995267868
0.0031225215643644333
0.033787284046411514
0.10161507874727249
0.06745298206806183
0.04482337087392807
0.07399218529462814
-0.0566214844584465
-0.13480240106582642
0.015958743169903755
-0.14259633421897888
-0.17368729412555695
-0.04046125337481499
-0.027613746002316475
0.030978048220276833
-0.019265208393335342
-0.027467507869005203
-0.015882151201367378
-0.01815222017467022
-0.006337632425129414
0.051819346845149994
0.0311324130743742
-0.05329447612166405
0.021629923954606056
0.05224541202187538
-0.06428856402635574
-0.08207633346319199
0.011626210995018482
0.08850230276584625
-0.049637023359537125
0.0753815770149231
-0.16764304041862488
-0.13936036825180054
-0.22424131631851196
-0.09293517470359802
0.06039442867040634
-0.08319448679685593
-0.038811877369880676
0.14016255736351013
-0.02535974234342575
-0.01752055063843727
-0.009047533385455608
0.01502676960080862
-0.05136197432875633
-0.010680226609110832
-0.020195821300148964
0.01881157048046589
0.13413886725902557
0.06630951166152954
0.003921922761946917
0.01800861954689026
0.007853399962186813
-0.025395624339580536
-0.03144924342632294
-0.0015019788406789303
0.003858848474919796
0.048542868345975876
-0.014367575757205486
0.011188153177499771
0.00438051437959075
-0.02455822005867958
0.01816188544034958
-0.026923203840851784
-0.07223058491945267
0.02803277224302292
0.04407800734043121
0.014005242846906185
0.00543003436177969
0.09187495708465576
0.0031938147731125355
-0.017944522202014923
0.05726610869169235
-0.008409757167100906
-0.03496074303984642
-0.023296300321817398
-0.03508884832262993
0.025602785870432854
-0.03168857842683792
-0.054160039871931076
0.06973563134670258
-0.010716229677200317
-0.06803429126739502
0.035577915608882904
0.034748829901218414
-0.019333839416503906
-0.0654204711318016
-0.004642719402909279
-0.02336200140416622
0.07583291083574295
0.009117364883422852
-0.049700651317834854
0.06294440478086472
-0.09873475134372711
0.03315750136971474
-0.00905568990856409
-0.030753208324313164
0.011953136883676052
-0.03253934904932976
-0.006284554488956928
-0.020235218107700348
0.0047996435314416885
-0.02146175317466259
-0.004155739210546017
0.017163440585136414
-0.002330269431695342
0.07397156208753586
-0.03210483863949776
-0.07753603160381317
-0.012647784315049648
0.03898518905043602
-0.043170053511857986
0.010904349386692047
-0.029642639681696892
-0.05853353068232536
-0.05973569676280022
-0.02943720668554306
-0.03644143044948578
-0.012379969470202923
-0.022775430232286453
-0.002448461949825287
-0.0016123707173392177
0.04881256818771362
-0.05967490002512932
-0.00878699030727148
-0.006862829439342022
0.07021898031234741
0.023747699335217476
-0.024429243057966232
0.00013659498654305935
-0.05532015860080719
0.07404091954231262
0.040405284613370895
0.05817972496151924
0.022976014763116837
-0.004186809994280338
0.04440251737833023
0.03768061101436615
0.046834707260131836
0.08456186950206757
-0.017131127417087555
-0.0028020895551890135
0.0351252444088459
-0.0075747850351035595
0.021811354905366898
0.034766893833875656
0.013055160641670227
-0.016153868287801743
-0.004361002705991268
0.07381479442119598
0.018273144960403442
0.0041652703657746315
0.000881103565916419
-0.02033325470983982
-0.004489290993660688
-0.013784465380012989
-0.028800535947084427
0.028307011350989342
-0.007343512028455734
0.03541901707649231
0.05528652295470238
0.06227489560842514
-0.019229421392083168
0.028129199519753456
0.021734625101089478
-0.02091122977435589
-0.002128190128132701
0.019859664142131805
-0.05198141932487488
0.04414898157119751
-0.04996884986758232
0.03834434598684311
0.045823413878679276
0.05857233703136444
0.04243163391947746
0.017227116972208023
-0.027443815022706985
0.0009703487739898264
0.005553857423365116
0.011636323295533657
0.03268136456608772
-0.0023193620145320892
0.006528085563331842
-0.0014719163300469518
-0.0017221849411725998
0.013968355022370815
-0.02060653641819954
-0.027662312611937523
0.019039394333958626
0.005508985836058855
-0.04822063446044922
-0.003209470771253109
-0.035959642380476
-0.03726036846637726
0.013281762599945068
0.010731608606874943
0.019113605841994286
-0.011493298225104809
-0.07000884413719177
-0.03112366423010826
0.033342570066452026
-0.01336977444589138
0.03598276525735855
-0.010708879679441452
-0.03979974985122681
0.07217900454998016
0.03433971107006073
0.13274435698986053
0.023969518020749092
0.04259628802537918
0.06785375624895096
-0.030563384294509888
0.018898973241448402
-0.014402765780687332
-0.026247285306453705
-0.008250206708908081
-0.02462916448712349
-0.012373858131468296
-0.039204616099596024
-0.021982187405228615
0.00692557031288743
-0.005969332065433264
-0.016561029478907585
-0.05747447535395622
0.06845176964998245
-0.018142104148864746
-0.04325608164072037
0.029384493827819824
-0.0036894548684358597
0.011425997130572796
0.030289100483059883
-0.0042149038054049015
0.03812633454799652
-0.006103998981416225
-0.007916850969195366
0.007218288257718086
0.019028401002287865
0.005406873766332865
0.001188364694826305
0.012419907376170158
-0.006001805886626244
0.003441733308136463
-0.014028368517756462
-0.009762139059603214
-0.0007301216246560216
0.006915498990565538
-0.0005757276085205376
0.03884489834308624
0.029556939378380775
0.04254183545708656
-0.028020227327942848
0.026596762239933014
0.04233555123209953
-0.015037205070257187
-0.032906513661146164
0.02882598526775837
0.06845301389694214
0.03224928677082062
-0.0074434648267924786
-0.01210575271397829
-0.027048669755458832
-0.05676168203353882
0.00409505981951952
-0.05231468752026558
-0.02167910523712635
0.038001760840415955
0.03522735461592674
0.036046553403139114
-0.03171217441558838
0.009631101973354816
0.02338617667555809
0.018016280606389046
-0.03792344406247139
-0.05034065246582031
-0.04830441251397133
-0.04713499918580055
0.00621072668582201
-0.03027511015534401
-0.040552251040935516
0.038932573050260544
0.024786939844489098
0.014080443419516087
-0.015456805005669594
-0.027490515261888504
0.03455937281250954
-0.05407813563942909
0.017724044620990753
0.02670234814286232
-0.04368359595537186
-0.0009226800757460296
0.09881420433521271
0.03218742832541466
0.015954259783029556
-0.012875800020992756
-0.0456685796380043
-0.033530693501234055
-0.01200927048921585
-0.03829827532172203
-0.0334307886660099
0.013209889642894268
0.02926410175859928
0.07128477841615677
0.013863914646208286
0.0124142374843359
-0.017410332337021828
0.015792228281497955
0.09625667333602905
0.032982420176267624
-0.042885828763246536
6.548340752488002e-05
-0.0039047200698405504
0.005653831642121077
-0.014156941324472427
0.022415006533265114
-0.017176471650600433
0.026108378544449806
-0.012490956112742424
-0.05499964952468872
0.02650502137839794
-0.03638416528701782
0.03478758782148361
0.00025364672183059156
0.022692719474434853
-0.0013625083956867456
-0.058787766844034195
0.009519441053271294
-0.005944101605564356
-0.03421479091048241
0.025775833055377007
-0.02812638320028782
0.03968633711338043
0.02171902172267437
0.025490975007414818
-0.008559592999517918
0.006527035031467676
-0.015736788511276245
-0.05550764128565788
-0.011586355976760387
0.019211117178201675
-0.015515081584453583
-0.017879165709018707
-0.0020569046027958393
-0.004985743202269077
0.012493109330534935
-0.0057861157692968845
-0.0012522684410214424
0.01708189956843853
0.011916839517652988
0.0015867515467107296
0.006475450005382299
-0.032810404896736145
-0.024896007031202316
-0.005464769899845123
-0.020725741982460022
-0.021883556619286537
0.03452557697892189
0.007253989577293396
-0.014137267135083675
0.020050594583153725
0.02833012491464615
0.059568848460912704
0.03309178724884987
0.009912526234984398
0.04799142852425575
-0.0028037261217832565
0.02308036759495735
-0.05138063058257103
0.0163381677120924
-0.06717823445796967
0.04551808163523674
0.1598055213689804
-0.0322086364030838
0.09447535127401352
0.05336339771747589
0.015458181500434875
0.007573297712951899
0.01668614335358143
-0.019086502492427826
-0.04717564210295677
0.005398874636739492
-0.002315921476110816
-0.026061516255140305
0.0028530640993267298
0.02758065052330494
-0.0045409174636006355
-0.02364041469991207
-0.007795199751853943
-0.04453347250819206
-0.030320214107632637
-0.02284102514386177
-0.03189493715763092
0.03591616824269295
0.005561319179832935
-0.021175559610128403
-0.00024509255308657885
-0.004037909675389528
-0.017121177166700363
-0.012600420042872429
0.02761688642203808
0.013606583699584007
0.011777494102716446
0.0433824360370636
-0.019054120406508446
-0.035192396491765976
-0.01666790246963501
-0.03392179310321808
0.009545941837131977
-0.012184548191726208
0.005650139879435301
0.051639292389154434
0.0016681522829458117
-0.003761955304071307
-0.0021496920380741358
-0.028776925057172775
-0.0018477675039321184
0.01780092529952526
-0.017681078985333443
0.009285510517656803
0.035025693476200104
0.03628367558121681
0.011712689884006977
0.017424924299120903
0.016478097066283226
0.0088451923802495
0.0028235316276550293
0.007323598489165306
0.009451511316001415
0.055450089275836945
0.027201099321246147
-0.004001606721431017
0.031214596703648567
-0.043431442230939865
-0.08671611547470093
0.010995205491781235
-0.012349928729236126
-0.02710539847612381
0.08899464458227158
0.050535812973976135
-0.05945286899805069
0.042197227478027344
0.02263038232922554
-0.040675099939107895
0.02729698084294796
0.06952167302370071
0.04110529646277428
0.0018450485076755285
0.0280461385846138
-0.05024465173482895
0.017916889861226082
0.07341886311769485
-0.055733852088451385
0.003289951477199793
0.06838466227054596
-0.025046056136488914
0.02868412435054779
0.05856441333889961
-0.019518641754984856
-0.10522418469190598
0.02604771964251995
0.07807642966508865
0.03728864714503288
-0.0543513223528862
0.0464010126888752
0.027707593515515327
-0.01634327322244644
-0.05997034162282944
-0.05237690731883049
-0.03327060118317604
-0.04241498187184334
-0.029489334672689438
0.016973622143268585
0.014084803871810436
0.01781981624662876
-0.0023978492245078087
-0.03372478112578392
-0.03063877485692501
-0.05378437042236328
-0.08111849427223206
-0.06874650716781616
0.0029734044801443815
-0.0681532770395279
-0.07577623426914215
0.04391542822122574
-0.01810578443109989
-0.0710105448961258
0.01146598719060421
0.18107366561889648
0.08194737136363983
0.021315131336450577
0.10691596567630768
0.019046565517783165
-0.005056250374764204
-0.04868493974208832
-0.012049052864313126
-0.053737539798021317
0.007338478229939938
-0.0003414507955312729
-0.014587881043553352
0.055997371673583984
0.0338105708360672
0.041819605976343155
0.0012562215561047196
0.031434450298547745
-0.0025369091890752316
-0.02287609688937664
0.017283489927649498
0.012496234849095345
-0.008662174455821514
0.007777056191116571
0.1710779070854187
0.0991692990064621
0.08424868434667587
-0.01815980114042759
-0.31339192390441895
-0.07707976549863815
-0.00978314969688654
-0.11085274815559387
0.13769620656967163
0.04614502936601639
0.025575954467058182
0.020270206034183502
0.005388730671256781
0.19839057326316833
0.0716514065861702
-0.03811098262667656
0.03947887569665909
-0.01496012695133686
-0.06721179932355881
-0.04255926236510277
-0.04496246576309204
-0.04698996990919113
-0.04508532956242561
-0.029463566839694977
-0.028405047953128815
-0.004940513055771589
-0.045057348906993866
0.10067947208881378
-0.049671899527311325
-0.018054621294140816
0.022843191400170326
-0.04647655412554741
-0.0009796329541131854
0.0005432441830635071
-0.027051301673054695
0.01501515693962574
0.0836576372385025
-0.020402636379003525
-0.006204202771186829
0.018509574234485626
-0.14025098085403442
0.024272223934531212
0.05736665427684784
0.022093549370765686
0.07420836389064789
-0.023894691839814186
-0.09352767467498779
0.02547505497932434
-0.04962650686502457
-0.1813468039035797
-0.03866490721702576
0.08055418729782104
-0.0630064457654953
0.0018976517021656036
0.015097197145223618
-0.019900759682059288
-0.016194090247154236
0.017188411206007004
-0.013878436759114265
-0.027098268270492554
0.04586020112037659
0.004358554724603891
0.025762969627976418
0.021697646006941795
-0.006799713708460331
0.051491156220436096
-0.01713838241994381
-0.07750044763088226
0.0016700119012966752
0.03395979851484299
-0.028748471289873123
0.025143491104245186
0.03753895312547684
0.059564072638750076
0.030815191566944122
0.061575211584568024
0.07827683538198471
0.009762304835021496
0.00881935004144907
0.008620993234217167
0.024568993598222733
-0.018853025510907173
-0.008951974101364613
0.013916094787418842
0.002227680990472436
0.1227920651435852
-0.020630106329917908
0.03668303042650223
0.07388035953044891
-0.032252758741378784
-0.00979591254144907
-0.05700625851750374
-0.0081254281103611
0.026275115087628365
-0.05004315450787544
-0.05319158732891083
0.041593559086322784
0.026949120685458183
0.003123584436252713
-0.07457317411899567
-0.06078293174505234
-0.031539853662252426
0.034312788397073746
0.01986992545425892
-0.018473852425813675
0.029807791113853455
-0.004692852962762117
-0.04158034548163414
-0.030552059412002563
-0.017473844811320305
0.04252078756690025
-0.0699019730091095
-0.07785721868276596
-0.012024694122374058
0.025778012350201607
-0.03678850084543228
0.00864239688962698
-0.01665472984313965
-0.0025775544345378876
0.01872890628874302
-0.0699458196759224
0.010433840565383434
0.01223733089864254
-0.04678885638713837
0.009059065021574497
0.015902115032076836
0.016151541844010353
0.01262067724019289
0.04049329832196236
0.0492713525891304
0.21660341322422028
0.1502564251422882
0.014843584038317204
0.0784468725323677
-0.027623921632766724
0.02683018147945404
0.014266708865761757
0.06265751272439957
0.00030585224158130586
-0.005324121098965406
0.0032785607036203146
0.021096957847476006
-0.02318945713341236
0.012102079577744007
-0.06118246912956238
-0.029226720333099365
0.02003580518066883
-0.07608854025602341
-0.07705670595169067
0.08654354512691498
-0.039228226989507675
-0.03236059471964836
-0.08897038549184799
-0.13372139632701874
0.08836232125759125
0.08383645117282867
-0.01168826874345541
0.43155673146247864
-0.0033629140816628933
-0.023924779146909714
-0.10091578215360641
-0.10183539241552353
0.08016525208950043
0.0430423766374588
0.002732492983341217
0.03526894748210907
-0.015503923408687115
-0.03501080721616745
-0.017164215445518494
-0.026827143505215645
-0.0339459553360939
0.04543907195329666
0.05158514529466629
0.018321381881833076
-0.03964732959866524
0.023956401273608208
-0.02660927176475525
-0.03035780042409897
-0.06472931802272797
0.025834081694483757
0.038104716688394547
0.04098634421825409
0.041005369275808334
0.01758417673408985
-0.01649402640759945
-0.03271648287773132
0.0055886064656078815
-0.01706753484904766
-0.030604621395468712
-0.1156417652964592
-0.0927196592092514
-0.21004490554332733
-0.07950649410486221
-0.11581310629844666
-0.2376701682806015
-0.036690883338451385
-0.011613292619585991
-0.06984679400920868
-0.07645614445209503
-0.024747882038354874
0.016900531947612762
-0.0377299003303051
0.00684580160304904
0.03819294273853302
0.003736926009878516
0.030290016904473305
0.04386039450764656
0.004096821416169405
-0.030701754614710808
-0.06505125761032104
-0.00847634021192789
-0.04420910030603409
-0.04711569845676422
-0.005970040801912546
-0.05123043432831764
-0.04011918604373932
0.004624636843800545
-0.0018655487801879644
-0.01575993373990059
0.025459427386522293
0.01624138094484806
0.003626335645094514
0.004543219693005085
0.004699852783232927
0.024662863463163376
-0.027795420959591866
-0.00811064150184393
-0.0038356794975697994
-0.03297963738441467
-0.0028221989050507545
0.014687866903841496
0.05972253531217575
0.06589599698781967
0.01704517751932144
-0.03110527992248535
0.0648820549249649
-0.0024246464017778635
-0.009509986266493797
0.03692572936415672
-0.027017302811145782
-0.04494937136769295
0.0031063477508723736
-0.022369403392076492
0.03857770189642906
0.003176692873239517
-0.054833073168992996
0.0026008819695562124
-0.005813410505652428
-0.03165268152952194
-0.01821223460137844
-0.00902282353490591
-0.02359767258167267
0.0515114925801754
0.017902527004480362
-0.006942100822925568
0.019218020141124725
-0.049519095569849014
0.009632790461182594
0.030019067227840424
0.024254649877548218
0.0006495282868854702
-0.0558394230902195
0.08186517655849457
0.04203462600708008
0.011918229050934315
-0.1263442039489746
0.025623133406043053
-0.03190220147371292
0.0929126888513565
2.5654604542069137e-05
-0.0066469288431108
0.008899671956896782
-0.03154270723462105
-0.04098439961671829
-0.07374616712331772
-0.008381245657801628
0.05387810245156288
0.0008906205766834319
0.04807598143815994
0.05433337390422821
0.09891123324632645
0.03813277557492256
0.05486757680773735
0.068499356508255
-0.013460974209010601
0.04818488657474518
0.008691512048244476
-0.04570154473185539
-0.06864962726831436
0.04403321444988251
0.007123432122170925
-0.0683944821357727
0.047833774238824844
0.07415688037872314
-0.03819749876856804
-0.0393136665225029
-0.03624889627099037
0.005176510661840439
-0.011413360014557838
0.0016846336657181382
0.011687004938721657
-0.02482353337109089
-0.000351046648574993
0.020262151956558228
0.03351762145757675
0.010636641643941402
-0.008268157951533794
-0.017808308824896812
0.035505253821611404
-0.03502016142010689
-0.0853014886379242
0.010830273851752281
0.006189746782183647
-0.012688448652625084
0.015166792087256908
-0.04753289371728897
-0.1535312384366989
0.022178353741765022
-0.07937377691268921
-0.18234726786613464
0.01849130168557167
0.09919032454490662
0.0025698149111121893
0.02233901061117649
-0.04137599468231201
-0.04360196739435196
0.0008372704032808542
-0.02595110982656479
-0.06422040611505508
-0.013572261668741703
0.04373888671398163
-0.00460668932646513
-0.01940310001373291
-0.051418088376522064
-0.01550414226949215
-0.07705823332071304
-0.048967599868774414
-0.02000381425023079
-0.09493102878332138
-0.09756170958280563
-0.15016856789588928
-0.13456332683563232
-0.0465376041829586
0.017963755875825882
0.01918504200875759
-0.07841578125953674
0.05135949328541756
0.0028441238682717085
-0.09740205854177475
-0.14722265303134918
-0.10756469517946243
-0.007069409359246492
-0.043753065168857574
0.027870887890458107
-0.020742982625961304
-0.08230137079954147
0.01425076462328434
0.007944976910948753
-0.0002813166647683829
-0.010104520246386528
-0.02533612586557865
-0.025582758709788322
-0.124189592897892
-0.011239972896873951
0.0015278689097613096
-0.22734765708446503
0.07507546246051788
0.06034175306558609
-0.026259280741214752
0.01123880222439766
0.0031957703176885843
-0.0064715235494077206
-0.03347564861178398
-0.025584856048226357
-0.010822463780641556
-0.033506546169519424
0.0027246347162872553
0.021880624815821648
-0.030319485813379288
-0.0044630421325564384
-0.027151914313435555
-0.01620587147772312
-0.013879694975912571
-0.03320258483290672
-0.029409706592559814
0.020435940474271774
0.011355369351804256
0.024387270212173462
-0.0268244631588459
-0.06954479217529297
0.02515784278512001
-0.037988871335983276
-0.10283873975276947
-0.037367481738328934
-0.02088352106511593
-0.010806153528392315
-0.029797624796628952
-0.06292591243982315
-0.028005722910165787
0.034212663769721985
0.05926020070910454
-0.05784822255373001
0.02299642376601696
0.08295579254627228
0.0023552763741463423
-0.02549680694937706
0.010752568021416664
0.047805458307266235
-0.04040736332535744
-0.03831707313656807
0.015093433670699596
0.00853504054248333
0.008370224386453629
0.01111865695565939
0.0294797345995903
0.007314259186387062
-0.0016328886849805713
0.029684795066714287
-0.02955922856926918
-0.020784642547369003
0.01454717107117176
0.01880284585058689
0.028264760971069336
0.00565438624471426
0.04484722763299942
-0.043782394379377365
-0.022921379655599594
0.10116088390350342
-0.08546076714992523
-0.05883212387561798
0.09344130009412766
-0.03957955911755562
-0.03050103224813938
1.8480581275071017e-05
0.008968605659902096
0.015123218297958374
-0.07744963467121124
-0.026776982471346855
0.041245006024837494
0.07325733453035355
0.07993320375680923
0.03480806201696396
-0.0207501370459795
0.03125555068254471
0.000991462147794664
-0.05134304240345955
0.0001456813479308039
-0.027902647852897644
0.0015701731899753213
0.004255233332514763
-0.020707322284579277
-0.010135795921087265
0.04309087246656418
-0.02243048883974552
-0.018189115449786186
0.06636770069599152
0.017145870253443718
0.027966348454356194
0.0696810781955719
-0.024089578539133072
-0.022461293265223503
0.026701541617512703
-0.012476387433707714
-0.030827166512608528
0.04570344090461731
0.020912358537316322
0.012574431486427784
0.016527120023965836
-0.015907714143395424
0.022273223847150803
0.02446482889354229
0.011610286310315132
-0.012523719109594822
-0.0007939114002510905
0.048243097960948944
0.02223488874733448
-0.010945179499685764
0.02179313823580742
0.04569002985954285
-0.02702201157808304
0.02029951848089695
0.0506451390683651
-0.04367310553789139
-0.0329669713973999
-0.01731627620756626
-0.06163756176829338
0.016319146379828453
0.05046461895108223
-0.03823168948292732
0.049365874379873276
0.16311722993850708
0.04991064593195915
0.0014622147427871823
0.05313779413700104
-0.01359647698700428
0.019333308562636375
-0.024485478177666664
-0.036487068980932236
0.025042669847607613
-0.021155618131160736
-0.004817426670342684
-0.019115222617983818
-0.010593781247735023
-0.0100189708173275
0.0016438536113128066
-0.034734096378088
-0.013203976675868034
-0.01458654087036848
-0.04136984422802925
-0.056715019047260284
-0.01187713723629713
-0.03285598382353783
-0.009629721753299236
-0.03866877779364586
-0.003646315773949027
0.0025373774114996195
0.011152810417115688
-0.0047231209464371204
0.003790563438087702
-0.0456530824303627
-0.008124100975692272
0.021407200023531914
-0.01993183232843876
-0.0016977363266050816
0.006670020986348391
0.021646680310368538
0.00567135214805603
0.03601006418466568
-0.0003988124954048544
-0.02209421433508396
0.020185193046927452
-0.004325954243540764
0.04351462796330452
-0.00744996964931488
0.010523171164095402
0.04714000225067139
-0.013214416801929474
-0.03213750943541527
-0.009462186135351658
-0.04992496967315674
-0.005810242611914873
0.010282082483172417
0.027229955419898033
0.0514732263982296
0.05183776840567589
0.051009584218263626
-0.04970727115869522
-0.0334637351334095
-0.006338582374155521
0.04623410850763321
0.035835590213537216
0.018938526511192322
0.03972664847970009
-0.06970719248056412
-0.05233210325241089
0.014023854397237301
-0.025630028918385506
0.01831136643886566
0.016308214515447617
0.004257381893694401
0.04461374506354332
0.04467266425490379
-0.07320500910282135
0.00781412236392498
0.02646465227007866
-0.03751659393310547
-0.02495872601866722
-0.023937100544571877
-0.0073266527615487576
0.021361716091632843
-0.012087225914001465
0.004499148577451706
0.032951582223176956
-0.011501400731503963
0.008555210195481777
0.018604261800646782
-0.022134315222501755
-0.07340951263904572
0.03141345828771591
0.0050859395414590836
0.02142181806266308
0.1525283008813858
-0.05058497190475464
-0.003292398527264595
-0.04947813227772713
0.04300754517316818
0.02637358568608761
-0.014530489221215248
0.016422301530838013
0.025694651529192924
0.07195606827735901
-0.03777620568871498
0.009466107934713364
-0.015796026214957237
0.009904257953166962
-0.1037295013666153
-0.08304793387651443
0.0434001199901104
-0.13885581493377686
-0.13963496685028076
0.08003626763820648
0.007785511203110218
0.006974035408347845
0.01737475022673607
-0.07198839634656906
-0.04673279449343681
0.05193905532360077
0.08890759199857712
-0.034000884741544724
-0.0453433133661747
-0.12532223761081696
0.04700556769967079
-0.036102864891290665
-0.023233845829963684
-0.021613406017422676
0.001052437350153923
0.023869289085268974
-0.0029769919347018003
0.017288973554968834
0.04535914212465286
0.0038511832244694233
-0.026588276028633118
0.019005242735147476
0.015004439279437065
0.010041477158665657
0.04375894367694855
0.028282254934310913
0.038567282259464264
0.0368683785200119
0.04234926775097847
0.022275319322943687
0.027408024296164513
-0.018487367779016495
0.020759932696819305
0.018067769706249237
-0.022587982937693596
-0.0162745863199234
-0.006642664782702923
-0.02846597507596016
-0.016894029453396797
-0.009790085256099701
-0.00487399660050869
0.021062325686216354
-0.017665833234786987
-0.013985375873744488
0.0016192238545045257
-0.007604890502989292
-0.01718640886247158
-0.009183142334222794
-0.007402968592941761
-0.05369008332490921
-0.006015676073729992
0.06619468331336975
-0.08801926672458649
-0.05214869603514671
-0.01603582873940468
-0.07779084146022797
-0.04466771334409714
-0.01730967126786709
-0.016559166833758354
-0.013927343301475048
0.021630000323057175
0.023839199915528297
-0.03454611822962761
-0.015470562502741814
0.01145629957318306
-0.033568620681762695
-0.1075991839170456
-0.08132322132587433
0.03253144770860672
-0.12964321672916412
-0.17763622105121613
-0.009096425026655197
-0.09046806395053864
-0.08496344834566116
0.03430325910449028
0.0017150829080492258
0.06248423457145691
-0.10785458236932755
-0.12021377682685852
0.06313678622245789
-0.022258350625634193
0.0187219250947237
0.08882302790880203
-0.033719129860401154
0.002131113549694419
-0.0843014195561409
0.0007157597574405372
0.0699768140912056
-0.014342125505208969
-0.10799054801464081
-0.1192234605550766
-0.07961873710155487
0.012528307735919952
0.00912349484860897
0.05703846737742424
0.004904974717646837
-0.006287210155278444
0.018728459253907204
-0.008639776147902012
-0.013213054277002811
0.050215914845466614
-0.04402496665716171
-0.008379882201552391
0.03681013360619545
-0.023118317127227783
0.04523994401097298
0.00782875344157219
0.0013997877249494195
0.013535423204302788
0.0365036316215992
-0.13693830370903015
-0.1407417505979538
0.0514228530228138
-0.12521253526210785
-0.13128305971622467
0.0757330134510994
-0.045032043009996414
-0.01708149164915085
0.0712515190243721
0.06338058412075043
0.015874050557613373
-0.027321938425302505
0.08035604655742645
0.03610372543334961
-0.02850610390305519
0.026638343930244446
0.022021090611815453
0.03234482556581497
-0.0012067812494933605
-0.0461786612868309
-0.015350772999227047
-0.011275703087449074
0.019199751317501068
0.03433620557188988
0.01654045470058918
-0.00785920862108469
-0.02539249323308468
-0.05045275390148163
-0.0636628046631813
-0.04241432994604111
-0.04227716475725174
-0.060797251760959625
-0.028901120647788048
-0.016088996082544327
-0.04414186626672745
-0.011630605906248093
0.00939838495105505
-0.0017885727575048804
0.0034776064567267895
0.011369915679097176
0.013774367980659008
0.02222147025167942
0.04362213984131813
0.009808629751205444
0.004801847040653229
0.009283344261348248
0.016926826909184456
0.012027557007968426
0.037246715277433395
0.04758782312273979
0.03256078436970711
0.03498462215065956
0.033270228654146194
0.010862714610993862
0.028582269325852394
0.008749288506805897
0.02274492383003235
0.04789310693740845
-0.018973425030708313
-0.020826352760195732
0.07247144728899002
-0.007916959933936596
0.0046845232136547565
0.07967199385166168
0.08391445875167847
0.044220924377441406
0.08197609335184097
0.0843006893992424
0.032975975424051285
0.08353792876005173
0.0755608081817627
0.04177539423108101
0.0072146509774029255
0.03344305604696274
0.0015063444152474403
-0.008793736808001995
0.032677095383405685
-0.04901745170354843
-0.03527787700295448
0.03550043702125549
0.004482136573642492
0.013088870793581009
0.01766141504049301
-0.012536507099866867
0.008539218455553055
0.02080659195780754
-0.008407116867601871
-0.029793385416269302
-0.030452871695160866
-0.04923572391271591
-0.060496825724840164
-0.09251227229833603
-0.01049160398542881
0.023530609905719757
0.07590153068304062
0.06642474234104156
-0.003371637314558029
0.11042669415473938
0.08003982156515121
-0.012392012402415276
0.01478036679327488
-0.028420938178896904
-0.00562485633417964
-0.004582097753882408
-0.025360824540257454
0.003111348720267415
0.01582050882279873
0.022859394550323486
0.02246531844139099
0.02037033624947071
0.023931697010993958
0.0024590385146439075
0.0073129842057824135
0.009341403841972351
0.006746577098965645
0.0006216870970092714
0.023362992331385612
-0.0435575507581234
-0.0692547932267189
-0.029821598902344704
-0.011388229206204414
-0.04446645826101303
-0.028833912685513496
0.03653905913233757
-0.00830608420073986
0.018044542521238327
-0.01539391279220581
-0.004674813710153103
0.015910213813185692
-0.1014394462108612
-0.08553940802812576
0.04433862492442131
0.10031120479106903
-0.023025045171380043
-0.11095378547906876
-0.0032780750188976526
0.09617818146944046
0.01516819279640913
-0.01111304759979248
-0.06263041496276855
-0.013067436404526234
0.006371524650603533
-0.050896842032670975
0.04802362620830536
0.0002695653529372066
0.02237505093216896
0.024653229862451553
-0.01348400954157114
-0.018897775560617447
-0.003884409787133336
-0.019972972571849823
-0.020466351881623268
-0.02499966323375702
0.05404604598879814
0.012610547244548798
0.003009557956829667
0.013904695399105549
0.020092621445655823
0.009392321109771729
0.002090499270707369
-0.011452440172433853
-0.010623784735798836
-0.009946745820343494
0.003678746987134218
-0.030319401994347572
-0.014172130264341831
1.661641181271989e-05
0.006646027788519859
-0.028176281601190567
-0.02467026375234127
0.01453896053135395
-0.014821359887719154
-0.0021891098003834486
-0.0017949877073988318
-0.00743951415643096
-0.0031896764412522316
0.004418320953845978
-0.005725960247218609
-0.01701567880809307
-0.010334356687963009
0.006898125633597374
-0.03890933841466904
-0.0466376431286335
0.04126361384987831
0.06635241955518723
0.05809445306658745
0.024807441979646683
0.030860166996717453
0.014201168902218342
0.019489767029881477
0.01990240067243576
-0.0023751494009047747
0.061550263315439224
0.06755340844392776
0.028064323589205742
0.014624708332121372
0.011817779392004013
-0.014056025072932243
0.0258119348436594
0.024002177640795708
0.025967329740524292
0.020093323662877083
-0.009756330400705338
-0.02184208668768406
-0.0046217795461416245
-0.03249705955386162
-0.036930423229932785
0.039564020931720734
0.015271687880158424
0.032409947365522385
0.023066744208335876
-0.0049314373172819614
0.027422720566391945
0.02569589950144291
0.010689781047403812
0.005793550983071327
0.048555418848991394
0.03429228812456131
0.04464541748166084
0.11048199236392975
0.09205272048711777
0.07331664115190506
0.06523402035236359
0.0382302924990654
0.045218512415885925
0.001849442021921277
0.017963675782084465
0.037174638360738754
0.01173454150557518
0.0409519299864769
0.0414513535797596
0.0013332786038517952
-0.012385758571326733
-0.002638388192281127
-0.014641610905528069
-0.0013928685802966356
0.01740884594619274
-0.03104935586452484
-0.012589504010975361
-0.018374474719166756
-0.007281578611582518
0.011257689446210861
-0.018730150535702705
-0.057488635182380676
-0.037683144211769104
-0.029841434210538864
0.0031467427033931017
0.0029111020267009735
-0.008325697854161263
0.013612112030386925
0.016369884833693504
0.01870768517255783
-0.022609401494264603
0.021902291104197502
0.0012323616538196802
-0.012215888127684593
0.026856284588575363
-0.011413843370974064
-0.0015092592220753431
0.017435813322663307
-0.021755950525403023
0.03860078006982803
-0.0023243515752255917
0.002162413438782096
6.16866527707316e-05
0.0010487505933269858
0.0021378747187554836
-0.018809545785188675
-0.027246247977018356
-0.018169745802879333
0.018370576202869415
0.0253378264605999
-0.032621461898088455
0.0367913693189621
0.04182414337992668
-0.015873640775680542
0.008066068403422832
0.0114299226552248
-0.04333563148975372
-0.03178215026855469
-0.025428980588912964
-0.02821514755487442
0.02213560789823532
0.02311038039624691
-0.010791033506393433
0.024830864742398262
0.04673580825328827
-0.00217560981400311
-0.04045271500945091
-0.0497945137321949
-0.0328444242477417
0.0013380127493292093
0.010076096281409264
-0.013627472333610058
0.032613255083560944
0.0659346655011177
0.044723618775606155
0.04089739918708801
0.04155696928501129
0.009377734735608101
0.06395132094621658
-0.0013026902452111244
-0.051346950232982635
0.03962474316358566
-0.01841343753039837
0.008921426720917225
0.009661858901381493
-0.00995604693889618
0.029065443202853203
-0.010808220133185387
-0.0048210229724645615
0.02090679481625557
0.007473733741790056
0.0050678071565926075
0.03586695343255997
0.014906571246683598
0.026199821382761
-0.0069648888893425465
0.026009080931544304
0.04292934387922287
0.014553844928741455
-0.03221539035439491
-0.030039167031645775
-0.04265879839658737
-0.043612826615571976
-0.018200291320681572
0.013097385875880718
-0.01735323667526245
-0.00200332747772336
0.021675795316696167
0.005366356112062931
0.00801504123955965
0.02683945745229721
0.0030763987451791763
0.009608015418052673
-0.006329973228275776
0.018715959042310715
0.0037727453745901585
-0.021350907161831856
-0.00024919217685237527
-0.018912479281425476
-0.01681140810251236
0.02172096073627472
0.0105193592607975
-0.0024182163178920746
0.02573278732597828
0.026334363967180252
0.007525618188083172
0.017650604248046875
0.0032384037040174007
-0.0007581501849927008
-0.00574834318831563
0.0018243729136884212
-0.01440892182290554
0.04065949097275734
0.11714915186166763
0.0030592919792979956
0.04844899848103523
0.11110226809978485
-0.0038067197892814875
-1.1134141459478997e-05
0.0003875026013702154
0.025937069207429886
-0.012798208743333817
0.0028950953856110573
0.0008608027128502727
-0.028988247737288475
-0.03356093540787697
-0.027377605438232422
-0.006058671046048403
-0.03348875418305397
-0.10790516436100006
0.06219325214624405
0.0007893956499174237
-0.16864319145679474
0.03177255019545555
0.04025930166244507
-0.036129701882600784
0.03205208107829094
-0.022837724536657333
-0.024274133145809174
0.032043833285570145
0.030083365738391876
0.03799358010292053
0.030583655461668968
0.039736565202474594
0.028527429327368736
-0.01452410127967596
0.009910563938319683
0.002746847691014409
0.012836412526667118
0.05927712470293045
0.028429318219423294
-0.02478831447660923
-0.014102882705628872
0.08361709862947464
0.017789620906114578
0.0007736122934147716
0.01506027765572071
-0.008543826639652252
-0.02214953862130642
-0.0033239698968827724
-0.007919305004179478
-0.02410885877907276
0.00638855155557394
-0.005645260214805603
-0.04249526932835579
-0.0017303860513493419
-0.057719990611076355
-0.11602922528982162
-0.03697716072201729
-0.0019236102234572172
-0.06492283195257187
-0.01629946194589138
0.0429769903421402
0.018644526600837708
-0.06648177653551102
0.06305187195539474
0.08156832307577133
-0.03615467995405197
-0.07048027217388153
-0.013895083218812943
0.017459070309996605
0.022525975480675697
0.06141964718699455
0.051992010325193405
0.03336455300450325
0.05151069536805153
0.004060607869178057
0.008389833383262157
0.027321208268404007
0.010341771878302097
0.018979456275701523
-0.0011573685333132744
0.015404286794364452
0.004960782825946808
-0.01517388503998518
-0.0049272081814706326
0.007003083359450102
-0.029058627784252167
-0.011718343943357468
0.02797512151300907
-0.06652993708848953
-0.007470171432942152
-0.04640381783246994
-0.0035386623349040747
-0.013061538338661194
0.037443920969963074
0.005283431150019169
0.025476980954408646
-0.06708832830190659
-0.04329680651426315
-0.054941561073064804
-0.058658722788095474
-0.07759638875722885
-0.06364268809556961
-0.10095275193452835
-0.07686565071344376
-0.022501837462186813
0.012361894361674786
0.02941499464213848
0.06172923743724823
0.011699356138706207
-0.004365487489849329
0.016369596123695374
0.03922216221690178
-0.0008580540306866169
0.037224799394607544
-0.01759316772222519
-0.041519470512866974
0.015234069898724556
-0.03520401939749718
-0.01906636357307434
0.03249407559633255
-0.023433847352862358
0.03800315782427788
-0.008641214109957218
-0.05172046646475792
-0.06125541031360626
0.06577587872743607
0.04169260710477829
0.0607554093003273
-0.038927823305130005
-0.036836400628089905
0.09069051593542099
-0.05141105502843857
-0.008941161446273327
-0.020843995735049248
0.01143555250018835
-0.029187103733420372
-0.058106571435928345
-0.020642001181840897
0.001673814025707543
-0.02503616362810135
-0.02976694330573082
-0.039015721529722214
-0.030730830505490303
-0.010857396759092808
-0.030053798109292984
-0.02612605132162571
-0.02381114289164543
0.00927973072975874
0.01576986163854599
0.02289968729019165
-0.07338494062423706
-0.08091886341571808
-0.03492443636059761
-0.060701582580804825
-0.07918740063905716
-0.02042512409389019
-0.05897817015647888
-0.046382226049900055
-0.04183496534824371
0.0850401520729065
0.0573187917470932
0.052485812455415726
0.004147992469370365
0.016767654567956924
0.015415266156196594
0.05349774658679962
0.06166018173098564
0.027511265128850937
-0.021202705800533295
-0.04352015629410744
-0.016629744321107864
-0.029033074155449867
-0.06009024381637573
-0.023871615529060364
-0.06189177930355072
-0.05978997424244881
-0.02363738976418972
-0.061322323977947235
-0.033053524792194366
0.01688319630920887
-0.00409205025061965
0.002226836048066616
0.021414626389741898
0.02908087894320488
-0.014725877903401852
-0.016180476173758507
0.008356490172445774
-0.037837810814380646
-0.006078657228499651
0.037432242184877396
0.02574974112212658
0.03703049570322037
0.01031563337892294
-0.013440831564366817
0.01630750671029091
0.001130068558268249
-0.033844444900751114
-0.026747964322566986
0.01814594492316246
0.010753498412668705
-0.0014292645500972867
-0.039329253137111664
-0.03503991290926933
-0.022713137790560722
0.07237772643566132
0.04098564386367798
0.020482204854488373
0.053202852606773376
0.004038678482174873
0.0004620791878551245
0.06807436048984528
-0.007682421710342169
-0.027310524135828018
0.03211039677262306
0.02298252284526825
0.018433503806591034
-0.004532825667411089
-0.013567247427999973
0.00024074065731838346
-0.016086671501398087
-0.03167443349957466
0.012708595022559166
0.0010208296589553356
-0.023652609437704086
-0.0020691733807325363
-0.014869499951601028
-0.04973513260483742
-0.03043799288570881
0.006402424070984125
-0.03597312793135643
-0.01187290158122778
-0.03109140694141388
0.0005000669625587761
-0.019023237749934196
-0.07092337310314178
0.04519486054778099
0.02416652999818325
-0.07812517136335373
0.030620098114013672
-0.008251371793448925
0.06109808757901192
0.00744953379034996
-0.12929923832416534
-0.04851695895195007
-0.02440059743821621
0.022019950672984123
-0.08051245659589767
0.05059751495718956
0.05137421935796738
-0.0129372114315629
0.04859956353902817
0.017113935202360153
-0.020918114110827446
0.01815030165016651
0.002623058157041669
0.0012027756310999393
-0.0033821859396994114
0.018130024895071983
0.012067609466612339
0.09313065558671951
-0.008841059170663357
0.0013718545669689775
0.03386635333299637
-0.05961829423904419
0.02409854158759117
-0.019585851579904556
0.02252271957695484
-0.03860102966427803
-0.03492248058319092
-0.04594709351658821
-0.02603316865861416
-0.015034380368888378
-0.023381466045975685
-0.04384848102927208
-0.044959068298339844
-0.021121134981513023
0.005499227438122034
-0.054709624499082565
-0.020117774605751038
-0.017429333180189133
0.037947382777929306
-0.016691088676452637
-0.023895330727100372
0.037483081221580505
-0.011201314628124237
0.05756254121661186
0.08192149549722672
0.05051811411976814
0.005439441185444593
0.006790678948163986
0.0320899672806263
-0.019254714250564575
-0.0462871789932251
0.017677707597613335
0.042863890528678894
-0.021879177540540695
0.01865771785378456
-0.020734330639243126
0.024693410843610764
-0.00025726016610860825
-0.0243613813072443
0.014573604799807072
-0.0074903033673763275
0.03247729316353798
0.012883923016488552
-0.010484292171895504
0.0012279785005375743
0.002208107616752386
-0.014603804796934128
-0.00888784509152174
-0.019285866990685463
-0.013004777953028679
-0.032526593655347824
0.05254780873656273
0.008788560517132282
-0.038034021854400635
0.004147948697209358
0.04068518057465553
-0.024673931300640106
0.014307110570371151
-0.03916041553020477
0.01250458974391222
-0.29707491397857666
-0.07878845185041428
-0.025090180337429047
0.10965617746114731
-0.032945211976766586
-0.015895040705800056
0.21407638490200043
0.059142448008060455
-0.017545806244015694
-0.009534401819109917
0.022227615118026733
-0.038796719163656235
0.011703206226229668
0.02119729481637478
-0.03641132637858391
-0.0002386654232395813
0.0035698488354682922
0.011355032213032246
0.09023397415876389
0.002816876396536827
0.007550667971372604
0.005040156189352274
-0.010656704194843769
0.002770369639620185
-0.03768240287899971
-0.00981884729117155
0.04595968872308731
-0.061364173889160156
0.06317073106765747
-0.04724819213151932
0.06514612585306168
-0.03791717067360878
-0.03664033114910126
0.05537595972418785
-0.01133852917701006
0.020244942978024483
0.00673178443685174
-0.04464779049158096
-0.05042437091469765
0.025333894416689873
-0.015398118644952774
-0.009480833075940609
0.018650930374860764
0.016754956915974617
0.0005647730431519449
0.0030511131044477224
0.0069905961863696575
-0.005014391615986824
0.03232698142528534
0.020854903385043144
-0.015133317559957504
-0.009525866247713566
-0.012104532681405544
-0.014775876887142658
-0.053078263998031616
0.0202079676091671
-0.011360794305801392
0.009943525306880474
0.000820788205601275
0.011837529949843884
0.011950586922466755
-0.026911433786153793
0.005207729991525412
0.05148133262991905
0.036611419171094894
-0.018411891534924507
0.00818028673529625
0.019139911979436874
-0.023870861157774925
-0.014497291296720505
0.0017791450954973698
0.03146395459771156
0.025323525071144104
-0.003547695931047201
-0.01752292737364769
0.0045770080760121346
-0.015252693556249142
-0.009370912797749043
0.004659631755203009
0.015003298409283161
-0.03089243546128273
0.0468614362180233
0.007856563664972782
-0.015781164169311523
0.007188446819782257
-0.02573494240641594
-0.018128251656889915
0.052003443241119385
0.02750319428741932
0.0014305763179436326
-0.01772880367934704
-0.00968534592539072
-0.011129862628877163
-0.018540408462285995
-0.04014242812991142
0.0015512219397351146
0.033878687769174576
-0.01831362582743168
-0.019910266622900963
0.043531060218811035
-0.040970269590616226
0.015769751742482185
0.060293737798929214
-0.014527693390846252
-0.010184740647673607
-0.03125032037496567
-0.02724938839673996
-0.0009817220270633698
-0.11896078288555145
0.04034464433789253
0.009721769019961357
0.060592371970415115
-0.027488790452480316
0.032614223659038544
0.06714997440576553
-0.05410624295473099
0.049018535763025284
0.08381147682666779
0.015468434430658817
-0.05513952299952507
-0.0758872926235199
0.027943676337599754
-0.13261720538139343
-0.17676952481269836
-0.03617444634437561
-0.0006066300556994975
-0.06302472949028015
-0.05027349293231964
0.01484929770231247
-0.05215965211391449
-0.03209229186177254
0.009777470491826534
0.01872316561639309
0.048258889466524124
0.015265901573002338
-0.013721369206905365
0.012904448434710503
-0.0019048975082114339
-0.01987750269472599
-0.0310075506567955
0.01171336229890585
0.0019638538360595703
-0.020326264202594757
0.029635952785611153
0.035362593829631805
0.0660087987780571
-0.021452315151691437
-0.04737846925854683
0.054597824811935425
-0.008545945398509502
-0.046518828719854355
0.01964501105248928
0.010689888149499893
-0.031652480363845825
-0.04184206575155258
0.009971562772989273
0.07699254900217056
-0.03241848200559616
0.025575479492545128
0.0525006502866745
-0.04069489240646362
0.003369176061823964
0.05324292182922363
-0.046391576528549194
-0.02210787869989872
0.04116075485944748
0.013017742894589901
-0.025276022031903267
-0.014444245956838131
-0.03757018968462944
0.02767716348171234
0.037022046744823456
0.004288231488317251
0.0032875409815460443
-0.007862112484872341
-0.01739378832280636
0.004193621221929789
-0.01663811132311821
-0.032713089138269424
-0.020682279020547867
-0.02369050122797489
0.005297618452459574
0.00799029041081667
-0.004443272016942501
0.00022863599588163197
0.02146311290562153
-0.010056034661829472
-0.0020538505632430315
0.015496873296797276
-0.03711467236280441
0.014623580500483513
-0.03772297874093056
-0.02330455370247364
0.0006297014770098031
-0.036749981343746185
0.013400886207818985
-0.005412465892732143
-0.05142137408256531
-0.02831622213125229
-0.0069731418043375015
0.07071652263402939
-0.07478273659944534
-0.0012186915846541524
0.05237319692969322
0.04264654964208603
0.058500539511442184
-0.0030137626454234123
0.03769581392407417
-0.027145616710186005
-0.02922079525887966
0.009489969350397587
-0.026217147707939148
-0.02120693027973175
-0.02066493034362793
-0.0006932875257916749
0.004384981002658606
0.0024611656554043293
-0.014137119986116886
-0.002682575723156333
-0.0006525313365273178
-0.005453615915030241
0.013622417114675045
0.005074679385870695
0.0021762619726359844
0.0005541674909181893
-0.0005962307914160192
-0.020296815782785416
-0.01034999918192625
-0.0032203991431742907
-0.006286841817200184
0.020728738978505135
0.019538719207048416
0.034631893038749695
0.020654568448662758
-0.0019487945828586817
0.0111321322619915
0.007677196990698576
0.014887258410453796
-0.0030930216889828444
0.03439013287425041
0.01939968951046467
-0.011468987911939621
-0.01134481281042099
-0.03154957294464111
-0.026096874848008156
0.00036973206442780793
0.012536438181996346
0.0008735847077332437
0.014324911870062351
0.03285517171025276
0.03185128793120384
0.03894829750061035
0.11614380776882172
0.05441148206591606
0.03874480724334717
0.07985745370388031
0.07303494215011597
0.0029138566460460424
-0.02209635265171528
0.0552615150809288
0.018040886148810387
0.04093686118721962
0.015890564769506454
-0.018581371754407883
0.0034412576351314783
-0.004130383022129536
-0.027254387736320496
-0.006059609819203615
0.02533145248889923
0.08361503481864929
0.09717091917991638
0.0003759096725843847
0.024713538587093353
0.013435340486466885
-0.019269907847046852
-0.04564002901315689
-0.00724722258746624
0.04478760436177254
-0.016695011407136917
0.021814536303281784
0.0017695933347567916
-0.00514734722673893
-0.011312884278595448
-0.06216747313737869
-0.02554386667907238
-0.10330406576395035
-0.04748745262622833
0.09785947948694229
-0.03802669793367386
0.07301218807697296
0.018235156312584877
-0.028639396652579308
-0.0033678188920021057
-0.01674802415072918
0.09330315887928009
0.026042722165584564
-0.06694898009300232
-0.24705496430397034
-0.05954812467098236
-0.05136984959244728
-0.12080884724855423
-0.07220157980918884
0.10149358212947845
0.24678505957126617
0.10954996943473816
0.006921823602169752
0.06838319450616837
-0.012457423843443394
0.006266582291573286
0.039683543145656586
-0.011928821913897991
0.011027805507183075
-0.015040138736367226
0.030085952952504158
-0.07562572509050369
-0.005597598850727081
0.060871440917253494
-0.029719455167651176
-0.04188276082277298
0.0067835901863873005
0.031182093545794487
0.005119470413774252
0.041147828102111816
-0.07772707939147949
-0.18529364466667175
-0.041786376386880875
-0.05711543560028076
-0.06460247188806534
-0.07995708286762238
0.09884902089834213
0.28339236974716187
0.07931377738714218
0.007460317108780146
-0.006334945559501648
-0.00727444514632225
-0.0016246916493400931
0.00526027986779809
-0.003549059620127082
0.009460732340812683
0.00906397681683302
0.012096076272428036
-0.007631578948348761
0.23436754941940308
-0.026960119605064392
0.04484649747610092
-0.024408847093582153
-0.04840165004134178
0.0338839590549469
-0.08707493543624878
0.01010202057659626
0.013249494135379791
-0.08384250849485397
0.011969183571636677
-0.010763733647763729
-0.041158609092235565
-0.03784447908401489
-0.03791700676083565
-0.05604221671819687
-0.05949610471725464
-0.020878873765468597
0.03731963038444519
0.008658459410071373
0.005496417172253132
0.007907764986157417
0.030037760734558105
0.02798430062830448
-0.005137084983289242
-0.030293969437479973
-0.040814317762851715
0.0668770894408226
0.01185512449592352
-0.055143993347883224
0.028490249067544937
-0.012031367048621178
0.03353309631347656
-0.05134832486510277
0.022464413195848465
0.012256273068487644
-0.05186605453491211
-0.06771393120288849
-0.02641482464969158
0.014688682742416859
-0.03684401884675026
-0.048539336770772934
0.020188895985484123
0.013514290563762188
0.061123769730329514
0.09891720116138458
-0.01347375102341175
-0.052304938435554504
0.038146331906318665
-0.03101096861064434
-0.06397100538015366
-0.061551451683044434
-0.048051707446575165
0.019113102927803993
-0.014015275053679943
0.011982349678874016
-0.009662392549216747
-0.005064880475401878
-0.013195381499826908
0.0008965207962319255
0.003604570869356394
0.022218916565179825
0.06949438899755478
0.06346219778060913
0.006172187626361847
-0.024599825963377953
0.004698749165982008
-0.050886958837509155
-0.05898019298911095
-0.020762493833899498
-0.009069251827895641
-0.002047107322141528
-0.015980785712599754
-0.019159626215696335
0.049014199525117874
0.030027542263269424
0.030803054571151733
-0.028388788923621178
0.022143656387925148
0.012158777564764023
-0.056077878922224045
-0.14520752429962158
-0.00998781155794859
-0.045844126492738724
-0.04373324289917946
-0.05855724960565567
0.022139715030789375
0.1063152328133583
-0.022911090403795242
0.009179544635117054
-0.017607610672712326
0.08106061071157455
0.019163303077220917
0.0037510753609240055
-0.019602207466959953
0.021120905876159668
0.007906659506261349
-0.07273183017969131
0.01342038530856371
0.055678948760032654
0.03355987370014191
-0.028811683878302574
-0.03990763798356056
0.006143944803625345
-0.026585284620523453
-0.017805172130465508
-0.022925861179828644
0.001619800110347569
0.03376717492938042
-0.015327474102377892
-0.013753527775406837
0.02649441547691822
-0.004499560222029686
-0.03608394414186478
-0.07107903063297272
-0.011808148585259914
-0.028214672580361366
-0.262969970703125
0.03803272172808647
0.04778771102428436
0.07962272316217422
0.0015343346167355776
0.024829020723700523
0.14983126521110535
-0.04150950908660889
-0.011390119791030884
-0.02629924938082695
0.035078827291727066
-0.013010241091251373
-0.03540080785751343
-0.0055283717811107635
0.007648351136595011
-0.04040440917015076
-0.01101105660200119
-0.0003415846440475434
0.01004121359437704
0.00776809873059392
-0.022727549076080322
-0.0005626624333672225
-0.020208977162837982
-0.024713633581995964
0.0019777892157435417
-0.01102453377097845
0.03326571732759476
-0.10544759035110474
0.04505317658185959
0.012624863535165787
-0.03188281133770943
0.06125420704483986
-0.08226358890533447
-0.020181234925985336
-0.04745958745479584
-0.011021208018064499
-0.05468117073178291
0.04956752061843872
0.012694836594164371
0.15055885910987854
-0.04723944514989853
-0.0733533576130867
-0.024135688319802284
0.002979518845677376
-0.01184528972953558
0.012303560972213745
0.05096118524670601
-0.06083297356963158
-0.12166386097669601
0.07932119816541672
0.02741117589175701
-0.01960889622569084
0.042452938854694366
0.004474600777029991
-0.05419120565056801
0.0012567710364237428
0.009618733078241348
0.025519631803035736
0.06897678226232529
-0.05028188228607178
0.0028904322534799576
-0.02319524623453617
0.036654263734817505
0.05798867344856262
-0.0014757664175704122
-0.0333307683467865
-0.03529497608542442
-0.03874588757753372
-0.024225182831287384
-0.0234769769012928
0.002278360305353999
-0.05188381299376488
0.03302033245563507
0.03962923586368561
0.0105450339615345
0.06772004812955856
0.017066724598407745
-0.028654048219323158
0.015010040253400803
0.00693215848878026
0.01674688048660755
0.044167403131723404
-0.012257641181349754
-0.01614818163216114
0.0155820706859231
-0.04279445856809616
-0.07959219068288803
-0.04748921096324921
-0.05990588292479515
0.014241610653698444
0.019317278638482094
0.03332711011171341
0.021508796140551567
0.019549943506717682
0.047065939754247665
0.0017412060406059027
0.004436350427567959
0.00979203637689352
-0.003554712515324354
0.015025423839688301
-0.015784285962581635
0.00995695311576128
0.0276655126363039
0.005978734698146582
0.005654488690197468
-0.003543050028383732
-0.007123154122382402
0.012064913287758827
0.03163651376962662
0.001254402450285852
-0.03418276831507683
0.024550799280405045
-0.030667748302221298
-0.002420270349830389
0.05052431672811508
0.0018466890323907137
0.06073683500289917
0.0655638575553894
-0.006195448338985443
0.0011430743616074324
0.09653880447149277
-0.004081410821527243
-0.06525876373052597
-0.024394892156124115
-0.0208736602216959
0.02079389989376068
0.011878031305968761
-0.0066130817867815495
0.003857669420540333
0.007974093779921532
-0.01767141930758953
0.021373074501752853
0.031945109367370605
-0.009365761652588844
-0.04179567098617554
-0.026457566767930984
-0.03597963973879814
-0.09427701681852341
-0.31041237711906433
-0.11292285472154617
0.024607008323073387
0.004954908043146133
0.002598897786810994
-0.05283523350954056
0.09790167212486267
-0.11339620500802994
-0.029153546318411827
-0.11440425366163254
0.036068953573703766
0.13526161015033722
-0.02130172774195671
0.05109259486198425
0.02098701521754265
0.0006438359851017594
0.06043781712651253
-0.048518918454647064
0.024828583002090454
0.02416204661130905
0.06812145560979843
0.01067147683352232
0.023986907675862312
-0.027314260601997375
-0.032985515892505646
0.011021709069609642
-0.030697345733642578
-0.023759396746754646
0.006149368826299906
-0.043534260243177414
-0.006735938601195812
-0.0015039988793432713
-0.03419823572039604
0.002901098458096385
0.035328302532434464
-0.07669607549905777
0.038875989615917206
0.05628439411520958
-0.057648271322250366
-0.06543055176734924
-0.0268442053347826
0.0064971307292580605
0.023818377405405045
-0.01844802498817444
-0.00986629817634821
-0.0075742644257843494
-0.020966198295354843
0.0021110845264047384
-0.006075724493712187
-0.02811279147863388
0.008979784324765205
0.031153587624430656
0.003737860592082143
-0.023977233096957207
-0.038017772138118744
-0.03318794071674347
0.003960049245506525
-0.04314751178026199
-0.008499609306454659
-0.060297220945358276
0.007520207669585943
-0.14772634208202362
0.0013468586839735508
-0.03908894956111908
-0.07033467292785645
-0.01756625436246395
-0.23493216931819916
-0.13675172626972198
0.024110985919833183
0.025643913075327873
-0.015626005828380585
-0.0390053316950798
-0.06402059644460678
-0.016388900578022003
0.0034190493170171976
-0.01943226158618927
-0.006061803549528122
-0.050511348992586136
-0.02634316124022007
-0.006970062851905823
0.0706280842423439
0.11428434401750565
0.01116509921848774
0.015334551222622395
-0.019462723284959793
-0.08251691609621048
0.06344389170408249
0.011127843521535397
0.10152266174554825
-0.003794182324782014
0.08232507109642029
0.028430059552192688
-0.026559721678495407
0.017480021342635155
-0.06767971813678741
-0.03845566138625145
-0.00340301007963717
-0.029109975323081017
-0.061901628971099854
-0.0641603022813797
-0.05102800205349922
0.05020667240023613
0.0471324622631073
0.05290389060974121
-0.033114295452833176
0.016397109255194664
-0.047022268176078796
0.004757366608828306
0.11916503310203552
0.009248510003089905
-0.02927546575665474
0.03380915895104408
-0.01098598726093769
0.009680913761258125
0.028033198788762093
0.009755583480000496
-0.012524846941232681
-0.015481517650187016
0.0030949304345995188
-0.05040566995739937
-0.017456427216529846
-0.003889992833137512
0.05162249878048897
0.0438791960477829
0.02763509377837181
-0.05992390215396881
-0.18889087438583374
-0.044688187539577484
-0.011250751093029976
0.022385215386748314
0.013531127944588661
-0.0793536826968193
0.016949716955423355
-0.03681876137852669
0.03067181445658207
0.08877226710319519
-0.009721256792545319
0.005347087513655424
-0.05060364305973053
0.0011252309195697308
-0.045277152210474014
-0.07446801662445068
0.02720833383500576
-0.12027422338724136
-0.21077443659305573
0.0285491980612278
-0.032448168843984604
-6.1029008065816015e-05
-0.009637902490794659
0.06086266413331032
0.038921110332012177
0.007002962287515402
0.0256113912910223
-0.005851760506629944
0.008805453777313232
-0.014803275465965271
-0.025444528087973595
0.02489660680294037
-0.007684418931603432
-0.006929638329893351
-0.012952462770044804
0.02770962193608284
-0.005834095645695925
-0.018837586045265198
0.026472173631191254
-0.004918006714433432
0.002287723822519183
-0.0037845259066671133
0.006792282685637474
0.10638261586427689
-0.07451828569173813
-0.12555384635925293
0.044670239090919495
-0.025256548076868057
0.0722750797867775
-0.019268032163381577
-0.05069361999630928
-0.05610881745815277
0.017629006877541542
0.07465562224388123
-0.09344148635864258
-0.005066815298050642
0.02083727903664112
-0.052898701280355453
0.02420598268508911
0.009655778296291828
0.0048117488622665405
-0.027909278869628906
0.0070342100225389
-0.04541971907019615
0.001654143212363124
0.016220662742853165
-0.02973741665482521
-0.013305041007697582
0.0033676177263259888
0.028056960552930832
-0.0038056597113609314
0.00813989993184805
0.0031749485060572624
-0.010387064889073372
-0.025351393967866898
-0.03921468183398247
0.002860498847439885
-0.01026605349034071
0.017489928752183914
0.02781825140118599
-0.03135665878653526
-0.051966793835163116
-0.01447244081646204
-0.029673350974917412
-0.029364828020334244
0.005600614473223686
0.04799877107143402
0.05209941416978836
0.026257360354065895
-0.02775251865386963
-0.01025683619081974
0.03582976385951042
-0.004049012437462807
0.015360024757683277
0.04153772443532944
-0.029429202899336815
-0.020263809710741043
-0.02067045122385025
0.004257095977663994
0.029795069247484207
-0.00239737331867218
-0.032973457127809525
-0.018650438636541367
-0.038952164351940155
-0.0110902925953269
-0.02180354669690132
-0.010144300758838654
0.028216205537319183
0.061171066015958786
0.016289934515953064
0.009889768436551094
0.05964230000972748
0.014448538422584534
-0.014089741744101048
0.00594319636002183
0.02464991621673107
0.00456284312531352
-0.008221117779612541
-0.007772957906126976
0.02909218892455101
-0.021558139473199844
-0.005830114241689444
0.030059199780225754
-0.024761419743299484
-0.05255807936191559
0.03632624074816704
0.01406783051788807
-0.022658003494143486
0.01778898760676384
0.009865189902484417
-0.04251217097043991
-0.016662264242768288
0.07290957868099213
-0.03677821904420853
-0.0717664286494255
-0.10219178348779678
-0.04110952839255333
0.04370135813951492
0.05476534739136696
-0.009983373805880547
-0.017292501404881477
-0.004577125422656536
0.03687921538949013
0.04423830658197403
-0.11938111484050751
0.017502976581454277
0.03521868214011192
-0.005125722847878933
0.03733827918767929
0.009154262021183968
-0.006722104270011187
0.03364565223455429
-0.018207691609859467
0.002591345924884081
0.00045248097740113735
-0.06241164356470108
-0.016395222395658493
-0.015408966690301895
-0.00334622198715806
-0.002999702701345086
0.048845626413822174
-0.17490530014038086
-0.30506113171577454
-0.05302416533231735
0.033197663724422455
0.02009155973792076
0.016006028279662132
-0.04051367938518524
-0.0372152142226696
0.017658574506640434
-0.041292548179626465
-0.045448385179042816
0.01678621768951416
-0.04870283976197243
-0.052589401602745056
0.06556113809347153
-0.010401712730526924
-0.023548996075987816
-0.014608562923967838
0.014899980276823044
0.01581982709467411
-0.010591311380267143
-0.05737697333097458
-0.09523043036460876
0.0028417431749403477
-0.010338983498513699
-0.011176101863384247
-0.0070512606762349606
0.012811703607439995
0.004927551373839378
0.015534382313489914
-0.004192651249468327
-0.016160788014531136
-0.005272633861750364
-0.016678711399435997
0.09295877814292908
0.009923392906785011
0.12699905037879944
-0.014731704257428646
-0.037339046597480774
-0.047799933701753616
-0.05037001520395279
0.026123985648155212
-0.0061835795640945435
-0.0552632138133049
-0.023403199389576912
-0.0134730851277709
-0.24663281440734863
0.00681271031498909
0.0017985468730330467
0.0025493174325674772
0.08951358497142792
-0.05517233908176422
0.005806409753859043
0.01414135005325079
-0.10748793929815292
-0.10195355117321014
0.04728253558278084
0.007184796035289764
-0.02292383275926113
0.0833815410733223
0.03122471272945404
-0.03872767835855484
0.03169121593236923
-0.02504194714128971
0.03509295731782913
-0.03542420268058777
-0.10643891990184784
0.054079603403806686
-0.056761812418699265
0.020814919844269753
-0.10165402293205261
0.0921773612499237
0.13532297313213348
0.058119095861911774
-0.040092721581459045
-0.1630559265613556
-0.016344567760825157
0.0374177061021328
-0.0009887350024655461
0.004694808274507523
-0.005637388210743666
0.019524376839399338
0.030783172696828842
-0.004762536380439997
-0.019507121294736862
-0.011777341365814209
-0.0141936419531703
0.030300771817564964
0.03190410137176514
0.0302069541066885
-0.00393142644315958
-0.007167726289480925
0.0038111305329948664
-0.029638245701789856
-0.0009350823820568621
-0.033976927399635315
0.030334418639540672
0.04807142913341522
-0.036970000714063644
0.03366488590836525
-0.0037696699146181345
-0.022741306573152542
0.0288406815379858
0.035590413957834244
0.00037718849489465356
-0.12720659375190735
-0.10347858816385269
0.08490148931741714
-0.07435152679681778
-0.03002800978720188
0.07361754029989243
0.03839660808444023
0.14379695057868958
0.01791835017502308
0.02219989523291588
-0.046431880444288254
0.01601334661245346
-0.045567262917757034
-0.03589116409420967
-0.0010758722200989723
-0.003583313897252083
-0.005548250861465931
0.00256360974162817
-0.02307628095149994
0.023644529283046722
-0.008046185597777367
0.03709455579519272
0.034999214112758636
0.008179422467947006
0.01344776526093483
0.04358648136258125
0.05948202684521675
-0.029401928186416626
-0.04541492834687233
-0.07231590896844864
0.05634189769625664
0.038836393505334854
-0.0336528904736042
0.06836642324924469
-0.02899407222867012
-0.07618784159421921
0.06011953204870224
-0.012459935620427132
0.011179577559232712
0.03383718803524971
0.048575662076473236
-0.03504244610667229
-0.041704870760440826
-0.016296619549393654
-0.10682380944490433
-0.014704383909702301
0.03659602999687195
-0.028396621346473694
0.07221503555774689
0.06460609287023544
-0.02213938720524311
-0.010365123860538006
-0.028629135340452194
0.005545513704419136
-0.020396213978528976
-0.13118505477905273
-0.05035931617021561
-0.045138806104660034
-0.010825478471815586
0.029927153140306473
-0.030781308189034462
-0.01759195700287819
-0.0723816528916359
0.08731748163700104
0.07126625627279282
0.032367441803216934
0.03623421490192413
-0.005952897481620312
-0.01959279738366604
-0.01731090247631073
-0.07672178745269775
-0.06469182670116425
0.06361126154661179
0.002582890447229147
0.015317712910473347
0.0400354266166687
0.008466880768537521
0.017149662598967552
-0.0022336815018206835
0.015419595874845982
0.009253131225705147
0.08088057488203049
-0.09688962250947952
0.006257243920117617
-0.028786296024918556
-0.09498623013496399
0.09675788879394531
0.026589537039399147
0.11650804430246353
-0.13826343417167664
0.0493292398750782
-0.0409235842525959
-0.029362114146351814
0.009250950999557972
-0.03306936100125313
-0.06682273745536804
0.02847570739686489
5.223281914368272e-05
-0.008162171579897404
-0.04591069370508194
-0.02632536180317402
-0.015655426308512688
-0.008563500829041004
0.05397110432386398
0.04703167453408241
-0.03614785894751549
-0.07933125644922256
0.031690068542957306
-0.022793766111135483
-0.026457691565155983
-0.039319928735494614
-0.0067581310868263245
-0.007133612874895334
-0.017257316038012505
-0.032497961074113846
-0.020062284544110298
-0.03691839426755905
-0.03852993994951248
0.00786874070763588
-0.023796945810317993
0.018170028924942017
0.09301328659057617
0.005542673636227846
-0.08853215724229813
-0.02501082792878151
0.029381072148680687
-0.0067590344697237015
0.010379953309893608
0.025768054649233818
-0.016376085579395294
-0.0018501435406506062
0.013168596662580967
-0.004498459864407778
-0.00031048821983858943
-0.008636034093797207
-0.024818502366542816
0.00018925860058516264
0.022811617702245712
-0.016131684184074402
0.06453932821750641
0.06726819276809692
-0.029431942850351334
-0.013813937082886696
0.017605183646082878
0.016472123563289642
0.012545288540422916
-0.005702722817659378
-0.007795379031449556
0.003330665174871683
-0.019889887422323227
-0.013693585991859436
-0.018221553415060043
-0.018846653401851654
0.02032606489956379
0.02759319357573986
-0.0034381700679659843
-0.09191099554300308
-0.10404468327760696
-0.0014978224644437432
0.014038564637303352
0.05180058255791664
0.050355684012174606
0.02243535965681076
0.05335775762796402
-0.021394431591033936
-0.026873737573623657
0.05055500939488411
0.0038067318964749575
-0.009651553817093372
0.04272797703742981
-0.0016460869228467345
0.004820788744837046
-0.020282523706555367
0.009535918943583965
0.01927260309457779
-0.016945961862802505
0.02002429962158203
-0.009867742657661438
-0.05539178103208542
-0.01216630358248949
0.0016326353652402759
-0.023868080228567123
-0.02459280751645565
0.023150622844696045
-0.04394812136888504
-0.04410294070839882
-0.0053578950464725494
0.003908692393451929
-0.0020197618287056684
0.0766020342707634
-0.011245403438806534
0.010430436581373215
0.049510106444358826
-0.08758611232042313
-0.003111453726887703
-0.06727764010429382
0.11017215251922607
-0.012086530216038227
-0.011186979711055756
0.013201420195400715
0.04341248422861099
0.0651271864771843
-0.005151743534952402
-0.03248848393559456
0.009712501429021358
-0.09613211452960968
0.013564953580498695
-0.015014233067631721
-0.009263448417186737
-0.0034331963397562504
0.03815915435552597
0.03222585842013359
0.004491381347179413
0.02212698943912983
-0.024651767686009407
-0.007637972477823496
-0.027110420167446136
-0.005988684948533773
0.07467769086360931
-0.0047156536020338535
-0.046215202659368515
0.0700564756989479
-0.0021820738911628723
-0.014869550243020058
0.05288238450884819
-0.05962072312831879
-0.057716935873031616
0.03591255098581314
-0.07421809434890747
-0.07468357682228088
-0.005903629586100578
0.005992754362523556
0.035779211670160294
0.0008427666034549475
0.001073241583071649
0.0052275629714131355
0.02064908668398857
-0.026812657713890076
-0.03251098468899727
-0.009124373085796833
0.019124915823340416
0.022144164890050888
0.021390803158283234
0.06335435062646866
-0.018360063433647156
0.0348372608423233
-0.052747443318367004
-0.16031774878501892
-0.03674876689910889
0.011178139597177505
0.02762991189956665
-0.004179589916020632
0.0016512308502569795
-0.01838446781039238
-0.0065388488583266735
-0.005175771191716194
-0.03426874428987503
-0.017083125188946724
0.011121420189738274
-0.0013263679575175047
-0.014171689748764038
-0.03706619516015053
0.031642936170101166
0.002073973882943392
0.02675797790288925
0.0846589207649231
0.07618319243192673
-0.16445094347000122
-0.19851450622081757
0.0035716108977794647
-0.022418998181819916
-0.0006799623370170593
0.0209722351282835
-0.004685820080339909
-0.01920580491423607
0.04028141498565674
0.038139212876558304
-0.03003538027405739
0.03387400880455971
-0.04440125450491905
-0.056796107441186905
-0.012154956348240376
-0.036065805703401566
-0.08424527943134308
-0.0539514534175396
0.011430950835347176
0.02539970353245735
0.04366341233253479
-0.026865925639867783
0.05458397418260574
0.013129605911672115
-0.023698527365922928
0.12416714429855347
0.06741324812173843
-0.008318794891238213
0.05643945187330246
0.014506244100630283
0.03204374760389328
0.051272228360176086
0.03854928910732269
0.012617030180990696
0.004333405755460262
0.020750271156430244
-0.01072391401976347
-0.06076919659972191
0.002200166694819927
0.024228304624557495
0.04165324196219444
0.02912156470119953
0.04545539617538452
0.014276418834924698
-0.0020762747153639793
0.027542874217033386
-0.033938974142074585
0.005031482316553593
-0.008449351415038109
-0.022975696250796318
-0.06093008816242218
-0.010606584139168262
0.06003225967288017
-0.06424211710691452
-0.008454648777842522
0.04280859977006912
-0.008705854415893555
-0.01856699399650097
-0.047204405069351196
-0.0326814129948616
-0.0039174179546535015
0.013305354863405228
-0.01569214276969433
0.019362084567546844
0.06254132091999054
0.023216979578137398
0.0124520780518651
0.005810222588479519
0.033813659101724625
-0.009272735565900803
-0.030085470527410507
-0.013222831301391125
0.030333522707223892
0.005589790176600218
-0.005038150120526552
0.0025800534058362246
0.009353790432214737
0.022364109754562378
-0.0032139571849256754
-0.010840626433491707
-0.017926335334777832
0.022341793403029442
0.018199536949396133
0.019685762003064156
-0.0473114475607872
-0.06812769174575806
-0.04194230958819389
-0.05524646118283272
0.010375604033470154
0.01885729469358921
-0.026977194473147392
0.002882949309423566
-0.009130794554948807
-0.025945326313376427
-0.024338403716683388
0.007296917960047722
0.037357307970523834
0.018703408539295197
-0.02713852748274803
0.029907196760177612
0.03323012962937355
0.006568761542439461
-0.022962989285588264
-0.04732907563447952
0.0033675285521894693
-0.031787723302841187
-0.043420881032943726
-0.020498286932706833
-0.01827954687178135
0.025445889681577682
0.01132928766310215
0.02418753318488598
0.019154492765665054
0.030705036595463753
0.005810338072478771
-0.018634438514709473
-0.013233429752290249
0.03174879401922226
0.01481369324028492
-0.008240995928645134
0.05061515420675278
-0.002189665101468563
0.029644116759300232
0.008594982326030731
-0.03624424710869789
-0.020757323130965233
0.06048145890235901
0.04370203614234924
0.031203478574752808
0.00779471080750227
-0.009505107067525387
0.016322804614901543
0.02185390144586563
-0.009628529660403728
0.0030162567272782326
0.03441929817199707
0.034572381526231766
0.04491126164793968
-0.015091913752257824
0.008717157877981663
-0.01589888334274292
0.006144100334495306
0.04360402747988701
0.016665402799844742
-0.013099974021315575
-0.004215311259031296
-0.007310144137591124
0.05250944942235947
0.014586585573852062
-0.013328528963029385
0.02293635904788971
0.053020674735307693
0.04750153794884682
0.017912982031702995
-0.00294168246909976
0.006901450455188751
0.005386266857385635
0.01111253909766674
0.002347583882510662
-0.044094495475292206
-0.028300220146775246
-0.018334921449422836
-0.009262203238904476
-0.0037850122898817062
0.013481934554874897
-0.02811543457210064
0.06893891841173172
0.07014430314302444
-0.007517629768699408
0.05904475226998329
-0.0006825128220953047
-0.03406430035829544
-0.03057747520506382
-0.01470594946295023
0.02236255630850792
-0.05423445254564285
0.034967970103025436
0.013483386486768723
-0.08655654639005661
-0.06387428194284439
0.03331539407372475
-0.0041579739190638065
-0.015347723849117756
0.06521527469158173
0.04121784493327141
0.04477773234248161
-0.0005918352981097996
0.004545996431261301
-0.023877017199993134
0.0003068421792704612
-0.0595804899930954
-0.06060021370649338
0.021477360278367996
-0.010028368793427944
0.008208436891436577
0.004572009202092886
-0.03701823577284813
0.05124469846487045
-0.00027094659162685275
0.005610485095530748
0.026962602511048317
0.009447179734706879
-0.059874553233385086
-0.04808427765965462
0.009825008921325207
0.045517802238464355
0.014638306573033333
-0.026911534368991852
-0.02555488981306553
-0.022756734862923622
-0.03059455007314682
0.04267140105366707
0.05281156674027443
-0.005755260586738586
0.05333361029624939
-0.03541826456785202
0.0208104457706213
-0.06553038954734802
-0.00462206918746233
-0.006755828391760588
-0.0037166557740420103
-0.0054232957772910595
-0.043627094477415085
-0.017173683270812035
-0.005094601307064295
0.021785574033856392
0.033815279603004456
0.013731453567743301
-0.006467159371823072
-0.02254852093756199
-0.01214767899364233
0.004767619539052248
0.007354430388659239
0.015588697046041489
-0.006539658177644014
-0.003331555286422372
0.006314161233603954
0.11571182310581207
0.12748676538467407
0.05678114295005798
0.004785683937370777
-0.05329121649265289
-0.03350530564785004
-0.005817940924316645
0.0838596522808075
-0.028729356825351715
-0.001266620820388198
0.03970673307776451
0.005451807752251625
0.015662480145692825
-0.0165109820663929
-0.03129749372601509
0.023038506507873535
-0.04377961531281471
0.02300974726676941
-0.01453749742358923
-0.13929449021816254
-0.09654518216848373
0.03513393923640251
-0.007277949713170528
-0.007533302530646324
0.06133624538779259
0.045882925391197205
-0.061982180923223495
0.00864856131374836
-0.13124243915081024
-0.0737205222249031
-0.00653024623170495
0.05956142768263817
0.034280795603990555
0.06076810881495476
-0.09550876915454865
0.006271521095186472
0.040799349546432495
0.011685580015182495
-0.09168490022420883
-0.01847212202847004
-0.07020331919193268
0.09702327102422714
0.08977479487657547
-0.01184307411313057
0.03098222054541111
-0.09347564727067947
-0.11659400165081024
-0.09762171655893326
-0.037883467972278595
-0.03154268115758896
-0.0030903643928468227
0.040622465312480927
0.008187401108443737
-0.024868961423635483
-0.023788392543792725
-0.0036972102243453264
-0.016526522114872932
-0.024917345494031906
-0.007279008161276579
-0.03403821960091591
-0.0001653182553127408
-0.015041195787489414
-0.012542654760181904
0.015678655356168747
-0.10500633716583252
-0.05783950537443161
0.009107869118452072
-0.04533668980002403
-0.06210121512413025
0.07204491645097733
0.04259587451815605
0.014304174110293388
-0.020126523450016975
-0.034321051090955734
-0.011877219192683697
0.04369059577584267
-0.013598429039120674
-0.02251221425831318
0.08042879402637482
0.025600140914320946
0.00036961311707273126
0.023701392114162445
0.036959148943424225
0.04493134096264839
0.01064093504101038
0.014926980249583721
0.031639039516448975
-0.003380256239324808
-0.056677546352148056
-0.021496526896953583
0.022948872298002243
-0.10943286865949631
0.012187350541353226
0.04330811649560928
0.11326353996992111
0.022590642794966698
-0.018887924030423164
0.09698585420846939
-0.007914918474853039
-0.04181339219212532
0.010528773069381714
0.06280799955129623
-0.06312055140733719
-0.06456159055233002
0.09946630895137787
-0.1441020518541336
-0.14634764194488525
0.039325013756752014
-0.05578329786658287
0.037635523825883865
0.025235366076231003
-0.018712077289819717
0.035877179354429245
0.012114141136407852
-0.04259167239069939
-0.08074038475751877
0.024003000929951668
-0.043113332241773605
-0.007260873448103666
-0.04844473674893379
-0.03155000880360603
0.11883050203323364
0.011278173886239529
-0.02238422818481922
0.08610523492097855
-0.02782510593533516
-0.04067135602235794
-0.004399998113512993
0.04637276753783226
0.02739054709672928
0.028825955465435982
0.04327334836125374
-0.013900533318519592
-0.12263733893632889
-0.041027095168828964
-0.02741817757487297
-0.017444370314478874
0.005732961464673281
-0.02338358946144581
-0.038130443543195724
-0.0314587727189064
0.018084213137626648
0.025722140446305275
-0.015724830329418182
-0.029786430299282074
-0.028145842254161835
-0.008131654001772404
0.04178702458739281
-0.03137180209159851
0.01456043403595686
0.048053961247205734
-0.028776703402400017
-0.016822537407279015
0.007136900443583727
-0.0016416995786130428
-0.01172737218439579
0.11101043224334717
-0.06891784816980362
0.08197738975286484
0.07614805549383163
-0.08986920118331909
0.04901459068059921
0.007775208447128534
0.016595270484685898
-0.01459834910929203
-0.03295468911528587
0.02356731705367565
-0.012051315978169441
-0.03819311410188675
0.026860417798161507
0.024366553872823715
-0.03503235802054405
-0.05479342117905617
-0.008806250058114529
-0.029057791456580162
0.0057930536568164825
-0.0822133868932724
-0.031180810183286667
0.0034925166983157396
-0.036840397864580154
0.0072258333675563335
-0.01748330146074295
0.015566685236990452
0.006255114451050758
-0.03401760384440422
-0.013494320213794708
0.00801765825599432
-0.014245457947254181
-0.02279841899871826
0.016742810606956482
0.027291450649499893
0.020549366250634193
-0.020145535469055176
-0.01623326912522316
-0.0007613311754539609
-0.0325995497405529
0.016889052465558052
0.08922724425792694
0.013471856713294983
0.01923663355410099
-0.0015119265299290419
0.007345569785684347
-0.005965845193713903
-0.024232126772403717
0.005259448662400246
-0.022890405729413033
-0.03748000040650368
0.10258926451206207
-0.019061675295233727
-0.011249643750488758
0.03507707640528679
-0.006139308679848909
-0.047221265733242035
-0.05609176307916641
0.02597266249358654
-0.012231401167809963
0.4201717972755432
0.5535244345664978
0.30697575211524963
0.059459783136844635
0.09187713265419006
-0.016166701912879944
-0.45761823654174805
-0.5700094103813171
-0.45011675357818604
-0.0018099267035722733
-0.0214264914393425
-0.035779330879449844
0.02976071462035179
0.03906102105975151
0.02736174315214157
0.027637707069516182
0.02950061298906803
0.05028640106320381
0.05239821970462799
0.08651144802570343
0.007080096285790205
-0.03267516568303108
0.019123412668704987
-0.012021096423268318
-0.00985601544380188
-0.0076050120405852795
-0.01136602833867073
0.014333607628941536
-0.014702343381941319
-0.0015126713551580906
0.03784816339612007
0.0026900095399469137
-0.0073867542669177055
0.012329318560659885
0.026900259777903557
-0.014919925481081009
0.01007851306349039
0.02397928759455681
0.014520293101668358
-0.04728582128882408
0.019743219017982483
0.0205770842730999
-0.025478076189756393
0.02073761634528637
0.017935292795300484
0.02812577597796917
0.06180696189403534
0.0198680367320776
0.0012101546162739396
-0.011726455762982368
0.014231421053409576
-0.01710226945579052
-0.035806648433208466
-0.01898873969912529
0.012475204654037952
0.021592525765299797
0.0018778678495436907
-0.01271815411746502
0.06247482821345329
0.0013708671322092414
0.009986200369894505
0.00265189609490335
-0.016628429293632507
0.017575496807694435
0.02460263855755329
0.024073436856269836
0.0020824891980737448
0.029413552954792976
0.02077413722872734
-0.06681755930185318
-0.06632289290428162
-0.04849638044834137
0.046233054250478745
0.009274355135858059
0.07969046384096146
0.00016294313536491245
-0.001404855865985155
-0.0015903442399576306
-0.0013821781612932682
0.03723079711198807
0.0529506541788578
-0.0002804970135912299
0.0048625534400343895
-0.061102673411369324
0.0408443957567215
-0.04811704158782959
-0.09465204179286957
0.03295101597905159
0.03504633530974388
-0.09388817101716995
0.167807474732399
0.20418331027030945
0.11645284295082092
-0.021698646247386932
-0.02034517005085945
0.0016500122146680951
-0.15039290487766266
-0.19990751147270203
-0.08641359210014343
-0.052407827228307724
-0.05133369565010071
-0.016571955755352974
-0.028659235686063766
-0.015136285685002804
0.05301186442375183
0.03411216661334038
0.05461148917675018
0.04177089408040047
-0.011500193737447262
-0.01751779578626156
-0.021623525768518448
0.00039094206294976175
0.006072124000638723
-0.00966237485408783
0.031901512295007706
0.01753734052181244
-0.010958443395793438
-0.027787882834672928
-0.0017314094584435225
0.007869813591241837
-0.03484029322862625
0.004082581959664822
-0.004721048753708601
-0.025094399228692055
0.005755019374191761
-0.0017283959314227104
0.028480274602770805
0.04069923609495163
0.06772436201572418
-0.05417529493570328
-0.016856111586093903
0.009372986853122711
0.007896659895777702
0.022534826770424843
-0.0013689452316612005
0.03853418678045273
0.023846324533224106
0.01899726502597332
-0.047105226665735245
-0.04022316634654999
-0.04811084270477295
-0.018447790294885635
0.04176264628767967
0.04195940122008324
-0.007309525739401579
0.02040102891623974
0.018906453624367714
-0.012518233619630337
-0.009536116383969784
0.016593176871538162
0.03883175179362297
0.008923436515033245
0.03800424933433533
0.009220222011208534
0.10974748432636261
-0.029200870543718338
-0.02773057296872139
0.09619884938001633
-0.09587624669075012
0.004223652184009552
0.01715046539902687
-0.12478189170360565
0.013360501267015934
0.02854243293404579
-0.0020038553047925234
-0.046122707426548004
0.004999075084924698
-0.023282229900360107
0.005835542920976877
0.005204709712415934
0.018478605896234512
-0.02184969000518322
0.016807427629828453
0.03956714645028114
-0.00870280247181654
-0.028816653415560722
0.008763613179326057
0.0648317039012909
0.010426807217299938
0.018022462725639343
-0.01034586038440466
-0.031030379235744476
-0.013783395290374756
-0.07736948132514954
-0.11888738721609116
-0.05159755423665047
-0.01982099935412407
-0.03059004805982113
-0.008946649730205536
0.040019530802965164
0.039752379059791565
0.044632282108068466
0.020276600494980812
0.04902537167072296
0.02156459353864193
-0.07244600355625153
-0.04620997980237007
-0.05890195444226265
0.00354730780236423
0.07960325479507446
0.01544299628585577
-0.0011794797610491514
0.10894700139760971
0.04852849617600441
-0.06457412242889404
-0.034390419721603394
-0.011960582807660103
0.010587785392999649
-0.0019399076700210571
-0.00030562179745174944
-0.0406871922314167
-0.014957250095903873
0.011757273226976395
-0.024864329025149345
-0.016919398680329323
-0.00040649191942065954
-0.00684234919026494
0.031254611909389496
-0.005121040157973766
-0.020456166937947273
0.058305077254772186
0.04531966522336006
0.0004260531277395785
-0.009220165200531483
0.04006650671362877
-0.029662424698472023
-0.022658130154013634
0.015476388856768608
-0.05856535583734512
-0.04635271802544594
-0.04799547418951988
0.04054047539830208
0.06009002774953842
0.035200994461774826
0.045209430158138275
0.10143990069627762
0.08712810277938843
-0.012065962888300419
0.025809207931160927
0.0651024729013443
-0.11500515788793564
-0.14653532207012177
-0.052469924092292786
-0.26380887627601624
-0.299434095621109
-0.1628745049238205
0.005577343516051769
0.02689482271671295
-0.05256003886461258
0.2555740773677826
0.3328087329864502
0.1013249009847641
0.0005358424969017506
0.012898917309939861
0.009288271889090538
-0.000598027603700757
0.011773177422583103
-9.862294973572716e-05
0.013979216106235981
0.0011071952758356929
0.0142365088686347
-0.16328629851341248
-0.18742120265960693
-0.1627383530139923
-0.03822486475110054
-0.042454104870557785
-0.03660579398274422
0.12718185782432556
0.15937866270542145
0.1378045380115509
-0.00183297717012465
0.037731584161520004
-0.013455172069370747
-0.013836483471095562
0.04419834911823273
-0.0008009289158508182
-0.0499398335814476
-0.01087191142141819
-0.011281493119895458
0.11460640281438828
0.18668511509895325
0.12118681520223618
-0.019996941089630127
-0.0034906920045614243
0.020589394494891167
-0.0383540615439415
-0.12638746201992035
-0.04919596016407013
0.06399282813072205
0.04266525059938431
-0.019524801522493362
0.04344993829727173
0.04958706349134445
-0.015258959494531155
0.02327968180179596
-0.0021005787421017885
-0.009554834105074406
-0.006506945472210646
0.025475304573774338
0.0007897046743892133
-0.06873669475317001
-0.007902730256319046
-0.03341652452945709
0.032923441380262375
0.05000307410955429
0.05504781752824783
-0.010446658357977867
0.034516606479883194
-0.0021614297293126583
0.009278494864702225
-0.004050268325954676
0.011279786936938763
0.04152416065335274
-0.04078202322125435
0.03036733716726303
0.01868264749646187
0.025653915479779243
0.032846540212631226
-0.04365251958370209
-0.008157451637089252
0.011940710246562958
-0.002952822018414736
0.03356078639626503
0.00732795475050807
-0.01257674116641283
-0.013447386212646961
-0.016413122415542603
-0.004891521763056517
0.012521452270448208
-0.0035623391158878803
-0.01769641786813736
0.02111782878637314
0.02479764074087143
0.010547501035034657
0.02690694108605385
0.013798502273857594
-0.04678705334663391
-0.026523560285568237
-0.0023200525902211666
0.0018570921383798122
-0.013751739636063576
0.023446645587682724
0.03789201006293297
0.006177733186632395
0.01682710088789463
-0.00468178978189826
-0.04542744532227516
0.02612959034740925
0.012301256880164146
-0.024323347955942154
0.04353393241763115
-0.002491507912054658
-0.03271462395787239
0.027564920485019684
0.015262068249285221
-0.012098653241991997
-0.009350130334496498
0.050950195640325546
0.05232648923993111
-0.0022709891200065613
0.05812234431505203
-0.008023208007216454
0.03672172501683235
-0.007783812470734119
-0.10164706408977509
-0.05562729388475418
0.0034322799183428288
0.12608662247657776
-0.000778159883338958
-0.018845180049538612
0.003802780294790864
0.00535239465534687
-0.04977349936962128
-0.01600157842040062
-0.016014285385608673
-0.03617691248655319
0.0034152413718402386
0.02788410149514675
-0.0016020842595025897
0.02236790582537651
0.038902752101421356
-0.0928158238530159
-0.12808939814567566
-0.019688202068209648
-0.010162689723074436
-0.02520119957625866
-0.008283528499305248
0.07697982341051102
0.03371636942028999
0.02227041684091091
0.023711957037448883
0.02452380582690239
-0.00656351400539279
0.001506286091171205
-0.04095996171236038
-0.0002060547558357939
0.026638727635145187
0.0066275824792683125
0.02605219930410385
-0.045563288033008575
0.05409898981451988
-0.04246289283037186
-0.007959318347275257
0.041150134056806564
-0.08206489682197571
-0.011530506424605846
0.0010007070377469063
0.03709429129958153
-0.06325069814920425
-0.041360657662153244
-0.016739776358008385
0.0008343351073563099
0.038680825382471085
0.03661904111504555
-0.4759701192378998
-0.5504535436630249
-0.40807652473449707
-0.04687035083770752
-0.01515259686857462
-0.05043144151568413
0.4905315041542053
0.6491185426712036
0.4313107430934906
0.014041604474186897
0.011995569802820683
-0.0032406821846961975
-0.018400950357317924
0.0013401112519204617
-0.03236506134271622
0.02181287668645382
0.042717527598142624
-0.0026114059146493673
-0.00039794808253645897
-0.05296214297413826
-0.011325674131512642
-0.11178073287010193
-0.05723845213651657
0.015239925123751163
-0.03651794418692589
0.054634880274534225
0.053690001368522644
-0.0013348567299544811
0.001756028737872839
-0.006762046366930008
-0.03535475954413414
-0.006198463495820761
0.012417271733283997
0.018170597031712532
0.005548903252929449
0.04147051274776459
-0.03930111974477768
0.012884609401226044
0.03185670077800751
0.04609072580933571
-0.0073214746080338955
0.04743204265832901
0.054906345903873444
0.008622844703495502
-9.250942821381614e-05
-0.0656222552061081
-0.0936957448720932
0.006652437150478363
-0.09296561032533646
-0.12973593175411224
-0.05305519700050354
-0.008687782101333141
-0.03617973253130913
-0.04361322522163391
-0.008124126121401787
-0.005532842129468918
0.01348019763827324
0.006020871456712484
-0.0040533095598220825
-0.013126284815371037
0.016201138496398926
-0.005796522367745638
-0.005968447308987379
0.01979539915919304
-0.057854361832141876
-0.030664291232824326
0.021982192993164062
-0.12064225226640701
0.011620773933827877
0.041460517793893814
-0.041940610855817795
0.03874955326318741
0.013636280782520771
0.03702765703201294
0.019058236852288246
-0.03563437610864639
0.0356912687420845
-0.028009166941046715
-0.006836355198174715
0.033244576305150986
0.015609102323651314
0.05581055209040642
0.0392695814371109
0.05637895315885544
-0.03390864282846451
-0.04359811916947365
-0.006080742459744215
-0.04519546031951904
-0.033270493149757385
-0.0038265457842499018
-0.0036963855382055044
0.018150875344872475
-0.049543119966983795
0.04465031251311302
0.012589612975716591
-0.04267282783985138
0.030247481539845467
0.03734228014945984
0.03137144818902016
0.029737066477537155
-0.050486475229263306
-0.04275471344590187
-0.06008252501487732
0.056494373828172684
-0.041690677404403687
0.024187033995985985
0.01206231489777565
0.03641107678413391
0.03298342600464821
-0.002145883860066533
-0.001141013577580452
0.011622173711657524
-0.04290875792503357
-0.018019208684563637
0.04528294503688812
0.013306479901075363
0.020820215344429016
0.023238105699419975
-0.013377763330936432
0.005846524611115456
0.03762184455990791
0.005414824932813644
0.037587881088256836
-0.019714562222361565
-0.018473053351044655
-0.0026051965542137623
-0.028678789734840393
-0.012558321468532085
0.024775933474302292
-0.035916559398174286
-0.02220820263028145
0.04544847831130028
-0.027482973411679268
-0.009833259508013725
0.047966547310352325
0.028257161378860474
-0.1313105672597885
-0.11171229928731918
-0.011210053227841854
-0.15607556700706482
-0.04536409676074982
-0.046916939318180084
-0.031795576214790344
-0.038855962455272675
0.015371330082416534
0.0032402100041508675
-0.009707019664347172
0.01922655664384365
-0.0008931938791647553
0.005860709585249424
0.03422828018665314
0.004844957496970892
0.011695144698023796
-0.002266577212139964
-0.01514490321278572
0.0007469192496500909
0.04729202017188072
-0.06064111739397049
0.010726564563810825
0.0028259255923330784
-0.04255937412381172
-0.01330548245459795
0.024091441184282303
0.01637939177453518
0.0033389132004231215
-0.04248436540365219
0.020102689042687416
0.02932795323431492
0.04709513112902641
0.013067839667201042
-0.02427690476179123
-0.020121285691857338
0.03221282735466957
-0.009836462326347828
-0.005956082139164209
0.04315561428666115
0.04231155663728714
0.01313153188675642
0.0094767976552248
-0.00909089669585228
0.029045725241303444
-0.04338344186544418
0.02728620357811451
0.04667508602142334
0.004596997052431107
0.03613188862800598
-0.002599766245111823
-0.07286421954631805
0.007920406758785248
-0.10879358649253845
-0.06648943573236465
-0.024126214906573296
-0.06382767111063004
-0.0038210975471884012
-0.04086466133594513
-0.08976315706968307
-0.12844941020011902
-0.07391632348299026
-0.016819726675748825
0.01552930474281311
0.027810541912913322
0.03750244900584221
-0.027955763041973114
-0.014061213470995426
-0.006026038434356451
-0.012611344456672668
-0.005169225391000509
-0.012103398330509663
-0.015166870318353176
0.04334646463394165
0.04058482125401497
0.02229144051671028
0.04284302145242691
-0.02828678861260414
-0.04778493568301201
0.018580304458737373
0.03713815659284592
0.012727177701890469
-6.362046406138688e-05
-0.012386573478579521
-0.005147714167833328
0.013873073272407055
0.04525377228856087
-0.005052483174949884
-0.024515541270375252
-0.015497971326112747
0.001133803860284388
-0.013106240890920162
-0.021960660815238953
0.01647120527923107
-0.012446960434317589
-0.007640152703970671
-0.01472840178757906
-0.020236220210790634
0.0008218540460802615
-0.06923280656337738
-0.025672266259789467
-0.016750168055295944
-0.10289447754621506
-0.027780679985880852
