-0.021573694422841072
-0.004568776115775108
0.0045482683926820755
-0.008187001571059227
0.041739609092473984
0.023009737953543663
-0.008928319439291954
0.05735248699784279
0.02981751039624214
0.058626845479011536
0.042864300310611725
0.044911809265613556
0.022281184792518616
-0.01296873576939106
0.007609856780618429
0.04537314921617508
0.03071182779967785
0.03770017623901367
-0.015455638989806175
-0.038691647350788116
-0.046010229736566544
-0.023123450577259064
0.028293218463659286
0.004779030103236437
-0.020328285172581673
0.013755802065134048
0.025883089751005173
0.0015107477083802223
-0.08307310938835144
-0.045990947633981705
-0.047476958483457565
-0.1506626158952713
-0.1061793640255928
0.0007638488314114511
-0.07448343187570572
-0.056404948234558105
-0.005681592505425215
-0.021636173129081726
0.009000377729535103
-0.004511015489697456
0.014468668960034847
0.01806195080280304
-0.023788969963788986
-0.026252781972289085
-0.037005577236413956
-0.0018356451764702797
0.004693122114986181
0.009197601117193699
0.00963832251727581
-0.0003927780780941248
-0.016883889213204384
0.024485129863023758
0.013929319567978382
-0.02317049913108349
0.005540984217077494
-0.014646757394075394
0.0008833266329020262
-0.030409831553697586
-0.0125917112454772
0.03363225609064102
0.004538318607956171
0.003851105459034443
0.01981278322637081
0.002909379778429866
0.0003289776504971087
-0.011125306598842144
0.004267751704901457
0.010218217968940735
0.00775799248367548
-0.01386947464197874
-0.007341473829001188
0.005948553793132305
-0.0022532837465405464
-0.0016906383680179715
0.008733086287975311
0.003518185345456004
-0.0009869402274489403
0.005061243195086718
-0.038316916674375534
-0.0427582748234272
-0.037015870213508606
-0.029706083238124847
-0.009352433495223522
-0.019956298172473907
0.0031867159996181726
-0.0005141979781910777
-0.019365178421139717
-0.013367769308388233
-0.03586824983358383
-0.025119969621300697
0.03240736573934555
0.0651535615324974
0.04358099028468132
0.10828452557325363
0.04315103217959404
-0.07900529354810715
0.0705426037311554
-0.0018193915020674467
-0.1048494428396225
0.008708396926522255
-0.015703298151493073
-0.018498359248042107
-0.03572710230946541
-0.04100198298692703
-0.0409020259976387
0.011739777401089668
-0.02660358138382435
0.0028029398526996374
0.0036839109379798174
0.007234761957079172
0.005058476701378822
0.0037637026980519295
0.002728051273152232
0.015744749456644058
0.030550917610526085
0.007134485058486462
0.000929031113628298
-0.04429171606898308
-0.03438441827893257
0.003800972132012248
-0.07148630917072296
-0.13652117550373077
-0.0005990325007587671
-0.08844845741987228
-0.11453798413276672
-0.00216892478056252
0.0042795948684215546
-0.03750382736325264
-0.007026260253041983
-0.0028587456326931715
-0.005574000533670187
0.009793601930141449
-0.003962177783250809
-0.007408559788018465
0.039302099496126175
-0.06481171399354935
-0.06749237328767776
-0.04077237471938133
-0.06032057851552963
-0.06685304641723633
-0.050461262464523315
-0.04851880297064781
-0.047633588314056396
-0.06328795850276947
0.004314325749874115
-0.005063793156296015
-0.031215224415063858
0.003652733052149415
-0.0006743841804563999
0.015583503991365433
-0.011328809894621372
-0.018796812742948532
-0.004900267347693443
0.012183668091893196
0.009393536485731602
0.0023701239842921495
-0.0019507362740114331
-0.01057150773704052
-0.011284003965556622
-0.0029194809030741453
-0.014300926588475704
-0.015317155048251152
-0.06626860797405243
-0.09296087175607681
-0.04675345867872238
-0.1454288810491562
-0.20081458985805511
-0.11796440184116364
-0.13124684989452362
-0.16154815256595612
-0.1016559898853302
0.030876681208610535
0.010232090950012207
0.022747332230210304
0.017764698714017868
0.0034781487192958593
0.01662866398692131
0.014202333986759186
0.007364685647189617
0.01437671110033989
0.007883351296186447
-0.0012155951699241996
-0.006841139402240515
0.02500213123857975
0.00833157915621996
-0.006658084690570831
-0.012131048366427422
-0.016515560448169708
-0.023236911743879318
-0.006142345257103443
-0.005917440168559551
-0.006497129797935486
0.054647818207740784
0.002205794909968972
0.032170578837394714
-0.009898685850203037
-0.027295375242829323
0.050938282161951065
0.019911985844373703
0.018749866634607315
0.026438796892762184
0.013430911116302013
-0.005923721008002758
0.014032099395990372
0.011181598529219627
0.022158995270729065
0.017079465091228485
0.008080565370619297
-0.014290698803961277
0.0234424639493227
-0.010013684630393982
-0.05098768696188927
0.02075435221195221
0.0156759824603796
0.01304392796009779
0.034914281219244
-0.00856245681643486
0.007096935994923115
0.0017072128830477595
0.00804797001183033
0.005163400433957577
0.0026571161579340696
-0.011409281753003597
-0.018285972997546196
-0.023230772465467453
0.021312233060598373
-0.01705198362469673
-0.03492347151041031
0.005121061112731695
-0.0018277446506544948
0.00721390638500452
-0.0005150973447598517
0.004991884343326092
-0.01814938150346279
-0.011307009495794773
-0.00881405733525753
-0.018014760687947273
0.018407953903079033
-0.004660686943680048
-0.019735896959900856
0.004873454570770264
-0.009847254492342472
-0.0017017971258610487
0.0004499410861171782
0.02794507145881653
0.06785030663013458
-0.02051173336803913
0.032391905784606934
0.036844298243522644
-0.038546789437532425
-0.00983282458037138
0.007293566130101681
-0.007218123413622379
-0.015398443676531315
-0.02124946191906929
-0.017040619626641273
-0.012013306841254234
-0.013284002430737019
-0.02795698307454586
-0.022008666768670082
-0.013855337165296078
-0.018360918387770653
-0.005816194228827953
0.008195488713681698
0.006379589904099703
-0.0015209328848868608
0.0036295538302510977
0.005608247127383947
-0.010092888958752155
-0.02706167660653591
-0.040550414472818375
-0.04731109365820885
-0.06468139588832855
-0.07817424088716507
-0.041107699275016785
-0.04447847604751587
-0.01950501650571823
0.012300249189138412
0.01802118308842182
-0.047109149396419525
-0.11484082788228989
-0.06389982998371124
-0.06414870172739029
-0.09437747299671173
-0.08330458402633667
-0.029149385169148445
-0.054246291518211365
-0.07003779709339142
0.022032741457223892
0.031014977023005486
0.025841739028692245
0.020857416093349457
0.07353525608778
0.0730275958776474
0.025821469724178314
0.06836941838264465
0.1046774759888649
-0.019746214151382446
0.011675198562443256
-0.00015950764645822346
0.000912863586563617
0.06318143010139465
0.05411605164408684
-0.028294403105974197
0.017962804064154625
0.03268732130527496
0.010131227783858776
-0.02565106563270092
-0.0031243532430380583
-0.0033426519948989153
-0.04001377522945404
-0.032485708594322205
0.02174406871199608
-0.0058476668782532215
0.014386264607310295
0.011531880125403404
-0.0015803682617843151
0.004877933766692877
0.02926652878522873
-0.0049388171173632145
-0.011284581385552883
0.03260139748454094
0.00205216184258461
0.03096209093928337
0.03713461756706238
0.029712049290537834
-0.009015804156661034
0.04549870267510414
0.06168663129210472
-0.006435214076191187
0.02697485312819481
0.04603120684623718
0.00785855483263731
0.004526686388999224
0.006076577119529247
-0.028977591544389725
-0.0012451624497771263
-0.00027892060461454093
-0.02916395105421543
0.00095200608484447
-0.015983568504452705
-0.02093496359884739
0.019203703850507736
0.011773349717259407
0.015752382576465607
0.011111969128251076
0.019778748974204063
0.005557036027312279
0.021696072071790695
0.05318493768572807
0.061591941863298416
0.0035519031807780266
-0.03580915555357933
-0.012613644823431969
0.0015752252656966448
-0.0014482103288173676
-0.030862895771861076
-0.023804698139429092
0.01953781396150589
0.01808267831802368
-0.04268607124686241
-0.0733642578125
-0.07924894243478775
-0.045031264424324036
-0.044320229440927505
-0.04090913385152817
-0.03617405146360397
-0.036867327988147736
-0.018712377175688744
0.011062494479119778
0.04206477105617523
0.04799797385931015
-0.028922466561198235
-0.007857609540224075
0.032643940299749374
-0.0077675520442426205
0.011496092192828655
0.019701654091477394
0.005447089206427336
-0.002994260983541608
0.004001645836979151
-0.0038094434421509504
0.019214339554309845
0.023945966735482216
-0.0203163493424654
-0.0006159847835078835
0.02390226349234581
0.004134350456297398
0.015593011863529682
0.009875133633613586
-0.037600982934236526
-0.019414741545915604
0.005313760135322809
-0.07012137770652771
-0.06369559466838837
-0.03752618283033371
-0.04810082167387009
-0.04642806202173233
-0.024574123322963715
-0.04430144652724266
-0.05515458807349205
-0.03414817899465561
0.0017807348631322384
0.016207752749323845
0.011694764718413353
-0.023545771837234497
-0.06468012928962708
-0.04611917957663536
-0.020763853564858437
-0.10078206658363342
-0.1194286197423935
0.01973925717175007
-0.03088519722223282
-0.05369827523827553
-0.0037951741833239794
-0.015525258146226406
-0.024043384939432144
-0.012640398927032948
-0.017090603709220886
-0.02831309288740158
-0.007145186420530081
-0.009058558382093906
-0.02252795733511448
-0.04601726680994034
0.0010652680648490787
0.002883715322241187
0.020462151616811752
0.03524865210056305
0.0429418683052063
-0.01785225421190262
-0.0154259717091918
-0.04248327761888504
-0.011102698743343353
-0.03330988064408302
-0.04287846013903618
0.024563301354646683
0.0016828069929033518
0.03165298327803612
-0.00754952896386385
0.020661331713199615
0.02983335591852665
-0.0009190834243781865
-0.038954801857471466
-0.03326937556266785
-0.0048067606985569
-0.01527938712388277
-0.013558939099311829
-0.03240789473056793
-0.01130947656929493
-0.026479097083210945
-0.008379438892006874
-0.006959449965506792
-0.015482324175536633
0.02016294188797474
0.02430681698024273
0.006452417932450771
0.02227158471941948
0.022861286997795105
-0.00457970704883337
-0.013746138662099838
0.01585288904607296
0.01797303929924965
-0.004178352188318968
0.04714517295360565
0.06565693765878677
0.021111583337187767
0.07071541994810104
0.06292016804218292
0.05909290537238121
0.08355771750211716
0.06202210485935211
0.03567616641521454
0.03459632769227028
0.06347709894180298
0.02577190287411213
0.030323393642902374
0.048104990273714066
0.04154539480805397
0.045293789356946945
0.03042282722890377
0.021296681836247444
0.02068755030632019
0.013345452025532722
0.030575251206755638
0.048953600227832794
0.004894088488072157
0.050450775772333145
0.021264145150780678
0.005390035454183817
0.02680458500981331
0.012926066294312477
-0.040715087205171585
0.03774605318903923
0.04442232847213745
0.02532806620001793
0.0059718056581914425
-0.022210555151104927
0.000553166726604104
-0.011405328288674355
-0.019143814221024513
0.003365229582414031
-0.008221132680773735
-0.04075946658849716
-0.011494618840515614
0.03910117968916893
0.021430565044283867
0.011451384983956814
0.003262513317167759
-0.015242630615830421
-0.05006064102053642
-0.003767934860661626
0.003892037086188793
-0.03606124967336655
-0.013760178349912167
0.000639693345874548
0.02341827005147934
-0.002102774102240801
-0.0032601410057395697
0.00835016742348671
-0.0014313444262370467
0.00043598844786174595
-0.012315300293266773
0.00505843386054039
0.009780278429389
-0.011089956387877464
0.002663485473021865
0.03240437060594559
0.0017235255800187588
0.004025828558951616
0.028323082253336906
-0.005740051157772541
0.008232997730374336
0.04346282035112381
0.034293100237846375
-0.004948065150529146
-0.030685311183333397
-0.007941954769194126
-0.006396216806024313
-0.040524922311306
-0.06964673846960068
-0.02321339026093483
-0.012033131904900074
-0.03593055531382561
0.024055447429418564
0.03520790860056877
0.01488222274929285
0.0394597053527832
0.04627281054854393
0.04314006119966507
0.05130157992243767
0.042291346937417984
0.057832762598991394
0.04521016776561737
0.05585012212395668
0.014318027533590794
0.014240721240639687
0.01796845905482769
0.01434391550719738
0.004601160064339638
0.012566148303449154
0.04893060773611069
-0.006575371138751507
-0.026431355625391006
0.015855273231863976
0.013192356564104557
0.019010860472917557
0.013841604813933372
0.06198269501328468
0.06991946697235107
0.061034537851810455
0.06125276908278465
0.09955688565969467
0.05905969440937042
0.05829776078462601
0.08165166527032852
0.0814986601471901
-0.0100882388651371
-0.012959430925548077
0.009779767133295536
0.055407702922821045
0.04350091889500618
0.056982897222042084
0.05342668294906616
0.03511764481663704
0.036781590431928635
0.002444199286401272
-0.03020671010017395
-0.010377315804362297
-0.045297373086214066
-0.045317910611629486
0.005462266504764557
-0.044761884957551956
-0.015507614240050316
0.006974545307457447
0.039657797664403915
0.03683832287788391
0.0058795977383852005
0.023207247257232666
0.003923959564417601
-0.020887305960059166
-0.014829399064183235
0.005360590759664774
0.0017404456157237291
-0.04057611525058746
-0.048463378101587296
-0.05827319994568825
-0.019180800765752792
0.020379507914185524
0.004334521479904652
-0.0022007888182997704
0.020645860582590103
0.007050604093819857
-0.00915810838341713
0.013282609172165394
0.0016332014929503202
0.020978059619665146
0.05857478454709053
0.010700427927076817
-0.026446325704455376
-0.013654286973178387
0.022704528644680977
0.030197322368621826
0.03618372976779938
0.02276337333023548
0.0144300302490592
0.0010649807518348098
-0.007589986082166433
0.007103947922587395
-0.01824294403195381
0.01840607449412346
0.015607208013534546
0.04731212556362152
0.03807513415813446
-0.0266446303576231
0.03127119317650795
0.03945783153176308
-0.03283623978495598
0.029643621295690536
0.031954437494277954
0.015475207939743996
0.12436388432979584
0.09060293436050415
0.023050468415021896
0.18536411225795746
0.14267027378082275
0.02559259906411171
0.03726496919989586
0.038751352578401566
-0.018568897619843483
0.029319511726498604
0.01581086777150631
-0.03637135401368141
-0.017719928175210953
-0.0004410881665535271
-0.04023178666830063
-0.02127518504858017
0.006341993808746338
0.008419748395681381
0.06558821350336075
-0.007996357046067715
-0.014156372286379337
0.06466862559318542
0.032003238797187805
0.020285848528146744
0.06473133713006973
0.015522037632763386
0.004171712789684534
0.01880490407347679
-0.004153582267463207
-0.0001602767879376188
0.0048814015462994576
0.014777555130422115
0.00043149301200173795
-0.007179830688983202
0.041080668568611145
-0.0396566204726696
0.04056073725223541
0.06124675273895264
-0.07106536626815796
-0.00435037212446332
0.03415041044354439
-0.02415614202618599
-0.004606026690453291
0.007655698340386152
0.012154214084148407
-0.026732994243502617
0.021021965891122818
0.024461515247821808
-0.018558282405138016
0.028394419699907303
0.041601311415433884
0.032599326223134995
0.05817355588078499
-0.007610872853547335
0.01168229803442955
0.002513122744858265
-0.013556748628616333
-0.008904465474188328
0.0008915832731872797
-0.015034024603664875
0.007657047361135483
-0.006108115892857313
0.0076359473168849945
0.010101692751049995
0.02128199115395546
-0.02427120879292488
-0.021955836564302444
0.031929098069667816
0.04016638547182083
0.028498195111751556
0.015828801319003105
-0.01968512311577797
0.0007047278922982514
0.013498794287443161
-0.0485573448240757
-0.021729519590735435
0.020510781556367874
-0.022907806560397148
0.020771648734807968
0.031694717705249786
0.013377465307712555
0.041475556790828705
-0.0015449683414772153
-0.11262800544500351
-0.009792927652597427
0.024408502504229546
-0.05148372799158096
0.02585531398653984
0.08775507658720016
-0.08052418380975723
-0.08450472354888916
-0.08945608139038086
-0.031725578010082245
0.005864115431904793
0.023005392402410507
0.038622114807367325
0.08073834329843521
0.10052727907896042
0.02130071073770523
0.02596643567085266
0.0018959406297653913
0.008491681888699532
0.018059831112623215
-0.004875837359577417
0.032920535653829575
0.02065122313797474
-0.03126205876469612
0.009128808043897152
0.035147976130247116
0.03808046504855156
-0.030870001763105392
-0.0018425260204821825
-0.004079042933881283
-0.00215001474134624
0.010279271751642227
-0.01910940557718277
-0.023524034768342972
-0.003286591498181224
-0.00807387288659811
-0.028702588751912117
0.005377563182264566
-0.004332382697612047
0.0033673157449811697
0.014879101887345314
-0.0035821686033159494
0.00866276491433382
0.00830773264169693
-0.00849525723606348
0.032162901014089584
0.015332072973251343
0.014814085327088833
-0.006158757023513317
0.009467695839703083
0.0005940038827247918
0.01475969422608614
0.00861680880188942
0.005063027609139681
0.005632176995277405
0.0008188739302568138
0.021046726033091545
-0.03589130938053131
-0.05045684799551964
-0.0071192248724401
-0.011221513152122498
-0.030765743926167488
0.015601188875734806
-0.0032902464736253023
0.015551324002444744
-0.0041891783475875854
-0.011257831007242203
0.03601338341832161
0.049066342413425446
-0.049361392855644226
-0.05800241976976395
-0.0033107742201536894
-0.01141519658267498
-0.02669924683868885
-0.013560186140239239
0.01852322928607464
0.013114916160702705
-0.01753016747534275
0.001446058158762753
0.025626245886087418
0.018212920054793358
0.008878890424966812
0.006628319155424833
0.0005807923153042793
-0.015137099660933018
-0.03457186743617058
-0.03707671910524368
0.0006766498554497957
0.006868873257189989
0.036710452288389206
-0.027776313945651054
-0.016912976279854774
0.009290357120335102
-0.045215725898742676
-0.030737578868865967
0.015112143009901047
-0.02099662460386753
-0.05940021201968193
-0.04421434924006462
0.0035624057054519653
-0.019307168200612068
-0.013402164913713932
0.018045740202069283
-0.0011098029790446162
-0.014373183250427246
0.007366709411144257
-0.002645560773089528
0.011642365716397762
0.005106562748551369
-0.005707434378564358
-0.0034134017769247293
0.048867303878068924
0.0487150102853775
0.022817004472017288
-0.01197615172713995
-0.03341954946517944
-0.0309557244181633
0.008175257593393326
-0.045739248394966125
-0.04969361796975136
-0.01535931508988142
-0.04899285361170769
-0.06101685389876366
0.003193255979567766
-0.024491099640727043
-0.010255646891891956
0.029257096350193024
0.01586209237575531
0.007879641838371754
0.030882325023412704
0.06385796517133713
0.041594717651605606
-0.01559225283563137
-0.06397268921136856
-0.06697115302085876
0.0056148432195186615
-0.007214258424937725
-0.029020892456173897
0.036442309617996216
0.05902111902832985
0.047594696283340454
-0.0029111444018781185
0.02178777940571308
0.020928965881466866
-0.0003118554886896163
-0.014193417504429817
-0.023217281326651573
0.006766324397176504
0.00027175972354598343
-0.015806449577212334
-0.014464124105870724
-0.017819145694375038
-0.061732981353998184
0.020423369482159615
-0.0039039223920553923
-0.0187696423381567
-0.007266219239681959
-0.059032414108514786
-0.05053477734327316
-0.028785482048988342
-0.01702292263507843
0.015715118497610092
0.003384377807378769
0.02537492662668228
0.03654862195253372
-0.015696397051215172
0.025859598070383072
0.010855055414140224
0.02286137081682682
0.02772560715675354
0.034412872046232224
-0.0008353160810656846
-0.008857237175107002
-0.009522014297544956
0.01770348846912384
0.025391357019543648
0.03366365656256676
-0.05298934876918793
-0.07583878189325333
-0.05044642463326454
-0.0178887527436018
-0.017666149884462357
-0.02100466936826706
-0.008169563487172127
0.016462069004774094
-0.012457333505153656
-0.012652992270886898
-0.015029066242277622
-0.008992950432002544
-0.004519457463175058
-0.03164154663681984
-0.03134479746222496
0.014671307988464832
-0.013848645612597466
-0.012625366449356079
-0.03528702259063721
-0.03450282663106918
-0.00472874753177166
-0.047659981995821
-0.016845643520355225
-0.02042067050933838
0.03980712220072746
0.0758652612566948
0.05744939669966698
-0.02696658857166767
0.007237340789288282
0.029017269611358643
-0.0592382550239563
-0.01268007792532444
0.00333798467181623
0.007378038484603167
0.00749478442594409
0.028425609692931175
-0.05255866050720215
-0.0571800135076046
-0.05637604370713234
0.006302747875452042
0.0005622008466161788
0.017546167597174644
0.0048203133046627045
0.01834344118833542
0.005953324493020773
0.03142695873975754
-0.0064867595210671425
-0.008470219559967518
-0.011978882364928722
0.004926334135234356
0.05494305118918419
-0.019819535315036774
-0.017402073368430138
0.005644678603857756
-0.021416382864117622
-0.026330294087529182
-0.038790930062532425
-0.018588904291391373
-0.028265023604035378
-0.0182487815618515
-0.0427863784134388
-0.017842618748545647
-0.02006312645971775
-0.006245691794902086
-0.0321216955780983
-0.004157177172601223
-0.01294666063040495
-0.060447774827480316
-0.0258574727922678
-0.007893424481153488
-0.042484212666749954
0.017325909808278084
0.018551429733633995
0.0356035977602005
0.035460907965898514
-0.015327262692153454
-0.021489053964614868
-0.034371793270111084
0.026731306686997414
0.03686867654323578
0.023759527131915092
0.029951689764857292
0.009097766131162643
-0.021603643894195557
-0.018855608999729156
-0.026575375348329544
-0.015409578569233418
0.002055923920124769
-0.018453001976013184
-0.0033132480457425117
-0.03727025166153908
-0.016846559941768646
-0.0020137953106313944
-0.015465251170098782
-0.01165708713233471
-0.006170799024403095
-0.004202181939035654
-0.016837861388921738
-0.020756276324391365
-0.006857346277683973
-0.04115244373679161
0.005209102761000395
-0.003587435930967331
-0.06673872470855713
-0.1632237285375595
0.022327782586216927
0.009142057038843632
-0.13203229010105133
0.015701450407505035
-0.01449490524828434
0.0004471985448617488
0.03816910833120346
-0.002345609711483121
0.04300694912672043
0.014692761935293674
-0.04588180035352707
-0.00808385293930769
-0.02579873614013195
0.027000244706869125
0.007208796683698893
-0.0003854175447486341
0.06295353174209595
0.014997961930930614
0.01974484510719776
0.025974787771701813
-0.04336882010102272
-0.05059918388724327
-0.06056505814194679
-0.04120355099439621
0.01626543141901493
0.013802668079733849
-0.01016307808458805
-0.02087979018688202
-0.036120474338531494
-0.04599166661500931
0.029424995183944702
0.04878366366028786
0.049739740788936615
0.025659091770648956
0.024408971890807152
0.015563116408884525
0.008699554018676281
0.023983296006917953
0.011265408247709274
0.03109455108642578
-0.006865562405437231
-0.028688160702586174
0.05069957673549652
0.015794329345226288
-0.027600973844528198
0.015849649906158447
0.02726040780544281
-0.01438035536557436
-0.02603096328675747
-0.03275887295603752
-0.03262551873922348
0.00033105298643931746
0.01889229193329811
0.00413422891870141
0.033815596252679825
0.05605289340019226
0.05764478072524071
-0.01551012508571148
-0.00025197627837769687
0.002711979206651449
-0.00015463819727301598
-0.01962200365960598
0.02711472660303116
0.008406861685216427
0.014566540718078613
0.013366729952394962
-0.1545579433441162
-0.264526903629303
-0.24997767806053162
-0.18668249249458313
-0.31136807799339294
-0.28816428780555725
-0.15481603145599365
-0.1378198117017746
-0.18615232408046722
-0.01072856318205595
-0.013722245581448078
-0.03280807286500931
-0.0023051572497934103
-0.009836080484092236
-0.013733988627791405
0.059297364205121994
0.040806956589221954
-0.007293868809938431
-0.005621881689876318
-0.007104822434484959
0.027754824608564377
-0.03755877539515495
-0.004061777610331774
0.0034708890598267317
0.015191666781902313
-0.009889921173453331
-0.025179559364914894
-0.008648469112813473
0.008482703939080238
0.03291885554790497
-0.03333663195371628
-0.005665276199579239
0.023478588089346886
0.0020910068415105343
0.0030220961198210716
2.7591771868173964e-05
-0.022523170337080956
-0.018456267192959785
-0.02868373692035675
-0.02041720598936081
-0.020444869995117188
0.008893708698451519
-0.0070928651839494705
0.0205504409968853
0.04868369549512863
0.04572705179452896
0.05037451535463333
0.04362897947430611
0.01766931265592575
0.042055074125528336
0.0018628957914188504
-0.0013131571467965841
0.0018658085027709603
-0.004272531718015671
0.032159533351659775
0.05904189869761467
0.04843326658010483
-0.02646375447511673
-0.008066677488386631
-0.010358535684645176
-0.026699140667915344
-0.009541064500808716
-0.02890150621533394
-0.02923462726175785
-0.03907798230648041
-0.04495549947023392
-0.020345505326986313
-0.044891051948070526
-0.037477172911167145
0.01965251937508583
-0.0015561567852273583
-0.005824549123644829
-0.050696324557065964
-0.04890209808945656
0.0091630844399333
0.005166842136532068
0.02050851285457611
0.0668739601969719
0.02893408201634884
0.04671702906489372
0.021371176466345787
0.02174431085586548
-0.02835443615913391
-0.032557446509599686
0.030519217252731323
0.01853589341044426
0.015244029462337494
0.0013831623364239931
0.01705061085522175
0.032020486891269684
-0.03629252687096596
0.010914494283497334
0.04537104070186615
0.013399243354797363
0.06427215784788132
0.08820976316928864
0.046697139739990234
0.09965308010578156
0.08760648220777512
-0.02433573268353939
-0.02962694689631462
0.019537094980478287
-0.033412400633096695
-0.022290362045168877
-0.028878746554255486
0.014765122905373573
0.017234163358807564
-0.018185220658779144
-0.037954237312078476
0.012257804162800312
-0.022225281223654747
-0.0254713986068964
0.06228065490722656
0.032346658408641815
-0.012114966288208961
0.07692902535200119
0.06000639498233795
0.030397722497582436
0.029286053031682968
-0.01324339210987091
0.03705019876360893
0.07317011803388596
0.01673246920108795
0.05120335891842842
0.09726663678884506
0.0755898505449295
-0.003927656449377537
-0.014107771217823029
0.02018457092344761
0.019297465682029724
0.006653784308582544
0.07412060350179672
0.0055537838488817215
0.010696317069232464
0.02813674695789814
0.003390041645616293
0.0005412002792581916
0.02301160804927349
0.05058593675494194
0.054310526698827744
0.010120686143636703
0.04170878231525421
0.061759643256664276
0.04612421244382858
-0.015293455682694912
-0.020706623792648315
-0.013808868825435638
0.011832335032522678
0.022509552538394928
0.02073483169078827
-0.024324340745806694
-0.008412064984440804
0.010436385869979858
0.027055907994508743
-0.030837442725896835
-0.003698931075632572
0.01683507300913334
0.0010732330847531557
0.004476007539778948
0.007032581605017185
0.0055897110141813755
0.002956644631922245
-0.00613708421587944
-0.016046278178691864
-0.010926296934485435
-0.001991134835407138
-0.025863008573651314
-0.003927204292267561
0.01958283968269825
0.02100105583667755
0.0032834098674356937
0.010240971110761166
0.01181655004620552
0.06433894485235214
-0.004388321191072464
0.02468559332191944
0.08503895998001099
-0.04922451451420784
-0.007068967446684837
0.062470413744449615
0.05667394772171974
0.019898902624845505
-0.021165955811738968
0.05695359408855438
0.005678561050444841
-0.09364809840917587
0.07459299266338348
0.0025271258782595396
-0.03878217563033104
-0.007248485926538706
0.0017643526662141085
-0.03608507663011551
0.016915131360292435
0.0813247412443161
0.031395409256219864
0.04043397679924965
0.06389496475458145
0.016888558864593506
0.0028873851988464594
-3.312174521852285e-05
0.026667537167668343
0.04188254103064537
0.04947667568922043
0.01523731928318739
0.05641038715839386
0.10290221869945526
0.048301972448825836
-0.017920035868883133
0.007784351706504822
0.045144643634557724
0.003219499019905925
0.002356764627620578
0.03818097710609436
-0.011412085965275764
-0.007619270123541355
-0.0036369157023727894
-0.0007843638304620981
0.016721583902835846
0.03204718977212906
0.02885494753718376
0.09094757586717606
0.10222338885068893
-0.026722418144345284
0.04220810905098915
0.0368131585419178
0.027573026716709137
0.022104814648628235
0.025448504835367203
-0.0004055779427289963
-0.005176704376935959
0.008277788758277893
0.011807061731815338
-0.019153336063027382
-0.026581384241580963
-0.019730838015675545
0.013314091600477695
0.016934243962168694
0.027869347482919693
0.04901304095983505
0.041627347469329834
0.0074594514444470406
0.019818993285298347
0.022444888949394226
-0.004514490719884634
-0.0018402835121378303
0.02609931118786335
-0.02847069874405861
-0.03453582897782326
0.0038831685669720173
-0.0023387453984469175
-0.004452910739928484
0.0217449814081192
-0.040226906538009644
-0.027628149837255478
-0.0411815270781517
-0.014607607387006283
0.03362736105918884
-0.011050372384488583
-0.039908383041620255
-0.005971916951239109
-0.026839472353458405
-0.047064073383808136
-0.039558276534080505
-0.04622655361890793
-0.010200180113315582
0.03109678067266941
0.003920962102711201
-0.003700838191434741
0.0350671149790287
0.01251506432890892
0.01897219754755497
-0.032420769333839417
0.024346649646759033
-0.03007078915834427
-0.05183509737253189
-0.006190327927470207
0.021969206631183624
0.01266490388661623
0.010535954497754574
-0.03990323841571808
-0.04134330153465271
-0.02857745625078678
-0.018596919253468513
0.013184602372348309
0.01760392263531685
-0.018351005390286446
0.04358302429318428
0.022408906370401382
0.013965352438390255
-0.006237823981791735
-0.018555492162704468
0.02768613025546074
0.018340885639190674
0.049607664346694946
0.05748671665787697
0.09647523611783981
0.06355298310518265
-0.013634334318339825
-0.012597436085343361
-0.04138586297631264
-0.008124301210045815
0.019754398614168167
-0.010999749414622784
-0.010897418484091759
-0.008663495071232319
0.011640884913504124
-0.024016303941607475
-0.019449453800916672
-0.08057311177253723
0.0029414468444883823
0.03832049295306206
0.0405995137989521
0.0454174280166626
0.1080646738409996
0.11114175617694855
-0.018046880140900612
-0.012746427208185196
-0.06794670969247818
-0.025688350200653076
-0.02397056482732296
-0.0595601350069046
-0.011955054476857185
-0.016674568876624107
-0.03834087774157524
0.03927311301231384
0.01695588417351246
0.04566589742898941
0.01779862493276596
0.016978515312075615
0.04144109785556793
0.03526858240365982
0.0039276257157325745
0.06266450136899948
0.007448108866810799
0.030075736343860626
-0.004372729454189539
0.041819360107183456
0.06126623600721359
0.017277169972658157
-0.007672067731618881
-0.006645080167800188
-0.008688298985362053
-0.00869846437126398
0.005402844864875078
0.017409643158316612
-0.007097255904227495
0.012238092720508575
0.009933944791555405
-0.006071668118238449
0.009838431142270565
-0.049384210258722305
-0.021202052012085915
0.02458445355296135
-0.006119397468864918
0.030997950583696365
0.05983743071556091
0.04236694797873497
0.00926339440047741
0.02951572649180889
0.004822667688131332
0.007512956857681274
0.05395223945379257
0.06807408481836319
-0.02053554356098175
0.062279824167490005
0.06015007197856903
-0.012408076785504818
0.026945479214191437
0.04460592195391655
0.02712109684944153
0.06224142387509346
0.03218947723507881
0.030048681423068047
0.08030486106872559
0.049293093383312225
-0.004349970258772373
0.03968885913491249
-0.0032366057857871056
-0.01694997400045395
-0.03473369777202606
0.0005403338582254946
-0.03442057967185974
0.011379068717360497
0.0023345244117081165
-0.04291053116321564
0.009623113088309765
-0.001708093797788024
-0.048528626561164856
-0.011122110299766064
-0.015641257166862488
-0.0016537097981199622
0.03158651664853096
0.04733245447278023
-0.000838439620565623
0.03845678269863129
0.031262002885341644
0.00668635917827487
-0.020875925198197365
-0.06746963411569595
0.023968104273080826
0.006778866983950138
-0.07375179976224899
-0.03336286544799805
-0.046600814908742905
-0.11730416864156723
0.03679604455828667
0.04599785432219505
0.012224105186760426
0.029717931523919106
0.03112424723803997
-0.0013090691063553095
0.010091500356793404
-0.017452074214816093
-0.022022737190127373
-0.022650474682450294
0.0069985766895115376
0.005033459514379501
-0.010008634999394417
0.004772281274199486
-0.003423682413995266
-0.016969086602330208
0.00804780051112175
0.004365371540188789
0.02896207943558693
0.0378279946744442
0.029247643426060677
0.08195503056049347
0.14119043946266174
0.07661821693181992
0.05377661809325218
0.09416618943214417
0.03273027390241623
0.04587810859084129
0.013559836894273758
0.0002876404323615134
0.01082589104771614
0.01170008722692728
-0.007754575461149216
-0.006697712931782007
0.0144078703597188
0.019906625151634216
-0.009560809470713139
0.005914949346333742
0.006334125529974699
0.04179345816373825
0.08039188385009766
0.0737195611000061
0.00496236328035593
0.049975838512182236
0.01893419586122036
-0.01195516623556614
-0.016738824546337128
0.05317964032292366
0.028470197692513466
0.06419837474822998
0.06063465774059296
0.03586067259311676
0.105031318962574
0.1004960834980011
-0.03427847847342491
-0.033358383923769
-0.0014148714253678918
-0.01726568676531315
0.02888905443251133
0.04932183399796486
0.005003107711672783
0.055627282708883286
0.053985364735126495
0.01913461834192276
0.01136742066591978
0.002433108165860176
-0.009340276941657066
-0.022047974169254303
0.0033585806377232075
-0.035638097673654556
-0.06082981452345848
-0.05380186066031456
0.010235742665827274
0.03959611430764198
0.07504142075777054
-0.022783668711781502
0.01879526861011982
0.04862668737769127
-0.0021001023706048727
0.015164433047175407
0.04240409657359123
-0.005286159925162792
-0.00695403479039669
0.02413778193295002
-0.012842446565628052
0.02331164851784706
0.08989190310239792
-0.03779664263129234
0.03888263180851936
0.11004309356212616
-0.009989737533032894
0.00523402402177453
0.0007949571590870619
-0.011131951585412025
0.020796503871679306
0.02207033336162567
-0.012357193976640701
0.014590340666472912
0.011348132975399494
0.007000690326094627
0.01829535700380802
0.01903148554265499
-0.037189748138189316
-0.009827430360019207
0.0022307178005576134
-0.029153941199183464
0.020993944257497787
0.048238757997751236
0.0019859871827065945
-0.011081880889832973
0.010420111939311028
-0.03768467903137207
0.09597969055175781
0.10598810762166977
-0.05939421430230141
0.14678774774074554
0.18430843949317932
0.024391047656536102
0.01327523123472929
-0.0108489990234375
0.0418749563395977
0.026706483215093613
0.01606607809662819
-0.008744945749640465
-0.018071437254548073
-0.028821155428886414
0.04855808988213539
0.037597183138132095
0.0051534781232476234
0.02116883173584938
0.02074786089360714
0.010002728551626205
-0.014660238288342953
-0.026095235720276833
-0.02422191947698593
0.06354942172765732
0.11763526499271393
0.11289352178573608
-0.018900174647569656
0.021921232342720032
0.051461391150951385
-0.033068206161260605
-0.014164519496262074
0.005559624172747135
-0.018647341057658195
-0.020679974928498268
-0.011051652021706104
-0.01985188201069832
0.00036120371078141034
0.025853024795651436
-0.021989071741700172
0.026419339701533318
0.047257110476493835
-0.058748759329319
-0.011663086712360382
-0.012963512912392616
-0.02702738717198372
0.034186288714408875
0.006879181135445833
-0.02464321069419384
0.04767885059118271
-0.0020989668555557728
0.03539951518177986
0.040143098682165146
0.005604554899036884
0.011685260571539402
0.061675406992435455
0.057661108672618866
-0.010337747633457184
0.023040948435664177
0.022583242505788803
0.019099954515695572
0.018371693789958954
0.035673677921295166
0.004790147766470909
0.01667495258152485
0.024761753156781197
0.019399652257561684
-0.0127974022179842
0.0043367971666157246
-0.033387117087841034
-0.009301111102104187
0.059087906032800674
-0.006688649766147137
0.01357012428343296
0.03759961575269699
-0.033242709934711456
0.03594021126627922
0.08516497164964676
-0.011936415918171406
0.006295098923146725
-0.014992192387580872
-0.01621045172214508
0.01031471323221922
0.03463532403111458
-0.00499811302870512
0.010189356282353401
0.014800249598920345
-0.008409906178712845
-0.002738653915002942
0.010219221003353596
-0.035885605961084366
0.007240052800625563
-0.007125264964997768
-0.0075680967420339584
0.029573924839496613
0.015767551958560944
-0.0045802537351846695
0.0008668771479278803
0.005335464142262936
0.052371781319379807
0.07309187203645706
0.05478133633732796
0.04755799099802971
0.08717859536409378
0.06671623140573502
-0.0015907961642369628
0.008524972014129162
-0.005260291509330273
-0.027460655197501183
-0.023824866861104965
-0.024734582751989365
-0.005701645743101835
-0.009554857388138771
-0.021399475634098053
-0.039858706295490265
-0.07107492536306381
-0.05854625999927521
0.022902468219399452
0.011184412986040115
-0.023653710260987282
0.08189746737480164
0.1199636310338974
0.09324204176664352
0.031983885914087296
0.07493135333061218
0.0660201832652092
0.028489507734775543
0.1193101704120636
0.12099973857402802
0.0007925935206003487
0.04381195455789566
0.044648271054029465
0.032747771590948105
0.0414438359439373
-0.008193212561309338
0.04554133117198944
0.029425891116261482
-0.00854396540671587
0.0001163379056379199
0.0018044798634946346
0.014825858175754547
-0.14246766269207
0.022710898891091347
0.048045553267002106
-0.1094643697142601
-0.019018404185771942
-0.034955944865942
-0.04867526888847351
0.03479338809847832
0.004314269870519638
-0.011108355596661568
0.0013053155271336436
0.0028023647610098124
-0.0069907051511108875
-0.006586118601262569
-0.0009360498515889049
0.022019702941179276
0.0010414390126243234
0.05239811912178993
0.07446791231632233
0.04905892536044121
0.05170200392603874
-0.14674095809459686
-0.05458525940775871
0.035741448402404785
-0.1832827925682068
-0.000896507001016289
0.010583932511508465
-3.268032742198557e-05
0.016294006258249283
0.003737483639270067
0.032276857644319534
0.03997699171304703
0.06352600455284119
-0.018397320061922073
-0.012628390453755856
0.0015040895668789744
-0.015463854186236858
-0.0025159770157188177
0.0016269813058897853
-0.025488732382655144
-0.015775084495544434
0.037753667682409286
0.012110646814107895
0.0582173690199852
0.05453667789697647
0.012388491071760654
-0.07597445696592331
-0.07767122238874435
-0.031247470527887344
0.00186448753811419
0.05330309644341469
-0.05320287123322487
0.0009974053828045726
0.06212702393531799
0.07877626270055771
0.027492189779877663
-0.002262414898723364
0.005424377042800188
0.03786621242761612
0.01608452945947647
-0.016263030469417572
0.006381649989634752
-0.013366944156587124
0.002257233252748847
-0.027316123247146606
-0.0017166088800877333
0.04702242091298103
-0.025956036522984505
0.008119195699691772
0.06095347926020622
-0.014329253695905209
-0.034532468765974045
0.024901052936911583
-0.01027887687087059
-0.030254969373345375
0.032202061265707016
0.060476597398519516
0.028895709663629532
0.0038483422249555588
0.022609533742070198
0.03493070229887962
0.02590331621468067
-0.008485845290124416
0.0034279553219676018
0.01003594882786274
-0.00452521862462163
0.04800454527139664
0.0040979450568556786
0.008301476016640663
0.01874087005853653
0.026329465210437775
0.008863472379744053
-0.06606315821409225
-0.01964179053902626
0.036084260791540146
0.0068922871723771095
-0.03414206951856613
0.017435049638152122
-0.009340952150523663
0.0034992548171430826
-0.09738938510417938
-0.00719563290476799
-0.017433935776352882
-0.18815812468528748
-0.04832226037979126
0.06889020651578903
-0.08435787260532379
-0.0426190160214901
-0.08241540938615799
-0.10853870213031769
-0.05271704122424126
-0.05458255857229233
0.016453124582767487
0.007832961156964302
-0.048358794301748276
-0.024491187185049057
-0.035216622054576874
0.0004191107291262597
0.007483178749680519
-0.013586019165813923
0.0027849238831549883
0.03821996971964836
0.004793152678757906
0.004321809858083725
-0.0034405472688376904
-0.01282943319529295
-0.028190748766064644
0.0038253043312579393
-0.052431099116802216
-0.02708805352449417
0.0540594644844532
-0.00022266092128120363
-0.002217447618022561
0.033442527055740356
0.025461455807089806
-0.01258955430239439
-0.045432284474372864
-0.02407802827656269
-0.11911510676145554
0.011762655340135098
0.11140979826450348
-0.06912730634212494
0.041011787950992584
0.07074856758117676
0.0511053130030632
0.036592282354831696
0.005263647064566612
-0.029022764414548874
-0.07354754954576492
0.0348343551158905
0.03661518916487694
0.0021623631473630667
0.03990836814045906
-0.01611264981329441
0.0022091043647378683
-0.006659695878624916
0.00893378909677267
0.007955276407301426
-0.004410717636346817
-0.0076697878539562225
0.005255747586488724
0.008620123378932476
-0.014170636422932148
-0.03279828652739525
0.03937555104494095
-0.03586892411112785
-0.025112498551607132
0.047753673046827316
-0.02419046126306057
-0.005205709952861071
0.06698388606309891
0.04601379856467247
-0.06227182596921921
0.007488833274692297
0.1841142624616623
-0.11624778062105179
-0.10619980096817017
0.10590694099664688
-0.08903097361326218
-0.038274019956588745
0.009744687005877495
0.011489289812743664
0.03302057087421417
0.032978370785713196
-0.009576884098351002
-0.0192734245210886
0.06083934009075165
0.016558969393372536
-0.021524624899029732
0.015634844079613686
0.006775230634957552
-0.045755453407764435
0.06450945138931274
-0.08244693279266357
-0.017818918451666832
0.007276452146470547
-0.015734713524580002
-0.0015674130991101265
0.03198481723666191
0.01279356423765421
-0.005024818703532219
-0.0592668280005455
0.022618724033236504
0.0334327332675457
-0.033628929406404495
-0.002360394224524498
0.03064044564962387
-0.022484825924038887
0.020710425451397896
0.02232162095606327
-0.0367010235786438
-0.005675110500305891
-0.0169330146163702
-0.025064606219530106
-0.04737991467118263
-0.0438835583627224
-0.020410334691405296
0.010786664672195911
0.03790665790438652
-0.021574610844254494
-0.02165285311639309
-0.026242079213261604
-0.009236721321940422
-0.006747400388121605
-0.04878087714314461
0.0046953181736171246
0.020184341818094254
0.0233025960624218
0.005692122038453817
-0.012668488547205925
0.03233396261930466
0.018258629366755486
-0.038300178945064545
-0.043718788772821426
-0.016655785962939262
-0.04763732850551605
-0.02305709384381771
0.07437637448310852
0.024619678035378456
0.0428018644452095
0.04368168115615845
-0.01616591401398182
-0.04177378863096237
0.025512419641017914
0.004628285299986601
0.015270410105586052
0.03123553656041622
-0.05445031821727753
0.037652637809515
-0.015677841380238533
-0.04463912546634674
0.044903259724378586
0.008273214101791382
-0.019610140472650528
-0.002513597719371319
0.02054413966834545
-0.012853563763201237
-0.005414211191236973
-0.0038343342021107674
-0.012717939913272858
0.001942792208865285
0.0038935306947678328
0.02157299593091011
0.02318095788359642
0.00273537659086287
0.01202664989978075
0.029735442250967026
0.0016292071668431163
0.017126962542533875
0.01559142954647541
0.028241684660315514
-0.026348602026700974
-0.014041355811059475
0.00824541226029396
-0.005154351703822613
-0.036710500717163086
0.007871627807617188
-0.04164180904626846
-0.02782195433974266
0.0050509232096374035
-0.008527460508048534
-0.027205072343349457
-0.011538947001099586
-0.011655298061668873
0.004668594803661108
-0.018376633524894714
-0.00028264583670534194
0.01580148935317993
-0.03439786285161972
-0.0051743281073868275
-0.02086482010781765
-0.10475428402423859
0.07339030504226685
0.05816243588924408
-0.04636548459529877
0.06116459518671036
6.676440534647554e-05
-0.012036973610520363
0.055516570806503296
0.0294514000415802
-0.019829336553812027
0.02613709680736065
-0.07996860146522522
-0.013201410882174969
0.01144343987107277
-0.07224807143211365
0.028870277106761932
0.054058875888586044
0.03279794380068779
0.03325609490275383
0.007883723825216293
0.024565238505601883
-0.012389034032821655
-0.013087124563753605
-0.02340548112988472
0.0255927424877882
-0.014294717460870743
0.02510893903672695
0.011227980256080627
0.043807607144117355
0.06637532263994217
0.07210725545883179
0.06387557089328766
0.02980339154601097
-0.018792053684592247
-0.02531079202890396
-0.0354195162653923
0.044731300324201584
0.018962014466524124
0.009884892031550407
0.023529043421149254
-0.011464022099971771
-0.001385588082484901
0.0028357182163745165
0.01765141636133194
-0.020977187901735306
-0.005755948834121227
-0.008735078386962414
-0.022168446332216263
0.01594657450914383
0.022880658507347107
0.011929168365895748
-0.025733478367328644
-0.03784511610865593
0.02509284019470215
-0.03969405218958855
-0.019300129264593124
0.13030989468097687
0.01522702444344759
-0.004299754276871681
0.0645471140742302
-0.094788558781147
-0.03672502934932709
-0.059878766536712646
-0.1032332107424736
0.05049144849181175
0.038550328463315964
0.04390105605125427
0.09881709516048431
0.0669771209359169
-0.01348153781145811
0.023253832012414932
0.019402049481868744
0.008061318658292294
-0.017158210277557373
-0.004032763186842203
0.02060163952410221
0.002128596417605877
-0.019143354147672653
-0.07714430242776871
-0.04260621964931488
-0.012990381568670273
0.019445929676294327
0.015247046016156673
-0.009669821709394455
0.006308526732027531
0.0060960473492741585
0.0029490035958588123
-0.043054044246673584
-0.010417946614325047
-0.016648584976792336
0.029561985284090042
-0.022330665960907936
-0.04784039780497551
-0.004477133508771658
0.028724202886223793
-0.013015154749155045
-0.1374441236257553
0.04642979055643082
0.027512025088071823
-0.11296261847019196
0.060990653932094574
0.07556745409965515
-0.04129261523485184
0.0449766144156456
0.012849187478423119
0.028913408517837524
0.004718190990388393
0.07123399525880814
-0.02761666290462017
-0.004160990938544273
0.08256498724222183
-0.007261102087795734
-0.034245774149894714
-0.008758760057389736
-0.003332736436277628
0.010820701718330383
-0.007938763126730919
-0.02976687066257
0.0404508113861084
-0.008615599013864994
-0.016536321491003036
0.045025262981653214
0.025182615965604782
0.01755034551024437
-0.0044211591593921185
-0.013253319077193737
0.03753072768449783
0.0070185232907533646
-0.04189570993185043
0.04138968884944916
0.006180134601891041
-0.04056108370423317
0.0005188804934732616
-0.011077966541051865
-0.03560367971658707
-0.023439735174179077
0.0002487251185812056
0.03833483159542084
0.0038371114060282707
0.013237436302006245
0.006703842431306839
0.01238127239048481
-0.007164378184825182
0.0014357627369463444
0.01701313629746437
-0.04126867651939392
-0.06798737496137619
-0.03112669475376606
-0.044548824429512024
-0.04527290165424347
0.00571165606379509
0.035851817578077316
0.05245207995176315
-0.021567972376942635
-0.023904966190457344
0.0907389223575592
-0.01261314656585455
-0.021797068417072296
0.05567808821797371
-0.010830658487975597
0.02197536639869213
0.026570359244942665
-0.01634477823972702
0.016008133068680763
0.01524658314883709
-0.011161936447024345
0.006756282877177
0.00720552634447813
-0.014835168607532978
-0.058602225035429
-0.01411869190633297
0.035421449691057205
-0.003820886369794607
0.029981471598148346
0.04907311871647835
0.00445593474432826
0.008593065664172173
-0.03139848634600639
-0.03293995559215546
-0.09727322310209274
0.18393690884113312
0.09129758179187775
-0.0866556242108345
0.1465178281068802
0.09635384380817413
0.00023274846898857504
-0.02245296910405159
0.04773544892668724
0.037303440272808075
-0.13072407245635986
0.11591827124357224
0.16227973997592926
-0.10965020954608917
0.0349610410630703
0.07251033186912537
-0.06303810328245163
-0.09130832552909851
-0.03633446246385574
0.05847084894776344
-0.1057981476187706
-0.038681626319885254
0.1110716238617897
-0.0019865664653480053
0.04928015172481537
0.02880733460187912
-0.019651595503091812
-0.009144631214439869
0.05090716853737831
-0.022642994299530983
-0.00878444779664278
0.031211458146572113
-0.014543802477419376
0.007652646861970425
-0.014512053690850735
-0.00931457243859768
0.005822514649480581
0.04751492664217949
0.0545472614467144
0.009748462587594986
0.029146868735551834
-0.008099767379462719
-0.015758302062749863
0.027575219050049782
0.012216872535645962
0.0241107065230608
-0.0921805277466774
-0.021568555384874344
0.07052838802337646
-0.08302023261785507
-0.02881578914821148
0.012813406996428967
0.032670676708221436
0.05634281784296036
-0.060450296849012375
0.06639277189970016
0.05054328218102455
-0.12781590223312378
-0.009056015871465206
-0.04738454148173332
-0.13308636844158173
-0.05571499466896057
-0.021458430215716362
-0.0056118350476026535
-0.02639891766011715
-0.01417453121393919
0.01063944399356842
-0.01762833446264267
0.011674705892801285
0.0016571420710533857
-0.034745994955301285
-0.014742453582584858
-0.0005902472767047584
-0.017474588006734848
0.002092264825478196
-0.010833067819476128
-0.003168608294799924
-0.02134322188794613
0.004643275402486324
0.017699163407087326
0.006935099605470896
-0.07402507215738297
-0.029492666944861412
0.00260111759416759
-0.05500580742955208
-0.07065555453300476
-0.016789183020591736
-0.03216763958334923
-0.01912391558289528
0.006300350651144981
-0.03258923441171646
-0.07418311387300491
0.03103913739323616
-0.04574959725141525
-0.01163556519895792
0.0048223622143268585
-0.03478565067052841
0.05918655917048454
0.04578833281993866
0.045672837644815445
0.1378416270017624
0.027616426348686218
-0.028865454718470573
-0.04440856724977493
-0.06389967352151871
-0.13411103188991547
0.022032426670193672
-0.000845808710437268
-0.007830915041267872
-0.004197161644697189
-0.02047966606914997
-0.02135072462260723
-0.025841793045401573
-0.05611603707075119
-0.016582759097218513
0.011383449658751488
0.036150891333818436
0.01686307229101658
0.030994124710559845
0.06018515303730965
0.05635995417833328
0.0013329021167010069
0.032865364104509354
0.003284984501078725
0.007835643365979195
0.054983533918857574
0.049847349524497986
0.007465025410056114
-0.010042763315141201
0.024927426129579544
0.03052196279168129
0.034114208072423935
0.04283646121621132
0.02840733714401722
0.07285448163747787
0.06516879796981812
-0.02968607284128666
0.03198369964957237
0.01459281612187624
0.02451258897781372
0.09211689978837967
0.07063716650009155
-0.017746396362781525
-0.047500185668468475
-0.0489971861243248
0.0485314317047596
0.06682108342647552
0.01036018319427967
0.02479173056781292
0.05729125812649727
0.029343094676733017
0.01245400682091713
0.03518959507346153
0.05355532094836235
0.014425541274249554
0.07833649218082428
0.11117801070213318
-0.0013539233477786183
0.05680098012089729
0.08668143302202225
-0.010700248181819916
-0.016372375190258026
0.011999881826341152
0.00970273744314909
0.005426677409559488
0.017185967415571213
0.04537041485309601
0.044061802327632904
0.009534276090562344
-0.007567546330392361
-0.038979578763246536
-0.0011484440183266997
0.019444018602371216
0.015192639082670212
0.010795445181429386
0.032763730734586716
0.03366365283727646
0.007342302706092596
0.020805858075618744
-0.01666772924363613
-0.014222703874111176
0.02897089160978794
-0.008134843781590462
-0.01347856130450964
0.01282047200948
-0.016898034140467644
-0.02661909908056259
0.004667133558541536
0.010584275238215923
0.017840730026364326
0.004880403634160757
-0.015500808134675026
0.01445550937205553
0.015532396733760834
0.02062065899372101
0.027325686067342758
0.019357819110155106
0.010354160331189632
0.001552564324811101
-0.004698874894529581
0.02542182244360447
0.056715283542871475
-0.01055015530437231
0.04154576361179352
0.050802119076251984
0.0007663269061595201
-0.005534000229090452
0.017667317762970924
-0.036327458918094635
-0.06186132878065109
-0.0016808233922347426
-0.016904545947909355
-0.0595918707549572
0.0014107131864875555
0.028849344700574875
0.050261225551366806
0.02414902299642563
0.016070697456598282
0.05416138470172882
0.04160439223051071
0.019815532490611076
0.07441597431898117
0.059276413172483444
0.041552528738975525
0.030361134558916092
0.011634469963610172
0.11023270338773727
0.08051074296236038
-0.01958085410296917
0.09100743383169174
0.06929192692041397
-0.045446790754795074
-0.014767571352422237
0.00037529849214479327
0.004900143016129732
-0.002786821685731411
0.016557877883315086
0.025683078914880753
-0.016786500811576843
-0.0012428530026227236
-0.029523033648729324
-0.005841391161084175
-0.035456664860248566
-0.01202347781509161
0.026700012385845184
0.008934380486607552
0.016695130616426468
0.016639074310660362
-0.004180256277322769
-0.004566556308418512
0.010514043271541595
0.010164656676352024
-0.014364737085998058
-0.0015886900946497917
0.0076160794124007225
-0.023982658982276917
0.009102951735258102
0.012058129534125328
-0.03158823028206825
0.0030265103559941053
0.004929990507662296
0.011421765200793743
-0.0013407805236056447
0.0019377546850591898
0.0037626291159540415
0.003666275180876255
0.013422796502709389
0.016618341207504272
0.02848386950790882
0.02578682079911232
0.021026089787483215
0.05123652145266533
0.0645468533039093
0.03695634752511978
0.05580363795161247
0.07198337465524673
0.035735487937927246
-0.00278157414868474
0.008580849505960941
-0.005210294853895903
-0.0017834384925663471
0.01905355602502823
-0.0206710547208786
-0.004494341090321541
0.009191583842039108
-0.02131509594619274
0.006259599234908819
-0.014536752365529537
-0.020478568971157074
-0.016003446653485298
-0.023746037855744362
-0.03293643146753311
-0.014318292960524559
-0.02440694533288479
-0.024947581812739372
0.05653919279575348
0.041664328426122665
0.02954995073378086
-0.010100935585796833
-0.006492244079709053
0.004176672548055649
0.009487731382250786
0.0050620450638234615
-0.008015585131943226
0.03160135820508003
0.03730356693267822
0.03520626947283745
0.047901906073093414
0.07981468737125397
0.07585306465625763
0.017633317038416862
0.0373774990439415
0.03463945537805557
-0.020289210602641106
0.008183890022337437
-0.013341355137526989
0.006394324824213982
0.08205650746822357
0.02039884775876999
-0.020678481087088585
0.030857443809509277
0.01146557554602623
0.003705093404278159
-0.0228869765996933
0.02004915289580822
-0.010776584967970848
-0.026954831555485725
0.004841436166316271
-0.00432058097794652
-0.031784649938344955
0.01701251231133938
0.03240589797496796
0.04743227735161781
-0.0048075574450194836
0.03296113386750221
0.0831504762172699
0.05911342427134514
-0.03154865279793739
0.02142575941979885
0.013297257013618946
0.0050815679132938385
0.020709289237856865
0.00224918476305902
0.02063521184027195
0.049323201179504395
-0.01072300598025322
0.01328855287283659
0.04264559969305992
-0.0013228761963546276
0.006321499589830637
-0.01887797936797142
0.0021748761646449566
-0.02126421220600605
-0.03986276313662529
-0.06013739854097366
-0.002736930502578616
-0.02405242808163166
-0.030880767852067947
0.02480209432542324
0.02546670287847519
-0.0016757890116423368
0.03549017012119293
0.04253358766436577
0.004523006267845631
0.01908244378864765
0.008250800892710686
-0.00982213020324707
-0.010875845327973366
0.002347070723772049
0.005358734633773565
0.00676709832623601
0.016404567286372185
0.0024334145709872246
0.005223216488957405
0.01995471864938736
0.004673949908465147
-0.04307818040251732
-0.04364563524723053
-0.05370769277215004
-0.01762659102678299
0.0017930545145645738
-0.02099035121500492
-0.015248947776854038
0.003582099685445428
-0.01634260080754757
0.06431558728218079
0.16766975820064545
0.1579776406288147
0.03866036236286163
0.13356973230838776
0.13024498522281647
0.0237196646630764
0.07843783497810364
0.06537175178527832
0.00031347034382633865
0.025857118889689445
0.010747553780674934
-0.004461486358195543
0.043662432581186295
0.04565836116671562
0.0011647818610072136
0.023985370993614197
0.03492114692926407
-0.02530292049050331
-0.11696261912584305
-0.05208512023091316
-0.09012342989444733
-0.16970154643058777
-0.08142722398042679
-0.042673759162425995
-0.06594280153512955
-0.015974491834640503
0.009522068314254284
0.014751906506717205
-0.01536631677299738
-0.007589627522975206
-0.0021277321502566338
-0.024454273283481598
-0.0005397703498601913
0.004429423715919256
-0.01847081631422043
0.03865967318415642
0.051002126187086105
0.04440624266862869
-0.010011408478021622
-0.044429223984479904
-0.07802658528089523
-0.033037684857845306
-0.09292101114988327
-0.10133291035890579
0.00805436447262764
0.024120215326547623
0.03107956238090992
-0.02005119062960148
-0.013203986920416355
-0.003109048819169402
-0.018834419548511505
-0.04113603010773659
-0.02408294379711151
-0.0009664317476563156
0.015487803146243095
0.03940166160464287
-0.018781129270792007
-0.017404135316610336
0.00653518782928586
-0.029419399797916412
-0.02954002656042576
-0.024331791326403618
0.05726268142461777
0.040802210569381714
0.005709770601242781
0.059040095657110214
0.06567161530256271
0.036428969353437424
0.03992428630590439
0.02489745430648327
0.03560859337449074
0.060281991958618164
0.040930066257715225
0.002953367540612817
0.05151217430830002
0.06279081851243973
0.010881459340453148
0.04373682662844658
0.07643817365169525
0.046934761106967926
-0.010571072809398174
0.005296026356518269
-0.012645180337131023
0.011474120430648327
0.028353536501526833
-0.0050704600289464
0.018026847392320633
0.029550662264227867
0.008801424875855446
0.024738624691963196
-0.007970277220010757
0.001694159465841949
0.005042497534304857
0.04348249360918999
0.03611624985933304
-0.035941436886787415
0.025775810703635216
0.017920490354299545
-0.02623750828206539
-0.011457135900855064
-0.005591836757957935
-0.029486941173672676
-0.008884422481060028
0.0015915964031592011
-0.03123675100505352
0.0045861550606787205
0.011706190183758736
0.0282677561044693
0.046704281121492386
0.029456406831741333
0.024650221690535545
0.061117205768823624
0.0338883139193058
-0.004196766763925552
-0.0007796749123372138
-0.003188897157087922
0.000855413090903312
0.05414742976427078
0.022352537140250206
0.007242923136800528
0.04311608523130417
0.025396469980478287
-0.004022927954792976
-0.005049685016274452
-0.027582578361034393
-0.0029896304477006197
0.019029835239052773
0.01755513995885849
-0.031729649752378464
-0.0014990800991654396
0.036465421319007874
-0.08433757722377777
-0.041204147040843964
0.016360705718398094
0.010747532360255718
0.005239703226834536
-0.008121056482195854
-0.007251911796629429
-0.002402668120339513
-0.00988082680851221
-0.0072952937334775925
-0.008478071540594101
-0.012511339969933033
-0.007277640979737043
-0.008129247464239597
0.007910018786787987
-0.0352332703769207
-0.011641094461083412
0.007814533077180386
-0.02787475287914276
0.0004462075885385275
0.019495101645588875
-0.005795620381832123
-0.014957446604967117
-0.027697298675775528
-0.023524999618530273
0.01571817509829998
-0.019235791638493538
-0.03425393998622894
0.003514896845445037
-0.027809521183371544
-0.026243509724736214
0.010611175559461117
-0.02054339274764061
-0.0028082947246730328
0.030738675966858864
0.0036298525519669056
0.0030694890301674604
0.015687651932239532
-0.005355896428227425
0.007473029661923647
0.00418692734092474
0.007846266031265259
-0.02577080763876438
-0.019398489966988564
-0.0253595057874918
-0.03062611259520054
-0.03395496681332588
-0.018325351178646088
0.005700464826077223
0.028356606140732765
0.006374894641339779
-0.005785657558590174
0.016841154545545578
0.004274350591003895
0.007032912224531174
0.035296980291604996
0.005205849185585976
-0.022275704890489578
-0.014297287911176682
-0.02655736915767193
-0.014062236994504929
-0.04289064183831215
-0.05607540160417557
-0.023216290399432182
-0.03871692344546318
-0.0688600018620491
0.0039656925946474075
0.022869691252708435
0.009167583659291267
-5.902081466047093e-05
0.028049468994140625
0.02716558240354061
0.00508137047290802
0.05526439845561981
0.03562263399362564
-0.008043800480663776
0.009800512343645096
0.007609355729073286
-0.01847287453711033
0.015108236111700535
0.03779265657067299
0.024057848379015923
0.023845018818974495
0.022055717185139656
-0.00523327337577939
-0.013618200086057186
-0.01125966664403677
-0.014271523803472519
-0.026510637253522873
-0.050080690532922745
-0.0008390629664063454
-0.031487707048654556
-0.03352624177932739
0.004665201064199209
0.04983678460121155
0.062150776386260986
0.0016183278057724237
0.03152933716773987
0.06095549836754799
-0.03306540101766586
0.03496822342276573
0.04861309379339218
0.026215840131044388
0.09209932386875153
0.07667053490877151
0.05772516876459122
0.1242491826415062
0.10623559355735779
0.06659393012523651
0.10724590718746185
0.08530915528535843
0.011565810069441795
-0.020993752405047417
-0.00843792874366045
0.016918588429689407
0.0022046933881938457
0.018114710226655006
-0.006386696361005306
-0.026410002261400223
-0.004448703024536371
0.02307922951877117
0.033830031752586365
-0.016792073845863342
0.016401171684265137
0.08631075918674469
0.0832681804895401
-0.02855793759226799
0.07858643680810928
0.12657234072685242
0.0032733625266700983
-0.033742960542440414
-0.01956108771264553
-0.001876416732557118
-0.021482037380337715
-0.017060965299606323
-0.008844437077641487
-0.05344362556934357
-0.03749409317970276
0.0345761775970459
0.04679860174655914
0.03309682384133339
0.0006483436445705593
-0.007707300130277872
-0.02206221967935562
-0.04804253578186035
-0.08395328372716904
-0.07177281379699707
-0.000713438494130969
0.01787877082824707
0.024824125692248344
0.00015104284102562815
0.0499151237308979
0.026358051225543022
0.0014930786564946175
0.003274652175605297
0.007946823723614216
0.03728697448968887
0.013410180807113647
-0.02164934203028679
-0.014008707366883755
-0.025453802198171616
-0.025393517687916756
-0.030595527961850166
-0.023542433977127075
0.02005668170750141
-0.03055172972381115
-0.005048057530075312
0.03203491494059563
-0.03722989931702614
0.004330107476562262
-0.013260172680020332
-0.022167017683386803
0.003744273679330945
-0.02437664195895195
-0.009570330381393433
-0.01091444119811058
0.0051624164916574955
-0.02136472426354885
-0.035851992666721344
-0.015706710517406464
-0.013650542125105858
-0.020413963124155998
0.00013479717017617077
0.04915245994925499
0.04079780355095863
0.008906631730496883
0.06932281702756882
0.04945052042603493
0.01722712814807892
-0.019229713827371597
-0.027177194133400917
-0.004775261506438255
0.012451602146029472
-0.032270971685647964
-0.037983737885951996
0.02043117955327034
-0.021511629223823547
0.0015960941091179848
0.005137430503964424
-0.06117284297943115
-0.02802453748881817
0.009166915901005268
-0.013895725831389427
-0.019667601212859154
0.03322193771600723
-0.00613313727080822
-0.023783691227436066
0.001516567775979638
0.025866273790597916
0.03327277675271034
-0.03192504122853279
-0.005445960443466902
-0.02936495468020439
-0.02626573108136654
-0.002448399318382144
0.006826926954090595
-0.04281071573495865
0.0007224604487419128
0.022437604144215584
-0.02564438432455063
-0.004544579889625311
0.02474166639149189
-0.0009059816366061568
-0.011383558623492718
0.02037031203508377
-0.009508291259407997
-0.0203266404569149
0.005061473697423935
0.003482833504676819
0.030535010620951653
-0.04218564182519913
-0.0024472675286233425
0.00379741657525301
-0.03345712274312973
-0.03586096689105034
0.003543897531926632
0.017350563779473305
-0.017140772193670273
-0.0656411200761795
-0.026615139096975327
-0.057711321860551834
-0.14138345420360565
-0.008784878067672253
-0.042547352612018585
-0.07363860309123993
-0.01950124092400074
-0.11435585469007492
0.06588678807020187
0.08509887754917145
-0.010654428042471409
0.02719154767692089
-0.038498613983392715
0.04266761988401413
-0.022285711020231247
-0.10797328501939774
-0.010676235891878605
-0.021161487326025963
-0.0064901672303676605
0.0031936755403876305
0.016865257173776627
-0.018716733902692795
0.042308975011110306
0.02987767942249775
-0.054466091096401215
0.03971676155924797
-0.04532893747091293
-0.014139551669359207
0.008508948609232903
-0.08111333847045898
-0.03373522683978081
-0.007489719428122044
-0.050232816487550735
-0.029250646010041237
-0.0066505419090390205
-0.015162721276283264
-0.036632731556892395
0.022331276908516884
0.00013514143938664347
0.029857249930500984
0.006895232014358044
-0.018739286810159683
0.02185535617172718
-0.008641648106276989
0.016366135329008102
-0.03597293794155121
-0.053992316126823425
0.04454119876027107
-0.010238667950034142
-0.030775459483265877
0.03723588585853577
0.009740530513226986
-0.09465394914150238
0.18780601024627686
-0.01069389097392559
0.0018834732472896576
0.2286459505558014
-0.01827426441013813
0.010369380936026573
-0.09235457330942154
-0.004575027152895927
-0.018947850912809372
-0.030833952128887177
0.005152330733835697
0.010489064268767834
-0.01607348397374153
0.006299130152910948
0.01776496134698391
0.026063473895192146
0.00824569258838892
0.032595306634902954
0.08563347160816193
0.042237136512994766
0.06644760072231293
0.17451418936252594
0.053101446479558945
0.05587951838970184
0.06647934764623642
0.07297668606042862
-0.0002935875963885337
0.013703461736440659
-0.011268905363976955
0.011716770008206367
0.014393326826393604
-0.01837451569736004
-0.01772291399538517
-0.031797152012586594
-0.021974168717861176
0.013463784009218216
0.0006196218309924006
0.0010740604484453797
-0.013270506635308266
0.008064594119787216
0.039043866097927094
5.628566941595636e-05
0.02049032784998417
0.05236467719078064
-0.002458081813529134
-0.017161894589662552
-0.005052335560321808
0.030437318608164787
-0.010232954286038876
0.02457505650818348
-0.003089042380452156
-0.01998058520257473
-0.017387526109814644
-0.13497063517570496
-0.07749015092849731
0.025838036090135574
-0.10394521802663803
-0.0832982137799263
0.003454845165833831
-0.013855845667421818
-0.006260158494114876
0.04215063527226448
0.0015141424955800176
0.015057740733027458
-0.01111570280045271
0.025607477873563766
0.021582620218396187
-0.04545922204852104
-0.016144849359989166
-0.017531799152493477
-0.024142226204276085
-0.007618437055498362
0.02567354030907154
0.02382325381040573
-0.003548950422555208
-0.026264602318406105
0.003003733465448022
-0.0144316665828228
-0.05968710780143738
0.0026947997976094484
0.007975157350301743
-0.0011630390072241426
0.0036750396247953176
0.012665484100580215
0.026723120361566544
-0.01380791887640953
-0.04324672371149063
0.0443427674472332
-0.008860412985086441
0.040430739521980286
0.029313910752534866
0.030827902257442474
0.021146705374121666
0.015618030913174152
0.017608853057026863
-0.02259177155792713
-0.01781993731856346
-0.011982494965195656
-0.005851136986166239
-0.013013772666454315
0.014984872192144394
-0.0004012785211671144
-0.0060918210074305534
-0.021689457818865776
0.009514056146144867
0.005937053356319666
-0.004958866164088249
-0.017056509852409363
0.06453388929367065
0.021623831242322922
-0.024591466411948204
0.06629981845617294
0.008689137175679207
-0.029054397717118263
0.03994554281234741
-0.006490596570074558
0.04150746017694473
0.0407668873667717
-0.008502384647727013
0.017683856189250946
0.0378490649163723
-0.012675821781158447
-0.022257821634411812
0.04763057455420494
-0.01629113033413887
0.047077927738428116
-0.015529341995716095
-0.055687956511974335
0.06157368794083595
-0.003094103652983904
-0.04591601714491844
0.037806227803230286
-0.032434020191431046
-0.05309730023145676
0.02212507650256157
0.15075451135635376
0.0444294698536396
0.06000964343547821
0.30306562781333923
0.03274383395910263
0.0685289204120636
0.251836895942688
0.037028759717941284
0.017183817923069
-0.04934851825237274
-0.005722867790609598
0.04024030640721321
-0.05968591570854187
0.0069412062875926495
0.04005376249551773
-0.01630456931889057
0.026403872296214104
-0.01794930174946785
0.00024468827177770436
-0.01953219063580036
0.029983967542648315
0.03240194544196129
0.010421620681881905
0.014995453879237175
0.028612814843654633
-0.0010865776566788554
0.008598421700298786
0.04791393503546715
0.002590461168438196
-0.018004776909947395
0.009267053566873074
0.030274059623479843
-0.016090521588921547
0.018876099959015846
0.02228083461523056
-0.026892030611634254
-0.01559398416429758
-0.025678850710392
-0.006086471490561962
0.05041567236185074
0.00503461342304945
-0.020934464409947395
0.022083977237343788
-0.02749667502939701
-0.020571541041135788
0.021111346781253815
-0.012141970917582512
-0.004624517634510994
0.028277283534407616
0.01655811443924904
-0.03105320781469345
0.021621156483888626
0.007010438479483128
-0.020079556852579117
-0.006517147645354271
-0.02098422311246395
0.013620038516819477
0.01220785640180111
0.027949700132012367
0.01253610011190176
0.016988437622785568
0.1004016175866127
-0.035388536751270294
-0.03089042380452156
0.02687627635896206
-0.07912079244852066
-0.006236766930669546
0.04970857501029968
0.02062903717160225
0.04895922169089317
-0.04705193638801575
-0.04130236431956291
0.04408641532063484
0.03480205684900284
-0.09458871930837631
0.003865114413201809
0.014516472816467285
-0.1313970685005188
-0.005922119133174419
0.08634977042675018
-0.00670421589165926
-0.01363721489906311
-0.007955380715429783
-0.02909577079117298
-0.05475517734885216
0.02580801583826542
0.008131946437060833
0.0017482552211731672
0.02263634093105793
-0.015603866428136826
0.027235938236117363
0.012000394985079765
0.021096710115671158
-0.007692485116422176
0.012213793583214283
-0.023806897923350334
-0.024835998192429543
-0.023072296753525734
0.01718231476843357
-0.0042205392383039
-0.03144277259707451
0.009523726999759674
0.001972886035218835
-0.015629027038812637
-0.02147177793085575
0.0009388015605509281
-0.021028023213148117
0.01775701344013214
0.010174072347581387
-0.029767541214823723
-0.006557018496096134
0.019865036010742188
0.0011874993797391653
-0.02868671715259552
0.020172612741589546
0.032212380319833755
-0.02116316743195057
-0.013634111732244492
-0.005862890742719173
-0.03570694476366043
-0.027851512655615807
-0.025498894974589348
-0.04146460071206093
-0.041910070925951004
-0.04784230515360832
-0.01432195957750082
-0.030701685696840286
0.006544298026710749
-0.002971290610730648
0.00035162019776180387
0.005694250576198101
0.020115967839956284
0.04276106879115105
0.017630992457270622
-0.03954876959323883
-0.001359613612294197
-0.04591256007552147
0.027852589264512062
-0.008517962880432606
-0.006841767113655806
0.03836185112595558
0.02645084634423256
0.014140301384031773
-0.021038668230175972
0.0357498973608017
0.012957070954144001
0.0039494214579463005
0.027648011222481728
0.004616785794496536
0.001844204613007605
-0.0068955328315496445
0.0002191172243328765
-0.019239049404859543
0.010456097312271595
0.02358487993478775
-0.04252459481358528
0.0030871075578033924
0.007165221497416496
-0.023878155276179314
0.013885699212551117
-0.0057975673116743565
-0.06033995375037193
-0.11282091587781906
-0.023346710950136185
-0.02111143432557583
-0.17579352855682373
-0.05269264802336693
-0.06922091543674469
-0.13370107114315033
-0.05377722531557083
-0.023516375571489334
0.025135943666100502
0.00011341949721099809
0.03304769843816757
-0.011188444681465626
-0.06018397957086563
0.0048932768404483795
0.01628694124519825
-0.008563295006752014
0.018776539713144302
-0.14031091332435608
-0.006539136171340942
-0.04214969649910927
-0.33965498208999634
-0.08152946829795837
-0.030381914228200912
-0.24559088051319122
-0.03555828705430031
0.06521543115377426
-0.030062006786465645
-0.1311652809381485
-0.01058208104223013
0.010671677067875862
-0.09172418713569641
-0.05548814311623573
0.08037447929382324
0.03375357761979103
-0.043972231447696686
-0.010834499262273312
-0.024073021486401558
-0.008161676116287708
0.05335080623626709
0.00556383328512311
-0.008071971125900745
0.019549833610653877
-0.006661055143922567
0.03139288350939751
0.04158094897866249
0.013537432998418808
0.04312891513109207
0.013103191740810871
-0.026791449636220932
0.02610119991004467
0.03085579164326191
-0.0028375389520078897
-0.01910611055791378
-0.013720070943236351
-0.0030003078281879425
0.0426362082362175
0.014270961284637451
0.03890114650130272
0.017709461972117424
-0.01660376787185669
-0.004807906690984964
-0.03125734254717827
-0.02569808065891266
-0.03527427464723587
0.006084826309233904
0.002347934292629361
0.020309897139668465
-0.012107190676033497
-0.03696982562541962
0.009481207467615604
-0.01898232474923134
-0.011690758168697357
0.023784136399626732
-0.052613165229558945
0.0007404563948512077
0.024583319202065468
0.03625671565532684
0.043432850390672684
-0.039893243461847305
-0.03174704313278198
0.03919908031821251
0.01629052869975567
-0.00047998313675634563
0.08841796964406967
0.033912137150764465
-0.015655359253287315
-0.0009052019449882209
-0.04253023490309715
-0.016178777441382408
-0.004921546205878258
-0.02281997911632061
0.017726875841617584
-0.028203843161463737
-0.023992305621504784
0.015179084613919258
0.006009167991578579
-0.016701657325029373
-0.019759420305490494
0.04306682199239731
0.0008452040492556989
-0.04548121243715286
0.016941210255026817
0.0007145030540414155
-0.0034276877995580435
0.042343348264694214
0.029042450711131096
0.022606588900089264
0.017463508993387222
-0.024737313389778137
0.01764768920838833
-0.006535537540912628
-0.002277362160384655
-0.004182793200016022
0.012664133682847023
0.020483914762735367
-0.03073536977171898
-0.01756725087761879
-0.04044681414961815
-0.011869781650602818
-0.015159202739596367
-0.03207682818174362
-0.01628270000219345
0.02420830726623535
0.010274854488670826
0.0026467428542673588
0.006602194160223007
-0.006801010109484196
0.0008305309456773102
0.02200012467801571
-0.01648198626935482
0.005521188490092754
0.013357594609260559
-0.016484932973980904
-0.013998271897435188
-0.0195766631513834
-0.019994786009192467
-0.01991216465830803
-0.03283415362238884
0.0033312616869807243
0.021971844136714935
0.005753186997026205
0.003604602999985218
-0.061337828636169434
-0.01901143416762352
0.006463536061346531
-0.02935829386115074
0.026181234046816826
0.03969157859683037
-0.006434778217226267
0.009915502741932869
0.0007294096285477281
-0.024301588535308838
-0.0023197049740701914
-0.002778158523142338
-0.007279946468770504
-0.007137979846447706
0.011878258548676968
0.013197689317166805
-0.02695397101342678
0.0060485959984362125
0.003385067218914628
0.005134446080774069
-0.01143092755228281
0.00781918503344059
-0.03714168444275856
-0.006506914738565683
0.016341527923941612
0.0057850368320941925
-0.011823982000350952
0.01609807275235653
-0.003853799309581518
0.008483312092721462
0.014054156839847565
0.023308780044317245
-0.013367979787290096
-0.007329931948333979
0.01639646850526333
-0.008102554827928543
0.01686299964785576
-0.001782231847755611
0.0005332566215656698
0.0021717471536248922
0.010032637976109982
0.011442366987466812
-0.014027944765985012
0.005925560835748911
0.02024812065064907
0.012089841067790985
0.01219154056161642
0.01205566618591547
-0.01664171740412712
-0.021253831684589386
-0.0037727581802755594
0.0003357840178068727
-0.0006706412532366812
0.01902335323393345
-0.004693206399679184
-0.019938459619879723
0.0009562933119013906
-0.007537865079939365
-0.012357802130281925
-0.018371732905507088
0.00039811068563722074
-0.009980795904994011
-0.019326794892549515
0.007387354038655758
0.027690311893820763
0.02901265397667885
0.02332184836268425
0.0182527806609869
-0.01910153590142727
0.016578204929828644
0.012329744175076485
-0.004760073032230139
-0.10324360430240631
-0.2223881632089615
-0.17526833713054657
-0.06437872350215912
-0.08422524482011795
-0.07612963765859604
-0.0021512601524591446
0.2497549057006836
0.17455485463142395
-0.020333604887127876
0.014367030933499336
0.0027436220552772284
0.0015808866592124104
0.051346514374017715
-0.029145970940589905
-0.02377142757177353
0.02707960642874241
-0.03915427625179291
0.016341084614396095
0.034737277776002884
0.03433167189359665
0.009920782409608364
-0.004845870658755302
0.011949325911700726
0.021769201382994652
0.04099634289741516
0.02176264300942421
0.026489758864045143
-0.014230717904865742
-0.029056496918201447
0.009334539994597435
0.004097778350114822
-0.0079491650685668
0.01885869726538658
0.017385262995958328
-0.008162802085280418
-0.015245099551975727
0.023778235539793968
-0.013512622565031052
0.028851911425590515
0.03517770767211914
-0.03795457258820534
0.023285698145627975
0.058348897844552994
-0.009273280389606953
0.01831970550119877
0.028514588251709938
0.019757408648729324
0.030843691900372505
0.031001854687929153
0.01899191550910473
0.021478215232491493
0.02437874674797058
0.009061095304787159
-0.024621298536658287
-0.033813267946243286
-0.020268237218260765
-0.00026804947992786765
-0.029960645362734795
-0.01680745929479599
0.017009558156132698
-0.006453198846429586
0.0013451692648231983
-0.0026468904688954353
0.04537374526262283
0.0656060054898262
0.06209498271346092
9.844155283644795e-05
0.08496308326721191
-0.013943319208920002
-0.09054125100374222
-0.036176346242427826
0.01795266754925251
0.005926473531872034
0.022801700979471207
0.010020898655056953
-0.020083202049136162
-0.005390594247728586
0.010153298266232014
0.017431139945983887
-0.012951208278536797
0.023802267387509346
0.024903975427150726
-0.10022466629743576
0.1791560798883438
0.07783224433660507
-0.17415650188922882
0.07366182655096054
0.029435280710458755
-0.1483529657125473
-0.02296520583331585
0.01485864445567131
0.024523934349417686
0.028960224241018295
0.03628813475370407
0.04135372117161751
0.0006646129186265171
0.04111291095614433
0.04264020547270775
-0.025029784068465233
-0.029801130294799805
-0.018833979964256287
-0.010847902856767178
-0.004961480386555195
-0.027379019185900688
-0.0008315613376908004
-0.0032287181820720434
-0.004427389241755009
-0.035656530410051346
0.004602240864187479
0.015328392386436462
-0.0491870753467083
0.013584908097982407
0.011347183957695961
-0.04478468373417854
-0.0037067634984850883
-0.023335115984082222
0.058847375214099884
-0.01346475351601839
0.0002215886051999405
0.043034616857767105
-0.06058112904429436
-0.021806305274367332
0.03742421418428421
-0.021770145744085312
-0.0042414311319589615
0.03065214306116104
-0.005711302626878023
-0.02697603404521942
-0.021811468526721
0.0035867488477379084
-0.04131108149886131
-0.02538985200226307
0.008284999057650566
-0.007013055495917797
0.019482210278511047
-0.006009500939399004
0.01139021199196577
0.008729764260351658
-0.00841918308287859
0.02309931442141533
-0.013327518478035927
-0.011929764412343502
-0.020957348868250847
0.029302190989255905
-0.015256098471581936
0.024529321119189262
0.01750851236283779
-0.005002663936465979
0.015564787201583385
0.007972474209964275
-0.01772724650800228
-0.0008581058355048299
-0.06980434060096741
-0.05609555169939995
-0.10104456543922424
0.03724564611911774
0.09040370583534241
0.06395026296377182
0.03753674030303955
0.04714128375053406
0.04860960319638252
0.016535190865397453
-0.011839446611702442
-0.038408275693655014
-0.0053603737615048885
0.0071061537601053715
-0.010334134101867676
-0.0491153858602047
-0.0019521801732480526
0.024829883128404617
-0.0024674467276781797
-0.011878837831318378
-0.01268045138567686
0.0013889208203181624
-0.01387498527765274
0.021634412929415703
-0.000415063084801659
-0.0054308162070810795
0.0045310077257454395
0.00020514335483312607
-0.01439270842820406
0.018748372793197632
-0.005915525835007429
-0.0012692336458712816
0.0073961191810667515
-0.016402628272771835
-0.012202694080770016
0.025151481851935387
-0.09583531320095062
-0.07260578125715256
-0.03606969118118286
-0.08236119151115417
-0.05270057171583176
-0.013255810365080833
-0.02937612682580948
0.0021087767090648413
0.029159745201468468
-0.061328984797000885
-0.038540374487638474
0.019809043034911156
-0.07524396479129791
-0.017740005627274513
0.14378809928894043
-0.028633449226617813
-0.014369546435773373
0.12185166776180267
-0.020071160048246384
-0.012920760549604893
-0.01287599466741085
-0.001569508109241724
0.014873863197863102
0.008116081357002258
-0.0145920654758811
0.01765958033502102
0.028790920972824097
-0.018182331696152687
-0.0009148643584921956
0.005817795637995005
-0.032403070479631424
0.0020713936537504196
0.0035657885018736124
-0.026134518906474113
-0.07414393872022629
-0.03977374732494354
-0.0015873140655457973
0.004103036131709814
0.018732089549303055
0.0022764576133340597
0.014214878901839256
0.011171656660735607
-0.011711729690432549
0.009728134609758854
0.013065481558442116
0.01427539810538292
0.015200605615973473
0.056521691381931305
0.010455957613885403
0.011880505830049515
0.005096558015793562
-0.0010076062753796577
-0.01570277102291584
-0.022520292550325394
0.0070557789877057076
-0.006999579258263111
-0.001574944006279111
0.0013344638282433152
0.00591048551723361
0.0287128034979105
0.0051056817173957825
0.007174754049628973
0.03350254148244858
-0.011578002944588661
0.008800938725471497
0.0147453797981143
-0.0013084011152386665
0.008186531253159046
0.050976451486349106
-0.001511136768385768
0.060639310628175735
0.05863001197576523
0.017355287447571754
0.07112458348274231
0.04130120202898979
-0.025788893923163414
-0.011094383895397186
0.026534482836723328
-0.04877398535609245
-0.0733567327260971
-0.05447348579764366
0.005733202211558819
0.024651147425174713
-0.003706863382831216
-0.01713704690337181
0.0075881327502429485
-0.0029242068994790316
0.07418438047170639
0.07186919450759888
0.07079658657312393
-0.012836547568440437
-0.013598253019154072
0.02803659997880459
-0.00592449214309454
0.019585464149713516
-0.0033844097051769495
0.005887736100703478
0.01879742182791233
0.012227602303028107
-0.01985177956521511
-0.02440974861383438
-0.013109035789966583
0.019755039364099503
0.00015056485426612198
-0.010977497324347496
0.01679273135960102
0.0010948408162221313
-0.014323819428682327
0.016636552289128304
0.008995143696665764
-0.011617693118751049
0.0012283725664019585
0.027544071897864342
0.014840743504464626
0.00844515673816204
-0.00041698903078213334
0.0058071608655154705
0.0023673938121646643
-0.002911603543907404
-0.016971442848443985
0.03945138677954674
0.013203375041484833
-0.027170579880475998
0.03579599782824516
0.03314985707402229
0.01980740576982498
-0.007754577323794365
-0.01857735775411129
-0.06274458020925522
-0.03260344639420509
-0.06939391046762466
-0.09694990515708923
-0.07440116256475449
-0.09872335940599442
-0.11157244443893433
-0.010317422449588776
-0.05797619745135307
-0.05145468935370445
0.0012115109711885452
-0.00015605805674567819
0.013806595467031002
0.005107441451400518
0.019871225580573082
0.03664359450340271
-0.003920058254152536
0.0011695375433191657
0.031101398169994354
-0.015643367543816566
-0.016102755442261696
0.01278013177216053
0.0014158146223053336
0.0019971036817878485
0.04269111528992653
0.005247456952929497
-0.03872354328632355
-0.015935638919472694
0.0002957682008855045
-0.05343085154891014
-0.012268981896340847
0.004384780302643776
-0.027420038357377052
-0.011789602227509022
-0.1600363403558731
-0.12095879018306732
-0.10601421445608139
-0.1654256284236908
-0.013315274380147457
0.06558910757303238
-0.21169407665729523
-0.05529194325208664
0.028776446357369423
-0.10784879326820374
-0.002118202392011881
0.10884445160627365
-0.20848245918750763
-0.055543508380651474
0.2794826328754425
-0.12826256453990936
-0.07169602811336517
0.14575235545635223
0.011355298571288586
0.022483395412564278
0.018027765676379204
-0.01832635886967182
-0.01011553406715393
0.016925755888223648
-0.016114382073283195
0.02173294499516487
0.04469948634505272
-0.023736974224448204
-0.00678150774911046
-0.013827189803123474
-0.00954897329211235
-0.02644660882651806
0.017804952338337898
-0.011983532458543777
0.00829330924898386
0.03332173079252243
0.021121609956026077
0.02534232847392559
0.043037544935941696
0.025754259899258614
0.029521344229578972
0.023921776562929153
0.04519525542855263
-0.005082555115222931
0.026146991178393364
0.00532147753983736
0.05622498691082001
0.030770214274525642
0.0028364332392811775
0.010429324582219124
-0.0027584282215684652
-0.005780645180493593
-0.017465248703956604
-0.029262611642479897
0.019863924011588097
-0.004082022700458765
-0.012820488773286343
0.05952906236052513
-0.016063444316387177
-0.033069029450416565
0.05410394445061684
-0.014782831072807312
-0.06338667869567871
0.005028428044170141
0.004917923826724291
0.024614373221993446
-0.01104088593274355
0.019050903618335724
0.025572335347533226
-0.01717444509267807
0.010951428674161434
0.022196661680936813
-0.008166358806192875
-0.0371023491024971
-0.001025973935611546
-0.001307278056629002
0.017391717061400414
0.01615913212299347
0.0038516316562891006
-0.0036416209768503904
-0.013513613492250443
-0.11270339041948318
0.13613839447498322
0.040650125592947006
-0.016101080924272537
0.12544085085391998
0.09282663464546204
-0.16988536715507507
-0.2903689742088318
-0.23233191668987274
0.006679746322333813
-0.028325440362095833
-0.015479647554457188
0.039823535829782486
0.01310746744275093
0.01578209362924099
0.00459259981289506
-0.01307573914527893
0.018014585599303246
-0.006270556710660458
-0.014590161852538586
-0.042814359068870544
0.03346075117588043
-0.00486656604334712
-0.05517267435789108
0.023974865674972534
0.010065678507089615
-0.014804365113377571
0.0038031127769500017
0.00697218207642436
0.003185107372701168
0.028468087315559387
-0.007265163119882345
-0.006849510595202446
0.0011501475237309933
-0.007408134639263153
0.008119594305753708
-0.013564566150307655
-0.039059869945049286
0.0011575062526389956
-0.009604999795556068
-0.011097270995378494
0.0012977761216461658
0.04067741334438324
0.054639268666505814
0.02437969669699669
0.024111032485961914
-0.016130294650793076
-0.004532484337687492
0.0010318702552467585
-0.011442091315984726
-0.01643391139805317
0.002479631220921874
0.02261555939912796
0.0072887311689555645
0.00432317890226841
-0.006973568815737963
0.002824782393872738
0.003625117475166917
-0.008344214409589767
-0.014654180034995079
0.012400002218782902
0.03563249856233597
0.029869461432099342
0.01045755110681057
0.0012390543706715107
0.023031970486044884
-0.007263501174747944
-0.005361679941415787
0.03003537282347679
-0.011616048403084278
0.014979069121181965
0.013389742001891136
0.02092738263309002
0.004459046293050051
-0.02527705207467079
0.024651965126395226
0.004443182609975338
0.006533090025186539
-0.0021804876159876585
0.0008400027290917933
-0.01576603762805462
0.03187832236289978
-0.020495299249887466
-0.01885468140244484
-0.00838994700461626
0.11948098242282867
0.06288829445838928
-0.00771213136613369
-0.02966848388314247
-0.025952329859137535
0.001968827797099948
0.03733226656913757
0.06364234536886215
-0.006397180259227753
-0.03603021427989006
0.038086745887994766
-0.02464592456817627
-0.03955591842532158
-0.07787638157606125
0.01180291548371315
-0.002044464461505413
-0.0028617093339562416
0.03555489331483841
-0.006907548289746046
0.022492727264761925
0.0045180004090070724
-0.05139485374093056
-0.07313597947359085
-0.012738377787172794
-0.0101000452414155
-0.02891123667359352
0.023645805194973946
0.023497845977544785
-0.006381109356880188
-0.027046486735343933
-0.05132612958550453
-0.0787995457649231
-0.01993107981979847
-0.044133540242910385
-0.046353600919246674
0.03730253130197525
-0.021382825449109077
0.02354598045349121
0.025140268728137016
0.06799229979515076
0.16303199529647827
-0.0026167198084294796
0.016880743205547333
-0.01829707622528076
-0.0026864430401474237
0.03235814347863197
0.03659401088953018
-0.017771322280168533
-0.042238518595695496
0.011324519291520119
-0.006593603175133467
0.007937646470963955
-0.015068835578858852
0.041194453835487366
0.026232339441776276
0.028384322300553322
0.018293311819434166
0.03950557857751846
0.01637715846300125
-0.012170970439910889
0.0010116854682564735
-0.004404312931001186
-0.007684385869652033
0.05324981361627579
0.03203263133764267
-0.012692514806985855
0.016419799998402596
0.03765611723065376
0.028942612931132317
-0.026297159492969513
0.004430423956364393
0.030852021649479866
-0.049709491431713104
0.023325230926275253
0.021428938955068588
-0.015366587787866592
0.048206400126218796
-0.04634133726358414
-0.04489758238196373
-0.030687129124999046
0.018244242295622826
0.12433850020170212
0.08756574988365173
-0.015354607254266739
0.02729613333940506
0.029434293508529663
-0.0178923811763525
0.028111262246966362
0.024877842515707016
0.016091089695692062
0.03905465826392174
0.008036822080612183
0.03300659358501434
-0.07159863412380219
-0.12537746131420135
0.024008391425013542
-0.03506731986999512
-0.03988473117351532
0.019035354256629944
-0.006381731480360031
0.059139903634786606
0.028373897075653076
0.07192058861255646
0.1838870793581009
0.002019530162215233
0.07983311265707016
0.11916764825582504
0.003407757729291916
0.005956323351711035
-0.010512282140552998
-0.015518339350819588
-0.16446389257907867
-0.181089386343956
0.03723409026861191
0.06178602576255798
0.08807771652936935
0.03921598196029663
0.012593213468790054
-0.0481429323554039
-0.0720367580652237
-0.18492496013641357
-0.14733396470546722
-0.030460219830274582
0.004137649200856686
-0.046223584562540054
0.018320009112358093
0.044355977326631546
0.0675099566578865
-0.01023480761796236
0.02395537495613098
0.03322451934218407
0.00901401974260807
0.011942294426262379
-0.017246441915631294
0.009425650350749493
0.03126176446676254
0.024683654308319092
-0.012691430747509003
-0.049908168613910675
-0.05934632942080498
0.006528001744300127
-0.011353416368365288
-0.0036585971247404814
-0.023719199001789093
-0.022662678733468056
-0.016601495444774628
0.03171910345554352
0.03185366094112396
0.040636226534843445
-0.013064756989479065
0.007599047385156155
0.0371558740735054
0.027778949588537216
0.027544280514121056
0.021042905747890472
-0.01918390952050686
-0.047092124819755554
-0.06298644840717316
-0.013825608417391777
0.014435650780797005
0.006816999055445194
-0.01383880339562893
0.015684356912970543
0.02445421926677227
0.01463343109935522
-0.0037512294948101044
-0.004916685167700052
-0.038678575307130814
-0.042943134903907776
0.015622928738594055
-0.04307663068175316
-0.0358886681497097
-0.013297442346811295
-0.019738411530852318
0.006719794124364853
0.009966210462152958
0.00806785561144352
0.007767635863274336
-0.0016947461990639567
0.021084902808070183
0.013664696365594864
0.0048762415535748005
-0.014552466571331024
-0.025749677792191505
-0.03352957218885422
-0.012556317262351513
-0.038819145411252975
-0.0482364147901535
-0.019227033481001854
-0.04280957207083702
0.034141261130571365
0.06549197435379028
-0.022294169291853905
0.01812344416975975
-0.0012207955587655306
0.015742726624011993
0.02171890251338482
-0.0018895153189077973
-0.003425900125876069
-0.0446406789124012
0.007903656922280788
0.027835918590426445
0.001589737250469625
0.04103216901421547
-1.874352165032178e-05
-0.04833870753645897
0.03547891229391098
-0.03219239041209221
-0.03255530074238777
-0.01925015076994896
-0.0422077439725399
0.05194400995969772
0.0015524117043241858
-0.0013685105368494987
0.005422169808298349
0.02302706241607666
0.03362889587879181
0.02421022206544876
0.008521485142409801
0.020375901833176613
0.01939012110233307
-0.02108072116971016
-0.09769359976053238
-0.20449699461460114
-0.007839404977858067
-0.02343933843076229
0.15238356590270996
-0.07166394591331482
0.014798631891608238
0.14276982843875885
0.013998491689562798
0.016942251473665237
0.004659656900912523
0.002013825112953782
-0.022097982466220856
-0.005330424290150404
0.04868430271744728
-0.017132746055722237
0.0012324415147304535
-0.04984290897846222
-0.05099732056260109
0.06052118167281151
-0.03777863085269928
0.04027740657329559
-0.0172270555049181
-0.012771070003509521
0.020581074059009552
-0.03763040900230408
0.01615579053759575
0.03951564058661461
-0.004396994598209858
0.0032054781913757324
0.0077723972499370575
-0.043790124356746674
-0.012002653442323208
-0.012788831256330013
-0.04508057236671448
-0.03438594937324524
-0.047122541815042496
-0.034788403660058975
0.00769521901383996
0.03160303831100464
0.028626618906855583
0.009869341738522053
0.02283538319170475
-0.019611766561865807
0.04616430401802063
0.059258781373500824
0.08899310976266861
0.003980743698775768
-0.019879642874002457
-0.016412651166319847
-0.008084800094366074
-0.08473929762840271
-0.05788809061050415
0.028715752065181732
0.029666146263480186
0.022011084482073784
0.05486614257097244
-0.1348457783460617
-0.23054596781730652
0.008384542539715767
-0.024832893162965775
-0.02987736277282238
0.04076078534126282
-0.03145085275173187
-0.043280553072690964
-0.014866375364363194
-0.04015324264764786
0.057056576013565063
-0.007965833880007267
-0.03830399736762047
0.027091380208730698
-0.05776206776499748
-0.12742353975772858
-0.12080800533294678
-0.020226728171110153
0.010963594540953636
0.07194638252258301
0.0265677347779274
0.04428393021225929
0.08093000948429108
-0.005621290300041437
-0.015423954464495182
-0.010182013735175133
0.020793946459889412
0.01713983155786991
0.02688697725534439
-0.017978111281991005
-0.010469458997249603
-0.024952653795480728
-0.04518379643559456
-0.018733827397227287
0.04228019341826439
0.005495192017406225
0.011981532908976078
0.11967495828866959
0.035209376364946365
0.02636546641588211
0.0174227524548769
-0.035326436161994934
0.00561840645968914
-0.015620989724993706
0.008340507745742798
0.018337445333600044
-0.016920844092965126
0.009764721617102623
0.079182930290699
0.053351990878582
0.0011791468132287264
-0.036188092082738876
-0.046228520572185516
0.0022830490488559008
0.016000276431441307
0.024783948436379433
0.0001230817288160324
0.06526760011911392
0.06297340244054794
-0.07296591997146606
-0.1085095927119255
-0.06834761798381805
-0.06049514561891556
0.04515223950147629
0.06257359683513641
0.027043335139751434
0.15311184525489807
0.09053304046392441
0.012426508590579033
0.03530912846326828
0.03959264978766441
0.01072345208376646
0.06835883855819702
0.015375643037259579
0.0027531071100383997
0.030671510845422745
-0.01631227880716324
-0.01575274020433426
-0.0123869264498353
0.02525639533996582
-0.07992186397314072
-0.033094633370637894
0.05529290810227394
-0.012863368727266788
-0.09383524954319
-0.07878503203392029
-0.033145565539598465
-0.026725314557552338
-0.0011625158367678523
0.08022487163543701
0.08520803600549698
0.026098502799868584
0.03477425128221512
0.0041389805264770985
-0.04907634109258652
-0.03752276673913002
-0.04272980988025665
-0.009249531663954258
0.003011376364156604
0.00645733205601573
0.02571737766265869
0.016736837103962898
-0.008145681582391262
0.01475492026656866
0.007309332489967346
-0.05392623692750931
-0.03933440521359444
-0.006513560190796852
0.014463555999100208
0.0076862215064466
-0.0007132889586500823
0.025632483884692192
0.044346537441015244
0.02792743593454361
-0.005336001981049776
-0.06949064880609512
0.01766817644238472
-0.010608987882733345
0.016655225306749344
-0.0043109990656375885
0.10446945577859879
0.16836971044540405
0.0030315520707517862
-0.04196017608046532
0.056176260113716125
-0.01104153972119093
0.037765249609947205
-0.017606914043426514
-0.009804817847907543
0.06355316191911697
-0.06634320318698883
-0.017201490700244904
-0.011959275230765343
-0.0005915972287766635
0.01972176320850849
0.013982570730149746
-0.008580903522670269
0.006017168052494526
-0.013806595467031002
-0.06993572413921356
-0.011965880170464516
-0.023138437420129776
-0.02109590917825699
0.03919661045074463
-0.0038969276938587427
0.008552856743335724
-0.00039919285336509347
-0.03868764266371727
0.01879042759537697
-0.04344937205314636
-0.03450702130794525
-0.06286181509494781
-0.03986925259232521
0.04495697095990181
0.017234137281775475
-0.0810089185833931
-0.048253078013658524
-0.09256983548402786
-0.045228175818920135
-0.04928753152489662
-0.06493918597698212
0.014109019190073013
0.058354027569293976
0.09750869870185852
0.028309745714068413
-0.022959815338253975
-0.023738473653793335
-0.0006792785134166479
-0.021804997697472572
-0.009936511516571045
-0.03461451083421707
0.024940863251686096
0.04678312689065933
-0.03805971145629883
0.07352127879858017
0.11373423784971237
0.032857876271009445
0.06510844826698303
0.07224635034799576
0.037124719470739365
0.008034097962081432
0.013059902004897594
0.0229520034044981
-0.21427813172340393
-0.2927384078502655
0.01619837060570717
0.004617962054908276
0.008002514950931072
0.04962672293186188
-0.036144692450761795
-0.014677674509584904
0.0028342183213680983
-0.048695482313632965
-0.04215525463223457
-0.0064631071873009205
-0.010796968825161457
0.025187917053699493
-0.03274543955922127
-0.0005964110605418682
0.021405596286058426
-0.08031633496284485
0.0016020977636799216
0.025695160031318665
0.0420084223151207
-0.025432955473661423
0.030143413692712784
-0.0047775497660040855
0.0333104208111763
-0.006923964712768793
-0.03457445278763771
-0.01109767984598875
0.034378401935100555
-0.008770809508860111
-0.03589094802737236
-0.047712747007608414
-0.020851576700806618
0.029068881645798683
0.09307796508073807
-0.008262821473181248
-0.002991162706166506
-0.009891405701637268
-0.00126458122394979
0.01056444738060236
-0.019199751317501068
0.022226084023714066
0.002539286622777581
-0.03393087908625603
0.02889849804341793
0.04033210128545761
-0.004691098351031542
-0.012784004211425781
-0.04278292506933212
0.018025968223810196
-0.012695759534835815
0.04629958048462868
0.04999677464365959
-0.04825388640165329
0.010592282749712467
-0.014877479523420334
0.040219902992248535
-0.03446143493056297
-0.018713453784585
0.007140540983527899
-0.010128824971616268
-0.006124259904026985
0.004420063924044371
0.0225816797465086
0.013386916369199753
0.07838312536478043
0.07224038243293762
0.016713671386241913
0.06166050583124161
0.04284951835870743
0.08694339543581009
0.009882187470793724
-0.14811138808727264
-0.16766315698623657
0.03870362043380737
0.016868416219949722
0.009880950674414635
-0.03180084750056267
-0.08962024003267288
-0.07555877417325974
-0.05922441557049751
0.039390310645103455
0.13974271714687347
0.02417176589369774
-0.015833746641874313
-0.026599396020174026
-0.01797734573483467
-0.07212940603494644
-0.12392613291740417
0.053993239998817444
0.04491663724184036
-0.027939990162849426
-0.005826638545840979
0.014580215327441692
0.0016956423642113805
-0.002515380037948489
0.04570889100432396
-0.01950298622250557
0.0037730743642896414
-0.10457377135753632
-0.00814660545438528
0.07452765107154846
0.10142787545919418
0.021775713190436363
0.01152192335575819
0.04969993978738785
-0.0245945006608963
0.036614399403333664
-0.01657281629741192
-0.040192753076553345
-0.005543198902159929
-0.032407041639089584
0.04229723662137985
-0.04895167425274849
-0.03431049734354019
0.024904781952500343
-0.029993047937750816
0.02442682720720768
0.0493045412003994
0.014317155815660954
-0.06691554933786392
-0.0006503030308522284
-0.10306357592344284
-0.06038261950016022
-0.057058703154325485
-0.005123071372509003
-0.01766047067940235
0.06812512129545212
0.03323376178741455
-0.021014096215367317
-0.008158359676599503
0.034190207719802856
-0.054947514086961746
-0.021636351943016052
-0.006202671676874161
-0.052583735436201096
-0.002417136449366808
0.007048051338642836
-0.09788637608289719
-0.03691282868385315
-0.06454789638519287
-0.13085328042507172
0.0002060392580460757
-0.009535485878586769
0.041362013667821884
0.06658269464969635
-0.00888284295797348
0.09324435889720917
0.0617133267223835
-0.04239592328667641
-0.1405787318944931
-0.05011533945798874
0.03075048141181469
-0.08370429277420044
0.025429490953683853
0.027110781520605087
-0.004106069914996624
0.058187663555145264
0.044336408376693726
-0.05414675548672676
0.028326625004410744
-0.0035219769924879074
-0.10073226690292358
0.012188144028186798
0.003943451214581728
-0.03714299574494362
0.014559625647962093
-0.04547462612390518
0.05063703656196594
0.03573949635028839
-0.028153816238045692
0.023891998454928398
-0.04047008231282234
-0.0038535823114216328
-0.012351971119642258
0.02699236012995243
-0.0044026183895766735
-0.0727919414639473
0.050333209335803986
0.013360354118049145
-0.06355855613946915
0.004737806972116232
-0.027013935148715973
-0.002653111470863223
-0.03984232619404793
0.009565001353621483
0.059096306562423706
-0.07499092072248459
0.00043484606430865824
-0.023498866707086563
0.0012782015837728977
-0.0268100593239069
0.03212170675396919
0.045609328895807266
-0.0059580812230706215
-0.018460039049386978
0.03669750690460205
-0.0163516066968441
-0.007237089332193136
0.0072942255064845085
-0.03729294613003731
-0.0478878878057003
-0.018452182412147522
0.033542755991220474
0.10675216466188431
-0.08130067586898804
0.0015501210000365973
-0.0069292872212827206
-0.16049709916114807
0.00895826704800129
0.05696752294898033
0.04611293226480484
0.04199012368917465
-0.003685825737193227
-0.0001709031785139814
-0.04421462491154671
-0.029999878257513046
0.009235107339918613
-0.0542854405939579
-0.07227271795272827
-0.04327339306473732
0.036802276968955994
0.04425199702382088
-0.03396033123135567
0.02507154271006584
0.043198805302381516
-0.036625511944293976
-0.08971194922924042
0.02818201296031475
-0.04167507216334343
0.019524341449141502
0.036351922899484634
-0.13708525896072388
0.032857250422239304
0.023120827972888947
-0.14273543655872345
-0.045815352350473404
0.014688225463032722
-0.019988272339105606
