0.02594677172601223
-0.10457562655210495
-0.004771237261593342
-0.08622317016124725
-0.3302076756954193
-0.10275264829397202
-0.057425711303949356
-0.1907445639371872
-0.05464622750878334
-0.01695125550031662
0.021384423598647118
-0.0021074244286864996
-0.0032983061391860247
0.045014072209596634
-0.011510264128446579
-0.0596018023788929
0.0064941695891320705
0.0029080016538500786
-0.004490267019718885
0.01963699422776699
0.013167247176170349
0.01304996944963932
-0.007747112773358822
0.011931427754461765
0.013453660532832146
0.011102818883955479
0.0055145397782325745
0.03230902552604675
-0.0675714984536171
-0.051169514656066895
0.013791542500257492
-0.1624533236026764
-0.07548501342535019
-0.004250013269484043
-0.10202656686306
-0.04992100968956947
0.01534088235348463
-0.0033151390962302685
-0.004473610315471888
0.011785607784986496
0.016991691663861275
-0.007155374623835087
0.0049520996399223804
0.023377805948257446
0.004131535533815622
0.06539563089609146
0.06473004072904587
0.07820641994476318
0.08064556866884232
0.06094055995345116
0.09296534210443497
0.0795430988073349
0.0680227130651474
0.08163347095251083
0.017409194260835648
0.02078375779092312
0.015576663427054882
0.031053660437464714
-0.03689873591065407
-0.012189043685793877
-0.01060720719397068
-0.009801887907087803
-0.008107177913188934
-0.010165676474571228
0.016308708116412163
-0.019346415996551514
-0.026709837839007378
-0.01364027988165617
-0.029851684346795082
0.021451381966471672
0.01678798906505108
-0.0018518330762162805
0.03920070827007294
0.047961510717868805
0.07149238139390945
0.023302540183067322
0.0540032759308815
0.0508669912815094
0.07167183607816696
0.06069666147232056
0.037253156304359436
0.0452779121696949
0.05135144293308258
0.038184087723493576
0.026603588834404945
0.028714261949062347
0.02353699877858162
0.029834724962711334
0.05307143181562424
0.04635881632566452
0.010077246464788914
0.021080944687128067
0.003966037649661303
-0.007862992584705353
0.05592977628111839
0.03159502148628235
0.0028883961495012045
-0.005660532973706722
0.015411678701639175
0.03792605921626091
0.04048706591129303
0.04575652256608009
-0.01494694221764803
-0.0017260489985346794
0.026661425828933716
0.025568939745426178
0.04350005090236664
0.04583128169178963
-0.055556703358888626
-0.026279697194695473
-0.02636304311454296
-0.013710209168493748
0.026429027318954468
0.02630235068500042
-0.026854347437620163
-0.10168611258268356
-0.027454780414700508
-0.030532658100128174
-0.0175792146474123
0.0027514121029525995
-0.023043381050229073
-0.03032674454152584
0.02716575376689434
0.0026426201220601797
0.0047585563734173775
0.014625893905758858
0.015169844962656498
0.021607307717204094
0.038440778851509094
0.028433194383978844
-0.002320127794519067
0.02162965200841427
0.024635298177599907
0.0013202497502788901
0.02375933714210987
-0.00833604484796524
0.004467044956982136
0.007679833099246025
0.023763760924339294
0.014174564741551876
-0.002130157547071576
0.002338208956643939
0.0009442202281206846
0.02259036898612976
-0.023647472262382507
-0.03150808438658714
-0.01260934118181467
-0.0012349558528512716
0.026590265333652496
0.00985361821949482
-0.022986631840467453
0.01768254116177559
-0.00860231276601553
0.023614777252078056
-0.009019259363412857
0.0078431386500597
0.011660667136311531
-0.014232358895242214
0.00432574050500989
0.052822187542915344
0.025368401780724525
0.03660222515463829
-0.006332635413855314
0.006641760468482971
-0.001043305266648531
0.010676302947103977
0.03383864834904671
0.031232845038175583
0.00034881624742411077
-0.007446630857884884
0.004321551416069269
0.025241101160645485
0.046731892973184586
0.052205126732587814
0.06818557530641556
0.03860316798090935
0.020488739013671875
0.024250995367765427
0.0027627600356936455
0.027422014623880386
-0.04280947521328926
-0.023275893181562424
-0.030007261782884598
-0.039103683084249496
-0.017005961388349533
-0.00988223310559988
-0.04978712275624275
-0.03515972942113876
-0.005630563013255596
0.026281189173460007
0.00994934979826212
0.0073537034913897514
0.021605990827083588
-0.014602436684072018
-0.01808365061879158
0.02808140031993389
-0.014172898605465889
0.0063053881749510765
0.03730398416519165
0.0325448177754879
0.057129308581352234
0.005169927608221769
0.004402943421155214
0.04134811460971832
0.04186869040131569
0.024847395718097687
0.038178637623786926
0.0009997521992772818
-0.00824003666639328
-0.008845143020153046
-0.008764134719967842
0.016059858724474907
-0.004344866145402193
0.014478543773293495
0.0006423096638172865
0.0013643824495375156
-0.0003621396026574075
-0.0004760024603456259
-0.00393311120569706
0.002858087420463562
0.014061220921576023
0.016690440475940704
0.016240261495113373
-0.007251700386404991
0.00363587005995214
0.03217190131545067
0.004864789079874754
0.008971399627625942
0.0021830438636243343
-0.009868711233139038
-0.021576283499598503
0.01553421188145876
2.5724330043885857e-05
-0.00024055491667240858
-0.021286610513925552
-0.01719055511057377
-0.028881395235657692
0.018056506291031837
0.024448134005069733
0.03162005916237831
-0.030699823051691055
0.004141137469559908
0.015048056840896606
3.332659252919257e-05
0.01041490864008665
0.03263118118047714
-0.026598330587148666
-0.027827832847833633
-0.008215252310037613
-0.02808353491127491
-0.012586274184286594
-0.0016880949260666966
-0.034512776881456375
0.029528075829148293
0.001135191647335887
-0.017695283517241478
-0.011814949102699757
0.0006402274593710899
-0.005596074275672436
0.022294510155916214
-0.017537502571940422
-0.05197516456246376
-0.044922251254320145
-0.027276689186692238
-0.01257125474512577
0.006194600835442543
0.01618783362209797
-0.015740297734737396
-0.0008478076779283583
0.032137904316186905
0.010980471037328243
-0.008346978574991226
0.010612101294100285
-0.004582799039781094
-0.019568156450986862
-0.016535159200429916
0.012500029057264328
-0.0011339474003762007
0.008775557391345501
0.08113806694746017
0.07046027481555939
0.06548978388309479
0.04554405435919762
0.057316869497299194
0.07492406666278839
0.035518255084753036
0.0961105078458786
0.12024615705013275
-0.014051494188606739
-0.011594954878091812
-0.006747335195541382
0.00822691060602665
0.02001749537885189
0.016538327559828758
-2.697121090022847e-05
-0.004443268291652203
-0.003244286635890603
0.013706283643841743
-0.04512845724821091
-0.02871306985616684
-0.019471531733870506
-0.1089843213558197
-0.07210861146450043
0.02840881422162056
-0.02381729893386364
-0.025910571217536926
0.003923401702195406
0.015198341570794582
0.03475885093212128
0.023537039756774902
0.010322516784071922
0.032354217022657394
0.01068819034844637
0.0037557233590632677
0.030215077102184296
-0.10183762013912201
-0.16171802580356598
-0.11705345660448074
-0.14264139533042908
-0.21481509506702423
-0.16564707458019257
-0.08679971843957901
-0.15063078701496124
-0.12445852905511856
-0.019239412620663643
0.05283021181821823
0.02556488662958145
0.018108921125531197
0.0500982441008091
0.02628295309841633
0.051488831639289856
0.06921407580375671
0.03943905234336853
-0.043382998555898666
-0.005822090432047844
0.0022245822474360466
0.008424595929682255
0.04100942239165306
0.011170031502842903
0.014334503561258316
0.015777776017785072
-0.034221649169921875
0.032783739268779755
-0.002778857946395874
0.0007493331213481724
0.008688362315297127
-0.030294492840766907
-0.04485202580690384
0.036618735641241074
0.0019368642242625356
-0.030050260946154594
0.009197655133903027
-0.009342003613710403
0.01766805350780487
0.001465215696953237
-0.04696730151772499
-0.015559198334813118
0.0042624706402421
-0.00854350533336401
-0.012674848549067974
-0.010250646620988846
0.006926568690687418
0.01404383685439825
-0.011118927039206028
-0.0027932387311011553
-0.008599190041422844
0.0007580154342576861
-0.0021153134293854237
-0.011032518930733204
-0.051829904317855835
-0.01748589798808098
-0.03097507916390896
-0.01437427382916212
-0.03610694780945778
-0.03852923959493637
-0.048219937831163406
-0.04804426431655884
-0.07120271027088165
0.04739053547382355
0.06007460877299309
0.002759229624643922
0.013863942585885525
0.02129155769944191
0.010775316506624222
-0.008376619778573513
0.03410623222589493
0.010640078224241734
-0.02823505736887455
-0.056607261300086975
-0.045227017253637314
-0.0688401460647583
-0.11226017773151398
-0.09314913302659988
0.0031775077804923058
-0.027610786259174347
-0.028165366500616074
-0.07139530032873154
-0.09915569424629211
-0.04263937473297119
-0.10436606407165527
-0.124992236495018
-0.0755879208445549
-0.07672803103923798
-0.10690776258707047
-0.057355523109436035
-0.05322493612766266
-0.03420621529221535
-0.03219958394765854
-0.02468368597328663
0.03775997459888458
-0.01546343695372343
-0.021259669214487076
0.0227521900087595
-0.04580847918987274
-0.02106510102748871
-0.047011472284793854
-0.01871402934193611
0.024958357214927673
-0.03088565357029438
0.005049260798841715
0.03323442488908768
0.03705766052007675
0.04835940897464752
-0.011392684653401375
0.0026774981524795294
-0.04948405548930168
0.0297263003885746
0.08000431954860687
0.011532535776495934
0.002036480000242591
0.06206250563263893
0.010716733522713184
0.03644488751888275
-0.02331014908850193
-0.00969476718455553
-0.021870244294404984
-0.08154706656932831
-0.0496261790394783
-0.009355675429105759
-0.05341774970293045
-0.013001005165278912
-0.017203833907842636
0.021410690620541573
-0.008398386649787426
0.008073696866631508
0.09076602011919022
0.0296202152967453
-0.04017151892185211
-0.017316972836852074
-0.016183190047740936
0.017782602459192276
0.02159810997545719
0.048352766782045364
0.005770317278802395
0.02120140567421913
0.012595076113939285
-0.013191151432693005
0.045102328062057495
0.046205323189496994
0.08298537135124207
0.07859055697917938
0.08626420795917511
0.0593668669462204
0.05583708733320236
0.06645052134990692
0.0850549265742302
0.08755392581224442
0.0984584167599678
0.08710644394159317
0.04552937299013138
0.03600669652223587
0.08935707062482834
0.07469271868467331
0.06228490546345711
0.0748005285859108
0.05812177062034607
0.0729781836271286
0.0021660341881215572
-0.03387016803026199
-0.035414572805166245
0.02647743560373783
0.0032143492717295885
0.006376540753990412
-0.020356593653559685
-0.03741278871893883
-0.010873397812247276
0.03405243530869484
0.04168733209371567
-0.025070171803236008
0.027125975117087364
0.04026283323764801
0.03720549866557121
0.00019337632693350315
0.02970067784190178
0.017964743077754974
0.005875532981008291
-0.006835382431745529
0.012974416837096214
-0.017548175528645515
-0.022603081539273262
-0.014887061901390553
-2.5283869035774842e-05
-0.015322362072765827
0.011799398809671402
-0.03461229428648949
-0.03396390751004219
-0.03370236977934837
0.010834936983883381
0.020264282822608948
-0.017825476825237274
0.00450070109218359
0.01389487273991108
-0.015770483762025833
0.023366842418909073
-0.041537098586559296
0.009091819636523724
-0.02479790337383747
-0.10895179212093353
-0.06639538705348969
0.050405118614435196
0.005258438643068075
0.007564174477010965
0.039877139031887054
0.06864865869283676
0.017912093549966812
0.03300907462835312
0.011298569850623608
0.056401289999485016
-0.0006006463663652539
-0.010846137069165707
0.04382938891649246
0.00832932349294424
0.006386542227119207
0.011221593245863914
-0.004992498084902763
-0.011459416709840298
-0.00674634100869298
0.0035342981573194265
-0.02095600590109825
-0.000648707034997642
-0.02282223291695118
0.03492547944188118
0.013115541078150272
0.025966545566916466
0.011522511951625347
0.11126212030649185
0.0322796106338501
0.04544907435774803
0.06244698166847229
0.0012705645058304071
-0.00774378702044487
0.020753387361764908
-0.040023934096097946
-0.04038267210125923
-0.03482095152139664
-0.02025129273533821
-0.009516390971839428
0.013954396359622478
-0.0023430429864674807
0.03230283036828041
-0.004334155470132828
0.00861938577145338
0.010552661493420601
0.001807366730645299
-0.012760343961417675
-0.010231681168079376
0.004571142140775919
0.0153017183765769
0.021361052989959717
-0.007090784143656492
-0.014220615848898888
0.04597901552915573
0.02136932499706745
0.03131233900785446
0.06642840057611465
0.02146472968161106
0.05342192202806473
0.040515441447496414
0.00966800469905138
0.032884228974580765
-0.023474065586924553
0.03464154526591301
-0.012861286289989948
0.050066426396369934
0.05457916110754013
0.028764210641384125
0.04343140497803688
0.02825768291950226
0.02873404137790203
-0.03545902669429779
-0.05278842896223068
-0.05511860176920891
-0.07181262224912643
-0.08297047764062881
0.09529250860214233
0.12549057602882385
-0.0640014186501503
-0.0411655567586422
-0.0009048000210896134
0.051386624574661255
-0.11310719698667526
-0.07982266694307327
0.1437257081270218
0.025601336732506752
0.011318604461848736
0.028131235390901566
0.008060997352004051
-0.034095995128154755
-0.00612589530646801
-0.011137993074953556
0.012659559957683086
0.06113891676068306
0.009978034533560276
0.03773164376616478
0.026990920305252075
0.008947832509875298
0.04094989597797394
0.03032221831381321
-0.011920028366148472
-0.0012589406687766314
-0.007335122209042311
0.022739030420780182
0.0007045202073641121
-0.01656588912010193
0.0008688513189554214
-0.00479696923866868
0.005866834428161383
-0.051002513617277145
-0.018530521541833878
0.0008092732168734074
-0.022795621305704117
0.008500860072672367
-0.021288692951202393
0.016328725963830948
0.0304466113448143
0.03192790970206261
0.0280563123524189
0.06008689105510712
0.002671243157237768
0.005855823867022991
0.06542063504457474
0.05475730821490288
-0.007566467393189669
-0.0001718177809379995
0.0059906006790697575
-0.005510369781404734
-0.021105069667100906
-0.03559663146734238
-0.0011264038039371371
0.06806016713380814
0.06249023601412773
-0.05458284541964531
0.0033619331661611795
-0.007426401600241661
-0.06104911491274834
-0.048191048204898834
-0.04732302948832512
-0.04406938701868057
-0.06259677559137344
-0.06435514986515045
-0.08933136612176895
-0.11379021406173706
-0.10572880506515503
-0.03987319394946098
-0.05034472420811653
-0.03572959080338478
0.005135982763022184
0.012932877987623215
0.03805488348007202
-0.021512486040592194
-0.02014809660613537
-0.013049514964222908
-0.006129035726189613
-0.06635164469480515
-0.06346828490495682
-0.025765853002667427
-0.012190572917461395
-0.0034897089935839176
-0.04561058059334755
-0.009655850939452648
0.007741361390799284
-0.025571558624505997
0.018377911299467087
0.024197721853852272
0.0011692580301314592
0.044540248811244965
-0.001747336471453309
0.032957080751657486
0.07646526396274567
0.00026999186957255006
0.03248744457960129
-0.04155817627906799
-0.03664502501487732
0.007795846089720726
-0.01464033406227827
-0.00428972952067852
-0.005167281720787287
-0.021380146965384483
-0.020498303696513176
0.020372651517391205
-0.0007920991629362106
-0.017295928671956062
-0.011247290298342705
0.0039035880472511053
-0.012075050733983517
-0.004728088155388832
-0.032121505588293076
-0.03811722248792648
0.0005332313594408333
-0.0014999721897765994
-0.006243744399398565
-0.02900496870279312
-0.015583761967718601
-0.017530465498566628
-0.008150879293680191
-0.022527066990733147
-0.024571068584918976
-0.03808985650539398
0.004287185147404671
0.02357618138194084
-0.020049234852194786
-0.07400235533714294
-0.04985538870096207
0.002415560418739915
0.032535865902900696
0.05375390872359276
-0.041608020663261414
-0.028908997774124146
-0.014566762372851372
0.009147435426712036
-0.01768227107822895
-0.0009110156679525971
0.0005037754308432341
0.008104532025754452
0.0038446502294391394
0.00037542200880125165
0.011476184241473675
-0.009874962270259857
-0.014964692294597626
0.015758680179715157
0.04428287222981453
0.020936626940965652
0.03280166909098625
0.04555467143654823
0.0481925792992115
0.04445187374949455
0.0317874513566494
0.00961738545447588
-0.0014161817962303758
0.007221410050988197
0.04115339741110802
-0.021613776683807373
-0.043304622173309326
0.031174875795841217
-0.016761716455221176
0.03950153663754463
0.026060430333018303
0.04071933403611183
0.01377689465880394
-0.00016803096514195204
-0.003082909155637026
0.00348328216932714
-0.01802358590066433
-0.025039510801434517
-0.015764249488711357
0.03187410160899162
0.04070967808365822
0.02353702299296856
0.010525998659431934
0.04514572024345398
0.006547227967530489
-0.01720432937145233
0.00419005798175931
-0.0010077955666929483
-0.007811365649104118
0.011537667363882065
-0.002493208274245262
0.01886620745062828
0.00346490484662354
-0.008438196033239365
-0.014755855314433575
-0.0161090437322855
-0.020643919706344604
0.015170888043940067
0.04930286481976509
0.05609573423862457
-0.03001471981406212
-0.009285887703299522
-0.006332414224743843
-0.05100570619106293
-0.06969089806079865
-0.03989080339670181
-0.03826877474784851
-0.0022955613676458597
0.013690506108105183
-0.005154895130544901
0.004651987459510565
0.019514404237270355
-0.004187624901533127
-0.034615639597177505
-0.021148117259144783
0.014908471144735813
0.03522564470767975
0.03160872310400009
-0.029876703396439552
-0.015141273848712444
-0.00780100654810667
-0.021992431953549385
-0.03322887793183327
-0.011710787191987038
-0.06488074362277985
-0.03641803190112114
-0.028156926855444908
-0.013686353340744972
-0.01181991770863533
-0.020918546244502068
0.019524548202753067
0.0360015332698822
0.04391242563724518
0.04914717748761177
0.0428679995238781
-0.0035724372137337923
0.0402417853474617
0.05697096511721611
0.0005139491404406726
-0.02623005025088787
0.01395667064934969
0.010816125199198723
0.002095804549753666
0.00659332238137722
-0.02793264389038086
-0.021859994158148766
-0.06745365262031555
-0.08853386342525482
-0.03780289366841316
-0.0047734202817082405
-0.08543086051940918
-0.005770623683929443
-0.04063822701573372
-0.041614141315221786
0.06358179450035095
0.019369050860404968
0.020244043320417404
0.04809806868433952
0.014717764221131802
0.03088425286114216
0.010375170037150383
0.01222990918904543
0.013752862811088562
-0.01596328616142273
-0.00553782656788826
0.015615389682352543
-0.03335202485322952
-0.028282541781663895
-0.009735122323036194
0.012403281405568123
-0.0677897185087204
-0.0519917756319046
-0.022934213280677795
-0.10082312673330307
-0.03144737705588341
0.016599485650658607
-0.015637103468179703
0.014777973294258118
-0.009782922454178333
-0.003143532667309046
0.015838734805583954
0.004362077452242374
0.011698258109390736
0.009783448651432991
0.01202725525945425
0.018129872158169746
0.017036721110343933
0.023704497143626213
-0.010437756776809692
0.013567757792770863
0.025039251893758774
-0.017665227875113487
0.0005290987901389599
0.009937475435435772
0.011865245178341866
0.011463446542620659
-0.0029602451249957085
0.025724630802869797
0.021052516996860504
0.005627712234854698
0.005293534602969885
-0.00039980781730264425
-0.036525651812553406
-0.039716918021440506
-0.03879348933696747
0.01869077794253826
0.010159921832382679
0.026290982961654663
0.01906130276620388
0.025988468900322914
0.031681228429079056
0.008665783330798149
0.02697540447115898
0.040052250027656555
-0.02363746240735054
-0.040596313774585724
-0.005471237003803253
-0.04887861758470535
-0.10172145068645477
-0.048003874719142914
-0.0025817258283495903
0.012555909343063831
0.01988733373582363
-0.06093735992908478
-0.04404856264591217
-0.05016101151704788
-0.048243600875139236
0.006883725523948669
0.00010370402014814317
-0.02317138761281967
-0.077295683324337
-0.026342008262872696
0.0005160850705578923
0.01833629049360752
-0.0007493547163903713
0.012264257296919823
0.037027861922979355
0.02989751286804676
-0.01948506198823452
-0.004410859197378159
-0.0010662946151569486
0.01588371954858303
-0.013730624690651894
-0.024128079414367676
0.005527416709810495
-0.031246956437826157
-0.047145627439022064
-0.011055517010390759
-0.04749419912695885
-0.039338596165180206
0.07010813057422638
0.10803333669900894
0.05213679373264313
-0.015469524078071117
0.007897264324128628
-0.02562694624066353
0.06833674758672714
0.12144425511360168
0.07810024917125702
0.0196152962744236
0.007921074517071247
-0.014265143312513828
0.0245294738560915
0.014860650524497032
-0.0033868812024593353
0.028087381273508072
0.04551102966070175
0.02523902803659439
0.0044653285294771194
-0.022853001952171326
-0.031196027994155884
-0.013989471830427647
-0.055455610156059265
-0.001606566016562283
0.015335083939135075
0.013759370893239975
0.043823886662721634
-0.006499124225229025
-0.06161331385374069
-0.0063915615901350975
-0.07385113835334778
-0.12117470055818558
-0.05914245545864105
-0.01737954281270504
-0.01301954872906208
0.0018393854843452573
-0.020332487300038338
-0.026918180286884308
-0.0389288067817688
0.035346802324056625
0.03683121129870415
0.02580980584025383
0.045680660754442215
0.0558212585747242
0.039743922650814056
0.01213813852518797
0.024090752005577087
0.0024135776329785585
-0.0009399864939041436
0.0551983080804348
0.03237386792898178
-0.011826391331851482
-0.04562170431017876
-0.01315799355506897
-0.02669179067015648
-0.06882327049970627
-0.027881480753421783
0.00425123143941164
-0.06451035290956497
-0.036582522094249725
-0.004363918676972389
0.03369748592376709
0.026836000382900238
-0.010957937687635422
0.004440871067345142
0.002065693261101842
0.011119336821138859
-0.016078494489192963
-0.00721040740609169
0.025394126772880554
0.031236151233315468
0.03402676805853844
0.053295738995075226
0.03108564391732216
0.02382616512477398
-0.0054898615926504135
-0.040350887924432755
-0.016459809616208076
0.04230296239256859
0.03955313190817833
0.04233693331480026
-0.03211579844355583
-0.05333622917532921
0.004646511748433113
0.00956677831709385
0.033497631549835205
0.002211575396358967
0.02124488726258278
0.025745341554284096
0.0023926682770252228
-0.015317484736442566
0.0013507474213838577
0.01428106240928173
-0.04027261212468147
-0.03681989759206772
-0.0386565700173378
-0.007028805557638407
0.02253294549882412
-0.008095255121588707
0.004493561573326588
-0.003909351769834757
-0.010917751118540764
0.014547917991876602
0.05074102431535721
0.020198453217744827
-0.0057799313217401505
-0.001802947954274714
0.009961698204278946
-0.02178652212023735
-0.03282548859715462
-0.020105311647057533
-0.00461420277133584
-0.031544700264930725
-0.03627977892756462
0.018080491572618484
-0.002314624609425664
-0.013535645790398121
0.019529566168785095
0.006131840404123068
-0.01388654112815857
0.04031102731823921
0.05756217613816261
0.023101678118109703
0.012712785974144936
0.024243831634521484
-0.0018232017755508423
-0.009449591860175133
0.030663084238767624
0.022630827501416206
0.017552707344293594
0.06747137755155563
0.0674072802066803
0.019473794847726822
-0.027610091492533684
-0.03928667679429054
-0.03320944681763649
-0.041458457708358765
-0.02969321608543396
-0.021753527224063873
-0.006752158980816603
-0.018722426146268845
-0.02631017193198204
-0.02365916408598423
-0.013655250892043114
-0.0031763091683387756
0.0025485577061772346
-0.014743072912096977
0.01316502969712019
0.026925304904580116
0.023564660921692848
0.00104246917180717
0.002115498064085841
0.016627976670861244
-0.02135349065065384
0.003705932991579175
0.002311015035957098
-0.01967693865299225
0.012039927765727043
-0.009702346287667751
-0.07245432585477829
-0.03421119973063469
-0.06554228067398071
-0.008486351929605007
0.0041717784479260445
-0.0063763512298464775
-0.014233873225748539
-0.007378091104328632
-0.03661317750811577
-0.03314114362001419
0.02560579404234886
0.019634371623396873
0.014923902228474617
0.00445735827088356
-0.017535336315631866
0.042312975972890854
0.029160989448428154
-0.005155452061444521
-0.0012947006616741419
-0.011446346528828144
-0.02610613778233528
0.029483826830983162
0.017793763428926468
0.0020840102806687355
-0.020015133544802666
-0.06576909869909286
-0.03963726758956909
0.014352239668369293
0.061497025191783905
0.05904492735862732
-0.007692362647503614
0.020647138357162476
0.019520888105034828
-0.006735189352184534
0.00012601417256519198
0.004830917809158564
-0.006240487098693848
-0.009211939759552479
-0.00025805801851674914
-0.026153305545449257
-0.0246412456035614
0.04097038507461548
-0.01916404440999031
-0.010159863159060478
0.03316317871212959
0.005420038942247629
0.0009048537467606366
0.0006779900868423283
0.007776158861815929
0.02644701860845089
0.06365006417036057
-0.030607767403125763
0.024958575144410133
0.01295140478760004
-0.02093791402876377
-0.007734194397926331
-0.03879038617014885
0.010892567224800587
-0.01440937165170908
0.0157304797321558
0.016654808074235916
0.04453529044985771
0.06321170181035995
0.03412093222141266
0.07313530147075653
0.05920347198843956
0.002319520805031061
0.007759774569422007
0.020307976752519608
0.02045743726193905
0.04002908244729042
0.03474408760666847
-0.04735594242811203
-0.03728577867150307
0.014542247168719769
-0.022741535678505898
-0.018999746069312096
-0.008431660011410713
-0.0009875887772068381
0.021510053426027298
0.006395899225026369
-0.009455837309360504
0.0026832567527890205
-0.031135786324739456
0.015379475429654121
0.011802399531006813
-0.025616126134991646
0.0014024883275851607
0.04750332236289978
0.03587954863905907
0.0034350797068327665
0.07432371377944946
0.08668415248394012
-0.026903798803687096
-0.0016679035034030676
-0.01572582684457302
-0.0041542924009263515
0.06925615668296814
0.03293745964765549
-0.02596023678779602
0.04728636145591736
0.018168164417147636
-0.03164496272802353
-0.017806941643357277
-0.019870633259415627
0.010533148422837257
0.034158363938331604
0.030464816838502884
0.03273402526974678
0.06584004312753677
0.017460258677601814
-0.01452332641929388
-0.01981324702501297
0.00012617601896636188
0.017805922776460648
0.04497820883989334
0.022019842639565468
0.03179705888032913
0.02475716918706894
0.03937884047627449
-0.014319839887320995
-0.00018575067224446684
-0.04202776029706001
-0.01617581769824028
0.048876721411943436
0.043766289949417114
-0.04034056514501572
0.022662358358502388
0.010892089456319809
0.004103838000446558
-0.020574191585183144
-0.04511747881770134
-0.009700166061520576
-0.010420522652566433
-0.04947197437286377
-0.016648830845952034
-0.002526983618736267
-0.0239744670689106
-0.016426805406808853
-0.007372558116912842
0.004192438907921314
-0.01455827709287405
0.015187114477157593
0.017741398885846138
-0.02399701438844204
0.007460511289536953
0.0070353043265640736
0.042900796979665756
0.015436092391610146
-0.01785818114876747
0.057478517293930054
0.051738191395998
0.0183135773986578
-0.007149111945182085
0.02706487476825714
0.018082356080412865
-0.037523120641708374
-0.0348593108355999
-0.031685877591371536
-0.04293154925107956
-0.018757499754428864
0.01284132432192564
-0.01971745863556862
0.000964217004366219
0.020149962976574898
0.023154374212026596
0.05422348156571388
0.0466284342110157
0.003663729876279831
0.05921706557273865
0.0723203718662262
0.022954599931836128
0.04635434225201607
0.06688281148672104
-0.028424134477972984
0.02776939980685711
0.02212800458073616
-0.0523499920964241
0.02006499655544758
0.05504497140645981
-0.0457708016037941
-0.0049507636576890945
0.0004285889444872737
-0.0028747664764523506
0.027269771322607994
-0.004682318773120642
-0.01331926230341196
0.03871216997504234
0.002391682704910636
0.020147278904914856
0.07173856347799301
0.014148241840302944
-0.004613061901181936
-0.00027285018586553633
-0.0005695404252037406
0.0021167397499084473
0.052360352128744125
0.030557850375771523
-0.005080201663076878
0.027938388288021088
0.007963210344314575
-0.004091174807399511
0.002966685686260462
-0.027026167139410973
0.011197684332728386
0.045480307191610336
0.03545327112078667
-0.004774874541908503
0.024696320295333862
0.03147082030773163
0.00884044449776411
0.010461285710334778
-0.022665677592158318
0.018992528319358826
0.03625160828232765
0.007468733005225658
0.003722421359270811
0.015570295974612236
-0.004318990744650364
-0.015293069183826447
0.0017833318561315536
-0.011830277740955353
-0.023197606205940247
0.008972393348813057
0.003519102232530713
-0.02319752611219883
-0.008202147670090199
-0.0027212132699787617
0.019364604726433754
0.026524772867560387
-0.004837049636989832
-0.0012624170631170273
0.01995917595922947
0.027640769258141518
-0.006030224729329348
0.03642173111438751
0.056733861565589905
-0.010210935957729816
0.006377690937370062
0.007766810245811939
-0.019463691860437393
0.012631099671125412
0.015152827836573124
-0.036907073110342026
0.0019047081004828215
0.0012735857162624598
-0.01647789403796196
0.015811212360858917
0.020792508497834206
-0.005394360516220331
0.03171592950820923
0.058714766055345535
-0.006630901712924242
0.018209554255008698
0.046868741512298584
-0.009454038925468922
0.008645274676382542
0.036227282136678696
0.0026195505633950233
0.05736662074923515
0.0881793424487114
-0.0060719083994627
0.04910004884004593
0.04502083733677864
0.005804035812616348
0.0003507297078613192
0.008615118451416492
0.012899724766612053
0.01542769093066454
0.0178670734167099
9.761493856785819e-05
0.00045773625606670976
-0.0016720807179808617
0.009710409678518772
0.011235992424190044
0.0013737145345658064
0.008461316116154194
0.015988215804100037
0.006654303055256605
0.004135549999773502
0.004198567476123571
-0.010311778634786606
0.00792668480426073
-0.002246956340968609
-0.013947800733149052
-0.01178946066647768
-0.006077009718865156
-0.0060088150203228
-0.020491303876042366
-0.014635520987212658
-0.01651722379028797
0.012073817662894726
0.05227990075945854
0.03739344701170921
0.03470171242952347
0.06724072992801666
0.03153904154896736
0.03896430879831314
0.0383392795920372
0.018904076889157295
-0.05430961027741432
-0.04441230371594429
-0.04978824406862259
-0.01642533950507641
0.015707045793533325
0.025976067408919334
0.030372189357876778
0.06069522351026535
0.03120877593755722
-0.0031466055661439896
-0.002375843236222863
0.016414858400821686
-0.0012933382531628013
0.023457283154129982
0.04641726613044739
-0.052512891590595245
0.0021333107724785805
0.029154499992728233
0.0220605731010437
0.031064042821526527
0.02655445598065853
0.0246939267963171
0.03823743760585785
0.02643010765314102
0.032625921070575714
0.04354872554540634
0.01956808939576149
0.007952138781547546
0.02111935243010521
0.02822221629321575
0.00401989696547389
0.022619308903813362
0.019812533631920815
-0.0022327592596411705
0.010160918347537518
0.0171661376953125
-0.011730988509953022
-0.01804378814995289
-0.02774500474333763
-0.013916164636611938
0.009260459803044796
0.018318455666303635
0.016526419669389725
0.05922652408480644
0.051629725843667984
0.0033481104765087366
-0.001855127396993339
-0.01078385952860117
-0.0038214982487261295
-0.0019323553424328566
-0.0022243980783969164
-0.021956853568553925
-0.021016020327806473
-0.028883103281259537
-0.08563155680894852
-0.0704934373497963
-0.05678397789597511
-0.05916513875126839
0.003806090448051691
0.008011248894035816
-0.03777031973004341
0.04582491144537926
0.0357595719397068
-0.03331468999385834
0.00375056779012084
0.03309150040149689
0.00471128523349762
0.04092647507786751
0.04055128991603851
0.007054703775793314
0.03053567185997963
0.03376716747879982
-0.020435756072402
0.001425136812031269
-0.04091256856918335
0.009026012383401394
0.047887686640024185
0.01567930541932583
0.004593666177242994
0.04734639823436737
0.027323270216584206
0.006487241480499506
-0.007624573539942503
-0.012706694193184376
0.037163712084293365
0.036799799650907516
0.05133550986647606
0.003453669836744666
0.033738430589437485
0.024849941954016685
0.02725215256214142
0.0324188731610775
0.00336949503980577
0.0005742147332057357
0.027302680537104607
0.028762806206941605
-0.013871247880160809
0.028893504291772842
0.022240107879042625
-0.058441467583179474
-0.01216470543295145
-0.022898107767105103
-0.01883227936923504
0.05160181596875191
0.023174500092864037
-0.015356546267867088
0.047477591782808304
0.028733041137456894
-0.021719546988606453
-0.012002026662230492
-0.016819972544908524
-0.017404882237315178
0.0028155799955129623
0.01070666965097189
-0.004121101461350918
0.048373233526945114
0.06443729251623154
0.01060314942151308
0.027508610859513283
-0.004361181985586882
0.029515530914068222
0.060644906014204025
0.02062821015715599
0.013115125708281994
0.009027963504195213
-0.007989185862243176
-0.0035659114364534616
-0.011278345249593258
-0.014871099032461643
0.001497178920544684
0.022318631410598755
0.04056850075721741
-0.01012130081653595
0.04504312202334404
0.062206968665122986
0.04460364952683449
0.029908809810876846
0.012052143923938274
0.06719385832548141
0.04652884230017662
-0.03781530633568764
0.03894747421145439
0.03436097875237465
-0.06787408888339996
0.042636893689632416
0.047292351722717285
0.023430170491337776
0.07838522642850876
0.06709064543247223
0.01586703024804592
0.030509889125823975
0.023315032944083214
-0.006260011810809374
-0.027053631842136383
-0.030533036217093468
-0.043102629482746124
0.005745759699493647
0.007811384275555611
-0.014030699618160725
-0.0208902508020401
-0.020103106275200844
-0.037756070494651794
0.0019644382409751415
0.053655561059713364
0.002247402910143137
0.023878829553723335
0.06627454608678818
0.01833926886320114
0.039265651255846024
0.09194111824035645
0.0011331227142363787
-0.0594460591673851
-0.03706548735499382
-0.044539302587509155
-0.014149267226457596
0.014780748635530472
0.02090703323483467
0.013966023921966553
0.05827075242996216
0.07768397778272629
0.02368777059018612
0.02986649051308632
0.02294275537133217
0.023297855630517006
0.0501333512365818
0.027593977749347687
0.01766892522573471
0.0420079305768013
0.009702119044959545
-0.019690902903676033
-0.01332373358309269
-0.023533543571829796
0.002142255660146475
0.04132409766316414
0.037676870822906494
-0.0068800621666014194
0.031008388847112656
0.031214667484164238
-0.00876526813954115
0.01328166015446186
-0.00201570731587708
-0.0020573355723172426
0.02258782461285591
0.013567338697612286
0.029952598735690117
0.04821352660655975
0.059363823384046555
-0.0723225325345993
0.012090515345335007
-0.01861114799976349
-0.019254734739661217
0.03797057643532753
0.002681444399058819
-0.030638929456472397
0.016554683446884155
0.02772394008934498
-0.054855529218912125
-0.06670641154050827
-0.06973572820425034
-0.046707384288311005
-0.0632590726017952
-0.06253525614738464
-0.013416740112006664
-0.02286550961434841
-0.026447858661413193
0.04576302692294121
0.029399830847978592
0.002917676465585828
0.028431057929992676
0.06068498641252518
0.017521154135465622
0.014679457992315292
0.04021966829895973
0.013769968412816525
-0.03193451464176178
-0.0034470725804567337
-0.008402906358242035
-0.013232264667749405
0.033393241465091705
0.045728836208581924
0.0005995609099045396
0.047461576759815216
0.04284382238984108
-0.03675399720668793
-0.027277281507849693
-0.008804704062640667
0.009153216145932674
0.03913533687591553
0.04082230105996132
-0.003012274159118533
0.029756203293800354
0.0344131700694561
-0.024409839883446693
0.001003862009383738
0.010987397283315659
0.030404791235923767
0.06231624260544777
0.04767492786049843
0.013535905629396439
0.033741991966962814
0.017828024923801422
-0.039514996111392975
-0.03609880432486534
-0.04175099357962608
-0.04762345552444458
-0.03409012034535408
-0.05172716826200485
-0.03533918038010597
-0.025149675086140633
-0.0456698015332222
-0.02447916381061077
0.011409278959035873
0.025268150493502617
-0.018629079684615135
0.0308383796364069
0.028146356344223022
-0.06429029256105423
-0.023457255214452744
-0.026034777984023094
-0.033938437700271606
-0.01273401454091072
0.02670847810804844
-0.04115000739693642
0.022015618160367012
0.028595682233572006
0.012510719709098339
0.045521438121795654
0.009106472134590149
-0.018852917477488518
-0.021872539073228836
-0.03296753391623497
-0.010289816185832024
-0.006117549724876881
-0.016537178307771683
-0.030841533094644547
-0.036108095198869705
-0.035340581089258194
0.061391524970531464
0.05210978910326958
0.025704363361001015
0.040095869451761246
0.0202319398522377
-0.03252168744802475
-0.01602249965071678
-0.0062378449365496635
-0.004072246607393026
-0.007578727323561907
-0.01605622097849846
-0.0006420394056476653
-0.005510382354259491
0.014251766726374626
0.045000117272138596
-0.009279950521886349
0.022351251915097237
0.04172760993242264
0.025705037638545036
0.048207346349954605
0.07914500683546066
-0.004435049369931221
0.003887244500219822
0.04169421270489693
0.0008053628844209015
-0.010601197369396687
0.009270641952753067
-0.033892493695020676
0.00935431756079197
0.04174572601914406
-0.01646977849304676
0.0039541954174637794
0.06243845820426941
-0.031055288389325142
-0.0036301584914326668
0.07081727683544159
0.02076409012079239
-0.06391902267932892
-0.007611662615090609
0.041233982890844345
-0.013334042392671108
-0.040986478328704834
0.04880059137940407
0.05918772518634796
-0.049831707030534744
0.006456871051341295
0.018994640558958054
0.017091000452637672
0.2055017650127411
-0.06550363451242447
-0.20653799176216125
0.022907594218850136
-0.029711730778217316
-0.01898619905114174
0.0018662340007722378
-0.03211935609579086
0.025081733241677284
-0.022609515115618706
0.05854840949177742
0.013727758079767227
-0.007783144246786833
0.006566343363374472
0.0017451861640438437
-0.00956366490572691
0.0012147766537964344
-0.022037627175450325
-0.03851497545838356
0.013823234476149082
0.0301560889929533
-0.029452338814735413
-0.013357331044971943
0.0143735371530056
0.03905366361141205
-0.0002356987097300589
0.03930556774139404
-1.6719714039936662e-05
-0.10789612680673599
-0.016040297225117683
0.027469512075185776
-0.049270231276750565
-0.0123435752466321
0.04394654557108879
-0.02483302168548107
0.028708787634968758
0.03730682656168938
-0.02672399766743183
0.010833770968019962
0.00852186232805252
0.010851100087165833
0.05945006012916565
0.06593949347734451
-0.03847614303231239
0.018094122409820557
0.07253877073526382
-0.02278570644557476
-0.030546536669135094
0.054478250443935394
-0.004967567045241594
-0.06848586350679398
0.03962641954421997
-0.018517615273594856
-0.009365561418235302
0.11495641618967056
0.07683095335960388
0.023571593686938286
0.04925647750496864
0.011068521998822689
0.041962575167417526
-0.03702949732542038
-0.034335363656282425
-0.04510682821273804
-0.024360347539186478
0.05124083533883095
0.00017598866543266922
-0.018923070281744003
0.036783162504434586
-0.0007999569643288851
-0.018613291904330254
0.053222205489873886
0.10769124329090118
-0.04875049367547035
-0.013648735359311104
0.1103779673576355
0.023315340280532837
-0.019124789163470268
-0.001209444715641439
0.028625983744859695
-0.05348625406622887
0.052020564675331116
-0.03181930258870125
0.04631591960787773
0.16491365432739258
0.08231654018163681
0.02100156620144844
-0.06256169825792313
0.05154791474342346
0.06896545737981796
-0.012993902899324894
0.006780095864087343
0.08527059108018875
0.09060528874397278
-0.055746834725141525
0.0012849236372858286
-0.029091227799654007
0.008869451470673084
-0.03999677672982216
0.010920352302491665
0.013165569864213467
0.01171689759939909
0.05394937843084335
-0.03810463473200798
-0.03514115512371063
0.02251628041267395
-0.016224214807152748
-0.08726697415113449
-0.024115122854709625
-0.222282275557518
-0.22941705584526062
0.02441388927400112
-0.055510327219963074
-0.13214868307113647
-0.045347295701503754
-0.03426166996359825
-0.012674775905907154
0.05689891427755356
-0.09838169068098068
-0.12987999618053436
0.0036806855350732803
-0.045614901930093765
-0.037048596888780594
0.020607272163033485
0.027700863778591156
0.0005890178144909441
-0.009887993335723877
0.030630575492978096
0.013417198322713375
0.0018798781093209982
-0.0012968595838174224
0.016894856467843056
-0.024418475106358528
-0.021631646901369095
-0.016531724482774734
0.025964677333831787
0.027455924078822136
0.009739446453750134
0.015187746845185757
0.006510747596621513
0.012021699920296669
0.01313389465212822
-0.008490895852446556
-0.02361595816910267
0.009228108450770378
-0.04816572368144989
0.013328952714800835
0.042268503457307816
-0.02132546342909336
0.024822484701871872
-0.0037441144231706858
0.0004131221503484994
-0.012117897160351276
-0.003998634405434132
0.019287187606096268
0.002871179487556219
-0.006776671856641769
0.000540106906555593
0.009040400385856628
0.003125541377812624
-0.04779735580086708
0.025237657129764557
-0.006641844287514687
-0.0001163900742540136
-0.02781664952635765
-0.004942481406033039
0.04690682515501976
-0.012598945759236813
-0.04386049881577492
0.006726488471031189
-0.014066189527511597
0.0430121123790741
0.15361693501472473
0.20715855062007904
0.06501366943120956
0.06771711260080338
0.08124586939811707
0.05718294158577919
-0.07046298682689667
-0.005785320419818163
-0.013643580488860607
-0.1035366877913475
0.06540589034557343
0.06712476909160614
-0.030498351901769638
0.08202282339334488
0.03902062773704529
0.02075660601258278
0.013379553332924843
-0.04215804114937782
0.17765481770038605
0.2182784080505371
-0.008535063825547695
0.08066589385271072
0.08813338726758957
-0.04826333746314049
0.005386901553720236
0.0017920201644301414
-0.03377298638224602
-0.07027539610862732
0.062432918697595596
0.04507846385240555
0.0053209830075502396
-0.01795939914882183
-0.012992314994335175
-0.028180396184325218
-0.048141803592443466
-0.014622986316680908
-0.10688208788633347
-0.0012322175316512585
0.0858270674943924
-0.07317458838224411
0.02477300353348255
0.03898799791932106
0.02474028989672661
0.026211434975266457
0.019456634297966957
-0.043706197291612625
0.07569458335638046
0.047089532017707825
-0.011700206436216831
0.02970215119421482
-6.579188629984856e-05
-0.022084960713982582
-0.0442364439368248
0.00829898752272129
-0.0013447768287733197
-0.020448867231607437
0.001074132858775556
0.032701581716537476
0.024335220456123352
-0.026730738580226898
0.0198515672236681
0.008010094054043293
-0.01858821138739586
0.0061064353212714195
-0.031363584101200104
-0.009514346718788147
0.00933915190398693
-0.010816003195941448
-0.014543494209647179
-0.013126320205628872
-0.014986792579293251
-0.034362852573394775
0.046404674649238586
-0.0024805681314319372
0.003178700339049101
-0.011140812188386917
-0.004542636219412088
-0.015988711267709732
0.03037836216390133
0.04374947026371956
-0.0337565653026104
0.047363389283418655
0.03683188930153847
-0.07438589632511139
0.000648645160254091
0.012578683905303478
-0.07827772945165634
-0.01043461263179779
0.01571865938603878
-0.022946089506149292
0.06005028262734413
0.04119998961687088
-0.04830896854400635
0.02667601965367794
0.02659449726343155
-0.025335075333714485
0.06480774283409119
-0.025449344888329506
-0.003221794730052352
0.04987633228302002
0.06220492720603943
0.006353132426738739
-0.02304890565574169
0.011219583451747894
-0.04304436966776848
-0.015017767436802387
-0.032559532672166824
-0.002867584815248847
-0.06832048296928406
0.009814554825425148
0.029671184718608856
-0.04323139786720276
0.020548172295093536
0.02073715813457966
0.03642282262444496
0.01594059355556965
0.00567969586700201
0.01579919643700123
0.012677145190536976
0.00833993311971426
0.02632215991616249
-0.025607222691178322
-0.012208450585603714
0.01651681400835514
-0.06412564963102341
0.039311476051807404
-0.12178974598646164
-0.2201698124408722
-0.023335911333560944
-0.04751654714345932
-0.1091097891330719
0.039796147495508194
0.0157733503729105
-0.03238030523061752
-0.06966933608055115
-0.05103946104645729
0.011595813557505608
0.016028353944420815
-0.01482863537967205
0.013788810931146145
-0.0056288414634764194
0.029770927503705025
-0.0516243651509285
-0.045216213911771774
-0.0026819342747330666
0.04563046991825104
0.020946882665157318
-0.028749264776706696
0.008731414563953876
0.022867891937494278
-0.016197850927710533
-0.015583991073071957
-0.0039049263577908278
0.014978274703025818
-0.02950402721762657
0.012547928839921951
0.03024669736623764
-0.012399540282785892
-0.03203769773244858
0.01778409630060196
0.033273063600063324
0.04938710853457451
0.06666038185358047
-0.0001622574927750975
-0.0025930963456630707
-0.005251932889223099
-0.04243869706988335
-0.03535156697034836
-0.009406150318682194
0.03938454017043114
0.052679967135190964
-0.060830410569906235
0.020482616499066353
0.03878087177872658
0.00396792171522975
0.029526375234127045
-0.009616119787096977
0.026105990633368492
-0.0178663432598114
0.030187983065843582
-0.007656493689864874
-0.024715250357985497
0.04550804942846298
0.00010604361887089908
0.014698533341288567
-0.00778131652623415
0.06612763553857803
1.4929668395780027e-05
0.01969347521662712
0.04321504011750221
-0.00025045688380487263
0.041807107627391815
0.026906661689281464
-0.01417227927595377
0.017447929829359055
-0.09304295480251312
0.04601111263036728
0.0706232488155365
0.14645487070083618
-0.1095629632472992
-0.07562798261642456
0.02447030134499073
-0.017624041065573692
-0.025966480374336243
-0.007800952531397343
0.021279875189065933
-0.016276102513074875
-0.00199766643345356
0.0732637271285057
0.004040332045406103
-0.042866162955760956
0.047601621598005295
0.01488308236002922
0.027902310714125633
0.047096893191337585
0.012024716474115849
0.07050950825214386
0.050111014395952225
-0.026396743953227997
0.0339016430079937
0.01689205691218376
-0.02797275222837925
-0.025315003469586372
-0.02558210678398609
-0.02508903667330742
0.016995446756482124
-0.0332806222140789
0.0675588846206665
0.01886056549847126
-0.011299896985292435
0.002556564286351204
0.0442235954105854
-0.04200737923383713
-0.06521882116794586
0.030980749055743217
-0.0015159844188019633
-0.0016616379143670201
-0.011435014195740223
0.007277072872966528
-0.006814624648541212
0.023078300058841705
-0.021609805524349213
0.05889851972460747
0.13590838015079498
-0.04270036891102791
-0.037574563175439835
0.06831303983926773
-0.03444095328450203
-0.0276094451546669
-0.03884931653738022
-0.015206664800643921
0.022893471643328667
0.05730267986655235
-0.03137875348329544
-0.032359909266233444
0.05258148908615112
0.00694203982129693
-1.4854517758067232e-05
0.05584095045924187
0.06707719713449478
0.06739215552806854
-0.19982704520225525
0.05416930466890335
0.2019921839237213
-0.05860508605837822
0.022249527275562286
0.034583061933517456
0.030637066811323166
-0.09791626781225204
0.0017074975185096264
-0.044095754623413086
-0.16004972159862518
-0.01646069809794426
0.0029475244227796793
-0.073414646089077
0.016246680170297623
-0.009049697779119015
-0.028279049322009087
-0.03406151756644249
-0.046769700944423676
-0.007345130201429129
0.04353909566998482
-0.044804736971855164
-0.036477647721767426
0.025575878098607063
0.019324079155921936
-0.030159154906868935
-0.0025060963816940784
-0.019913317635655403
0.0728335753083229
0.05871833115816116
-0.014319483190774918
-0.010260509327054024
0.0007531727897003293
0.03570113331079483
0.09146858751773834
0.053527358919382095
-0.01070047914981842
0.10132888704538345
0.04925941303372383
-0.038861025124788284
0.024093085899949074
0.01002440508455038
-0.003836590563878417
-0.02641271986067295
0.0038458530325442553
-0.0007581849349662662
-0.009848269633948803
0.03371928259730339
0.04235566034913063
0.010290952399373055
0.008147476240992546
-0.06890379637479782
-0.06152646243572235
-0.021057575941085815
-0.12291703373193741
0.033510029315948486
0.045956119894981384
-0.048508334904909134
-0.00368982064537704
0.014215231873095036
-0.0025802510790526867
-0.051762655377388
-0.018469300121068954
0.02606227993965149
-0.06657595932483673
-0.013720884919166565
0.015320922248065472
-0.0355357863008976
-0.04042566567659378
-0.01297725923359394
-0.034958645701408386
0.002368241548538208
-0.03127171844244003
-0.0013959950301796198
0.04974889010190964
0.007344705052673817
0.04427225887775421
0.06830139458179474
0.005153418052941561
0.007073122076690197
0.008171501569449902
-0.013406791724264622
-0.008538054302334785
0.04410584643483162
-0.01787150464951992
-0.009311707690358162
0.028526144102215767
0.0008382074884139001
0.0023316119331866503
0.03312080353498459
-0.061089519411325455
0.032726775854825974
0.07199248671531677
-0.03365420922636986
0.01877453736960888
0.03216850757598877
-0.05353570356965065
-0.049085985869169235
-0.026433518156409264
0.05332627519965172
0.13493631780147552
-0.08145566284656525
0.008051635697484016
-0.047815728932619095
0.006070639006793499
-5.451852484839037e-05
-0.02841148152947426
0.0264564398676157
-0.006953470874577761
-0.11665713787078857
-0.007416225504130125
0.031156815588474274
-0.06811358779668808
-0.002977649914100766
0.015570457093417645
0.001439312007278204
-0.01183133851736784
-0.04604502394795418
-0.06386404484510422
-0.0521666444838047
-0.09619572758674622
-0.08773332089185715
-0.04083738103508949
-0.03166496381163597
0.0004338702710811049
-0.019079133868217468
-0.12427102029323578
0.0621664896607399
0.07744994014501572
-0.08260676264762878
0.026914726942777634
0.011943358927965164
-0.06325338780879974
-0.052961889654397964
-0.06736475229263306
0.02512773871421814
0.0908617302775383
0.014738607220351696
0.025471622124314308
0.08041928708553314
0.00568750174716115
0.050831686705350876
0.02909383550286293
0.04883506894111633
0.010786687955260277
-0.020011240616440773
0.005612764973193407
0.02234298177063465
-0.0250091515481472
0.026708073914051056
-0.003582968842238188
-0.012600528076291084
-0.024399755522608757
0.0061505502089858055
0.01046412717550993
-0.029741447418928146
-0.007970954291522503
0.020583242177963257
-0.010548189282417297
-0.07192129641771317
-0.055684156715869904
-0.043068040162324905
-0.05063226819038391
0.060138218104839325
0.07084517180919647
-0.009917821735143661
0.08709419518709183
0.09260871261358261
0.00876520574092865
0.005761319771409035
0.007638005074113607
0.016404561698436737
0.06869134306907654
0.06870833039283752
-0.00013183603005018085
0.05154036357998848
0.03589937090873718
0.017486589029431343
0.05433357506990433
-0.022988099604845047
0.025812018662691116
0.08439093083143234
0.016037659719586372
-0.015955356881022453
0.005105155520141125
-0.01958860456943512
-0.051627617329359055
-0.030114812776446342
-0.04520595073699951
0.006744446232914925
0.0523245707154274
0.02541280724108219
-0.011811431497335434
-0.019740717485547066
-0.016434334218502045
-0.004673277959227562
0.008428433910012245
0.006250700447708368
-0.0182248093187809
0.004757510498166084
-0.020144378766417503
-0.0529768280684948
-0.03376347944140434
-0.06641332805156708
0.007088684011250734
0.05262000858783722
0.049397263675928116
-0.01746266707777977
0.05674668028950691
0.05404180660843849
-0.04872604086995125
-0.008832631632685661
-0.0008829176076687872
-0.016624605283141136
-0.03848647698760033
-0.056211840361356735
0.03614484891295433
0.0554647296667099
0.04523755609989166
0.018965590745210648
0.0203994233161211
0.03969589248299599
0.0067999837920069695
0.01995471678674221
0.0018069986253976822
-0.004868114832788706
0.005018249619752169
0.015440608374774456
-0.028378471732139587
-0.017981640994548798
-0.03573450818657875
0.0025456412695348263
0.028048543259501457
-0.007967138662934303
0.00101541168987751
0.04146173596382141
-0.008074293844401836
-0.0023790281265974045
0.021834734827280045
-0.026597121730446815
-0.031539686024188995
0.0754188820719719
0.053963128477334976
-0.04899081960320473
0.01605120860040188
0.029926836490631104
-0.037863340228796005
-0.04109276831150055
-0.03137640282511711
0.008596289902925491
-0.025161651894450188
-0.0639059841632843
-0.003539741039276123
-0.016474369913339615
-0.063120037317276
-0.00015568417438771576
-0.013492779806256294
-0.04570706561207771
0.03480203449726105
0.008447389118373394
0.002883162582293153
0.04105455055832863
0.07103220373392105
0.05804085358977318
0.028407542034983635
0.04535072296857834
0.023829402402043343
0.013504376634955406
-0.03844671696424484
-0.044323522597551346
-0.027598844841122627
-0.06325102597475052
-0.0749770998954773
-0.0070698317140340805
-0.03763894364237785
-0.033453378826379776
-0.0010649177711457014
0.0019339186837896705
-0.034236256033182144
-0.01151890680193901
-0.0016295879613608122
-0.03764025866985321
-0.005920656491070986
-0.01144096814095974
-0.047296371310949326
0.007008655928075314
0.002751433989033103
-0.005406153853982687
0.011155317537486553
0.0033143614418804646
-0.011454438790678978
-0.0050081550143659115
-0.01365426555275917
-0.022759731858968735
0.01080472394824028
-0.013830388896167278
0.007059765979647636
-0.007142065092921257
-0.04462847858667374
-0.005116653628647327
0.04933469370007515
0.003338990267366171
0.014921755529940128
0.024877648800611496
0.010044698603451252
-0.021049965173006058
-0.007805515080690384
0.03923510015010834
0.053904227912425995
-0.03173385560512543
0.03847504034638405
0.041481707245111465
0.0029270558152347803
0.009303049184381962
-0.003278881311416626
-0.011506184935569763
0.0035073119215667248
-0.0013348853681236506
-0.01861625909805298
-0.010938875377178192
0.002250167541205883
-0.023190071806311607
0.010880210436880589
-0.003483368083834648
0.0006037720595486462
0.06520334631204605
0.04144151136279106
-0.039247844368219376
0.01459737028926611
-0.015540558844804764
0.004307321738451719
0.034540656954050064
0.0282235499471426
0.040272388607263565
0.08695241063833237
0.06948589533567429
0.003014365676790476
0.034304533153772354
0.0185418538749218
0.0040624430403113365
-0.028988158330321312
-0.022339964285492897
0.026608044281601906
0.003282159799709916
0.005551507230848074
0.02347615547478199
-0.0005990061908960342
0.005235419142991304
0.027742905542254448
0.005721587687730789
0.008518705144524574
0.041110605001449585
0.01163798663765192
0.005235923919826746
0.010128515772521496
-0.010432560928165913
-0.008792818523943424
-0.03553570806980133
-0.045434627681970596
-0.029696306213736534
-0.026785263791680336
-0.031154468655586243
-0.020096519961953163
-0.0324149914085865
-0.02739383652806282
-0.02491997741162777
-0.05424022674560547
-0.06948890537023544
-0.033926449716091156
-0.04852595552802086
-0.03206431865692139
-0.020192906260490417
-0.040743667632341385
-0.03443425893783569
-0.002701222663745284
0.004347406327724457
0.05378836393356323
-0.0009956202702596784
0.05535024404525757
0.13709771633148193
0.05060207098722458
0.0053536370396614075
0.0677410364151001
0.011228394694626331
0.02293558232486248
-0.010891460813581944
-0.002350263297557831
0.035294514149427414
0.031943682581186295
0.007516774814575911
-0.003117392770946026
-0.00036753935273736715
0.0008601262816227973
0.008523356169462204
-0.008876164443790913
-0.0017851266311481595
-0.021350568160414696
-0.05043204873800278
-0.04665152356028557
-0.04479057341814041
-0.077708400785923
-0.0713241919875145
-0.02254444546997547
0.00351147074252367
0.018134957179427147
-0.01817258447408676
-0.01519734412431717
0.004494362510740757
-0.021450702100992203
-0.013908080756664276
0.0017716572619974613
-0.011730202473700047
-0.0035126882139593363
-0.011166725307703018
0.02359934151172638
0.04932153970003128
0.04788733273744583
0.031543534249067307
0.05320454761385918
0.029841016978025436
0.019506454467773438
0.0059536839835345745
0.005303180310875177
0.011593247763812542
0.003937815316021442
-0.00814446434378624
-0.00418103625997901
-0.019033759832382202
-0.02848454937338829
-0.015186147764325142
0.04005340486764908
0.025015316903591156
0.001574404421262443
0.10533954203128815
0.06327418982982635
-0.04515428841114044
0.01695525087416172
-0.01440808828920126
0.04419773072004318
0.045996829867362976
0.013578547164797783
0.014721030369400978
0.06450723111629486
0.03157764673233032
-0.006312923971563578
0.00789687130600214
-3.825216117547825e-05
-0.022449184209108353
-0.0006279561202973127
-0.05032525956630707
0.00800636038184166
0.06173868849873543
-0.007714930921792984
-0.020634468644857407
0.03093525767326355
-0.028111951425671577
0.026309475302696228
0.00416637072339654
-0.006279523950070143
0.040809281170368195
0.029541771858930588
0.0017264783382415771
0.014929702505469322
0.022353000938892365
-0.01503138430416584
0.0018009463092312217
-0.003891213797032833
0.008252148516476154
-0.03319393843412399
-0.0388881154358387
-0.030375748872756958
-0.005060816649347544
0.015046386048197746
0.01476156897842884
-0.03421790525317192
0.027306798845529556
0.025224925950169563
-0.003658818081021309
0.07430419325828552
0.07800713926553726
-0.0134861646220088
0.061071284115314484
0.09004568308591843
-0.006577262654900551
0.016129527240991592
0.006671621464192867
0.025280551984906197
0.10187986493110657
0.07260613888502121
0.02423047088086605
0.0790817067027092
0.08425980806350708
-0.0030031742062419653
-0.009251797571778297
-0.02442498318850994
-0.019883032888174057
-0.007072372827678919
-0.02457592636346817
-0.006192218977957964
-0.0028716111555695534
-0.023933831602334976
0.021927835419774055
0.04352278262376785
-0.011050812900066376
0.006163711193948984
0.09192925691604614
0.039847176522016525
-0.030930742621421814
0.038159504532814026
0.010168983601033688
-0.0034104904625564814
-0.011831235140562057
0.01757144182920456
0.007537161931395531
-0.017095861956477165
0.0035712220706045628
0.055826567113399506
0.028304360806941986
0.018842656165361404
-0.03457532450556755
-0.01806596852838993
-0.016172943636775017
0.02673395164310932
0.03645629063248634
0.00899165403097868
-0.0002656221913639456
-0.0010826658690348268
-0.01742243953049183
0.026780525222420692
0.03650297224521637
0.013729576952755451
0.0687834843993187
0.08894672244787216
0.045909225940704346
0.05967085808515549
0.07461287826299667
0.0388471782207489
0.012903006747364998
0.0645601823925972
0.03301500529050827
0.009405331686139107
0.06134354695677757
-0.019181376323103905
-0.08302582800388336
-0.07910346239805222
-0.0649467334151268
0.02356659434735775
0.05162108689546585
0.0481310598552227
0.03740726783871651
0.10222648829221725
0.08579354733228683
-0.008388234302401543
0.04904406890273094
0.02713027223944664
0.07199525088071823
0.08842164278030396
0.0654023140668869
0.07024818658828735
0.07442189007997513
0.06396479904651642
0.06164470314979553
0.06125893443822861
0.03791362792253494
-0.005038811359554529
0.04628186300396919
0.02418002486228943
0.023531189188361168
0.08645981550216675
0.05341733992099762
0.023749539628624916
0.07120051980018616
0.018586255609989166
0.029222922399640083
0.015497866086661816
-0.011831718496978283
0.02933591976761818
0.024811236187815666
-0.003983244299888611
0.05402050539851189
0.040075674653053284
0.00562470406293869
0.047685734927654266
0.061437856405973434
0.029574669897556305
0.020040152594447136
0.031867027282714844
0.015518411062657833
-0.028074365109205246
-0.016008572652935982
-0.010350639000535011
-0.04200359061360359
-0.027618376538157463
-0.011765813454985619
-0.024433065205812454
0.020295020192861557
0.016217699274420738
-0.04589162394404411
-0.01171049289405346
-0.020911145955324173
-0.03782452270388603
-0.022328805178403854
-0.01892354153096676
-0.0241263248026371
-0.012805611826479435
-0.029111117124557495
-0.053306832909584045
-0.03476952761411667
-0.042371805757284164
-0.010708838701248169
0.016367247328162193
0.01389843039214611
-0.009941928088665009
0.07804001867771149
0.04570158198475838
-0.015689928084611893
0.04819772019982338
0.020651889964938164
-0.060505952686071396
0.0172282587736845
0.04557245597243309
-0.040931832045316696
0.08394870907068253
0.11798173934221268
-0.006470783613622189
0.033882543444633484
0.02344978041946888
0.002872523618862033
0.002207262208685279
0.017857039347290993
-0.007860049605369568
-0.018177127465605736
0.002639239653944969
-0.00399721460416913
-0.012621194124221802
0.0025608884170651436
0.049329984933137894
0.08475643396377563
0.06588439643383026
0.03307941183447838
0.08468268811702728
0.07747644931077957
-0.00523135531693697
0.016070153564214706
0.0019408432999625802
-0.045371219515800476
0.020663371309638023
-0.01916198618710041
-0.03734900429844856
0.07909579575061798
0.03752606734633446
-0.08585130423307419
-0.022338951006531715
-0.04934924840927124
-0.06035981699824333
0.0015440854476764798
0.030039619654417038
-0.012980461120605469
0.0628514289855957
-0.0008072933997027576
0.03985653445124626
0.1100199967622757
0.008479802869260311
-0.0025733085349202156
-0.006153171416372061
0.0020743291825056076
0.002983676502481103
-0.005436941049993038
0.004286762326955795
-0.017184389755129814
-0.010113997384905815
-0.0012834498193114996
0.021185753867030144
-0.04070352762937546
-0.04712332412600517
0.015083949081599712
-0.0056810444220900536
-0.07791019231081009
0.02139345556497574
0.06562568247318268
-0.027175314724445343
0.014494725503027439
0.01417363528162241
-0.01423189789056778
0.04164732247591019
0.06772004067897797
0.038342706859111786
0.041614409536123276
0.0449582040309906
-0.0050057643093168736
-0.046103645116090775
-0.038468267768621445
-0.06539691239595413
-0.01408699993044138
0.01333316694945097
-0.027621744200587273
-0.0074107409454882145
0.019608881324529648
-0.024275366216897964
0.010583206079900265
0.012074599973857403
0.012981126084923744
-0.026124125346541405
0.018886614590883255
0.06067079305648804
-0.05937190353870392
-0.012290673330426216
-0.007992553524672985
-0.021054144948720932
-0.001534558366984129
-0.04938502237200737
-0.03308619558811188
-0.021368350833654404
-0.04346763342618942
-0.033745575696229935
-0.03179814666509628
-0.03240468353033066
0.04169446602463722
0.00732799107208848
0.0037992275319993496
0.04302584007382393
-0.016702519729733467
0.01896006055176258
0.018718017265200615
0.0005938489339314401
-0.02147325687110424
0.03842499479651451
0.04171689227223396
-0.015446827746927738
-0.03514638543128967
0.09194596111774445
0.09144335240125656
-0.050950564444065094
0.06521381437778473
-0.025105517357587814
0.014188705012202263
0.013262930326163769
-0.002093678340315819
0.04240631312131882
0.021499527618288994
-0.013852296397089958
0.04908747598528862
-0.010122065432369709
-0.021311981603503227
0.04667464643716812
0.05466122925281525
0.040639400482177734
-0.007392595987766981
-0.005311388056725264
0.005132724065333605
0.01731879822909832
0.01456042006611824
-0.013667196035385132
0.010361858643591404
0.00566018046811223
-0.01927206851541996
-0.0021309596486389637
0.0022605375852435827
-0.052323415875434875
0.015275624580681324
0.01872529461979866
-0.008473520167171955
-0.01585928350687027
-0.03633040562272072
-0.013993320986628532
-0.08129914104938507
-0.047834523022174835
0.055531878024339676
-0.0344940647482872
0.06801842153072357
0.05424046516418457
0.01402804721146822
0.0661257728934288
-0.019912440329790115
-0.05645979195833206
0.04613936319947243
0.010614076629281044
-0.027986740693449974
0.03307383880019188
0.014877015724778175
-0.007073909044265747
0.010080200619995594
-0.030311303213238716
0.002611918142065406
0.055914755910634995
0.021305225789546967
-0.009556449949741364
0.01464532408863306
-0.02350388653576374
-0.002867027185857296
0.025814250111579895
-0.02771669253706932
-0.009283878840506077
0.026226170361042023
0.001588350860401988
-0.022069964557886124
-0.0006833029328845441
0.004715865943580866
-0.012736189179122448
0.012935562990605831
-0.008795119822025299
0.017996834591031075
0.02470209077000618
-0.00022742747387383133
-0.02275608479976654
-0.013769502751529217
-0.03932790085673332
-0.023799395188689232
-0.01838354393839836
-0.005686269607394934
-0.029416818171739578
-0.02459046244621277
0.01547658909112215
-0.013889564201235771
-0.022876637056469917
0.03114648163318634
0.07430852204561234
-0.04718855768442154
0.0022717842366546392
0.08313605189323425
-0.06400199234485626
-0.0019339881837368011
-0.004217025823891163
-0.013255545869469643
0.020393233746290207
0.007594375871121883
0.07560577243566513
0.044214099645614624
-0.03137008100748062
0.11508043855428696
0.047773510217666626
-0.031059756875038147
0.09746094793081284
0.019186465069651604
0.026620328426361084
0.029978150501847267
-0.003967179451137781
0.023551445454359055
0.021791359409689903
0.02128542959690094
0.0042326501570641994
0.026333479210734367
0.018779391422867775
-0.0196330975741148
0.011135624721646309
0.07057572901248932
-0.08532623946666718
0.22217056155204773
0.13784705102443695
0.027947936207056046
0.11415248364210129
0.002859671600162983
0.14954335987567902
-0.02768537402153015
-0.08095148950815201
0.23061926662921906
-0.04037854075431824
-0.17178387939929962
0.038772303611040115
-0.03277629241347313
-0.000428446801379323
0.08812257647514343
-0.007216848433017731
-0.05654230713844299
0.15899807214736938
-0.012037028558552265
-0.13849663734436035
0.10164395719766617
0.016636593267321587
-0.0493890717625618
0.02049964852631092
-0.03403954580426216
0.07553969323635101
-0.12426167726516724
-0.18268172442913055
0.17355303466320038
0.014362885616719723
-0.09686832129955292
0.09513001143932343
-0.020313765853643417
-0.017057090997695923
-0.015071088448166847
-0.045078884810209274
0.04723329097032547
0.011136837303638458
-0.0014892835170030594
0.03564682602882385
0.009631014429032803
0.04017443209886551
0.03660542890429497
0.04421091824769974
0.016878144815564156
-0.015553110279142857
0.010897645726799965
0.03807530179619789
0.04869212582707405
0.04965827241539955
-0.016052868217229843
-0.003860701806843281
-0.010720081627368927
-0.0021863740403205156
-0.012123841792345047
-0.03306036815047264
0.015044722706079483
0.008409989066421986
-0.0056566279381513596
0.008010892197489738
0.019342022016644478
0.01781591586768627
-0.04300716519355774
-0.040064916014671326
-0.011944840662181377
-0.016810767352581024
-0.02538769319653511
0.002525408286601305
0.06302902847528458
-0.006134399212896824
-0.07758139818906784
0.025427518412470818
-0.002844797680154443
-0.025964507833123207
0.01913023181259632
0.00335459946654737
-0.017465204000473022
0.054489750415086746
-0.01214964222162962
-0.06549843400716782
0.048527948558330536
-0.0037441786844283342
-0.013416231609880924
0.03287137299776077
-0.006797776557505131
-0.022895406931638718
-0.010853596031665802
0.018180789425969124
0.029535235837101936
-0.035616468638181686
0.01596473902463913
0.04396509751677513
-0.011196869425475597
0.010889055207371712
0.013504470698535442
0.021280979737639427
-0.004883223213255405
0.01278343703597784
0.012484160251915455
0.000986902741715312
0.043088577687740326
0.00014545531303156167
0.009104356169700623
0.00731668109074235
0.012549060396850109
0.022728506475687027
0.015341741032898426
-0.01934298872947693
-0.005193023476749659
0.016002358868718147
0.003780009690672159
-0.025871096178889275
-0.012667112983763218
-0.03780446574091911
-0.06480906158685684
0.030920205637812614
0.12092849612236023
-0.22473786771297455
-0.10569645464420319
0.0011633106041699648
-0.05966905504465103
-0.0759749487042427
-0.004833176266402006
-0.010338055901229382
-0.04171355441212654
0.022999059408903122
-0.015123160555958748
-0.05041786655783653
0.01725754700601101
-0.0018181971972808242
-0.027224242687225342
0.04528997465968132
-0.014143606647849083
-0.07798497378826141
0.10773297399282455
-0.011305871419608593
-0.13214266300201416
0.03641297668218613
-0.010497892275452614
-0.059722524136304855
-0.00030434736981987953
0.009265531785786152
0.01720769703388214
0.0025965843815356493
-0.0008144878665916622
0.0116501459851861
0.030010530725121498
-0.03715042024850845
0.007163983769714832
-0.023292643949389458
-0.00019527188851498067
0.044508256018161774
-0.06653880327939987
-0.015629524365067482
0.09606524556875229
-0.04970972239971161
0.0006153386784717441
0.10137995332479477
0.013548968359827995
0.03263377398252487
0.00889925379306078
0.01795070618391037
-0.0009850362548604608
0.020437825471162796
0.030028710141777992
-0.024099119007587433
0.0032134633511304855
-0.018358305096626282
-0.03199158236384392
-0.007877710275352001
-0.039075806736946106
-0.06088976562023163
-0.0029485137201845646
-0.025633927434682846
-0.00015744363190606236
0.025368906557559967
-0.0014401056105270982
-0.021920006722211838
-0.012076379731297493
-0.00478146318346262
-0.00774897588416934
-0.021486250683665276
-0.002665652660652995
-0.021093906834721565
-0.05514109879732132
-0.0037140981294214725
0.017183827236294746
0.024857308715581894
-0.007186994422227144
0.0038519634399563074
0.03055378794670105
0.00955643318593502
0.04445883259177208
0.017480799928307533
0.09763582795858383
0.00836193561553955
-0.2101259082555771
-0.01841157115995884
0.10501834005117416
-0.003315736772492528
-0.10115739703178406
-0.04048168659210205
0.13736052811145782
0.02972443774342537
-0.028415270149707794
-0.0033742322120815516
0.008166062645614147
-0.012048229575157166
0.010834368877112865
0.012872192077338696
0.010251637548208237
-0.009572808630764484
0.007650204934179783
0.009246889501810074
-0.011827506124973297
-0.0029031250160187483
-0.029137805104255676
-0.02004474215209484
-0.005421104375272989
-0.0014364887028932571
0.007411156315356493
-0.07108013331890106
0.015287407673895359
0.06223791465163231
-0.006677728611975908
0.03791601583361626
-0.09109959751367569
0.09372981637716293
0.04595694690942764
-0.1135716363787651
0.060017574578523636
-0.009449933655560017
0.0023939006496220827
0.010387321002781391
-0.04516590014100075
-0.03785219416022301
0.01968671940267086
-0.017011763527989388
-0.02896697074174881
0.024635232985019684
-0.014374205842614174
-0.033034879714250565
0.03412964195013046
0.00749921565875411
-0.0593862310051918
0.020749658346176147
0.01488055195659399
-0.03482143208384514
-0.036586739122867584
0.023820241913199425
0.003533781273290515
0.0029616064857691526
-0.0028524333611130714
0.004881519358605146
-0.014983939938247204
-0.006969445385038853
-0.014356516301631927
0.06275413930416107
-0.013729685917496681
-0.002469285624101758
0.07061074674129486
-0.018761809915304184
-0.016765635460615158
0.07292557507753372
0.009531267918646336
-0.002112161833792925
-0.013723883777856827
0.011838074773550034
-0.06552473455667496
0.0031095787417143583
-0.0028727261815220118
-0.011338302865624428
-0.018336670473217964
-0.04513692855834961
-0.06670991331338882
0.00421932153403759
-0.01412226539105177
-0.004115513525903225
-0.002531069330871105
2.155619949917309e-05
0.017491640523076057
0.0018971349345520139
0.0006939757149666548
-0.007639605086296797
0.05559177324175835
-0.03593282029032707
0.002394730458036065
0.07260182499885559
-0.03158463165163994
-0.025004785507917404
0.08474117517471313
-0.0009391949279233813
-0.02880673296749592
0.021970871835947037
0.016495537012815475
-0.02690083719789982
0.011750544421374798
-0.0007105550030246377
-0.008382357656955719
-0.002822867128998041
-0.019358616322278976
0.004641523584723473
0.04630225896835327
-0.025471603497862816
-0.029334088787436485
0.045228730887174606
-0.05180535465478897
-0.011806981638073921
0.015982523560523987
0.007864230312407017
0.04741402342915535
-0.012978160753846169
-0.01899993047118187
0.010212029330432415
-0.023322325199842453
0.01717165857553482
0.030459484085440636
-0.014323331415653229
0.03974069654941559
-0.01789270155131817
0.021547678858041763
-0.004465823993086815
-0.032704152166843414
0.030690675601363182
0.03853221237659454
-0.0075982739217579365
0.010778449475765228
-0.0007728238706476986
-0.017013520002365112
-0.014141988009214401
-0.08059030026197433
-0.02132442779839039
0.07648000121116638
-0.07369133085012436
-0.06286594271659851
0.024161143228411674
-0.048571087419986725
-0.005676043685525656
0.060602255165576935
0.03395147621631622
-0.008317282423377037
0.010441475547850132
-0.06296522170305252
-0.03671411797404289
0.015489521436393261
-0.01525286678224802
-0.0014805551618337631
0.02482828125357628
-0.01157922763377428
-0.007810663431882858
0.008836086839437485
-0.005100886337459087
-0.00979249831289053
-0.012266878969967365
-0.027376974001526833
-0.011640890501439571
0.044317830353975296
0.0096406489610672
-0.005446367431432009
0.03901499882340431
-0.005847696680575609
-0.03921690955758095
0.0005967424949631095
-0.009779187850654125
-0.013697375543415546
0.031683217734098434
-0.010406548157334328
0.01351166795939207
0.06201295927166939
-0.00418103625997901
-0.010838985443115234
0.04464500769972801
0.005418058950453997
-0.0024789986200630665
-0.018182292580604553
-0.06023795157670975
-0.0428280346095562
-0.01840970106422901
-0.087149478495121
-0.02870972454547882
-0.016016388311982155
-0.06284358352422714
-0.025139370933175087
0.006076646037399769
-0.00014297838788479567
-0.03417216241359711
0.0324849933385849
0.0005547023029066622
-0.043008286505937576
0.018196726217865944
-0.009351971559226513
-0.051886942237615585
0.11679405719041824
-0.02248309925198555
-0.11595132201910019
0.1804354190826416
-0.022425664588809013
-0.22821997106075287
0.13279442489147186
0.0016053057042881846
-0.12686966359615326
-0.02831905335187912
-0.029562734067440033
-0.025433609262108803
-0.0002889803145080805
0.03834845870733261
-0.03891999274492264
-0.03023197501897812
-0.07308892905712128
-0.02511974796652794
0.02861323393881321
0.012451380491256714
0.028804022818803787
0.010605965740978718
0.0018644500523805618
0.011396377347409725
-0.011041087098419666
-0.011176332831382751
0.012001757510006428
-0.021981531754136086
0.04482276737689972
0.01430770754814148
-0.025401053950190544
0.022504176944494247
-0.0064752427861094475
-0.02049412578344345
0.028007933869957924
0.009043491445481777
-0.004097013268619776
-0.0008699393947608769
0.04414378106594086
0.0036252178251743317
0.003982508555054665
0.010148040018975735
0.0005982689908705652
-0.011274219490587711
0.0017767668468877673
0.00456860288977623
0.01726282387971878
0.04152530059218407
-0.002009480958804488
-0.0018654012819752097
0.01849083974957466
-0.010501708835363388
-0.013603406958281994
0.014319764450192451
0.0007218417595140636
0.010465573519468307
0.028166690841317177
-0.0032336884178221226
-0.022756515070796013
0.012326729483902454
0.009550550952553749
0.003177799517288804
0.043291058391332626
-0.11380589008331299
-0.012533526867628098
0.0036232490092515945
0.17732402682304382
0.1008072942495346
-0.243650421500206
-0.018366895616054535
0.1079576313495636
-0.07705935835838318
0.004724082071334124
0.016958650201559067
-0.0016181502724066377
0.014214940369129181
0.02610056661069393
-0.0005708957905881107
0.002168284496292472
0.012937131337821484
0.0009833048097789288
0.009045155718922615
0.0044775172136723995
0.009138071909546852
0.010662687011063099
0.012591161765158176
-0.0003685118572320789
0.01798354648053646
0.021825211122632027
0.012979131191968918
0.016152281314134598
0.01697366125881672
0.014548594132065773
0.02410111017525196
-0.00584521796554327
0.0013802758185192943
0.023746734485030174
-0.006574890576303005
0.022177353501319885
-0.007109802216291428
-0.07850220054388046
-0.0018036760156974196
-0.06801372766494751
-0.07790140062570572
0.017317814752459526
0.024865873157978058
0.046391893178224564
0.038168229162693024
0.00018304948753211647
-0.0015113861300051212
0.005322783719748259
-0.024233980104327202
-0.024180810898542404
-0.013751490972936153
-0.017069436609745026
-0.01495215855538845
0.01464779581874609
-0.0064535983838140965
-0.018394531682133675
0.003605207661166787
0.0014644977636635303
-0.01517955306917429
0.0013545308029279113
0.009262789972126484
-0.0064576175063848495
-0.0057250382378697395
0.0014570250641554594
0.02210308238863945
0.005071566440165043
-0.004810888320207596
-0.004390943329781294
-0.01229825895279646
0.0007680182461626828
-0.008913318626582623
-0.00033724194508977234
-0.011183949187397957
0.020113566890358925
5.0392762204864994e-05
-0.017943358048796654
0.010625348426401615
0.015397492796182632
-0.0513295978307724
-0.037498898804187775
0.004217567853629589
0.0006396776880137622
-0.004665964748710394
-0.011055581271648407
-0.009345605038106441
-0.010623371228575706
-0.013253618963062763
0.005370883271098137
5.4855136113474146e-05
-0.013946342281997204
0.0053341384045779705
-0.0008020502282306552
0.032960377633571625
0.021621596068143845
0.003979044500738382
0.0128532899543643
-0.004983781836926937
-0.013564924709498882
0.02466494031250477
0.0030627052765339613
-0.012174461036920547
-0.02433745190501213
-0.01853177137672901
0.0028518354520201683
0.007056029047816992
-0.014056041836738586
-0.017658647149801254
-0.0010401399340480566
0.024570604786276817
0.00029241456650197506
-0.0293432530015707
0.011959602124989033
0.008448989130556583
-0.005909857340157032
-0.03325885161757469
-0.011348401196300983
0.004182910546660423
0.029718220233917236
0.0410098135471344
0.05139562115073204
0.03925319015979767
-0.009242434985935688
-0.03530244901776314
0.052921392023563385
-0.010395572520792484
-0.04047021269798279
0.06561821699142456
0.028969403356313705
0.05024218559265137
0.030825303867459297
-0.01301292423158884
-0.017643321305513382
0.044693056493997574
0.03577685356140137
-0.01700991950929165
-0.04172864556312561
-0.10082978755235672
-0.059356462210416794
-0.10023698955774307
-0.1863958090543747
-0.11992722004652023
-0.04225305840373039
-0.10129066556692123
-0.04750208556652069
0.004584084264934063
-0.011525790207087994
0.0035542480181902647
-0.06999340653419495
-0.04129046946763992
-0.028094470500946045
-0.034464381635189056
-0.032534338533878326
-0.038375258445739746
-0.026401396840810776
0.00045273115392774343
0.02283068560063839
-0.06295798718929291
-0.039501775056123734
-0.0014390855794772506
-0.020570261403918266
-0.0247587189078331
-0.005926797632128
-0.03604437783360481
0.0021174331195652485
-0.011883900500833988
-0.012974840588867664
-3.8398924516513944e-05
-0.030462265014648438
-0.012400749139487743
0.002446674043312669
-0.01744302175939083
-0.023821944370865822
-0.01345906127244234
-0.0031021616887301207
-0.0051689050160348415
-0.011816521175205708
-0.010661289095878601
0.000500342168379575
-0.005788835696876049
-0.024216968566179276
-0.0018533103866502643
0.008792540989816189
-0.009649946354329586
-0.015548654831945896
-0.005787774454802275
-0.022405734285712242
-0.0006380893755704165
0.0024641763884574175
-0.012933589518070221
0.054745905101299286
0.053532373160123825
0.06568899005651474
0.08601304888725281
0.09182548522949219
0.055172212421894073
0.0653352215886116
0.03601234406232834
0.009294746443629265
0.06896775960922241
0.09516692161560059
0.10939066857099533
0.10058758407831192
0.1655680388212204
0.16714347898960114
0.09437938779592514
0.17390136420726776
0.16974808275699615
0.12362882494926453
0.12219835817813873
0.10802868753671646
0.1646767258644104
0.19877146184444427
0.1468941867351532
0.12790939211845398
0.15825821459293365
0.10993961989879608
-0.008282328024506569
-0.006767773535102606
-0.011941185221076012
0.030682558193802834
0.018050916492938995
-0.0021118847653269768
0.027993928641080856
0.011608505621552467
-0.0040530855767428875
-0.007671223487704992
-0.007605539169162512
-0.005442291963845491
0.011986019089818
0.011306476779282093
-0.0021312704775482416
-0.004765746649354696
-0.006320157554000616
-0.03799309581518173
0.03229473903775215
0.024477848783135414
0.06344609707593918
0.02966522052884102
-0.04830831661820412
0.025059819221496582
-0.03833719342947006
-0.10979148000478745
0.07891994714736938
0.0014343619113788009
-0.01381995715200901
0.0015915819676592946
-0.004082472529262304
-0.018144091591238976
-0.004661323502659798
0.002610574709251523
-0.009551608003675938
-0.006021594628691673
-0.01960333064198494
0.02370980568230152
0.027395062148571014
-0.0026305229403078556
0.049334410578012466
0.04082762077450752
0.00741962157189846
0.06568045914173126
0.05657314509153366
0.017816001549363136
0.019022125750780106
0.02691483125090599
0.027882596477866173
0.02291848137974739
0.02266664430499077
0.012566889636218548
0.0016871114494279027
-0.004908332135528326
0.013694786466658115
-0.01740276999771595
-0.004316313192248344
0.005464385729283094
-0.027273617684841156
-0.027492303401231766
0.010257640853524208
-0.021792275831103325
-0.03485597297549248
-0.0035523795522749424
-0.0002508927136659622
0.0032126677688211203
0.0057335104793310165
-0.003618506481871009
0.0075348434038460255
-0.026865169405937195
-0.028926461935043335
-0.008393124677240849
0.0040872907266020775
0.012702870182693005
0.01710895076394081
-0.010512113571166992
-0.0034230737946927547
-0.019466819241642952
-0.025506068021059036
-0.003615798894315958
-0.021153030917048454
-0.002709002699702978
-0.008738748729228973
-0.008241238072514534
0.02779293991625309
0.031090984120965004
0.022282017394900322
0.006110938731580973
0.0043900650925934315
-0.01638776808977127
0.014177235774695873
0.00813794694840908
-0.021335629746317863
0.010973005555570126
0.006068623159080744
-0.01949712634086609
0.002752382308244705
0.004717506002634764
0.0020172432996332645
-0.004356119316071272
-0.02918371930718422
-0.03258145600557327
0.01097987312823534
-0.009539050981402397
-0.018313301727175713
0.0174568984657526
-0.006955725606530905
0.023395026102662086
-0.007522632833570242
-0.0033984810579568148
0.008075056597590446
-0.020380549132823944
-0.012735575437545776
-0.0072138928808271885
0.004211901221424341
0.005982447415590286
0.009463365189731121
-0.023743415251374245
-0.015191908925771713
-0.003944264259189367
0.002881967229768634
0.01407739706337452
-0.0026432182639837265
1.3158727597328834e-05
0.0007378908339887857
-0.02683068811893463
0.02853202261030674
0.0010439228499308228
0.058875493705272675
0.02252930961549282
-0.034474682062864304
-0.01899068057537079
-0.03154163807630539
-0.06058354303240776
-0.11198358982801437
0.003011036664247513
-0.009519812650978565
-0.030672894790768623
0.026047945022583008
-0.002952907234430313
-0.040746018290519714
-0.014820791780948639
-0.015489141456782818
-0.007087665144354105
-0.010258084163069725
-0.025202292948961258
-0.005251616705209017
-0.006168081890791655
-0.024886470288038254
-0.01187937892973423
0.02237905003130436
0.011924407444894314
0.020809270441532135
-0.008845238946378231
-0.010964073240756989
-0.021045172587037086
-0.005317731760442257
0.0034060797188431025
-0.012359349057078362
0.01419960055500269
0.013293197378516197
-0.009832680225372314
0.034264128655195236
0.0004891257267445326
0.013445551507174969
0.0010018190369009972
-0.031276412308216095
-0.024231253191828728
0.010497153736650944
-0.014534370973706245
-0.010536239482462406
0.004761902615427971
0.002674211747944355
0.008806105703115463
0.02568770945072174
-0.03678314387798309
0.011842833831906319
0.014213294722139835
-0.05673978850245476
0.023893555626273155
-0.01972418650984764
-0.02792144939303398
-0.022271519526839256
-0.007726059760898352
9.972340922104195e-05
0.0023302321787923574
-0.023789256811141968
-0.011567552573978901
-0.00048614662955515087
0.05676306411623955
0.030622880905866623
0.04245994612574577
0.04214020445942879
-0.002428273903205991
0.01147371530532837
0.012828382663428783
-0.03399801626801491
-0.02735651098191738
0.016017630696296692
-0.011521019972860813
-0.018588319420814514
0.01114729419350624
-0.008428212255239487
-0.002092268317937851
-0.006862912327051163
-0.02332082949578762
-0.009414450265467167
0.0168612077832222
0.011709194630384445
0.026545757427811623
-0.0003671459562610835
0.0009999492904171348
-0.011266762390732765
-0.025014998391270638
-0.027534374967217445
-0.03674296662211418
-0.03438395634293556
-0.03751542046666145
0.029427940025925636
-0.012157553806900978
-0.015508793294429779
0.00789205264300108
0.014525571838021278
0.0031912075355648994
-0.01827841065824032
0.00846080668270588
0.01305150706321001
0.01730211079120636
0.014222376979887486
0.013680740259587765
0.017161259427666664
0.00947632733732462
0.017041044309735298
0.0130208320915699
0.006423166021704674
0.011357746087014675
0.0538148395717144
-0.0008099020924419165
0.01548139750957489
0.0438886396586895
0.013741721399128437
0.016085678711533546
0.03026820905506611
0.010940205305814743
0.005006344988942146
0.004715438932180405
0.017236491665244102
0.00037696061190217733
8.343167428392917e-05
0.017944758757948875
0.0048655178397893906
0.012158029712736607
-0.006736391223967075
0.001054361928254366
0.03671303391456604
-0.0388970822095871
-0.031041402369737625
0.016002638265490532
-0.02263057790696621
-0.020581234246492386
-0.003596560563892126
0.03193105012178421
0.0218193456530571
0.03902861475944519
0.03815896436572075
0.055263251066207886
0.04470151290297508
0.031141458079218864
0.058760665357112885
0.04696126654744148
0.0011019933735951781
-0.009903175756335258
-0.0014252448454499245
-0.002127094892784953
-0.004924461245536804
-0.013813943602144718
-0.010116287507116795
-0.01402051467448473
-0.03245130181312561
-0.024983366951346397
-0.027913326397538185
-0.0107375243678689
-0.008943271823227406
0.011377650313079357
0.013181540183722973
-0.011869666166603565
0.01732485741376877
0.010687364265322685
-0.0042163310572505
-0.03747439384460449
-0.032327670603990555
-0.001180647173896432
-0.04610390216112137
-0.0331842377781868
0.01566363498568535
-0.019298292696475983
-0.02460627444088459
-0.04252399504184723
-0.07238516211509705
-0.024082763120532036
-0.068617083132267
-0.11305148899555206
-0.06350890547037125
-0.03673507645726204
-0.07875528931617737
-0.04017989709973335
-0.005498781334608793
0.011656937189400196
0.024261558428406715
0.018911179155111313
-0.007665922399610281
-0.046745143830776215
0.016567066311836243
-0.015600812621414661
-0.03722850978374481
-0.0030764371622353792
-0.013265367597341537
-0.0248233862221241
-0.01492131594568491
-0.015373672358691692
-0.02274486981332302
-0.014140310697257519
-0.0052657583728432655
-0.004720264580100775
0.006942748557776213
-0.012970908544957638
-0.015654269605875015
-0.0027843692805618048
0.003086996730417013
-0.013671578839421272
-0.007295100949704647
-0.0031197790522128344
-0.026977894827723503
-0.00970128271728754
0.002866093534976244
0.015613521449267864
-0.010086871683597565
0.012860048562288284
0.008977510035037994
0.019054779782891273
0.03751421347260475
0.03543323278427124
0.01780151203274727
0.06790339946746826
0.019575726240873337
0.04746919497847557
0.12561701238155365
-0.005858256481587887
-0.049299050122499466
-0.08050840348005295
-0.08220548182725906
0.038714759051799774
0.01865292899310589
-0.003075692104175687
-0.039943937212228775
0.01019352674484253
0.0015524507034569979
0.012720456346869469
0.0007798707811161876
-0.017357055097818375
-0.011065823957324028
-0.008896038867533207
0.03536825254559517
0.0380251519382
-0.010626660659909248
-0.055222488939762115
-0.0011982332216575742
-0.019275320693850517
0.0007992809405550361
0.03117501735687256
0.11385846138000488
0.052885860204696655
0.0298092570155859
0.0810970589518547
-0.0027701184153556824
-0.018494049087166786
-0.05845363438129425
-0.08277306705713272
0.01040642336010933
0.0715409368276596
0.004036534111946821
-0.044740766286849976
0.046788930892944336
0.05786213278770447
-0.0991266742348671
-0.08506324887275696
-0.012418035417795181
-0.02779221162199974
0.054440855979919434
0.048522863537073135
-0.008999843150377274
0.0849134624004364
0.06504342705011368
-0.04817355424165726
-0.052744343876838684
-0.059243094176054
0.009053987450897694
0.07777845859527588
-0.023427797481417656
-0.023686133325099945
0.00219565536826849
-0.06844967603683472
0.020000221207737923
-0.10660503059625626
-0.018978774547576904
-0.05467347428202629
-0.0035384150687605143
0.017479343339800835
0.01762227714061737
0.020029814913868904
0.05420248582959175
-0.0005848023574799299
0.013974755071103573
0.04040581360459328
-0.016657555475831032
0.03656337037682533
0.030971389263868332
-0.043849729001522064
0.01588273048400879
0.023785024881362915
-0.03688571974635124
0.004376094322651625
0.007845623418688774
0.010171419009566307
0.033306438475847244
-0.009707269258797169
-0.014296311885118484
-0.016450338065624237
-0.02814466506242752
-0.015188229270279408
0.048606425523757935
-0.013251610100269318
-0.037052277475595474
-0.03409436717629433
-0.04922733083367348
-0.03718758746981621
0.04675864428281784
-0.007542395498603582
-0.011210045777261257
0.027763675898313522
0.014337914995849133
0.03838137537240982
0.039889536798000336
0.05132368952035904
0.015858545899391174
-0.005106614902615547
-0.006644760724157095
-0.02128051221370697
-0.05899462103843689
-0.04671725258231163
-0.05109409987926483
0.027133798226714134
0.008363805711269379
-0.10179403424263
-0.03092660941183567
0.018245812505483627
0.04592175409197807
0.04663531109690666
0.043192051351070404
-0.026033595204353333
0.016185428947210312
0.0032635689713060856
0.00671910447999835
-0.017004862427711487
-0.0176318921148777
-0.00468997098505497
0.020737044513225555
0.015397646464407444
-0.01374512817710638
0.037494804710149765
0.022830035537481308
0.018863804638385773
0.05220363289117813
-0.026783468201756477
-0.04585549980401993
-0.002718862844631076
-0.037442319095134735
0.0001379948080284521
0.06353416293859482
0.008710856549441814
-0.009699348360300064
-0.0007779681473039091
-0.0062469919212162495
-0.022944170981645584
-0.010711240582168102
-0.008225923404097557
0.0013664228608831763
0.06935648620128632
0.04676976427435875
0.008856083266437054
0.013232843950390816
-0.00240426417440176
-0.024464167654514313
-0.061352137476205826
-0.04693256691098213
0.02552323043346405
0.002457127906382084
0.0088663250207901
0.010813133791089058
-0.026018917560577393
-0.015883607789874077
0.004999210592359304
-0.02182885631918907
0.010459469631314278
-0.012209422886371613
0.018685271963477135
0.027110721915960312
0.00418434664607048
0.03924965858459473
0.039969056844711304
-0.011092186905443668
-0.07286613434553146
-0.10271675884723663
0.0011287654051557183
-0.01975364424288273
-0.08568277209997177
-0.013624780811369419
0.12403888255357742
0.0940508097410202
-0.02172968164086342
-0.012521662749350071
-0.0672202929854393
-0.001990427728742361
0.016095390543341637
-0.05190909653902054
0.0049125272780656815
-0.003752192249521613
-0.005139505956321955
-0.019868450239300728
-0.009350884705781937
0.010160681791603565
-0.009163017384707928
0.02401024103164673
0.026710616424679756
-0.03075217641890049
-0.01546115055680275
-0.05895248427987099
0.008771496824920177
-0.001893409644253552
-0.03493444621562958
0.021381139755249023
0.03766794130206108
-0.0028891845140606165
0.022422047331929207
-0.038043782114982605
-0.023237641900777817
0.006072201766073704
-0.05826866999268532
-0.049368541687726974
0.010295016691088676
-0.006513170897960663
-0.017700891941785812
0.022714020684361458
-0.00812471378594637
-0.015193725936114788
0.0013019728939980268
0.023700620979070663
0.027746204286813736
0.047812994569540024
0.02247869223356247
-0.0033980209846049547
0.014602987095713615
-0.0186399407684803
-0.053188640624284744
0.01255854032933712
0.013859604485332966
0.016521792858839035
0.002969201887026429
0.012990693561732769
0.021639110520482063
-0.0013070491841062903
0.007162442430853844
-0.007002274040132761
-0.0006610684795305133
0.024881461635231972
0.016153788194060326
-0.09245816618204117
-0.07536520063877106
-0.07088146358728409
0.03480406850576401
0.07971259951591492
0.023953022435307503
0.06334482133388519
0.04612395912408829
0.060189761221408844
0.039448510855436325
0.03769899532198906
0.00792701542377472
0.040322255343198776
-0.00498192198574543
-0.008458003401756287
-0.0175261702388525
-0.1429503709077835
-0.1198081523180008
-0.03772807866334915
-0.024457639083266258
-0.017888177186250687
0.0512801930308342
0.023088762536644936
-0.03350936621427536
-0.004176630172878504
0.03968323394656181
0.04486174136400223
-0.030599184334278107
-0.0617276206612587
-0.05858151614665985
-0.038832493126392365
-0.06402546167373657
-0.044513192027807236
0.06448306143283844
0.066267229616642
0.0844038799405098
0.011082327924668789
-0.01826276257634163
-0.02381056547164917
-0.015039129182696342
-0.03864501044154167
-0.03346984460949898
-0.0017128295730799437
-0.0073440358974039555
0.01736619509756565
0.06152285262942314
0.1661284863948822
0.15268144011497498
0.030048901215195656
0.06535765528678894
0.027051221579313278
-0.043049298226833344
-0.10047129541635513
-0.12999635934829712
-0.001674808794632554
-0.006334470584988594
-0.0040734438225626945
0.010179371573030949
-0.004923668690025806
-0.017064863815903664
0.016404928639531136
0.00875258818268776
0.01837930828332901
-0.004582913126796484
0.07457742094993591
0.02720683254301548
-0.0027465661987662315
0.04996791109442711
0.02979515865445137
-0.03403014317154884
-0.062176406383514404
-0.06219864264130592
-0.004336182028055191
0.00658763013780117
0.013128956779837608
0.016402332112193108
0.009103968739509583
0.025981733575463295
-0.014527666382491589
-0.05412745848298073
-0.05834129825234413
0.06063082441687584
0.0603179968893528
0.01331236120313406
0.004112508147954941
-0.024903856217861176
-0.06540520489215851
0.019449064508080482
-0.0031304778531193733
-0.026706509292125702
-0.006485919468104839
0.031208118423819542
0.05247756838798523
0.02936982363462448
0.0690210834145546
0.04616378992795944
-0.0698382779955864
-0.11056859791278839
-0.09543949365615845
-0.0592970997095108
-0.052096810191869736
-0.027461135759949684
0.048649873584508896
0.06571412831544876
0.049217790365219116
-0.01374476496130228
0.0583331473171711
0.026349037885665894
0.0850333720445633
0.08605102449655533
0.019295332953333855
0.04434271156787872
0.032651156187057495
0.0014565364690497518
-0.020344844087958336
-0.09637787938117981
-0.09054018557071686
0.08573946356773376
0.12274417281150818
0.021312983706593513
-0.0005302770296111703
-0.009868965484201908
-0.05272706225514412
0.007343567907810211
0.02074040286242962
0.0016685340087860823
-0.03587153181433678
-0.030446378514170647
-0.045811813324689865
-0.008770315907895565
0.0015896082622930408
0.02387518435716629
-0.01674051024019718
0.03048621118068695
0.03303650766611099
0.004045698791742325
0.08719690889120102
0.05763065442442894
-0.050215449184179306
0.09629832953214645
0.0697554498910904
-0.09477142989635468
-0.05194798484444618
-0.06535536050796509
0.02814076654613018
-0.008837795816361904
-0.023950614035129547
0.03129715472459793
0.05636077746748924
0.014948743395507336
0.00016575155314058065
-0.05570315197110176
-0.009633145295083523
-0.014747148379683495
0.040753670036792755
-0.038842637091875076
-0.08608906716108322
-0.06583227217197418
-0.0926973968744278
0.07884521037340164
0.09402123838663101
0.039947185665369034
0.05677016079425812
0.05506633222103119
0.049408238381147385
-0.000760053051635623
-0.01933407224714756
-0.02004059962928295
-0.020490707829594612
-0.06648799031972885
-0.04507850855588913
-0.014606330543756485
-0.03290031477808952
-0.05219895765185356
0.02130124159157276
0.18084849417209625
-0.022944098338484764
-0.05662653595209122
-0.030837200582027435
-0.07854500412940979
0.05567888915538788
0.12619899213314056
0.09362482279539108
-0.04017569124698639
-0.06736359745264053
-0.062175389379262924
0.009003039449453354
-0.059916604310274124
-0.07120320200920105
0.09184449166059494
0.08600656688213348
0.07670296728610992
0.010055347345769405
-0.02286229282617569
-0.025244485586881638
-0.004954542499035597
-0.09384643286466599
-0.05501442402601242
0.04186384752392769
0.10015178471803665
0.042955368757247925
0.001174509641714394
0.06006067991256714
0.03543291240930557
-0.028246138244867325
-0.050895217806100845
-0.04826704412698746
0.05783757567405701
0.05443008616566658
0.038884468376636505
0.03180321678519249
0.02626238949596882
-0.01907942071557045
-0.013296770863234997
-0.040863845497369766
-0.09623054414987564
0.0667293444275856
0.07438695430755615
-0.0025754165835678577
-0.024998417124152184
-0.006458332296460867
0.04978811740875244
-0.012936858460307121
-0.011003376916050911
-0.04502002149820328
0.027974771335721016
0.056812066584825516
0.03011465258896351
0.036542315036058426
0.023395689204335213
-0.042864035815000534
-0.01744178868830204
-0.046826403588056564
-0.06308621168136597
-0.028535760939121246
-0.05480233579874039
-0.015076783485710621
-0.04091699421405792
-0.03779514878988266
-0.034405119717121124
0.015490389429032803
0.02463187649846077
0.02787749469280243
0.051227979362010956
0.08788608014583588
0.031304582953453064
0.03378865495324135
0.08240337669849396
-0.00858741533011198
-0.07036226987838745
-0.07236602157354355
-0.058315448462963104
0.0024317645002156496
0.08248788863420486
-0.029841849580407143
0.048365168273448944
0.12348076701164246
-0.0003752369375433773
-0.023120466619729996
-0.08680357784032822
-0.07016246020793915
-0.02878287248313427
-0.03681217133998871
-0.03648889437317848
-0.02434101141989231
0.0009002914885058999
-0.022273650392889977
-0.021231429651379585
0.05176394060254097
0.027570614591240883
0.021948818117380142
0.03773672506213188
0.03292379155755043
-0.02143252082169056
-0.014565554447472095
-0.014997372403740883
-0.007192613556981087
-0.01503340620547533
-0.00927487201988697
0.020331740379333496
0.09794625639915466
0.04634486138820648
0.004382265266031027
-0.01525111123919487
-0.02268778719007969
0.004836670588701963
-0.0410645492374897
-0.00484596099704504
-0.05952105671167374
0.043151095509529114
0.01182765606790781
0.035259686410427094
0.09309777617454529
-0.022451652213931084
-0.040546756237745285
-0.05376269295811653
-0.07686096429824829
0.014948069117963314
-0.008012101985514164
-0.00159195635933429
0.007266432046890259
0.005777350626885891
-0.013384422287344933
-0.0026151903439313173
0.01635758951306343
-0.008767093531787395
0.020286042243242264
0.03136487305164337
-0.015301018953323364
-0.03564925864338875
-0.03448624163866043
0.007602847181260586
0.02635272778570652
0.017077315598726273
-0.048678092658519745
0.003650055266916752
0.025148499757051468
0.01966206543147564
-0.020093830302357674
0.005730166099965572
-0.0002668394008651376
-0.05100356042385101
-0.06348804384469986
-0.05014811456203461
-0.017452441155910492
-0.0304375272244215
-0.09476150572299957
-0.00017838843632489443
-0.0036902863066643476
-0.04734128341078758
-0.011371594853699207
-0.032268624752759933
-0.062097158282995224
0.014930052682757378
0.0035064029507339
0.03426169231534004
0.011498784646391869
0.03364602103829384
0.07721323519945145
-0.044863276183605194
-0.020358944311738014
-0.06810446083545685
-0.052006009966135025
-0.024050580337643623
-0.06874613463878632
-0.02616114728152752
0.03872624412178993
-0.19469618797302246
0.03938887640833855
0.028659231960773468
-0.06811931729316711
0.008512955158948898
-0.015700701624155045
0.02629135735332966
0.014021704904735088
-0.011338894255459309
0.1069323942065239
0.028681347146630287
-0.05014904588460922
-0.036133527755737305
0.003179465886205435
-0.07612652331590652
-0.03168461471796036
0.05176369845867157
0.02232312224805355
-0.011523746885359287
-0.006215333938598633
0.01864665560424328
0.023876672610640526
-0.058201078325510025
0.045346371829509735
-0.0034461705945432186
-0.052181463688611984
0.12055153399705887
0.04225141927599907
-0.0458841398358345
0.00980338454246521
0.003053872613236308
0.019930200651288033
0.04888159781694412
0.05470467731356621
-0.04436606168746948
-0.05040530860424042
0.020190687850117683
-0.01325991190969944
0.028121840208768845
0.0704946517944336
0.06409233808517456
0.04606945440173149
0.048628754913806915
0.037712402641773224
0.03505770489573479
-0.018877623602747917
0.0029438845813274384
0.04534539207816124
-0.005937958601862192
-0.04513075575232506
0.0146415363997221
-0.04081564024090767
-0.019753586500883102
0.15385331213474274
-0.08039345592260361
-0.07977957278490067
0.015768323093652725
-0.1440526247024536
-0.044703878462314606
-0.03938179835677147
-0.03566144406795502
-0.03306271880865097
-0.03930576145648956
-0.07133745402097702
0.0021599901374429464
-0.018479112535715103
-0.06965139508247375
0.009066653437912464
-0.07592083513736725
-0.01984725333750248
-0.027234403416514397
-0.13200271129608154
-0.03537429869174957
0.019001934677362442
0.022951139137148857
0.04614968225359917
0.012408199720084667
0.027309395372867584
-0.0091585423797369
0.00514479773119092
-0.00822457391768694
-0.019105777144432068
-0.05445881187915802
-0.08719951659440994
-0.07447966933250427
-0.039070334285497665
-0.003969480283558369
0.031158672645688057
-0.035578664392232895
0.028388570994138718
0.030504310503602028
-0.01446553785353899
-0.037776507437229156
-0.07220228016376495
0.021077319979667664
0.0029614826198667288
0.018680887296795845
0.0046741352416574955
-0.01928434893488884
0.022289682179689407
0.0020804915111511946
-0.0007624812424182892
0.022238081321120262
0.03176533803343773
-0.08100373297929764
0.08657944947481155
0.00011633247777353972
-0.27426496148109436
0.04923115670681
0.08854451030492783
0.11684533953666687
0.0024326841812580824
0.004547418560832739
-0.06565012782812119
-0.028666559606790543
-0.008882629685103893
-0.10895951837301254
-0.08349943906068802
0.013013843446969986
-0.08456500619649887
-0.04132264107465744
-0.02277812920510769
-0.007339081261307001
0.03585481643676758
