-0.0715549886226654
-0.11031374335289001
-0.13711139559745789
0.07059263437986374
-0.01478186808526516
-0.10053058713674545
0.11938317865133286
0.08732987195253372
-0.008220594376325607
-0.023999491706490517
-0.006368243135511875
0.0024302713572978973
0.006183104123920202
0.018780862912535667
0.025324376299977303
0.0023656415287405252
-0.0040036956779658794
-0.011948616243898869
0.006034355144947767
0.006378429941833019
-0.012247318401932716
0.007885408587753773
-0.013464296236634254
-0.04270181432366371
0.017379535362124443
-0.013862033374607563
-0.04714497551321983
-0.0379808209836483
-0.03703364357352257
0.010319462046027184
-0.016778964549303055
-0.04867774248123169
-0.009363659657537937
0.030865410342812538
0.007275789510458708
0.0006131150876171887
0.053150299936532974
0.05415348336100578
0.028258726000785828
0.028607185930013657
0.012580566108226776
-0.0021953615359961987
0.03345813974738121
-0.0012363053392618895
-0.01151975616812706
-0.021592117846012115
-0.02322596125304699
-0.011511677876114845
-0.014416140504181385
0.006256799679249525
-0.0042859469540417194
-0.006919003091752529
0.038865335285663605
0.005177618004381657
-0.01144768763333559
-0.007184575777500868
0.011129585094749928
0.00427300063893199
-0.012256218120455742
-0.009311054833233356
-0.004054791759699583
-0.018105849623680115
-0.005141116213053465
-0.011148935183882713
-0.03161858767271042
0.01980527676641941
0.01696334220468998
-0.035866886377334595
-0.0438290499150753
0.050176214426755905
0.03536391630768776
-0.0032685555052012205
0.025928199291229248
0.06783867627382278
0.031466662883758545
-0.06357347965240479
-0.0042885588482022285
0.08013136684894562
-0.08662193268537521
-0.11196694523096085
-0.033602625131607056
-0.0278583113104105
-0.02458786778151989
-0.006982921622693539
-0.0027937705162912607
0.01084645465016365
0.01288596075028181
-0.0005045462748967111
0.024098414927721024
0.008852094411849976
-0.0386553592979908
-0.044154923409223557
-0.02735510654747486
0.032163143157958984
0.005735006183385849
-0.020890789106488228
0.07862988859415054
0.0570254921913147
-0.005204993300139904
0.0055652158334851265
-0.009946918115019798
-0.037808820605278015
0.008547582663595676
0.03013216331601143
-0.015504931099712849
0.03739558160305023
0.024682646617293358
0.02038983255624771
0.024353407323360443
-0.0006553215789608657
0.023920992389321327
-0.04170820862054825
-0.08918669074773788
-0.08863090723752975
0.028112005442380905
-0.020456111058592796
-0.05371776968240738
-0.07889387011528015
-0.08457239717245102
-0.06374214589595795
-0.012934836558997631
-0.028152786195278168
-0.03251000493764877
0.040216635912656784
0.0315513014793396
0.014893053099513054
0.0008397916099056602
-0.010103271342813969
-0.006466458551585674
-0.0114066107198596
-0.006532011087983847
-0.017472300678491592
0.025447674095630646
0.03179784119129181
0.011826056987047195
-0.016845008358359337
-0.02074115164577961
-0.004653611686080694
-0.005510551854968071
-0.007912655360996723
0.020927151665091515
-0.007102045696228743
0.013575377874076366
0.013584868982434273
0.011534792371094227
0.02016465738415718
0.004538698121905327
0.006150884088128805
0.015508970245718956
0.014142215251922607
-0.029716791585087776
-0.037196531891822815
-0.016002057120203972
-0.02397736720740795
0.036187924444675446
0.0050931950099766254
-0.03418654575943947
-0.016013601794838905
-0.0025469644460827112
-0.07062223553657532
-0.06806791573762894
-0.02086910605430603
0.0005339817143976688
0.006824545096606016
-0.0225664172321558
-0.005593594629317522
0.021267596632242203
0.0119561105966568
-0.021663546562194824
-0.00039831199683248997
0.002023418201133609
0.009798700921237469
0.021285809576511383
0.024033192545175552
-0.004855390638113022
0.028318308293819427
0.03506680950522423
-0.027079280465841293
0.019277404993772507
0.024708034470677376
-0.011940740048885345
0.01464928314089775
-0.005145487375557423
-0.022724267095327377
0.02723902277648449
0.015028761699795723
-0.021229587495326996
-0.03077145665884018
0.0025495667941868305
0.0362323522567749
-0.02756427973508835
-0.06755060702562332
0.11755380034446716
0.04590584710240364
-0.041874222457408905
0.178803488612175
0.13679122924804688
0.027705121785402298
-0.024924229830503464
-0.04951188713312149
-0.03915984556078911
0.0271598007529974
0.010970644652843475
-0.03739314153790474
0.030126987025141716
0.05804271623492241
0.007261897437274456
-0.013019268400967121
-0.02126392535865307
0.00013011899136472493
-0.01752365380525589
-0.02445090003311634
-0.005820885766297579
0.018949540331959724
-0.004299027845263481
-0.01825898513197899
0.0015078544383868575
-0.006879037246108055
-0.016703911125659943
-0.00013382124598138034
-0.023910682648420334
-0.037214018404483795
0.06042666733264923
0.04643968492746353
-0.0139097785577178
0.0009370267507620156
0.006253592204302549
-0.026806877925992012
-0.02312581241130829
0.0036277270410209894
-0.031181922182440758
-0.015265068970620632
-0.015255667269229889
-0.05167967081069946
-0.006189377512782812
0.002518274588510394
0.020341161638498306
-0.0164609644562006
-0.014525004662573338
-0.00200741458684206
0.004308257717639208
0.025239376351237297
0.02111956663429737
-0.010510741733014584
-0.008091863244771957
-0.007995462976396084
-0.003906820900738239
0.01026406791061163
0.005934156943112612
-0.023332703858613968
0.003605685895308852
0.007923048920929432
0.006373422220349312
0.0063064368441700935
0.019527584314346313
0.0007146087009459734
0.007509385701268911
0.013070356100797653
0.013844276778399944
-0.0050872983410954475
0.020386643707752228
-0.014180873520672321
-0.010823074728250504
0.02318490296602249
-0.011170887388288975
-0.017419753596186638
-0.03379712253808975
-0.04171077162027359
-0.030481018126010895
-0.012233738787472248
-0.001223955419845879
0.00952783040702343
-0.010590959340333939
0.02688528038561344
0.027981020510196686
-0.02837098017334938
0.009469408541917801
0.03964792191982269
-0.0025890411343425512
0.004209996201097965
0.024204667657613754
0.028196968138217926
-0.0028976041357964277
0.012155287899076939
0.015048699453473091
-0.03965912386775017
-0.02530575916171074
-0.04054933041334152
-0.015702780336141586
0.0035283449105918407
0.004972029477357864
0.014763817191123962
0.01840580813586712
-0.008816215209662914
0.014855695888400078
0.011393662542104721
0.004716274794191122
0.010114558041095734
0.006008819676935673
-0.002364587737247348
-0.017652465030550957
-0.0022041574120521545
-0.006349937524646521
-0.01331295631825924
-0.010975485667586327
-0.010231065563857555
-0.0007568639703094959
0.005723058711737394
-0.03091297671198845
-0.005683657247573137
0.008972507901489735
-0.026651859283447266
0.005458427127450705
0.010147197172045708
-0.01846684142947197
-0.006702771410346031
0.014327718876302242
-0.0010047248797491193
-0.013208926655352116
0.014514761976897717
0.004967874847352505
-0.01994606852531433
0.007758531253784895
0.0067558903247118
0.013274292461574078
0.022167107090353966
-0.01622411608695984
0.0058961668983101845
0.020225709304213524
0.016444575041532516
-0.024156441912055016
0.000167375648743473
-0.009052441455423832
-0.02036600559949875
-0.008707186207175255
-0.009695922024548054
-0.04231862351298332
-0.019071856513619423
-0.01599103771150112
-0.030562695115804672
-0.018162913620471954
0.005251120310276747
0.016285834833979607
-0.004926908295601606
-0.010837317444384098
-0.0031803783494979143
-0.00107124587520957
0.029666095972061157
0.0331169031560421
0.005198362283408642
0.0413188673555851
0.03343616798520088
-0.022629722952842712
-0.017996586859226227
0.07146795839071274
0.043105386197566986
0.026990700513124466
0.02129451185464859
0.07361316680908203
0.0935385674238205
-0.04201812297105789
-0.051542118191719055
-0.015620573423802853
-0.01821429468691349
-0.012965109199285507
0.0017853169701993465
-0.018635762855410576
-0.043401770293712616
-0.0504017174243927
0.011343329213559628
0.07872949540615082
0.061238326132297516
-0.009465523064136505
0.05895853415131569
0.0858910083770752
-0.09279053658246994
-0.07410495728254318
0.005720445420593023
-0.07381758093833923
-0.073997363448143
-0.050083890557289124
0.0532294400036335
-0.02191445790231228
-0.08261368423700333
0.12795419991016388
0.07826061546802521
-0.04652426019310951
-0.025704482570290565
-0.05965912714600563
0.02008182741701603
-0.0813525915145874
-0.11860252916812897
-0.04945274069905281
0.013045640662312508
-0.1081312820315361
-0.0622309148311615
-0.008688071742653847
0.05304247513413429
0.03761184588074684
-0.0650014877319336
0.038748327642679214
0.059816960245370865
-0.1279953271150589
-0.0947040244936943
-0.02543300949037075
-0.005930562037974596
0.01889338716864586
0.00259251962415874
0.0032325477804988623
0.035861771553754807
0.005140678491443396
-0.013558102771639824
0.009577666409313679
-0.00395882036536932
0.009213079698383808
-0.02390545979142189
-0.02481393702328205
0.02417086251080036
0.0027642520144581795
-0.001926250639371574
0.06642512232065201
0.06937631964683533
0.05420801788568497
0.03845634683966637
-0.01846708357334137
0.01820356957614422
-0.014887615106999874
-0.10039384663105011
-0.028770972043275833
0.045457180589437485
-0.02293754182755947
-0.0059084524400532246
-0.02203681878745556
-0.00024674751330167055
0.03039909340441227
-0.05201201140880585
-0.007707709446549416
0.022752441465854645
-0.026688991114497185
-0.02003762312233448
-0.006737172603607178
0.012239271774888039
-0.023668482899665833
-0.005374024156481028
0.003584831254556775
0.0070922342129051685
-0.02649315819144249
0.009123262017965317
0.05215839669108391
0.032227784395217896
0.02882445603609085
0.05973927676677704
0.002165671903640032
-0.006469781044870615
0.07292940467596054
0.0364740788936615
-0.03993094339966774
-0.001017675269395113
0.021440165117383003
0.04423218220472336
0.056121859699487686
0.00885762833058834
0.03791387751698494
0.05219139903783798
0.043999072164297104
-0.025109773501753807
0.01317581906914711
0.03279171511530876
0.0011578059056773782
0.018086815252900124
-0.0060424841940402985
-0.018940772861242294
0.019857581704854965
0.015242544002830982
-0.017456859350204468
-0.0029498988296836615
0.016292240470647812
0.05333615466952324
0.05865740031003952
0.038450341671705246
-0.010527040809392929
0.027058808133006096
0.049754779785871506
-0.096435546875
-0.038700126111507416
-0.008761950768530369
-0.021474741399288177
0.031434979289770126
0.004017183557152748
0.007731202524155378
0.016545316204428673
-0.01408439502120018
0.03958459943532944
0.030677499249577522
-0.03087976947426796
0.05292220786213875
0.06320571899414062
0.0997898131608963
-0.046286292374134064
0.018285343423485756
0.08355835825204849
-0.13704806566238403
-0.07109424471855164
0.028868917375802994
0.03078356198966503
0.01900728978216648
-0.010023126378655434
-0.001364228199236095
0.05380881577730179
-0.00974338036030531
0.014289775863289833
0.06389918178319931
0.012000376358628273
-0.028528481721878052
-0.00172099145129323
0.01643781177699566
0.021097149699926376
0.01972757838666439
-0.004038853105157614
-0.028617531061172485
-0.04572244733572006
-0.04580496996641159
0.0014572817599400878
-0.02637438103556633
-0.01830936409533024
0.003972405567765236
-0.03443658724427223
-0.0506657138466835
-0.0012791838962584734
-0.037719905376434326
-0.03706653416156769
0.006828137673437595
0.030798129737377167
-0.022363368421792984
-0.012663841247558594
0.04343228042125702
0.008436331525444984
-0.04211191460490227
0.01790972799062729
0.001806158572435379
-0.039916832000017166
-0.06991077214479446
-0.025923877954483032
-0.04117992892861366
-0.09970322251319885
-0.06800965219736099
0.05752193555235863
0.0015212041325867176
-0.018202370032668114
0.03432408720254898
0.03225671499967575
0.025818634778261185
0.008467605337500572
-0.00045412618783302605
-0.010832197964191437
-0.006716613657772541
-0.015052423812448978
-0.026938745751976967
-0.012089123949408531
-0.023588476702570915
-0.022688599303364754
0.010134918615221977
0.018285006284713745
-0.01569492183625698
0.021352356299757957
0.05856823921203613
0.04287293925881386
0.014421154744923115
-0.028297988697886467
-0.007077042479068041
0.03026040829718113
-0.006629370152950287
-0.016901325434446335
0.03908463194966316
0.014222287572920322
0.022293873131275177
-0.07791085541248322
-0.07392935454845428
-0.03667144477367401
-0.034903060644865036
-0.0623551569879055
-0.037792500108480453
-0.028378745540976524
-0.05429133400321007
-0.04941093549132347
-0.012969710864126682
-0.021825123578310013
-0.00028766883770003915
0.0076443967409431934
0.017653239890933037
0.016659783199429512
0.038336604833602905
0.023005902767181396
-0.0016620415262877941
-0.08759170770645142
-0.08473540097475052
-0.05581803619861603
-0.0777314230799675
-0.08031114935874939
-0.032554272562265396
-0.05631329491734505
-0.04204696789383888
0.015246662311255932
0.016173824667930603
-0.004508893936872482
-0.0033706205431371927
0.003450402058660984
0.022603118792176247
0.033590808510780334
-0.009315775707364082
0.03189181536436081
0.03209512680768967
-0.01942584104835987
-0.022827699780464172
-0.015469290316104889
-0.016077302396297455
-0.024881046265363693
-0.006498940754681826
0.01828162558376789
0.021473223343491554
0.03821460157632828
-0.009150938130915165
-0.017565611749887466
0.020261775702238083
0.006734249647706747
0.02671086974442005
0.024566739797592163
-4.6279710659291595e-05
0.0061601679772138596
-0.011897310614585876
-0.01354899350553751
-0.005222628824412823
-0.008026586845517159
0.0026637923438102007
0.003180671250447631
-0.02020726352930069
0.009803345426917076
0.021716853603720665
0.01906219683587551
-0.051370881497859955
-0.053707774728536606
-0.05859082192182541
-0.07316786795854568
-0.023750079795718193
-0.010149222798645496
0.020556986331939697
0.03115767054259777
0.027168864384293556
-0.05770888179540634
-0.052993521094322205
-0.0197053924202919
-0.10324858874082565
-0.09390120953321457
-0.009635350666940212
-0.07918033748865128
-0.03740908205509186
-0.0011817219201475382
-0.003963362891227007
-0.03991523012518883
-0.01543435174971819
0.013325560837984085
-0.010094143450260162
0.026332801207900047
-0.005001240875571966
0.004870027769356966
0.02598528005182743
-0.03360022231936455
-0.09776368737220764
-0.10512039810419083
-0.04116950184106827
-0.12194313108921051
-0.08656827360391617
-0.012868114747107029
-0.059877533465623856
-0.024015095084905624
0.03235163912177086
0.007489403244107962
-0.0191732756793499
0.016050534322857857
0.01866765134036541
-0.01116052083671093
0.009456250816583633
-0.011909514665603638
0.0015801452100276947
0.00788035336881876
0.005929052829742432
0.02825191244482994
0.020157404243946075
0.011288942769169807
0.05732860043644905
0.032254792749881744
0.04412811994552612
0.03355123847723007
0.0006382348365150392
0.014991003088653088
0.001372339902445674
-0.03481549769639969
-0.002588014118373394
-0.0227056872099638
0.0008040382526814938
0.03202235326170921
0.02673790417611599
0.02283291518688202
-0.00505847716704011
0.004345826804637909
0.003889489220455289
0.02674992009997368
0.011388486251235008
0.018736843019723892
0.013976027257740498
-0.024825435131788254
0.013230491429567337
0.012712908908724785
0.002095161471515894
0.023886501789093018
0.01762033812701702
0.02315513603389263
-0.03414911776781082
0.0014490080066025257
0.004817106761038303
0.0010943373199552298
0.009462207555770874
-0.014157545752823353
0.010859355330467224
0.019960932433605194
0.01608165167272091
0.008050681091845036
0.03530791401863098
0.03833289444446564
-0.006017190869897604
0.0030455798842012882
-0.019040627405047417
-0.018918735906481743
0.030086267739534378
-0.011080874130129814
0.0162709541618824
0.02234818786382675
0.03047492541372776
-0.018933914601802826
0.01844523288309574
-0.009895214810967445
0.0035714947152882814
0.011261139996349812
0.0008261827751994133
0.0008836346096359193
0.005574265494942665
-0.0010930070420727134
0.0051398384384810925
-0.009168118238449097
-0.03559843823313713
0.004287200979888439
-0.005538842175155878
-0.015430866740643978
0.025967704132199287
0.005526661407202482
-0.0030993919353932142
-0.003778412938117981
-0.05540741607546806
-0.04076000303030014
-0.008213627152144909
-0.012344267219305038
0.028336983174085617
0.009529032744467258
-0.009809168986976147
0.001547337044030428
0.06506633758544922
0.08339019119739532
0.051737841218709946
0.030990619212388992
0.07633627206087112
0.0846189334988594
-0.009717044420540333
0.04893680661916733
0.034560415893793106
0.008371303789317608
-0.017995597794651985
-0.01932288520038128
-0.023917922750115395
-0.0358562134206295
-0.04781259968876839
-0.05350835993885994
-0.05987289920449257
-0.038172610104084015
0.015326106920838356
-0.00895556528121233
0.002164730802178383
0.022095002233982086
0.008505415171384811
0.023260099813342094
0.01798965036869049
0.015696100890636444
0.009799635037779808
-0.010225774720311165
0.01327210571616888
-0.012159472331404686
0.029267258942127228
0.0029660409782081842
0.00903958361595869
-0.027244683355093002
-0.058252520859241486
-0.036751627922058105
-0.020070604979991913
-0.014777375385165215
-0.03141161799430847
-0.012116771191358566
0.03694569319486618
-0.022306127473711967
-0.017622066661715508
-0.012063923291862011
0.009224267676472664
0.004039974417537451
-0.0006206585094332695
0.004685775376856327
-0.00855251681059599
0.01809127815067768
0.004012833349406719
0.0005703960196115077
0.002088775858283043
0.005813880357891321
-0.02019900642335415
-0.03100777231156826
-0.03546440228819847
-0.009540889412164688
-0.008826293982565403
-0.013485865667462349
-0.005600695498287678
-0.008575966581702232
-0.01916239596903324
-0.014720536768436432
-0.02905372716486454
-0.00723393727093935
-0.013178536668419838
0.0033602621406316757
-0.0026223137974739075
-0.02065725438296795
-0.02387082390487194
-0.011027047410607338
0.000992084969766438
-0.03185895085334778
-0.014182337559759617
0.011908971704542637
0.03545273467898369
0.03174063563346863
0.013776645995676517
0.03585754707455635
-0.014165413565933704
-0.061730120331048965
-0.0363239049911499
0.004281858913600445
-0.04800231754779816
0.00571655435487628
0.016707705333828926
0.005932127591222525
0.05415956676006317
0.08460671454668045
-0.008521059527993202
0.025176208466291428
0.013154392130672932
-0.014548242092132568
0.00791643001139164
0.012024560011923313
0.024155138060450554
0.04840278998017311
0.03876298666000366
-0.017002344131469727
0.005842684302479029
-0.0055502294562757015
-0.008413080126047134
0.00803042110055685
-0.00724401418119669
0.01078846026211977
0.004267514683306217
-0.012971215881407261
-0.057790759950876236
-0.03243475779891014
-0.020263899117708206
-0.027658093720674515
-0.0015000966377556324
0.013097463175654411
0.017301784828305244
0.034656938165426254
0.004797209519892931
-0.04302842170000076
0.0019197782967239618
-0.025029227137565613
-0.013294030912220478
0.03798523545265198
0.006997390650212765
-0.020787710323929787
0.0019582228269428015
-0.01731819100677967
-0.04599333181977272
-0.028602954000234604
-0.02411208674311638
-0.030334211885929108
-0.012242604047060013
-0.01626928336918354
-0.02940748818218708
-0.006930857431143522
-0.018427880480885506
-0.03358099237084389
-0.013922903686761856
-0.0018686418188735843
-0.0638318806886673
-0.10895155370235443
-0.039701320230960846
-0.0212714746594429
-0.06032460555434227
-0.032119523733854294
-0.03765313699841499
-0.0286417193710804
-0.04172284156084061
-0.018282048404216766
0.00346714467741549
-0.030306199565529823
-0.010994073934853077
-0.01589111052453518
-0.028094256296753883
-0.031749799847602844
-0.02949502319097519
-0.008844971656799316
0.026178525760769844
0.035480450838804245
0.0007604323327541351
0.014061697758734226
0.01083629485219717
-0.0032702123280614614
0.03964012488722801
0.04899504780769348
0.028092680498957634
0.07336261868476868
0.11856862902641296
0.08359674364328384
0.0420549102127552
0.12848636507987976
0.024683911353349686
0.019610855728387833
0.029017509892582893
0.022328397259116173
0.022738272324204445
0.07868095487356186
0.020867232233285904
0.00938060600310564
-0.0053442236967384815
0.0019646682776510715
-0.04289288446307182
-0.111347496509552
-0.09945432096719742
-0.056319911032915115
-0.1426149308681488
-0.11407696455717087
-0.02738727629184723
-0.07578332722187042
-0.061510611325502396
-0.02649351954460144
-0.04333322495222092
-0.015182347036898136
-0.08713124692440033
-0.14413681626319885
-0.09855636954307556
-0.12489815801382065
-0.1395944505929947
-0.09319129586219788
0.026049524545669556
0.10573935508728027
0.11705546081066132
0.0945618525147438
0.11975041031837463
0.021371806040406227
0.08192067593336105
0.021122798323631287
-0.04745648428797722
-0.03513449802994728
-0.08152647316455841
-0.03507693111896515
-0.02065865695476532
-0.061482999473810196
-0.058590639382600784
0.0023651004303246737
-0.023413142189383507
-0.013517956249415874
-0.02157433331012726
-0.014694316312670708
0.0008370139985345304
-0.014525036327540874
0.003934756852686405
0.024276355281472206
0.013446332886815071
0.05190020054578781
0.046674180775880814
-0.014692798256874084
-0.07631948590278625
-0.05213310942053795
-0.061194900423288345
-0.038232214748859406
-0.0065749771893024445
-0.003621138632297516
-0.009815143421292305
0.05579477548599243
0.024987446144223213
0.09272399544715881
0.09745508432388306
0.06206483393907547
0.1006726399064064
0.11894024163484573
0.05458454787731171
0.07758374512195587
0.0558076836168766
0.002559947781264782
-0.012728779576718807
0.03776048123836517
0.00030659945332445204
0.018826186656951904
0.05797216296195984
0.0024501080624759197
0.029478058218955994
0.04145730286836624
-0.024650756269693375
-0.014164122752845287
-0.049775321036577225
-0.015193537808954716
-0.011382554657757282
-0.03127189353108406
0.000659313693176955
-0.013712619431316853
0.015319126658141613
-0.008127215318381786
0.04091893881559372
0.047014135867357254
-0.011517184786498547
0.06157160550355911
0.05162569135427475
-0.015174441039562225
0.039225686341524124
0.019982706755399704
0.12230607867240906
0.10240519791841507
0.055126387625932693
0.04280844330787659
0.09941384196281433
0.11306683719158173
-0.011425213888287544
0.0810333639383316
0.16040971875190735
-0.008711835369467735
-0.022090433165431023
-0.011667569167912006
0.0008630972006358206
0.01822710782289505
-0.013321061618626118
0.02069329284131527
0.010021506808698177
-0.046857837587594986
0.04267109930515289
0.08140656352043152
0.05215878412127495
0.059075966477394104
0.11781362444162369
0.09560149163007736
0.0318499431014061
0.09578464180231094
0.05957667902112007
0.014887283556163311
-0.0037524751387536526
-0.024787116795778275
-0.025112498551607132
0.012949695810675621
-0.03621815890073776
-0.016120946034789085
-0.01056499220430851
-0.007937928661704063
0.028904428705573082
0.06060051918029785
0.015500017441809177
0.07325676828622818
0.07261120527982712
0.02389027737081051
0.015885071828961372
0.04150441288948059
-0.011650072410702705
-0.017377806827425957
-0.0007514164317399263
0.0240684412419796
-0.008028622716665268
-0.0037438219878822565
0.033854324370622635
0.013134903274476528
0.0500752292573452
0.05919001251459122
0.008440162986516953
0.013657353818416595
-0.0022658847738057375
-0.03577020391821861
0.007371065206825733
-0.001346485922113061
-0.02631755731999874
0.00136410107370466
0.02312600426375866
0.033545371145009995
0.007626482285559177
-0.03195260092616081
-0.01128296833485365
-0.003018668619915843
-0.0010505588725209236
4.581915709422901e-05
-0.004589037504047155
-0.018444925546646118
-0.01367991603910923
-0.046838123351335526
-0.022579018026590347
-0.044624075293540955
-0.10022300481796265
-0.05467323586344719
-0.007929990068078041
-0.031442273408174515
-0.014326889999210835
0.0011913884663954377
0.025530554354190826
0.02507137507200241
0.06162666529417038
0.04604431614279747
0.052475348114967346
0.06791329383850098
0.08334096521139145
0.028386903926730156
-0.032376937568187714
-0.040018480271101
-0.02952287346124649
-0.01529369130730629
-0.01416529156267643
0.002708636224269867
0.01165238581597805
0.02388586848974228
0.02441311813890934
0.0020891339518129826
-0.030475446954369545
-0.03381791338324547
0.006782897748053074
0.0003868067869916558
-0.014540409669280052
-0.0031306075397878885
0.006768923718482256
0.008452367968857288
0.030586035922169685
0.04628084599971771
0.00038359398604370654
0.05307897552847862
0.06748835742473602
0.030546970665454865
0.023373646661639214
0.043992720544338226
-0.0038712655659765005
0.013878187164664268
0.032723620533943176
0.04658401757478714
-0.008064677007496357
0.0016209448222070932
0.015152880921959877
-0.07034150511026382
-0.05329906567931175
-0.045920439064502716
0.046034857630729675
0.03540010005235672
0.03494127467274666
0.058351144194602966
0.054640334099531174
0.02716243825852871
0.026799211278557777
0.04505636543035507
0.006688556168228388
-0.03376574069261551
-0.038604751229286194
-0.024171940982341766
-0.0018284899415448308
0.010888004675507545
0.011425334960222244
0.02228201925754547
0.014024263247847557
0.0036331787705421448
-0.0028466202784329653
-0.017295120283961296
-0.026138901710510254
0.02118879184126854
-0.01273935753852129
0.018466683104634285
0.037094369530677795
0.11285457015037537
0.10514751076698303
-0.03869674727320671
-0.039351314306259155
-0.008498280309140682
-0.021052725613117218
-0.026481928303837776
-0.0016122324159368873
-0.02651856653392315
-0.03067193366587162
-0.004490467719733715
0.028286458924412727
0.011851519346237183
-0.005679523106664419
0.02171292155981064
0.02027406543493271
0.020120063796639442
-0.03870823606848717
-0.016390061005949974
0.028989994898438454
0.022959377616643906
0.03361283615231514
0.013289082795381546
0.011133071035146713
0.04377128183841705
0.03240380436182022
-0.025212472304701805
-0.024009210988879204
-0.003997182939201593
-0.030822502449154854
-0.010901730507612228
-0.029650533571839333
-0.039885252714157104
-0.028510645031929016
-0.0009240227518603206
-0.008016746491193771
-0.03433661535382271
-0.031506769359111786
-0.00678763585165143
0.026012973859906197
0.04838544502854347
-0.015646645799279213
-0.0035080250818282366
0.008081724867224693
-0.01756608672440052
-0.010642340406775475
-0.004454876761883497
0.009052026085555553
0.023272506892681122
0.008516399189829826
-0.004027643706649542
0.019238600507378578
0.021721510216593742
-0.03996608778834343
-0.023850170895457268
-0.0020044762641191483
-0.02487993612885475
-0.03894172981381416
-0.03597886487841606
0.013589330948889256
0.01263170875608921
0.015622072853147984
0.008542286232113838
0.050467293709516525
0.03495797514915466
-0.03475673869252205
-0.05481516942381859
-0.05263368412852287
0.006602717097848654
-0.02067386731505394
-0.020632361993193626
0.035062026232481
0.05656169727444649
-0.020922740921378136
-0.016030456870794296
-0.05836924538016319
-0.048809170722961426
-0.004002762958407402
-0.045878637582063675
-0.02603146806359291
-0.0024847930762916803
-0.023543385788798332
-0.0023169335909187794
-0.022899437695741653
-0.010619910433888435
-0.01359242107719183
-0.008328580297529697
-0.012437896803021431
-0.024832136929035187
0.0030040154233574867
0.017700577154755592
-0.009694144129753113
-0.048057448118925095
-0.10087712109088898
-0.05716352537274361
-0.04955191910266876
-0.10601890832185745
-0.047097958624362946
0.022403346374630928
-0.0161387138068676
-0.021121308207511902
0.02793152444064617
0.03917865827679634
0.02897411212325096
-0.04163007810711861
-0.010476102121174335
0.02066975273191929
-0.07943122833967209
-0.056196048855781555
-0.01712641306221485
-0.04258633777499199
-0.08210597187280655
-0.04311882331967354
-0.06526824831962585
-0.10538078099489212
-0.08267839252948761
-0.08344543725252151
-0.12421713769435883
-0.08336582034826279
0.0036536655388772488
-0.03476235270500183
-0.008785519748926163
-0.05072867497801781
-0.08505227416753769
-0.07162416726350784
-0.0290396586060524
-0.059976570308208466
-0.05897979438304901
-0.054476138204336166
-0.0674736350774765
-0.060256633907556534
0.025662459433078766
0.002939948346465826
-0.01154100988060236
0.04617172107100487
0.06268635392189026
0.04539305716753006
-0.04607810080051422
-0.056089796125888824
-0.03718648478388786
-0.02353697456419468
-0.01668228954076767
0.00466518010944128
-0.05481523647904396
-0.05044646933674812
0.0064492663368582726
0.02405707724392414
-0.030070394277572632
0.0149342380464077
0.0195678249001503
-0.015321767888963223
0.007258098106831312
0.03630996495485306
0.030089031904935837
0.023851150646805763
-0.059973400086164474
-0.053504541516304016
-0.031041214242577553
0.004304356407374144
-0.013495140708982944
0.012810727581381798
0.04611020162701607
0.028544344007968903
0.04722888767719269
-0.015425087884068489
0.025726519525051117
0.05201970040798187
0.03742966800928116
0.03145655244588852
0.02883097715675831
0.043609511107206345
0.025909049436450005
-0.006830164697021246
0.021274661645293236
0.021719230338931084
0.010204549878835678
-0.017735986039042473
0.016524774953722954
-0.016223283484578133
-0.03288974612951279
-0.0034207357093691826
-0.05079689249396324
0.028684917837381363
0.04509320482611656
0.059533365070819855
-0.020734388381242752
0.0002838236978277564
0.00034617295023053885
-0.026531415060162544
-0.007082788273692131
-0.006427173502743244
-0.03579562157392502
-0.059410460293293
-0.06805673986673355
-0.004763014614582062
0.012375064194202423
-0.014121495187282562
0.03809647262096405
0.10518333315849304
0.08942155539989471
0.04898190125823021
0.07025908678770065
0.017990702763199806
0.0806330144405365
0.1310926228761673
0.08860911428928375
0.08591591566801071
0.20782989263534546
0.12566544115543365
0.01635137014091015
0.041362181305885315
0.041182614862918854
0.012316642329096794
0.04751186445355415
0.05661564692854881
-0.004952988121658564
0.031160209327936172
0.04791215807199478
-0.004162917844951153
-0.012253093533217907
-0.006037430837750435
0.008353671990334988
-0.015324831940233707
-0.0008687690133228898
0.03552771732211113
-0.0043066563084721565
0.029680239036679268
-0.0003613677981775254
0.027087518945336342
0.008030191995203495
0.012697887606918812
0.031223976984620094
0.0401054285466671
0.021212942898273468
0.05438894033432007
0.021177761256694794
-0.011028125882148743
-0.02352389320731163
-0.03848160058259964
0.009742074646055698
0.0023423805832862854
-0.03567054867744446
0.020362624898552895
0.043633077293634415
0.038157474249601364
0.05051108077168465
0.06684823334217072
0.012578427791595459
0.028224799782037735
0.04030098021030426
0.008429178968071938
0.0473208874464035
0.08201216161251068
0.038892462849617004
0.05107170715928078
0.10162624716758728
0.07939087599515915
-0.04390675574541092
0.019113263115286827
0.03491747006773949
-0.06836847960948944
-0.06375137716531754
-0.00890701450407505
-0.004737291019409895
-0.024099212139844894
-0.011076705530285835
0.02474275417625904
0.024688279256224632
-0.004237339831888676
0.04795313626527786
0.044826410710811615
0.01229869294911623
-0.05806255340576172
-0.05894975736737251
-0.08782168477773666
-0.002384017687290907
0.018491750583052635
-0.06712312996387482
0.02241266891360283
0.09754685312509537
0.01523062214255333
0.002738337032496929
-0.007542264647781849
-0.022881118580698967
0.022822318598628044
0.02593284286558628
0.005203127861022949
0.027096837759017944
0.04294667765498161
0.04180804267525673
-0.0016594409244135022
0.01802588813006878
-0.02131807431578636
0.015226705931127071
0.05192515626549721
0.030233977362513542
-0.013571033254265785
0.004234174732118845
-0.009076341986656189
0.02294624038040638
0.04902919381856918
0.050828903913497925
0.023341018706560135
0.05004091560840607
0.06225205212831497
-0.003332255408167839
-0.002835675608366728
0.017331451177597046
0.0021840427070856094
0.0022929736878722906
-0.03944322094321251
-0.020627258345484734
0.001739048631861806
-0.010431886650621891
-0.0016686052549630404
-0.008900717832148075
-0.019557995721697807
0.04860862344503403
0.05127933621406555
0.04565448313951492
0.00835731253027916
0.013113236054778099
0.041574232280254364
-0.046454671770334244
-0.016385190188884735
0.02520996518433094
0.0208106879144907
0.015421382151544094
-0.015286717563867569
0.01851106435060501
-0.011811337433755398
0.015442168340086937
-0.0017839217325672507
-0.0009600438643246889
0.017915252596139908
-0.007499402854591608
-0.014556306414306164
-0.012444418855011463
-0.00037514095311053097
-0.01952514611184597
-0.023550547659397125
0.011713894084095955
-0.028980908915400505
-0.019092760980129242
-3.4581596537464065e-06
-0.026570502668619156
-0.02519059367477894
-0.001748095266520977
-0.009206628426909447
0.00015732723113615066
-0.020869789645075798
-0.0032881703227758408
-0.011183079332113266
0.015895115211606026
0.015599720180034637
0.019028015434741974
-0.05228263512253761
-0.044981539249420166
-0.024525873363018036
-0.01767992600798607
-0.039854470640420914
-0.012728990986943245
-0.007023313082754612
-0.05858787149190903
-0.043806370347738266
-0.004777597729116678
-0.03615577518939972
-0.052153438329696655
0.012119666673243046
0.009092837572097778
0.002897802973166108
-0.016759568825364113
-0.00044380928738974035
0.012690742500126362
-0.03510255739092827
-0.016564730554819107
-0.0003301647084299475
-0.06624497473239899
-0.03324853256344795
-0.0109246289357543
0.002582523738965392
0.038657672703266144
0.007904407568275928
0.0028591197915375233
0.05637779459357262
0.025377098470926285
-0.01387184951454401
-0.009651467204093933
0.02147754281759262
-0.0141880689188838
-0.00808212161064148
-0.019305232912302017
-0.030730698257684708
-0.018713494762778282
-0.018308749422430992
-0.0285040270537138
0.0034333483781665564
-0.03511098027229309
0.020939471200108528
0.011436636559665203
-0.04037260636687279
0.06891059875488281
0.08203357458114624
-0.00802879873663187
0.08367108553647995
0.10597437620162964
0.002057616366073489
0.02225329540669918
0.06201125681400299
0.05674399062991142
0.036282654851675034
0.07351817935705185
0.05885523185133934
0.03151942789554596
0.04633503034710884
0.0033318756613880396
-0.016130028292536736
0.010671326890587807
0.014427443034946918
0.013108613900840282
-0.015368630178272724
0.006680283695459366
0.0012160222977399826
0.0008736337767913938
0.008460483513772488
-0.039054643362760544
-0.053222544491291046
-0.01577409915626049
-0.0022136701736599207
-0.02458803728222847
-0.0019327589543536305
0.011050907894968987
0.02469424344599247
0.015045501291751862
-0.060348667204380035
-0.06145055219531059
-0.019364314153790474
-0.0244807880371809
-0.03844424709677696
0.00600413465872407
0.0421004593372345
0.02283710427582264
0.009347029961645603
0.009322217665612698
0.011986108496785164
0.021828163415193558
0.0024747601710259914
-0.005278156604617834
-0.007313725538551807
-0.02299245074391365
0.015956813469529152
-0.01870393194258213
-0.01937841810286045
-0.020158158615231514
-0.06391121447086334
0.01900840364396572
0.03475743904709816
-0.0021647948306053877
0.03462632745504379
0.09368550032377243
0.016969546675682068
0.028910288587212563
0.018746741116046906
0.011497598141431808
0.009232919663190842
0.021175023168325424
0.016822531819343567
-0.027669068425893784
-0.039624620229005814
-0.025770701467990875
-0.02490483969449997
-0.019808830693364143
0.012971850112080574
-0.009779290296137333
-0.023257730528712273
0.008540836162865162
0.0476003997027874
-0.016870953142642975
0.002322849817574024
-0.04047616943717003
-0.08992628008127213
-0.08307395875453949
-0.08700618892908096
-0.15852776169776917
-0.12844541668891907
-0.011897552758455276
-0.05545288696885109
-0.03328380733728409
0.02966858446598053
-0.0026680619921535254
-0.024794824421405792
-0.04828076437115669
-0.06583847105503082
-0.02824973873794079
-0.10031092166900635
-0.08169752359390259
-0.028807027265429497
-0.02897994965314865
-0.014706647023558617
0.0317416749894619
-0.012071431614458561
-0.028001779690384865
-0.00660643121227622
-0.03366747498512268
-0.0018930889200419188
-0.03920064494013786
-0.029194381088018417
-0.019288532435894012
-0.03695384040474892
0.0023485017009079456
0.012930961325764656
-0.002300912281498313
0.02399049885571003
0.03395587205886841
-0.006817546673119068
-0.016330458223819733
-0.06955155730247498
-0.08973745256662369
0.03976570442318916
0.015500507317483425
-0.022694993764162064
0.10290143638849258
0.12294276803731918
0.06386741250753403
-0.0042317756451666355
0.04951067268848419
-0.007628856226801872
-0.027719596400856972
0.007039800751954317
-0.009405194781720638
-0.06700753420591354
-0.06054232269525528
-0.025966867804527283
-0.005856000352650881
-0.017573045566678047
-0.038016293197870255
0.0028579419013112783
-0.0041602845303714275
0.01011313870549202
0.026242520660161972
0.03520044684410095
0.03114308789372444
-0.025387674570083618
-0.02376546710729599
-0.008066031150519848
-0.01720789074897766
-0.017973994836211205
-0.032719314098358154
-0.02204815112054348
-0.06758791208267212
-0.10610667616128922
-0.007199469488114119
-0.02332894504070282
-0.023028498515486717
0.005395718850195408
0.0147206149995327
0.021750060841441154
-0.012214181013405323
0.0036763211246579885
0.008112631738185883
0.033555734902620316
-0.021126804873347282
-0.031845904886722565
0.0002626612549647689
-0.0824628546833992
-0.06421905010938644
-0.05291949585080147
-0.1126951202750206
-0.05200063809752464
0.004632183816283941
-0.0022461004555225372
0.004789581056684256
-0.014191064052283764
-0.002896903082728386
0.029583992436528206
-0.009523672983050346
0.03367423638701439
0.009393196552991867
-0.02737397700548172
-0.06793207675218582
-0.08878143876791
-0.04243039712309837
-0.08051598072052002
-0.07179518043994904
-0.06615955382585526
-0.08545459806919098
-0.057204388082027435
-0.015920396894216537
0.017385803163051605
0.020076628774404526
0.010492808185517788
0.03874855488538742
0.02678072825074196
0.021899253129959106
-0.01852690428495407
0.05278922989964485
0.019779253751039505
0.015640873461961746
-0.024511972442269325
0.013770020566880703
0.016422603279352188
-0.03563927114009857
-0.011918553151190281
-0.004836701788008213
-0.02527076005935669
0.011719431728124619
0.04516374692320824
0.0039785257540643215
-0.010802014730870724
0.027169622480869293
-0.011247646994888783
-0.03276944160461426
0.00571786193177104
-0.011180698871612549
-0.04401889815926552
-0.008258659392595291
-0.04352382570505142
-0.08792854845523834
-0.047506123781204224
-0.02671065740287304
-0.07309893518686295
0.0020740015897899866
0.052273038774728775
0.021775884553790092
0.02382117323577404
0.016098540276288986
0.04445423185825348
0.044674504548311234
0.036708757281303406
0.02947094850242138
0.024475952610373497
0.016860783100128174
0.007669931277632713
0.004981292877346277
0.008259203284978867
0.003861764445900917
0.0008109440677799284
-0.03752021864056587
-0.04388827458024025
-0.05892191454768181
-0.05486375838518143
0.0016801536548882723
0.01128171756863594
0.03946015238761902
0.0254635289311409
0.06412774324417114
0.03687489777803421
-0.01651160977780819
-0.00865041371434927
-0.02653585933148861
0.00028341132565401495
-0.03024987131357193
-0.039341460913419724
0.023373262956738472
-0.005754739977419376
0.018295718356966972
0.019123373553156853
0.028616411611437798
0.054005663841962814
0.017511403188109398
0.0054133883677423
-0.025678478181362152
0.015326054766774178
0.03237563744187355
-0.01060199923813343
-0.003083927556872368
0.020866096019744873
-0.015381953679025173
0.030096502974629402
-0.0038007318507879972
0.03997242823243141
-0.012687226757407188
-0.004809276666492224
0.041904203593730927
0.014767426997423172
-0.022557659074664116
0.02263861522078514
-0.015646466985344887
0.003109975717961788
-0.01275993324816227
-0.012812777422368526
0.03043779730796814
-0.020383352413773537
-0.02389024756848812
0.008315710350871086
0.019263088703155518
-0.021686933934688568
-0.017368976026773453
-0.014260534197092056
-0.02036532573401928
0.0017965431325137615
0.015823354944586754
-0.02285638079047203
0.0203637033700943
0.0364285446703434
0.018311845138669014
-0.04154225438833237
-0.00940986443310976
7.689292397117242e-05
-0.0222097709774971
-0.021989507600665092
-0.014026653952896595
-0.02447497472167015
-0.005301647819578648
0.025523517280817032
0.009775480255484581
-0.0041177230887115
0.03195174038410187
0.001268221065402031
0.02177407592535019
-0.002721014665439725
0.003640422597527504
0.03934384509921074
-0.015031146816909313
0.004451902117580175
0.004209599457681179
0.028997523710131645
0.027158379554748535
0.005028916522860527
0.034001003950834274
0.05950324982404709
0.037022557109594345
0.01367474440485239
0.021290745586156845
0.02619975246489048
-0.003923261538147926
0.02418101206421852
0.051744114607572556
0.0029701697640120983
0.023239675909280777
0.03793031722307205
0.033493995666503906
-0.0071439859457314014
-0.02159200981259346
-0.017620107159018517
-0.03941243141889572
-0.013465401716530323
-0.005342640448361635
0.014005113393068314
0.03337763994932175
0.02040502429008484
0.0031093570869416
-0.011835572309792042
-0.012586131691932678
0.020426996052265167
-0.011896217241883278
-0.040953993797302246
-0.001123970840126276
-0.013360472396016121
-0.023111717775464058
-0.027764618396759033
-0.0062487004324793816
-0.017255589365959167
0.03886593133211136
0.08622771501541138
-0.006036561913788319
0.05932880565524101
0.09806858003139496
-0.034697242081165314
-0.015301487408578396
0.023189326748251915
-0.003834980772808194
0.02374888025224209
0.07657760381698608
0.03942651301622391
0.06936021894216537
0.050809308886528015
-0.006695454940199852
0.0037474024575203657
0.004053520038723946
-0.0026043131947517395
0.023345578461885452
-0.001027276273816824
-0.006365171167999506
0.00758255273103714
0.027910199016332626
0.006864768918603659
-0.001181689091026783
0.01631672866642475
-0.004226943012326956
0.02422325871884823
0.005136759020388126
0.011748602613806725
0.027616621926426888
0.04138684272766113
-0.014563613571226597
-0.024436337873339653
-0.013412384316325188
-0.032230254262685776
-0.020071055740118027
-0.02216113731265068
-0.02386574260890484
-0.003923870623111725
-0.003290313296020031
-0.0024269819259643555
-0.007092682179063559
0.0017123621655628085
-0.0017235068371519446
-0.013007542118430138
-0.01006554625928402
0.0009756940416991711
-0.0049334364011883736
0.003229031339287758
0.006728506181389093
0.03134795278310776
0.02223680354654789
-0.024552898481488228
0.02335401624441147
0.025737425312399864
-0.004929517861455679
0.036978013813495636
0.04368874430656433
-0.034099727869033813
-0.051148008555173874
-0.001501300255768001
-0.06998495757579803
-0.03553302586078644
-0.03136797994375229
-0.07382480055093765
-0.08410036563873291
-0.009618288837373257
-0.007877200841903687
-0.02468610741198063
-0.03270481899380684
-0.0016313036903738976
0.0004929021815769374
0.005708108656108379
-0.04329846054315567
-0.011597277596592903
0.003320355899631977
-0.013223237358033657
-0.030458111315965652
-0.015594636090099812
-0.024542424827814102
-0.012499853037297726
0.01775488443672657
0.017048561945557594
0.0480063259601593
0.04964666813611984
-0.015790972858667374
-0.02063906006515026
-0.013056375086307526
-0.024247614666819572
-0.026296786963939667
0.0039585349150002
-0.024714527651667595
-0.012635561637580395
0.0204689409583807
-0.03677191585302353
-0.032880157232284546
-0.021313538774847984
-0.04556441307067871
-0.02980133704841137
-0.0005169412470422685
-0.03828366473317146
-0.007306759711354971
0.019807683303952217
-0.02855924516916275
-0.035558801144361496
-0.05006011947989464
-0.040145136415958405
-0.04017734155058861
-0.03380868583917618
-0.0643567442893982
-0.05463051795959473
-0.030406497418880463
0.013084650970995426
0.05178132280707359
0.049259692430496216
0.014147906564176083
0.054494164884090424
0.019649507477879524
-0.042695142328739166
-0.03912704810500145
-0.02620599791407585
-0.025204189121723175
-0.02379070222377777
-0.0019366475753486156
-0.0024840713012963533
0.061701152473688126
0.08559342473745346
-0.0019398200092837214
0.06493876874446869
0.05820120871067047
-0.05883489549160004
-0.014384640380740166
-0.03444657102227211
-0.0011828079586848617
0.00723053514957428
-0.02829451486468315
0.0008112801588140428
-0.012149421498179436
0.023880980908870697
0.021966570988297462
0.032897401601076126
0.0809994786977768
0.03361772745847702
0.051410794258117676
0.01933320239186287
0.015537857078015804
-0.020422596484422684
-0.09933100640773773
-0.029246162623167038
-0.01745544746518135
0.0063675083220005035
-0.02535349130630493
0.06005142256617546
0.059211499989032745
-0.006825245916843414
0.06471075117588043
0.09622418135404587
0.010825217701494694
0.03007771074771881
-0.000586337351705879
-0.027720630168914795
-0.017843935638666153
-0.057236406952142715
-0.04432341456413269
-0.06077864393591881
-0.07744532078504562
0.02745097503066063
-0.01925654523074627
-0.03122706711292267
0.015475732274353504
0.009251770563423634
-0.09442088007926941
-0.04305248335003853
-0.11724106222391129
-0.1775655448436737
0.030346516519784927
0.018714966252446175
0.02918018400669098
0.08101042360067368
0.04186730459332466
0.12281849980354309
0.09211641550064087
0.12159453332424164
0.14385850727558136
0.004247074946761131
-0.03107471764087677
-0.032854922115802765
-0.013508781790733337
-0.030080724507570267
-0.002074439777061343
0.005704028531908989
0.014140637591481209
0.040749795734882355
-0.01559943612664938
-0.020644882693886757
-0.018750082701444626
-0.004062818828970194
-0.010574516840279102
-0.016552971675992012
-0.01596073992550373
-0.017541775479912758
-0.015470131300389767
-0.005844921339303255
-0.02599967271089554
0.019451363012194633
-0.02442869171500206
0.049772653728723526
0.038992755115032196
-0.00016853332635946572
0.015071755275130272
0.037190813571214676
-0.02788533829152584
0.014794505201280117
0.033607117831707
0.01430879533290863
-0.0017541609704494476
0.13833077251911163
0.08940183371305466
0.1361110806465149
0.14715659618377686
0.019317910075187683
-0.007772077340632677
-0.04765225574374199
0.03891024366021156
0.035295918583869934
0.017556915059685707
-0.017899595201015472
0.0027578752487897873
0.029857506975531578
0.007915068417787552
0.006729171145707369
0.051107894629240036
0.02179902233183384
0.03233206644654274
0.0268007293343544
-0.02620217576622963
-0.05032786354422569
-0.04919916391372681
0.02072400599718094
0.0017672483809292316
-0.014036517590284348
0.036267612129449844
0.06174270808696747
-0.057297684252262115
0.04160946607589722
-0.0030712075531482697
-0.07517135143280029
0.014022836461663246
-0.04415488615632057
-0.09911937266588211
-0.05720456317067146
-0.0718587189912796
-0.18361710011959076
-0.10826065391302109
-0.17095953226089478
-0.17482972145080566
0.0008327249670401216
0.02075115032494068
0.013028291054069996
-0.024033598601818085
0.008166870102286339
0.016946064308285713
-0.0016342605231329799
0.007275160402059555
0.01608298532664776
0.02628951333463192
-0.031456854194402695
-0.010240079835057259
-0.008909440599381924
-0.03339776024222374
-0.06594528257846832
-0.003084845608100295
-0.08115958422422409
-0.09217935800552368
-0.027225077152252197
-0.044167108833789825
0.014325087890028954
-0.08067631721496582
-0.022308452054858208
-0.01836356893181801
-0.03540434315800667
-0.04888268932700157
-0.028612758964300156
-0.04349856451153755
-0.025456326082348824
-0.030402131378650665
0.011145805940032005
-0.005173616111278534
0.08155281096696854
0.08117440342903137
0.15302540361881256
0.14225222170352936
0.021794987842440605
0.03609821945428848
0.020010843873023987
0.04046410694718361
0.029883328825235367
0.023637663573026657
0.00038031203439459205
0.0075112213380634785
0.005301246885210276
-0.01217655185610056
0.027135906741023064
0.025813234969973564
-0.016473712399601936
0.029100483283400536
-0.0020186505280435085
0.018035830929875374
0.0320737287402153
0.016050633043050766
-0.0007121342932805419
-0.028229257091879845
-0.01977129466831684
0.0032347210217267275
0.013418763875961304
0.004988999105989933
0.013048483058810234
0.023999309167265892
0.005080651491880417
0.031045913696289062
0.025828639045357704
-0.024137964472174644
0.015564082190394402
0.014847781509160995
-0.009548263624310493
-0.031004585325717926
-0.07361628860235214
-0.04610073193907738
-0.004750686232000589
0.07827691733837128
0.08870290964841843
0.0786883607506752
0.0973229929804802
0.20938749611377716
0.10755974799394608
0.21462275087833405
0.2011265605688095
-0.0033712396398186684
-0.03000342845916748
-0.02117420732975006
-0.005094550549983978
-0.030249956995248795
-0.02873123250901699
-0.005055103916674852
-0.01760571449995041
-0.010126379318535328
0.017401281744241714
0.02504667639732361
-0.0016822199104353786
0.06733176112174988
0.06375707685947418
0.04724647104740143
0.04448019713163376
0.03779289126396179
0.04127883538603783
0.02510833740234375
-0.0004411386908032
0.0007585537969134748
0.008400282822549343
0.02606053650379181
0.04435039311647415
0.013867681846022606
-0.00406184047460556
0.06381375342607498
0.027531271800398827
0.03905634209513664
0.0008539248374290764
0.044056277722120285
0.014089245349168777
-0.04622519388794899
-0.017758820205926895
-0.07707633823156357
-0.08589901030063629
-0.043236471712589264
-0.01784713752567768
-0.020208129659295082
-0.007101958151906729
0.03307875618338585
0.016018705442547798
-0.024178044870495796
0.015104757621884346
-0.010408683679997921
0.05751630291342735
0.021387577056884766
-0.02150965854525566
0.04440616816282272
-0.004686466883867979
-0.05454586073756218
0.0063071777112782
-0.02967742085456848
-0.043268054723739624
0.04487374424934387
-0.0005572546506300569
0.02065046690404415
0.003921786323189735
-0.02106194943189621
-0.004475944675505161
-0.03180431202054024
-0.008437043987214565
-0.003827181411907077
0.019404763355851173
0.007187939714640379
-0.0025441788602620363
0.01227519754320383
-0.007011883892118931
-0.02172045409679413
-0.014236810617148876
-0.0348433256149292
-0.03626921400427818
-0.033267609775066376
-0.008128072135150433
-0.027583857998251915
-0.011557014659047127
-0.012941351160407066
-0.004463438875973225
0.005146667826920748
-0.013213073834776878
0.005654654931277037
-0.014524820260703564
-0.01802407018840313
-0.030824191868305206
-0.020299391821026802
-0.009012826718389988
0.0018841048004105687
0.0040833973325788975
0.007171575911343098
0.010824181139469147
-0.02399936318397522
-0.023920148611068726
-0.03134250268340111
-0.05243852362036705
-0.03171882778406143
-0.039295095950365067
0.010118328034877777
0.019336650148034096
-0.011457934975624084
-0.04380720108747482
-0.019799336791038513
-0.03241412714123726
-0.0425349660217762
0.0032943186815828085
-0.007402230519801378
-0.0101929297670722
0.03644650802016258
0.04152887314558029
-0.040221937000751495
0.010204694233834743
-0.00784334633499384
-0.011889360845088959
0.03741857036948204
-0.0030328219290822744
-0.010797820053994656
0.015472285449504852
0.0038078497163951397
-0.010670074261724949
-0.02287963032722473
-0.0317821130156517
0.025093942880630493
0.0003403897862881422
-0.02670060656964779
-0.03994900360703468
-0.015452688559889793
0.022309517487883568
-0.022000443190336227
0.035507190972566605
0.006098352372646332
-0.0019099956844002008
0.002102858619764447
-0.034564945846796036
-0.008025712333619595
-0.03360520303249359
0.011201237328350544
0.0539371483027935
0.06460761278867722
-0.031300924718379974
0.0126084228977561
0.009028675965964794
-0.04120232164859772
-0.02412223257124424
-0.01064210757613182
-0.030694307759404182
0.003203206928446889
0.0011284735519438982
-0.017958028241991997
-0.01048212219029665
-0.003483629785478115
-0.02444612793624401
-0.025042571127414703
-0.006561150774359703
0.0037552188150584698
-0.1056172251701355
-0.07193855941295624
-0.07385692000389099
-0.04413934051990509
0.019390769302845
0.0653652474284172
0.08021917939186096
0.08318543434143066
0.056026797741651535
0.010396123863756657
-0.005257816985249519
-0.0019905329681932926
0.003210086841136217
0.004765537101775408
-0.00825454480946064
-0.018268702551722527
-0.01770971715450287
-0.009893443435430527
-0.024169832468032837
-0.03389749675989151
-0.027830181643366814
-0.019591011106967926
-0.021906482055783272
0.008505596779286861
-0.017681730911135674
0.007925089448690414
0.028350548818707466
0.013028278015553951
-0.004063036758452654
-0.11385586857795715
0.018468637019395828
-0.11861470341682434
-0.1685103476047516
-0.038470905274152756
-0.13738997280597687
-0.06085338816046715
0.009575815871357918
0.042256273329257965
0.0012265164405107498
0.02502276934683323
0.019077101722359657
-0.02667686715722084
0.0020866955164819956
0.014617297798395157
-0.01896239072084427
0.03635752573609352
0.024434279650449753
-0.018725113943219185
0.015412232838571072
-0.0131211644038558
-0.041424352675676346
-0.008613787591457367
-0.010060608386993408
-0.0045160227455198765
-0.05506538599729538
-0.07304801791906357
-0.05312874913215637
0.0036895021330565214
-0.019752344116568565
0.0372534915804863
0.02889878675341606
0.02185339666903019
0.03437371551990509
0.03508811444044113
0.009563176892697811
-0.011918030679225922
-0.012888174504041672
-0.020800743252038956
-0.0058569759130477905
-0.002439010189846158
0.012310726568102837
0.031858351081609726
0.07498089969158173
0.037712763994932175
-0.005550805013626814
-0.0633908286690712
-0.08804119378328323
-0.12356259673833847
-0.13606615364551544
-0.19004864990711212
-0.11197827756404877
-0.00041110601159743965
0.004062735475599766
0.0034848004579544067
-0.00429962994530797
0.033703647553920746
0.029967084527015686
-0.019351854920387268
0.04076996445655823
0.0155174033716321
0.01030565146356821
0.04090617224574089
0.03305736556649208
0.03904110938310623
0.03169960901141167
-0.02095181494951248
0.0019131943117827177
-0.03410739824175835
-0.06189342588186264
-0.035707782953977585
-0.012718348763883114
0.012042367830872536
0.03621108829975128
-0.001764424261637032
0.032904233783483505
0.042290616780519485
0.05113983899354935
0.0589684322476387
-0.07205560058355331
-0.08524879068136215
-0.030555585399270058
-0.05888829752802849
0.014284593053162098
0.06941703706979752
0.02367750182747841
0.12322948127985
0.08138203620910645
-0.004571604076772928
0.0010406490182504058
-0.011995162814855576
-0.015974799171090126
-0.0032565640285611153
0.008848139084875584
-0.003570305183529854
0.017052389681339264
0.028947442770004272
-0.0026202595327049494
-0.02209780178964138
-0.028212953358888626
-0.00519025232642889
-0.03198355436325073
0.0336284264922142
-0.001341946772299707
0.023901894688606262
0.02651725336909294
-0.04747370630502701
-0.004721435252577066
0.02270856685936451
-0.003540509846061468
0.011998509056866169
0.011234859004616737
0.011426453478634357
0.07472721487283707
-0.007372607942670584
-0.004070519004017115
-0.00784921646118164
-0.020842017605900764
0.026705440133810043
-0.002960221143439412
-0.03275667130947113
-0.006114236079156399
-0.023348288610577583
0.0016225773142650723
0.009260658174753189
-0.02488243207335472
-0.047756969928741455
0.014712858945131302
0.0005467707524076104
-0.0011914280476048589
-0.015919964760541916
-3.089967867708765e-05
-0.006013202015310526
-0.0006041578599251807
-0.021594056859612465
-0.02365947514772415
-0.01883123070001602
-0.02689542807638645
-0.006895035970956087
0.001927388715557754
-0.008378375321626663
0.011373519897460938
-0.023845696821808815
-0.011910357512533665
0.0015837487298995256
-0.03704490885138512
0.003484200919046998
0.04049532860517502
-0.02074400894343853
0.02321406453847885
0.035418443381786346
-0.03991808742284775
-0.02314409427344799
-0.025408603250980377
-0.05368812382221222
-0.00022948830155655742
0.020703591406345367
-0.02477521449327469
0.04436229169368744
0.02472609095275402
-0.022535284981131554
-0.006323862820863724
0.0026194266974925995
0.00686927605420351
0.02623632736504078
0.012663483619689941
0.0037243738770484924
0.01781477779150009
-0.0025451965630054474
-0.02231387048959732
-0.009187385439872742
0.06911571323871613
-0.016421301290392876
0.02478017844259739
0.049960289150476456
-0.008478716015815735
0.02223292738199234
-0.009191499091684818
-0.02791651338338852
-0.025817735120654106
-0.005481984466314316
-0.026098737493157387
-0.00918920710682869
0.015423940494656563
-0.00760909728705883
0.005003575701266527
0.02448624186217785
0.015921371057629585
0.07093223929405212
0.03521489351987839
0.08573190122842789
0.10436069965362549
0.06773976236581802
0.04840319976210594
0.060782283544540405
-0.08637000620365143
-0.021550841629505157
-0.019567945972085
-0.0013474422739818692
-0.005171900149434805
0.011447631753981113
0.004311835393309593
0.020428000018000603
-0.009409456513822079
0.0005937317037023604
-0.008545869961380959
0.015772094950079918
0.04867798462510109
0.03128980100154877
0.03718869760632515
0.026115920394659042
0.01181555911898613
0.008313998579978943
-0.025866637006402016
0.03288077935576439
0.02607639878988266
-0.03569662943482399
0.03500501066446304
-0.005298159550875425
-0.06524466723203659
0.007607296574860811
-0.055572085082530975
-0.06321988999843597
0.02263481542468071
0.01124474499374628
-0.003589280880987644
0.05029869079589844
0.034026697278022766
-0.07234928011894226
-0.013714926317334175
-0.0420476570725441
-0.09877235442399979
-0.038953833281993866
-0.02258247695863247
0.012683715671300888
-0.03784935548901558
-0.018744148313999176
0.010235805064439774
0.023372719064354897
0.05270898714661598
0.05828368291258812
-0.005500492639839649
0.0032586180604994297
-0.015335271134972572
0.01594553515315056
-0.0015291305026039481
-0.0009684207616373897
-0.0033146883361041546
-0.00521595124155283
0.023910757154226303
-0.026894470676779747
-0.0010467679239809513
0.0034495838917791843
-0.009381365031003952
0.014634231105446815
0.006814354564994574
-0.0048577082343399525
0.010747410356998444
-0.00408973591402173
0.0004785151977557689
-0.05200521647930145
-0.032015930861234665
-0.042502954602241516
-0.03481023758649826
-0.0015264605171978474
-0.003113804617896676
0.015612457878887653
0.03866541013121605
0.05246942490339279
0.07745570689439774
0.010048244148492813
0.05580386146903038
0.0165232066065073
-0.0446493923664093
-0.012039553374052048
-0.021050777286291122
-0.025432810187339783
-0.05999650061130524
2.4111955099215265e-06
0.015330943278968334
-0.09794701635837555
0.009740200825035572
0.05089849978685379
-0.02974631078541279
0.08752550929784775
0.053302619606256485
-0.04584725946187973
-0.020342113450169563
0.04864117130637169
-0.04156019166111946
0.09432543814182281
0.07321616262197495
0.007793031632900238
0.057185884565114975
0.012115529738366604
0.0006462885648943484
-0.03461306914687157
-0.004246723372489214
-0.016758540645241737
0.007731947116553783
0.006884877569973469
-0.012879041023552418
0.016417033970355988
0.05877401679754257
-0.005493897013366222
0.019549835473299026
0.03444613888859749
-0.0020499443635344505
0.038128819316625595
0.0059288921765983105
-0.008210469968616962
-0.03282879292964935
-0.05488261952996254
-0.020565306767821312
0.005799813661724329
0.00094945402815938
-0.009268449619412422
0.010517008602619171
-0.015052593313157558
0.011943545192480087
0.024226343259215355
-0.0044658128172159195
0.02305065095424652
0.020024694502353668
0.0002781932707875967
0.021661721169948578
0.011959520168602467
-0.013230917975306511
0.02803950197994709
0.016925204545259476
-0.0033532753586769104
-0.13515886664390564
-0.11912044137716293
0.01316372025758028
-0.08148454874753952
0.03060615435242653
0.11041603982448578
0.0423453114926815
0.10153024643659592
0.06241970881819725
0.03559762239456177
0.047363657504320145
-0.008430399931967258
0.045312315225601196
0.013672745786607265
-0.022235967218875885
0.011088384315371513
-0.023412559181451797
-0.009029210545122623
-0.008142717182636261
0.0030489193741232157
0.018627161160111427
-0.041382934898138046
-0.024597471579909325
0.0077672130428254604
-0.05502323433756828
-0.04245923087000847
-0.026538847014307976
0.07182684540748596
0.09134428203105927
0.0008323117508552969
0.07267963886260986
0.01228569820523262
-0.03327411785721779
0.0005248590605333447
-0.07475413382053375
-0.028432076796889305
-0.07746752351522446
-0.043679457157850266
-0.07228207588195801
0.036583319306373596
0.10901378095149994
0.014555957168340683
0.10504887253046036
0.11119653284549713
0.03167623281478882
0.021215762943029404
0.04019662365317345
-0.0016591014573350549
0.03449342027306557
0.03705773502588272
-0.020042061805725098
0.026258280500769615
-0.014049583114683628
-0.0653790757060051
-0.004530026577413082
-0.009475978091359138
-0.027656078338623047
-0.008758489973843098
0.007837057113647461
-0.015277663245797157
-0.03708739951252937
-0.01881810836493969
-0.029965359717607498
-0.020326610654592514
-0.029768405482172966
-0.03137894719839096
-0.028745098039507866
-0.010999559424817562
0.02263333648443222
-0.010863731615245342
0.031886324286460876
0.051828909665346146
-0.02980555221438408
-0.007240259554237127
0.0007049894193187356
0.03612562268972397
-0.010621239431202412
-0.014299076981842518
-0.0032436123583465815
-0.008679434657096863
-0.026167310774326324
-0.04054791480302811
-0.0396452471613884
-0.03623243048787117
-0.004564546514302492
-0.04846637323498726
0.018215971067547798
-0.041555359959602356
-0.02784348651766777
0.06051194667816162
0.030612224712967873
0.01644415780901909
0.005447582807391882
-0.001763040665537119
0.01925603486597538
0.005918683484196663
-0.015460392460227013
-0.035107579082250595
-0.04346945136785507
0.010817773640155792
0.0391259491443634
0.03387408331036568
-0.02973826974630356
-0.0011755686718970537
0.0002111492067342624
-0.01167847216129303
0.0046058539301157
0.014053051359951496
-0.011130805127322674
-0.017434285953640938
-0.002649265807121992
-0.026909207925200462
-0.03186063840985298
-0.017962539568543434
-0.007084190845489502
-0.01934773474931717
-0.004539064131677151
-0.01209111325442791
-0.007254555355757475
0.004288995172828436
-0.024983156472444534
0.03419141843914986
-0.020159928128123283
-0.025083770975470543
0.01003298070281744
0.006223390344530344
0.025492120534181595
0.009405305609107018
0.028747931122779846
0.0040422468446195126
-0.021875174716114998
-0.010961009189486504
0.008609778247773647
-0.01469346135854721
0.0012872000224888325
-0.0500655472278595
-0.12060433626174927
-0.10274161398410797
0.06381387263536453
-0.052931711077690125
0.04827981814742088
0.006853742524981499
-0.030293229967355728
0.07412746548652649
0.027156708762049675
0.03828682377934456
0.014991315081715584
0.038692425936460495
0.060765691101551056
0.054440826177597046
-0.059305910021066666
-0.10004109889268875
-0.07263318449258804
0.0037656689528375864
0.0004802649200428277
-0.007295409683138132
0.000984185840934515
-0.016412783414125443
0.007798822596669197
0.0072726099751889706
-0.0025010262615978718
-0.011020484380424023
-0.024290604516863823
-0.014371437020599842
-0.007745745591819286
-0.013192524202167988
0.00870390422642231
0.036825042217969894
-0.012236577458679676
-0.0033737914636731148
-0.004756317473948002
-0.019681492820382118
-0.04366431012749672
-0.03160359337925911
0.015984738245606422
-0.02024066261947155
0.0027510987129062414
0.021543750539422035
0.010504873469471931
0.014604832045733929
-0.018757708370685577
0.0035630795173346996
0.012379086576402187
-0.009524380788207054
0.001836820156313479
0.019582752138376236
0.006871616467833519
0.0013695979723706841
-0.008270017802715302
0.025462565943598747
0.04096594080328941
0.006889382377266884
0.0017418982461094856
0.019891830161213875
-0.003029037034139037
-0.0067796530202031136
-0.010925128124654293
0.018496587872505188
-0.011719472706317902
-0.018400708213448524
0.0044509307481348515
-0.0002608006470836699
-0.011187764815986156
0.02397666499018669
0.025558404624462128
0.032803114503622055
0.023770935833454132
-0.04989635571837425
-0.04437500610947609
-0.04078990966081619
-0.026206642389297485
-0.018853532150387764
-0.019593417644500732
-0.0023390422575175762
-0.0006479049334302545
-0.016748148947954178
0.010794995352625847
0.0009975432185456157
-0.01841728202998638
0.0012263196986168623
-0.018419522792100906
-0.004843761678785086
-0.014741954393684864
-0.037347983568906784
0.022787678986787796
0.02392338402569294
0.024547157809138298
0.010552278719842434
-0.0066828615963459015
-0.06079126521945
-0.005426694173365831
0.027124185115098953
0.11881433427333832
0.06312245875597
-0.024571020156145096
-0.0585256852209568
-0.04458155110478401
-0.03421629220247269
-0.09333278983831406
-0.10363928973674774
0.041727274656295776
-0.039527516812086105
-0.060595784336328506
-0.01610899716615677
-0.0508887879550457
-0.03343956917524338
0.00959317572414875
0.0012876561377197504
-9.690618026070297e-05
0.011716526933014393
-0.005102041643112898
-0.006416698452085257
0.09108611196279526
0.10286779701709747
0.08110345155000687
-0.011492375284433365
-0.01830281876027584
-0.009234256111085415
-0.07232274860143661
-0.13231848180294037
-0.06571560353040695
0.015732169151306152
0.009517437778413296
0.014077390544116497
-0.0006528123049065471
-0.01212369091808796
0.002047786023467779
-0.02092790976166725
-0.03331990912556648
-0.020710863173007965
-0.007428896613419056
-0.009955237619578838
0.007193064317107201
-0.027985861524939537
-0.00971783697605133
-0.021264879032969475
-0.010031783021986485
-0.01597602292895317
-0.014069764874875546
-0.030659997835755348
-0.011624756269156933
-0.006584553048014641
-0.0341804064810276
-0.02407526597380638
-0.0003559814649634063
-0.012388859875500202
-0.006393306888639927
0.008804559707641602
0.021622970700263977
0.005412609316408634
-0.017595773562788963
-0.02053854987025261
0.027453985065221786
-0.009171358309686184
-0.01375178899616003
0.013203241862356663
-0.0045387037098407745
-0.04254032298922539
-0.13655300438404083
-0.1503104418516159
-0.02255159057676792
-0.053428471088409424
-0.04865703731775284
0.026171203702688217
0.06800234317779541
0.05479276180267334
0.005323091056197882
0.012043599039316177
-0.0030564055778086185
-0.0011594279203563929
0.0018363333074375987
-0.012751269154250622
-0.020931845530867577
-0.019843129441142082
-0.0357380174100399
-0.003848669584840536
-0.005544338840991259
-0.0032440810464322567
0.014007053337991238
-0.00529663497582078
-0.036146536469459534
0.05139397829771042
0.014436068013310432
-0.03519252687692642
0.0054924082942306995
-0.000429466221248731
0.00040566970710642636
-0.030025672167539597
-0.08449883759021759
-0.04890010133385658
0.0026291250251233578
-0.02373306080698967
-0.046431586146354675
0.04058804735541344
0.06376715749502182
0.0905233696103096
0.018498294055461884
0.03927291929721832
0.06562889367341995
-0.05631257966160774
-0.10410988330841064
-0.05971474200487137
-0.10505526512861252
-0.18065384030342102
-0.15202873945236206
-0.02017696388065815
-0.042619168758392334
-0.06473933160305023
0.11530789732933044
0.20361129939556122
0.23151668906211853
0.009961755014955997
0.0063963476568460464
0.009908003732562065
-0.008578554727137089
-0.018546592444181442
0.0038736816495656967
-0.053277455270290375
-0.02436588890850544
-0.04321536794304848
-0.0013858748134225607
-0.003678227076306939
-0.023492343723773956
-0.007766310125589371
0.033707037568092346
0.01676655374467373
-0.03367713466286659
-0.03384136036038399
-0.03837363049387932
0.03953390195965767
0.0785231739282608
0.04614846035838127
0.012586774304509163
0.0985855907201767
0.09572089463472366
-0.06569303572177887
0.016895627602934837
0.038123369216918945
0.04781762883067131
0.07545530050992966
0.06915389001369476
0.025263788178563118
0.08519133925437927
0.11461389809846878
-0.12747107446193695
-0.17644569277763367
-0.10787874460220337
-0.057128116488456726
-0.051423829048871994
-0.03324153274297714
0.033595629036426544
0.06756443530321121
0.036424439400434494
0.03010557033121586
0.060034751892089844
0.033049535006284714
0.02568063698709011
0.006475742906332016
-0.03947798162698746
0.007028273772448301
0.0085754981264472
-0.048804473131895065
0.0011067778104916215
0.028097249567508698
0.020160775631666183
-0.08051396906375885
-0.07167933881282806
-0.050683341920375824
-0.056528929620981216
-0.021295133978128433
-0.02097569778561592
-0.00583982840180397
0.05607595667243004
0.055471085011959076
0.010363326407968998
0.018801501020789146
-0.0034799855202436447
-0.01785615272819996
0.014058117754757404
-0.004073373507708311
-0.028278326615691185
-0.0500631183385849
-0.0045585473999381065
0.0313093401491642
0.09125076234340668
0.060458727180957794
0.022552896291017532
0.07705379277467728
0.0629202201962471
-0.05748468264937401
-0.051478367298841476
-0.07557502388954163
-0.002605769317597151
0.012324281968176365
-0.027550959959626198
0.01807902753353119
-0.012742968276143074
-0.012265997007489204
0.003014238551259041
0.01618439517915249
-0.004911819472908974
-0.012897603213787079
0.012478609569370747
-0.013721819967031479
-0.022046750411391258
0.020584646612405777
0.04050648212432861
-0.01917676255106926
-0.03604339063167572
-0.027297616004943848
-0.015492591075599194
0.005192098673433065
0.019688241183757782
0.02500080317258835
0.013960890471935272
0.02467741072177887
0.02059420570731163
0.01417881716042757
-0.02419714629650116
-0.002343863947317004
0.019362613558769226
-0.010560660623013973
-0.013886049389839172
0.015544765628874302
0.007530227303504944
0.006294299848377705
0.0036266176030039787
0.009910999797284603
0.005507948342710733
-0.01658574678003788
-0.0019734457600861788
0.011671682819724083
-0.00036066261236555874
0.015556935220956802
0.016152560710906982
0.0006629903218708932
0.0169829111546278
0.009394459426403046
-0.014917376451194286
-0.02596105821430683
0.01566525176167488
0.015888674184679985
-0.013282178901135921
-0.0018389306496828794
-0.012059707194566727
0.02062039263546467
-0.004184897523373365
-0.004839977249503136
-0.0038722646422684193
-0.020380377769470215
0.00957584660500288
-0.008029479533433914
0.01232327800244093
-0.00010188059968641028
-0.009608511812984943
0.08680892735719681
0.1191725879907608
0.09956058859825134
-0.0023823552764952183
0.030091749504208565
0.01915544457733631
-0.10337170213460922
-0.14906089007854462
-0.139553040266037
-0.028704987838864326
-0.023947767913341522
-0.009858747944235802
0.007918711751699448
-0.014904106967151165
-0.0011700260220095515
0.03203791007399559
0.03632890060544014
0.04288729652762413
0.016933811828494072
0.0001400553883286193
0.004648987203836441
0.031161556020379066
0.0034647013526409864
-0.001237495569512248
-0.008166924118995667
-0.02593867853283882
-0.019857799634337425
-0.017562096938490868
-0.022082669660449028
0.00559721514582634
-0.010297139175236225
-0.03145107999444008
-0.014189152047038078
-0.0062409089878201485
-9.301076352130622e-05
-0.007109499536454678
0.0014722846681252122
0.008296813815832138
0.006116092205047607
0.0036387767177075148
0.03868617117404938
0.008685299195349216
0.007664863020181656
-0.03067651391029358
-0.014147976413369179
0.027396995574235916
-0.0004758127615787089
-0.01868208684027195
0.005905245430767536
0.016978543251752853
-0.011807696893811226
-0.0006621049251407385
-0.013865550048649311
-0.00162029592320323
-0.0016282199649140239
0.01095388550311327
-0.01096371840685606
-0.028710274025797844
-0.010238165967166424
0.0015005380846560001
-0.010033836588263512
0.0009056702256202698
0.018942225724458694
-0.11580607295036316
-0.16961857676506042
-0.14326930046081543
-0.038716550916433334
-0.04011320322751999
-0.049959175288677216
0.062452200800180435
0.15359166264533997
0.11696769297122955
0.024361759424209595
0.014146928675472736
-0.0022132243029773235
0.008524812757968903
0.017583347856998444
-0.011318801902234554
0.005394344683736563
-0.012607010081410408
-0.040356118232011795
0.014154279604554176
0.0035295102279633284
0.0010311710648238659
-0.006500941701233387
-0.020956160500645638
0.022853221744298935
-0.017786916345357895
0.01670987159013748
0.021892225369811058
0.013177414424717426
0.002716690767556429
-0.0018208681140094995
-0.0005195661215111613
0.01041192002594471
0.017955034971237183
-0.016910606995224953
-0.024085398763418198
-0.022116879001259804
-0.0382419191300869
-0.024202048778533936
-0.004051906056702137
-0.029022537171840668
0.013056542724370956
0.008724858984351158
-0.020728398114442825
-0.00907096453011036
-0.017828116193413734
0.01298517920076847
0.026448214426636696
0.024208098649978638
-0.011234519071877003
-0.02211795002222061
0.02654596045613289
0.008388932794332504
0.005062267184257507
0.013462339527904987
-0.03186938539147377
-0.014855928719043732
-0.004526221193373203
-0.015005200169980526
-3.760624895221554e-05
-0.015190516598522663
0.016697073355317116
-0.021215243265032768
-0.026213185861706734
-0.016132019460201263
-0.015451831743121147
-0.017851276323199272
-0.014085274189710617
-0.008522868156433105
-0.017447754740715027
-0.0006190763087943196
0.0056204721331596375
-0.015789935365319252
-0.019024070352315903
0.0142217967659235
0.018163412809371948
-0.014434506185352802
-0.008984477259218693
-0.010003476403653622
-0.022508788853883743
0.0033730068244040012
-0.007258982863277197
0.022050095722079277
0.038967736065387726
0.033430419862270355
-0.014889481477439404
-0.024545889347791672
-0.014864825643599033
-0.04465263709425926
-0.06308188289403915
-0.05588247999548912
-0.001344710704870522
-0.0022884311620146036
-0.018018556758761406
0.02298123389482498
0.015196353197097778
-0.06131558492779732
0.00409686379134655
-0.002999428194016218
-0.039869021624326706
0.0008770329295657575
0.008861040696501732
0.010311300866305828
-0.023541070520877838
0.0006662729429081082
0.010182356461882591
-0.002359303878620267
0.016389086842536926
0.027332503348588943
0.0033084664028137922
0.04415767639875412
0.058539848774671555
-0.035180725157260895
-0.024082137271761894
0.003406690899282694
-0.06551062315702438
-0.03071168065071106
0.017762241885066032
0.0012546568177640438
0.03664746880531311
-0.0030196395236998796
0.015539402142167091
0.01309292297810316
-0.023490939289331436
-0.0033016835805028677
-0.009773863479495049
-0.01588454656302929
-0.032966990023851395
-0.009447844699025154
0.008287731558084488
0.006804278120398521
0.008261351846158504
-0.0023338880855590105
0.019656533375382423
-0.00025291345082223415
-0.016439974308013916
0.055414196103811264
0.026970215141773224
-0.005354605615139008
-0.014238988049328327
-0.09133501350879669
0.01448917482048273
-0.05581328272819519
-0.04283749312162399
0.06820271909236908
-0.011326468549668789
0.0024952345993369818
0.028751561418175697
0.012217290699481964
0.01881934516131878
0.018921660259366035
0.027392016723752022
0.017707863822579384
0.012150938622653484
0.011881604790687561
-0.025156928226351738
-0.018476689234375954
-0.01840914972126484
-0.04883940517902374
0.020944269374012947
0.003926087636500597
0.001167571754194796
0.037868913263082504
0.003265797859057784
-0.006642733700573444
-0.013761509209871292
-0.004863663576543331
0.00081295904237777
0.0020031032618135214
0.010326026938855648
0.01884269341826439
0.0114396121352911
-0.05836009234189987
-0.05331262946128845
-0.01991957426071167
-0.003367764176800847
0.016660336405038834
0.014897352084517479
0.02069140039384365
0.025573154911398888
-0.0012908052885904908
0.014018596149981022
-0.0001923487870953977
-0.028731530532240868
-0.01699168235063553
-0.021643975749611855
0.024267718195915222
-0.036934107542037964
0.03708011656999588
0.01573113538324833
0.01551092229783535
-0.00751662440598011
-0.02988647110760212
-0.01589478924870491
-0.036274638026952744
-0.030441781505942345
-0.026985961943864822
-0.014900652691721916
-0.018316464498639107
0.02074296586215496
-0.01164510753005743
-0.06067540869116783
-0.009797506965696812
-0.032300032675266266
-0.020237447693943977
0.027185941115021706
0.04365977644920349
0.03708898276090622
0.02802911028265953
0.03612005338072777
-0.01365993544459343
0.022598782554268837
-0.03552727773785591
-0.038514889776706696
-0.04247434064745903
-0.036787599325180054
0.02008434757590294
0.035698018968105316
-0.02384701929986477
-0.06555327028036118
-0.010412033647298813
-0.08373823761940002
-0.01170369517058134
-0.0008276241132989526
-0.008608300238847733
0.0425819456577301
-0.01916317082941532
-0.007996697910130024
-0.003736821934580803
-0.0027846945449709892
0.0005468408344313502
-0.02281319722533226
-0.028598973527550697
-0.028128717094659805
-0.024505820125341415
-0.05331479758024216
-0.03315169736742973
0.0019586016424000263
-0.025146622210741043
0.010712656192481518
0.012647382915019989
-0.020238300785422325
0.013414687477052212
0.025988545268774033
0.012737596407532692
-0.014254829846322536
-0.03824493661522865
-0.052267707884311676
-0.040940605103969574
-0.00024281696823891252
0.002438317285850644
0.015768585726618767
0.024198854342103004
-0.017668424174189568
0.015678582713007927
0.00041455545579083264
0.0023170034401118755
-0.00618856493383646
-0.02383452281355858
0.007527099922299385
0.006815129891037941
-0.002133868634700775
-0.09077862650156021
-0.08288209140300751
0.028125010430812836
-0.07507169991731644
0.008829019963741302
0.05168271064758301
0.0029395476449280977
0.027878843247890472
0.06186820566654205
0.04656948521733284
-0.01598045974969864
-0.03976693004369736
-0.028679031878709793
-0.08434469997882843
-0.04805188253521919
-0.035879407078027725
-0.02644527330994606
-0.0015334301861003041
0.01655491255223751
-0.08289793133735657
-0.09079540520906448
-0.10265041887760162
-0.12531693279743195
-0.022441573441028595
-0.05709267407655716
0.020214881747961044
0.0996682345867157
0.02905391715466976
-0.0073888725601136684
0.009645511396229267
0.008224665187299252
-0.03543274104595184
-0.029939057305455208
-0.07420426607131958
-0.05638830363750458
-0.004891271237283945
-0.00328661035746336
0.00977224763482809
0.00613213749602437
-0.018930582329630852
-0.01881079375743866
-0.010950066149234772
0.0016339385183528066
0.0003115033614449203
0.017238907516002655
-0.015040193684399128
0.03021932765841484
0.008726819418370724
0.010543097741901875
0.0015718787908554077
-0.09401274472475052
0.018811814486980438
-0.06256565451622009
-0.03241433575749397
-0.020238220691680908
0.020831642672419548
0.003347981721162796
0.061430249363183975
0.033887967467308044
-0.024608377367258072
0.0075136045925319195
-0.014140905812382698
0.023809021338820457
0.02001051791012287
0.025512302294373512
0.030827723443508148
3.170506715832744e-06
-0.03716275840997696
-0.03890874981880188
-0.0431564599275589
-0.02402699925005436
-0.022949565201997757
0.08157213777303696
-0.0006691329181194305
-0.05499254912137985
0.033600274473428726
-0.07001857459545135
-0.040822114795446396
-0.057269077748060226
-0.055421773344278336
-0.011651081964373589
-0.09201037138700485
-0.0703941285610199
-0.03569813072681427
-0.046782445162534714
0.01836569234728813
0.0069192578084766865
0.03262106329202652
0.05843961238861084
0.026798991486430168
-6.653993477812037e-05
0.002079067751765251
-0.0011803758097812533
0.018870661035180092
0.016546571627259254
0.010252547450363636
0.06223641335964203
0.05053301155567169
0.040016282349824905
-0.08932235836982727
0.005746108945459127
0.04081178456544876
0.02891520783305168
0.11384453624486923
0.051576144993305206
0.043253928422927856
0.013447165489196777
-0.03889571130275726
0.09813863784074783
0.05167849734425545
-0.04942543804645538
0.09000219404697418
0.020349282771348953
-0.07802870124578476
0.02622513845562935
-0.06375651806592941
-0.06874337792396545
0.09557878226041794
0.10689183324575424
0.007023505866527557
0.11126182973384857
-0.018638424575328827
-0.11687405407428741
-0.024575447663664818
-0.09684498608112335
-0.058063577860593796
-0.01036076806485653
-0.005675189662724733
-0.02945331670343876
0.03444014862179756
0.01853925734758377
-0.008469129912555218
0.005590963643044233
-0.020800743252038956
-0.012034661136567593
0.029205281287431717
-0.017032090574502945
-0.03139983117580414
-0.05149051547050476
-0.029767276719212532
0.02721601165831089
-0.040660541504621506
0.03683408722281456
0.03175105154514313
-0.021055692806839943
-0.0021785541903227568
-0.007729165721684694
0.02674637921154499
0.04439181834459305
0.03746312856674194
0.014177067205309868
0.017073599621653557
0.014439809136092663
-0.019613303244113922
-0.009239494800567627
-0.010290941223502159
-0.0005648974911309779
0.03094335086643696
0.037568241357803345
0.006148942280560732
0.03063015453517437
0.013803064823150635
-0.0009499230654910207
0.013782232999801636
0.001568417763337493
0.0053675975650548935
0.0012007226468995214
-0.02129102498292923
0.007189264055341482
-0.00874885730445385
-0.026268184185028076
0.008333217352628708
0.020010489970445633
0.0562581792473793
0.043565694242715836
0.023961063474416733
-0.005468056071549654
0.05110548436641693
0.039623018354177475
-0.006403932813555002
-0.015779977664351463
0.014045014046132565
0.013891470618546009
0.018022671341896057
0.03205173835158348
0.009228621609508991
-0.0034222688991576433
-0.011037441901862621
-0.01057099923491478
0.020760424435138702
0.028942525386810303
-0.049913905560970306
-0.019678078591823578
-0.04827916622161865
-0.057516977190971375
-0.0489865280687809
-0.03747931867837906
-0.015828371047973633
0.028521863743662834
0.013053893111646175
-0.018266737461090088
0.02842862159013748
0.010694789700210094
-0.0035141308326274157
0.02648640051484108
0.015952831134200096
0.0445823147892952
-0.019159775227308273
-0.008228003978729248
-0.03891707584261894
0.00151155237108469
-0.011840052902698517
-0.0032933184411376715
-0.030578019097447395
-0.0007419063476845622
-0.02414879761636257
0.014878815971314907
0.013433736748993397
0.021342188119888306
0.012800777330994606
0.006336743477731943
0.001661730813793838
0.013820766471326351
0.001353075378574431
-0.005251597613096237
0.003009740961715579
0.002588123083114624
0.003266899846494198
0.010784040205180645
-0.043433044105768204
-0.017790213227272034
0.0026046812999993563
-0.034232739359140396
0.01252725999802351
-0.049907129257917404
0.02477770671248436
0.013559283688664436
0.027909180149435997
0.00408282782882452
-0.03663180395960808
0.012576238252222538
-0.04199453815817833
-0.010984144173562527
0.033558864146471024
-0.0031480551697313786
-0.02497180923819542
-0.009247452951967716
-0.019359061494469643
-0.018574975430965424
-0.04560019448399544
-0.030011791735887527
0.008971892297267914
-0.018320152536034584
-0.0063291615806519985
-0.0127417566254735
0.01831938326358795
0.01907072216272354
0.031153980642557144
0.004949008580297232
0.018898090347647667
0.04038863629102707
-0.08128820359706879
-0.07154924422502518
0.04821896553039551
-0.04616167023777962
0.11275375634431839
0.07955633103847504
0.04691966623067856
0.07564996927976608
0.016746457666158676
0.05034049227833748
0.005167703609913588
0.0026840241625905037
-0.008361438289284706
-0.0423872172832489
0.031606487929821014
-0.02797810174524784
0.017088042572140694
-0.006941862870007753
0.008948138915002346
0.056033991277217865
-0.004481338430196047
0.008219432085752487
0.03897206485271454
-0.01913008838891983
0.08216074854135513
0.0503627210855484
-0.001601140364073217
0.04461606591939926
0.06262056529521942
-0.016610857099294662
-0.001111186109483242
-0.002774502383545041
-0.04317222163081169
-0.045454394072294235
-0.05725374072790146
0.013122227974236012
0.035690464079380035
0.02568649686872959
0.02485658973455429
0.027925485745072365
-0.006548203527927399
0.021952401846647263
-0.018972590565681458
0.007212345954030752
0.03928496316075325
-0.03368087485432625
-0.0033887659665197134
-0.012756346724927425
0.019221272319555283
-0.004615808837115765
-0.011264401488006115
0.053592368960380554
0.018199533224105835
-0.023446684703230858
-0.05314628407359123
-0.02848338894546032
-0.008550593629479408
0.015722526237368584
0.08138924837112427
0.041188888251781464
0.040925029665231705
0.02326972223818302
0.006832991726696491
-0.017301151528954506
0.01581217721104622
0.019292525947093964
0.016331208869814873
0.00652980525046587
0.01923513039946556
-0.0013521069195121527
-0.00706119928508997
0.019817842170596123
0.016929082572460175
0.042547695338726044
-0.0005074350046925247
0.04780149459838867
0.009798753075301647
0.010679110884666443
0.03833170235157013
0.08358955383300781
0.05051862820982933
0.0028099592309445143
0.0034140171483159065
-0.01997549831867218
0.05772395804524422
-0.04132811352610588
-0.025496182963252068
0.023091882467269897
-0.031969111412763596
0.0053359828889369965
-0.015188430435955524
-0.053923897445201874
-0.038836512714624405
-0.07181240618228912
-0.028945598751306534
0.03444011136889458
-0.007947904989123344
0.045473478734493256
0.051150497049093246
0.1101365014910698
0.07705534249544144
0.018334055319428444
0.06253862380981445
-0.030698183923959732
-0.05503185838460922
-0.043193504214286804
-0.07269059121608734
-0.005385544151067734
0.04765451326966286
0.06094104051589966
0.030727000907063484
0.09980522096157074
0.042595379054546356
0.019120825454592705
0.06369864195585251
0.020234664902091026
0.007861367426812649
0.04332102835178375
0.01648162119090557
-0.021932881325483322
0.018723659217357635
-0.06482291966676712
-0.048673491925001144
-0.02351730689406395
-0.019671646878123283
-0.018143244087696075
0.07503071427345276
0.0678120031952858
-0.017666064202785492
0.015814881771802902
-0.05893183499574661
-0.09731641411781311
-0.05343354120850563
-0.05835558474063873
0.016306204721331596
-0.03927847370505333
-0.035167574882507324
-0.031465642154216766
-0.016464680433273315
0.0010394954588264227
0.023085158318281174
-0.01063931081444025
0.028769543394446373
0.05107392370700836
0.10346348583698273
0.0866023525595665
0.022168127819895744
0.10850612819194794
-0.014015702530741692
-0.06831411272287369
0.014838681556284428
-0.07302244752645493
-0.01548111904412508
0.008948195725679398
-0.026265183463692665
-0.05286411941051483
-0.07936737686395645
-0.07510358095169067
0.017445260658860207
-0.09358899295330048
0.01737147755920887
0.06637983024120331
-0.0156698040664196
0.0069318185560405254
0.012573415413498878
-0.0005117597174830735
0.0006537095177918673
-0.011964870616793633
-0.009143294766545296
-0.009714306332170963
0.015557819977402687
-0.028793273493647575
0.0065662129782140255
-0.006026177201420069
0.01921544224023819
0.017549674957990646
-0.006292479578405619
-0.006045974791049957
-0.013044149614870548
-0.016917798668146133
-0.032310422509908676
-0.03776456043124199
-0.03328200802206993
-0.026786986738443375
-0.007470385171473026
0.018763642758131027
-0.000296036247164011
0.03904924541711807
0.05334562435746193
-0.020566575229167938
-0.030780183151364326
-0.022451752796769142
-0.055023446679115295
0.0001501310325693339
0.014322024770081043
0.022066615521907806
0.055646706372499466
0.020577507093548775
0.030308565124869347
0.013845727778971195
0.02319178730249405
0.012381235137581825
-0.0033501170109957457
0.012709124945104122
0.02188369259238243
0.02321843057870865
0.048536743968725204
0.010238039307296276
0.02141886204481125
0.03404901176691055
0.015058029443025589
0.02025577425956726
-0.0010390785755589604
-0.008619670756161213
-0.014272697269916534
-0.024462737143039703
-0.02231043204665184
-0.030391493812203407
-0.030559826642274857
-0.016548601910471916
0.018389608711004257
0.03843298554420471
0.03229353204369545
0.03780233487486839
0.025474241003394127
0.028146235272288322
0.007426864467561245
-0.007137715816497803
-0.05060615763068199
-0.06855589151382446
-0.05174757167696953
-0.005835415329784155
-0.006441864650696516
-0.020947828888893127
-0.012671939097344875
0.013938688673079014
0.003447900991886854
0.011438896879553795
-0.001984966453164816
0.028457941487431526
0.018651997670531273
-0.0018363167764618993
-0.01690235361456871
-0.0039060774724930525
0.003042766824364662
0.014182741753757
-0.002332446863874793
-0.0017611123621463776
-0.011032922193408012
-0.004620781168341637
-0.012589135207235813
-0.010974016040563583
-0.011262870393693447
0.0007237888057716191
0.009186580777168274
0.011355461552739143
0.016199028119444847
0.008462438359856606
-0.01922227442264557
-0.04388338699936867
-0.019459420815110207
0.02253466099500656
-0.039821308106184006
-0.08216153085231781
0.0031182917300611734
-0.03967369720339775
-0.0052235303446650505
0.03162320703268051
0.012197085656225681
0.022038213908672333
-0.005451213102787733
0.08669492602348328
0.09347545355558395
0.04894397407770157
0.015010408125817776
-0.033203549683094025
-0.006960203871130943
-0.08615083247423172
-0.04311273247003555
0.020673545077443123
0.037792254239320755
0.014782445505261421
0.044165413826704025
0.048954084515571594
0.028865564614534378
-0.03325502201914787
-0.034031517803668976
-0.03000744991004467
-0.008142685517668724
-0.0281669944524765
-0.007662690244615078
0.0425226166844368
0.029915012419223785
0.03923625126481056
-0.01742316223680973
0.01111041009426117
0.009939474985003471
-0.01367411483079195
0.005527967121452093
0.007278658915311098
-0.0006871225195936859
0.01908310130238533
0.007456173654645681
-0.006589606404304504
0.0017163819866254926
-0.010737706907093525
-0.03135161101818085
-0.013609400019049644
-0.031615957617759705
-0.01516503281891346
-0.000948921253439039
-0.017493626102805138
0.006655506324023008
0.010549232363700867
-0.007451491430401802
0.05068037658929825
-0.05782926082611084
-0.0812932476401329
-0.06744694709777832
-0.03933488205075264
0.08833160251379013
0.0360063873231411
0.07305163145065308
0.02547832950949669
0.013327586464583874
0.025987165048718452
-0.003187472466379404
-0.0027659537736326456
-0.009242785163223743
-0.04276837036013603
-0.0459454320371151
-0.04529862105846405
-0.036730293184518814
0.09813918173313141
0.10546625405550003
0.02736574038863182
-0.0015692414017394185
-0.07693574577569962
-0.07057330012321472
-0.04068132862448692
-0.054161734879016876
-0.03135019913315773
0.008218386210501194
-0.06425638496875763
-0.03263942152261734
0.022637465968728065
0.015358423814177513
0.031223636120557785
-0.004642140585929155
0.002614528639242053
-0.04426400735974312
0.029680419713258743
0.031976357102394104
0.023241214454174042
-0.008086221292614937
-0.030879603698849678
-0.020382434129714966
-0.029839888215065002
-0.018083449453115463
0.013678720220923424
0.03174537420272827
0.011336065828800201
0.0133055429905653
-0.061646174639463425
-0.09092137217521667
-0.06893058866262436
0.004057731945067644
-5.3187584853731096e-05
-0.009077050723135471
0.005131223239004612
0.002116406336426735
0.0014914498897269368
0.010033471509814262
0.032243527472019196
0.0009799790568649769
-0.020385554060339928
-0.03658954054117203
-0.047176752239465714
-0.02624296024441719
0.02195696160197258
0.022645357996225357
0.026747576892375946
0.03728930279612541
-0.0014605764299631119
-0.023847823962569237
-0.015494760125875473
-0.0040235500782728195
-0.025771286338567734
-0.02961735986173153
0.00130845804233104
-0.02684568613767624
-0.021586094051599503
0.023631328716874123
0.0041157882660627365
0.009616661816835403
0.012417157180607319
-0.05049296095967293
-0.02036650851368904
0.024400826543569565
-0.006712691858410835
0.03384780511260033
0.020893635228276253
-0.0022213899064809084
-0.015879156067967415
-0.013117868453264236
0.0009765581344254315
-0.003500507213175297
-0.014801104553043842
-0.0074228402227163315
0.0060972352512180805
0.0030733344610780478
-0.00601147161796689
0.014427208341658115
0.007203719113022089
0.03153336048126221
0.001439605257473886
-0.017212174832820892
-0.01752512715756893
-0.0582549124956131
0.020340537652373314
0.010989751666784286
0.021999893710017204
0.0011082685086876154
-0.024894187226891518
0.019612595438957214
0.09020844846963882
0.06069160997867584
0.11050142347812653
0.05471484363079071
0.03362021967768669
-0.023455889895558357
-0.10181648284196854
-0.02720956690609455
0.001669628662057221
-0.020124193280935287
0.0020417540799826384
-0.008283788338303566
-0.010252832435071468
0.010054726153612137
0.03510824590921402
0.017576316371560097
-0.01878865621984005
-0.03277182951569557
-0.036749329417943954
-0.03429348021745682
-0.017118968069553375
-0.011373098939657211
-0.01150390226393938
0.003902274649590254
0.00833564531058073
0.013890983536839485
0.035578079521656036
0.007253902964293957
0.006269220728427172
0.0017194357933476567
0.0005735748563893139
-0.010583779774606228
0.019649624824523926
0.00031602545641362667
-0.04165319725871086
-0.04185979813337326
-0.002039192710071802
0.007990419864654541
0.04674110934138298
0.060795851051807404
0.017959078773856163
0.004268514458090067
-0.01619911380112171
-0.01001275610178709
-0.0020654131658375263
-0.03729524090886116
0.006087298505008221
0.02387194335460663
-0.02589716576039791
0.020260656252503395
0.028490908443927765
-0.006488157901912928
-0.0004206763696856797
0.014682511799037457
0.018526533618569374
0.0038237685803323984
0.0032654276583343744
-0.003123338334262371
-0.0071420990861952305
-0.012818374671041965
-0.024683889001607895
-0.04943449795246124
-0.05832427740097046
-0.04237670451402664
-0.046234648674726486
-0.019109660759568214
-0.051635947078466415
-0.011742058210074902
-0.02221095748245716
-0.001571112428791821
-0.019115783274173737
-0.02317606657743454
-0.04210900515317917
-0.0009354535141028464
0.01811274141073227
0.032532889395952225
0.00734152365475893
0.0052857305854558945
0.0074379476718604565
0.04071522876620293
0.13753056526184082
0.24214106798171997
0.09626223891973495
-0.03304878622293472
-0.16489844024181366
-0.09019509702920914
-0.06964587420225143
0.0024708344135433435
0.03813094645738602
-0.009314563125371933
-0.04073941707611084
-0.033358920365571976
-0.0627136081457138
-0.0028346176259219646
0.024381717666983604
0.02976633422076702
0.047144848853349686
0.011860104277729988
-0.03426020219922066
-0.07645401358604431
-0.06399282813072205
-0.0011387938866391778
0.05496245622634888
0.05717489495873451
0.053938429802656174
0.01386174000799656
0.01349234115332365
-0.012267873622477055
0.0009318147203885019
-0.04001210257411003
-0.010498052462935448
0.0008245974313467741
0.016664419323205948
0.019134962931275368
0.0017675001872703433
-0.0074912686832249165
0.01066515315324068
0.04004266858100891
0.06386972963809967
0.07524024695158005
0.02356506884098053
-0.025950731709599495
-0.08544690907001495
-0.07386122643947601
0.09548310935497284
0.1139759048819542
0.06658431142568588
0.047742974013090134
-0.04038773849606514
-0.09106383472681046
-0.06737963110208511
-0.04871450737118721
-0.015354655683040619
0.005282407160848379
-0.05990977585315704
-0.05618349090218544
-0.03468628600239754
-0.003294235561043024
0.011574199423193932
0.04013477638363838
0.0721200555562973
0.031172046437859535
-0.015070867724716663
-0.016517190262675285
-0.020173031836748123
0.0020831238944083452
0.005224036984145641
0.024159645661711693
0.03471053019165993
0.023023229092359543
0.007003108039498329
-0.008885733783245087
-0.06576814502477646
-0.09507109224796295
-0.02493666671216488
0.04546331614255905
0.09821400046348572
0.02626468986272812
0.009541412815451622
-0.014069142751395702
-0.015992937609553337
0.0162091925740242
0.021453967317938805
0.017253628000617027
0.008160796016454697
0.003554608905687928
-0.003658359171822667
-0.046689510345458984
-0.031148336827754974
-0.09590011835098267
0.003439534455537796
0.06865554302930832
0.03807111084461212
0.08936725556850433
0.021002648398280144
0.02944783866405487
0.006493540946394205
-0.006685197353363037
0.10943416506052017
0.19169852137565613
0.12812095880508423
0.06607398390769958
0.004118949640542269
-0.1067986860871315
-0.0609888881444931
-0.08014778792858124
-0.0065473043359816074
0.005982358008623123
-0.04494260996580124
-0.11396440863609314
-0.049814071506261826
-0.014824300073087215
0.09440672397613525
0.03874608129262924
0.0739227831363678
-0.011857252568006516
-0.07966361194849014
-0.12493555247783661
-0.06711678206920624
-0.06930846720933914
-0.03042907640337944
0.095736563205719
0.06872757524251938
0.06410710513591766
0.05450178682804108
0.002469487953931093
-0.014927870593965054
-0.01525399275124073
-0.04413745179772377
0.0038272724486887455
0.022940615192055702
-0.004630168434232473
0.03518339991569519
-0.010065761394798756
-0.02993672713637352
-0.027407240122556686
0.011064506135880947
0.008505862206220627
0.03716399893164635
0.06436929851770401
0.0336659699678421
0.02888161689043045
0.042323969304561615
-0.04537627100944519
-0.05078008398413658
-0.04681476205587387
0.004995923023670912
0.009429875761270523
-0.04037296399474144
-0.05570386350154877
-0.061528079211711884
-0.038690775632858276
-0.011065787635743618
-0.0037766671739518642
0.005197249352931976
0.043950848281383514
-0.029457299038767815
-0.08231401443481445
-0.009289819747209549
-0.09202972054481506
-0.024552134796977043
-0.02449812740087509
0.006450070533901453
0.044343192130327225
-0.020114406943321228
-0.014656208455562592
-0.04021935537457466
-0.014612512663006783
-0.02430129237473011
-0.05117924511432648
0.02172202430665493
-0.03615593537688255
-0.05505439639091492
-0.043387070298194885
-0.043165069073438644
0.00284276413731277
0.019441477954387665
0.024733327329158783
-0.0013550639851018786
-0.0044713690876960754
-0.023344887420535088
-0.018465803936123848
0.06284980475902557
0.07862778753042221
0.07587239891290665
-0.04216480255126953
-0.02716856449842453
0.019609592854976654
-0.022635577246546745
-0.041815124452114105
-0.058860909193754196
-0.052368879318237305
0.022257238626480103
0.051240380853414536
0.034184716641902924
0.04878312349319458
-0.02732607163488865
0.017692619934678078
0.13321790099143982
0.1507142335176468
0.05832282826304436
0.007778781931847334
-0.0604947991669178
-0.05530432611703873
-0.07433494925498962
-0.05751547962427139
-0.020038431510329247
-0.007692718878388405
-0.018719911575317383
-0.01991141401231289
-0.004423967562615871
-0.00019061416969634593
0.0021233311854302883
0.01645694300532341
-0.00302830059081316
-0.02741183340549469
0.013429570011794567
0.04876285046339035
0.008390042930841446
0.008451939560472965
-0.0026219142600893974
-0.016157176345586777
-0.017419075593352318
-0.023928578943014145
-0.010574613697826862
0.046768106520175934
0.09127267450094223
0.03150749206542969
0.04261188581585884
-0.031012991443276405
-0.05259120464324951
-0.06705103814601898
0.018575599417090416
0.01886935532093048
0.023031985387206078
-0.020581910386681557
0.025723107159137726
0.0436946339905262
0.0026309513486921787
-0.05420650541782379
-0.00967129971832037
-0.023350201547145844
0.006899659987539053
0.00581040745601058
0.024940088391304016
0.003959269728511572
-0.008577131666243076
0.0030461400747299194
0.03354867547750473
0.009236380457878113
0.006465436890721321
0.012589083053171635
-0.04105031117796898
-0.018581092357635498
-0.010683735832571983
-0.051499418914318085
-0.01749228872358799
-0.02282044105231762
-0.045473385602235794
-0.018557043746113777
0.05934986099600792
0.05182976275682449
0.060208823531866074
0.049186427146196365
0.017084544524550438
0.05268391966819763
0.000578783976379782
0.031282853335142136
0.03212202712893486
-0.016672277823090553
-0.032997772097587585
-0.015254762955009937
-0.04380549117922783
-0.06109283119440079
-0.03298536315560341
-0.033250853419303894
-0.05639244243502617
-0.04150104150176048
0.040057506412267685
0.03162984922528267
0.04701291769742966
0.012927044183015823
0.011843755841255188
0.009925843216478825
0.014820395037531853
0.01772618666291237
0.021744761615991592
-0.01867053098976612
-0.016336359083652496
0.011974883265793324
-0.005607718136161566
-0.01907268352806568
-0.010859532281756401
0.011430013924837112
0.0015828099567443132
0.0003635913017205894
0.014863061718642712
-0.00935797393321991
-0.010545739904046059
0.017093831673264503
0.0218682661652565
0.008366144262254238
0.05177969112992287
0.04246855899691582
0.019060702994465828
0.0062608798034489155
-0.021915379911661148
-0.029086604714393616
0.01827196404337883
0.043230872601270676
0.01579626277089119
0.018657440319657326
0.04646732285618782
0.03751303628087044
0.0703701451420784
0.028868921101093292
0.0475425198674202
0.02422882802784443
0.001881317817606032
0.020225318148732185
0.0501551479101181
0.018851911649107933
0.0045455144718289375
-0.10916434973478317
-0.12765049934387207
-0.0889337882399559
-0.08110426366329193
-0.11694078892469406
-0.09189047664403915
-0.013679640367627144
-0.03715004399418831
-0.016226105391979218
-0.022963792085647583
-0.006182858254760504
0.02770531363785267
-0.0350886695086956
-0.05019540339708328
-0.04830336570739746
0.0036723788361996412
-0.05885402858257294
-0.06377022713422775
-0.0006854981184005737
-0.021365029737353325
-0.01968458481132984
-0.009158269502222538
-0.009520226158201694
-0.010771977715194225
