0.23071715235710144
0.2538224756717682
-1.0542980817263015e-06
-0.66438889503479
-1.657055470616342e-08
0.16152192652225494
0.45450395345687866
-4.3019500139962474e-07
0.30051374435424805
-8.005239578778856e-06
0.3494180738925934
0.3114806115627289
-0.24952976405620575
-3.474890036159195e-05
0.1077263131737709
0.2189706563949585
0.3814125955104828
-0.5298821330070496
-0.6286441087722778
0.5713980793952942
0.29984691739082336
0.5843037366867065
0.4820215404033661
0.3285263478755951
0.1967170089483261
0.1949618011713028
0.1521454155445099
0.08552236109972
0.5131428241729736
0.015236735343933105
0.16644176840782166
0.33239439129829407
0.24921123683452606
0.443366676568985
-0.280169278383255
-0.02038480155169964
-2.450687475175073e-07
0.32134050130844116
-4.915174400821343e-08
0.2377673089504242
0.2329077273607254
0.3152746260166168
0.42776238918304443
0.29312753677368164
0.2637942433357239
0.6759758591651917
0.4291003942489624
0.3456627428531647
-8.690901864838452e-08
0.2472943663597107
0.3031608462333679
0.6157727837562561
0.3983485698699951
0.3320673406124115
-0.4121878147125244
0.37806904315948486
0.1789534091949463
0.25747787952423096
-0.4490797221660614
0.2130589485168457
0.5693390369415283
0.5727429986000061
-0.4023834764957428
0.23406372964382172
