0.16566067934036255
0.24195946753025055
0.1779647022485733
-0.04313763976097107
-0.20533105731010437
0.1597505360841751
0.2929357886314392
0.09117772430181503
0.11164660006761551
0.08837335556745529
0.11041376739740372
-0.20352360606193542
0.15392862260341644
0.0857195034623146
-0.10939843207597733
0.06544987112283707
0.07659455388784409
-0.20668721199035645
-0.02118567004799843
0.139637291431427
0.04012493044137955
-0.28274980187416077
-0.3257059156894684
-0.003465542569756508
-0.437301367521286
-0.12484496831893921
0.12824289500713348
-0.08739347755908966
0.11992204934358597
-0.08292984217405319
-0.5315352082252502
-0.07803100347518921
-0.3876272737979889
-0.05465623736381531
-0.181554913520813
-0.1888497769832611
0.13201166689395905
0.003135126084089279
-0.2697143256664276
-0.29838964343070984
0.1393522173166275
0.2596566081047058
0.13724538683891296
0.005264272913336754
0.013150238431990147
0.3294556438922882
-0.2715069353580475
-0.018674336373806
-0.24669769406318665
0.15794235467910767
0.01646021381020546
-0.08904935419559479
-0.19027821719646454
-0.07867437601089478
0.170012965798378
-0.4831828773021698
0.06192142516374588
-0.06770972162485123
0.31246504187583923
-0.5063957571983337
0.3138132095336914
-0.26173487305641174
-0.15449312329292297
0.006281006615608931
