-0.0009902326855808496
-0.00774289621040225
-0.007974046282470226
0.024843674153089523
0.001864164019934833
0.0058352211490273476
0.009508908726274967
-0.016475681215524673
0.0039156898856163025
-0.02148805372416973
-0.001232982031069696
-0.014281144365668297
-0.01704387366771698
0.009592193178832531
0.007044508587568998
0.010790195316076279
-0.007234995253384113
-0.011356853879988194
-0.0011125615565106273
0.030388496816158295
0.022246530279517174
-0.06118425726890564
-0.023796891793608665
0.0023746888618916273
0.04067753255367279
-0.10355730354785919
-0.060011494904756546
0.004820480011403561
0.009870476089417934
0.012672917917370796
0.009358000941574574
0.010270102880895138
0.01929810270667076
-0.004053604323416948
-0.0027282056398689747
0.010389808565378189
-0.00483154458925128
-0.03548996150493622
-0.011181110516190529
0.009751922450959682
0.005330173764377832
-0.024927228689193726
0.0008737026364542544
0.0076313624158501625
0.0003135858860332519
-0.03863401338458061
-0.0037725064903497696
0.014469107612967491
-0.049854572862386703
-0.015952687710523605
-0.024881606921553612
0.014407091774046421
0.011488898657262325
0.037766631692647934
-0.0005243439809419215
0.035811010748147964
0.029701342806220055
-0.017198285087943077
-0.016816619783639908
-0.014915857464075089
0.014850407838821411
0.03405533358454704
-0.006951183080673218
0.009437262080609798
0.005902976728975773
-0.023645341396331787
-0.0024251891300082207
0.016084183007478714
-0.04314262047410011
-0.02410438098013401
0.0020817762706428766
-0.013761244714260101
0.028044074773788452
-0.004678384400904179
0.005081469658762217
-0.0350959338247776
0.01074480265378952
0.030677346512675285
-0.03863375633955002
-0.010584034956991673
-0.030610455200076103
-0.019270019605755806
0.003918127156794071
-0.03579495847225189
0.017492972314357758
-0.03522409498691559
-0.06749872863292694
-0.023878952488303185
-0.0014941288391128182
-0.010778767056763172
0.006495706737041473
0.0028584066312760115
0.002988330088555813
-0.011166305281221867
-0.013408178463578224
-0.002751134103164077
-0.001310642808675766
-0.0019785137847065926
0.0075469049625098705
0.011587192304432392
-0.008585132658481598
0.0011803547386080027
-0.03318098932504654
0.005293478723615408
0.008881800808012486
-0.007830746471881866
-0.030696013942360878
-0.00411445926874876
0.004611357115209103
-0.021772265434265137
-0.01015888899564743
-0.0005257256561890244
0.03075457364320755
0.0048288945108652115
-0.0016560177318751812
0.0014350804267451167
0.008546369150280952
-0.0019843189511448145
-0.03364275395870209
-0.03520522639155388
-0.055230528116226196
-0.01307147741317749
0.010410410352051258
0.009111249819397926
0.022069815546274185
0.01161319762468338
0.017824992537498474
0.02601929008960724
0.03029039315879345
0.00012929423246532679
0.005927558988332748
0.015396016649901867
-0.003433732083067298
-0.01613793522119522
-0.009724026545882225
-0.007677291054278612
-0.04081739857792854
0.0030778932850807905
0.01789693534374237
-0.0049027795903384686
-0.03768211975693703
0.017903311178088188
0.03985099121928215
0.028052732348442078
-0.02616420015692711
-0.026094896718859673
0.002806797856464982
-0.008540879003703594
0.042757365852594376
0.02948555164039135
-0.002528552897274494
-0.026829026639461517
-0.03166276216506958
0.021067973226308823
0.009465892799198627
-0.009046637453138828
0.01937028206884861
0.030761096626520157
0.009302200749516487
-0.06749916076660156
-0.06123175844550133
0.00014321478374768049
0.00490449508652091
0.016836637631058693
-0.017104383558034897
-0.051479313522577286
0.01749439537525177
0.039240702986717224
-0.04209716618061066
-0.01896638795733452
0.0001718079438433051
-0.02425370179116726
-0.027183612808585167
-0.017303692176938057
-0.010808443650603294
-0.018619729205965996
0.012887447141110897
-0.01303647831082344
0.022249538451433182
0.021194562315940857
0.0055337282828986645
0.00028624548576772213
-0.03586616739630699
0.0096961734816432
0.03316870331764221
-0.007308041676878929
-0.007035254500806332
-0.0009357694652862847
-0.016427839174866676
0.02334602177143097
-0.010838199406862259
0.02150200866162777
0.00991081167012453
-0.02286095917224884
-0.04231380671262741
-0.015279068611562252
-0.032426297664642334
-0.015166155062615871
-0.030794592574238777
-0.02013963647186756
-0.009296885691583157
-0.02018195018172264
0.0005494455108419061
0.006564673501998186
0.0388246588408947
-0.017549151554703712
-0.015387491323053837
-0.01119373831897974
0.03977452591061592
-0.007844975218176842
0.041363440454006195
-0.03612120449542999
-0.038457948714494705
0.023897403851151466
0.0048784054815769196
-0.031944870948791504
-0.030704045668244362
-0.0387796051800251
-0.045971162617206573
-0.05070822685956955
0.02076738141477108
0.049349769949913025
0.0005057460512034595
-0.01127470564097166
-0.0019630701281130314
-0.014745340682566166
-0.08275032043457031
-0.030652787536382675
-0.037335291504859924
0.009057541377842426
0.02785417251288891
0.01401230227202177
0.001355198328383267
0.010410651564598083
-0.00739067979156971
-0.003626167308539152
0.011164335533976555
-0.046878959983587265
-0.008940133266150951
0.024216607213020325
0.038510460406541824
0.00014192404341883957
-0.0097503075376153
0.013336220756173134
-0.029001349583268166
-0.014128769747912884
0.002403212245553732
0.02471531368792057
-0.022987818345427513
-0.0015687152044847608
-0.022263338789343834
-0.007579762488603592
0.011186397634446621
0.02716761827468872
0.006972694769501686
0.004101735074073076
0.0076932297088205814
-0.00405563460662961
0.017699187621474266
-0.034335073083639145
-0.04405949264764786
-0.010980106890201569
-0.024567481130361557
-0.030255991965532303
-0.04220368713140488
0.032894428819417953
0.0426417775452137
0.01124387327581644
0.023737763985991478
0.024488361552357674
-0.0859111025929451
-0.06008737161755562
-0.043049976229667664
0.021047959104180336
-0.057010769844055176
-0.1013360545039177
-0.006605089642107487
0.0992095097899437
0.04843704029917717
-0.04818651080131531
-0.05382537469267845
-0.08429264277219772
0.014636126346886158
0.06470299512147903
0.025014592334628105
0.014881083741784096
0.06256327033042908
0.011425328440964222
0.01277975644916296
0.0014986115274950862
-0.012434059754014015
-0.01373498048633337
0.0008602274465374649
-0.012904943898320198
0.021394256502389908
0.00605359859764576
0.0020380024798214436
0.017192814499139786
-0.032824110239744186
0.003436087165027857
-0.007784340996295214
0.07290283590555191
0.003983912989497185
-0.02580462582409382
0.025706307962536812
-0.0065160649828612804
0.0019919208716601133
-0.027287118136882782
-0.07390779256820679
-0.049832772463560104
-0.017700837925076485
0.027750328183174133
0.02884412743151188
0.040587496012449265
0.08655877411365509
0.012352489866316319
0.01883581466972828
-0.003755013458430767
0.023648863658308983
0.0022317832335829735
0.027043253183364868
0.007195717189460993
0.009257260710000992
0.04769729822874069
-0.014599937945604324
-0.048565808683633804
-0.014478020370006561
0.04455872252583504
0.02438775636255741
0.017977949231863022
0.035596758127212524
0.010703031904995441
-0.02488165721297264
-0.014105595648288727
0.008933370001614094
0.02009502239525318
-0.017998188734054565
-0.017820335924625397
0.009887978434562683
-0.00021901696163695306
-1.6417508959420957e-05
-0.013427977450191975
0.015935903415083885
-0.0181837547570467
9.869230416370556e-05
-0.019763192161917686
0.032918304204940796
0.0885896310210228
-0.03368603438138962
-0.015204250812530518
0.04727538675069809
-0.1249299868941307
-0.10974351316690445
-0.0811740830540657
-0.08988136053085327
0.005065660458058119
0.058573026210069656
0.06410394608974457
0.13441511988639832
0.08849631249904633
0.0670582503080368
0.11086957901716232
0.07000771164894104
-0.0573677197098732
0.02825024165213108
0.06588108837604523
-0.13768072426319122
-0.1964990198612213
-0.038689225912094116
0.024780813604593277
0.029211923480033875
0.02322160266339779
-0.0279732346534729
-0.003906534519046545
0.031765490770339966
0.01949937827885151
-0.008353419601917267
-0.026107482612133026
-0.00023643900931347162
-0.007952266372740269
0.011741722002625465
0.016529640182852745
-0.013789992779493332
0.0012389518087729812
0.006174501962959766
0.014327364042401314
-0.01733674667775631
0.013507140800356865
-0.00675833597779274
-0.017229922115802765
-0.010982847772538662
0.022689327597618103
-0.003089637728407979
0.043124981224536896
-0.009133083745837212
-0.02631850354373455
-0.00587003817781806
-0.010965735651552677
-0.0030728159472346306
0.029612019658088684
-0.05505455285310745
-0.028699003159999847
0.02362978830933571
0.050271570682525635
0.04963243380188942
-0.008479599840939045
-0.0069963824935257435
0.022402694448828697
-0.0033777644857764244
-0.03852802887558937
-0.000598309503402561
-0.022830940783023834
-0.03943165764212608
-0.030287615954875946
-0.015807611867785454
-0.009523922577500343
-0.004879598040133715
-0.0005713829887099564
0.0009876677067950368
-0.047783661633729935
0.024698946624994278
-0.0031438947189599276
-0.007074530702084303
-0.01871189847588539
-0.0019188838778063655
0.007865321822464466
-0.019735995680093765
0.019438352435827255
-0.0019622636027634144
-0.016855040565133095
-0.04082022234797478
-0.01662755198776722
0.034590937197208405
0.0835743173956871
0.08429184556007385
-0.0067282384261488914
-0.011338897980749607
-0.015298426151275635
-0.046551384031772614
-0.0522490032017231
-0.03626638650894165
0.044609781354665756
0.05783141776919365
-0.053032711148262024
-0.011930860579013824
0.0033434289507567883
0.08723995089530945
-0.0032275670673698187
-0.042307257652282715
0.049673762172460556
0.018122302368283272
0.0025313482619822025
-0.009223952889442444
0.0005275793373584747
0.03289244323968887
-0.008447030559182167
-0.022758973762392998
-0.026637081056833267
-0.018271582201123238
0.01955750212073326
0.024826906621456146
0.0232610572129488
0.05911276489496231
-0.04931643605232239
0.01310260035097599
0.02232055552303791
-0.05983951687812805
-0.02443162351846695
0.018283091485500336
-0.007862111553549767
0.04194377735257149
-0.011527941562235355
0.012092615477740765
0.026576148346066475
-0.0055112154223024845
0.03391658887267113
0.03845151141285896
-0.01223099883645773
-0.005377568770200014
0.014162952080368996
-0.0006921786116436124
0.005702828522771597
0.0006493768887594342
0.009372346103191376
0.01526232436299324
-0.02816547080874443
0.019714441150426865
0.11537156999111176
0.06693948805332184
0.03553121164441109
0.0010185667779296637
-0.08858422935009003
-0.011615575291216373
-0.01655825972557068
-0.09251628071069717
-0.007792503573000431
-0.012064626440405846
-0.0005983788287267089
-0.0041840411722660065
0.0035086963325738907
0.016175314784049988
0.02153782919049263
0.002994641661643982
-0.008917455561459064
-0.012322879396378994
-0.010555947199463844
-0.0004298933781683445
0.00133398431353271
-0.00956595316529274
-0.020996205508708954
-0.0330391600728035
0.0019405852071940899
0.05937439575791359
0.008743951097130775
0.0031535387970507145
-0.007912897504866123
-0.0038612275384366512
0.019819436594843864
0.007255204953253269
-0.022823382169008255
-0.020660102367401123
-0.0026447176933288574
0.01057686097919941
0.07402323186397552
-0.0010824378114193678
0.055839236825704575
-0.014882132411003113
-0.06184189394116402
0.01498991996049881
0.03021913766860962
-0.06405074149370193
-0.07543822377920151
-0.04314315691590309
-0.07636184990406036
0.017928069457411766
-0.06059621274471283
-0.09697110950946808
-0.018732639029622078
0.23755452036857605
-0.0047964430414140224
0.02793107181787491
0.015602788887917995
0.009629359468817711
-0.014263059012591839
-0.012168181128799915
0.011626494117081165
-0.01095348596572876
-0.02517593465745449
-0.0025906506925821304
0.028104327619075775
-0.0005506773013621569
-0.007900078780949116
-0.027607623487710953
-0.03155529499053955
0.06728363037109375
-0.006913322955369949
-0.04308890551328659
0.06412502378225327
0.05422612652182579
0.02939448691904545
-0.006413781549781561
-0.02869020774960518
-0.02239113114774227
0.05173990875482559
-0.06374106556177139
-0.14405149221420288
-0.05814008042216301
-0.03523369878530502
-0.010743780992925167
-0.003954931627959013
-0.06273195892572403
-0.027736233547329903
-0.02759048528969288
0.00755688501521945
-0.055293429642915726
-0.06082937866449356
-0.060319866985082626
0.003881097538396716
-0.03609190136194229
-0.014871619641780853
-0.0030623835045844316
-0.03792233392596245
0.007242431864142418
0.06510832905769348
-0.028803611174225807
0.010468111373484135
-0.0052991402335464954
-0.02384844608604908
0.005922222044318914
0.012909641489386559
0.02654484286904335
-0.006799233611673117
-0.015548615716397762
-0.0017121542477980256
0.013106436468660831
0.11227205395698547
0.036721136420965195
0.04081069678068161
0.08356503397226334
0.014978262595832348
-0.12123183906078339
-0.19507189095020294
-0.1215176060795784
-0.010340234264731407
-0.004015860613435507
-0.0033596258144825697
0.03559425100684166
-0.015884999185800552
0.007351721171289682
-0.004596882965415716
-0.016900697723031044
0.010644875466823578
0.013083606958389282
0.03196476399898529
0.01073314156383276
-0.02829156629741192
0.010432378388941288
0.041930705308914185
-0.013422842137515545
-0.005808188114315271
0.028033344075083733
-0.04577057436108589
-0.02056395821273327
-0.04028065502643585
0.12705931067466736
0.2545924484729767
0.0027172265108674765
-0.04304635152220726
0.004660503007471561
0.1274717003107071
-0.037239450961351395
-0.003418471198529005
9.843835141509771e-05
-0.02422323077917099
0.01902565360069275
-0.015521669760346413
0.013165484182536602
0.004935878328979015
0.0025085110682994127
0.0002808498393278569
0.010857019573450089
0.01673540472984314
-0.015699366107583046
-0.03083415888249874
0.011507884599268436
-0.016914015635848045
-0.037803277373313904
-0.003428918309509754
-0.024485994130373
-0.02105153724551201
-0.00861152820289135
0.026950199156999588
-0.06994987279176712
-0.0963524729013443
-0.04997709393501282
0.05072210356593132
0.017290817573666573
0.03261962905526161
0.021139424294233322
-0.004269678611308336
-0.06346522271633148
0.016104357317090034
-0.0063138799741864204
0.008303800597786903
-0.050526104867458344
-0.04881313070654869
-0.01173577830195427
-0.003104647621512413
-0.008698987774550915
-0.10180725902318954
-0.07046341896057129
-0.004005103372037411
-0.019519517198204994
0.04563359543681145
0.005621901247650385
-0.01843903213739395
-0.01029321551322937
0.008034270256757736
-0.009347332641482353
0.013252008706331253
-0.04244028404355049
0.042443130165338516
0.02715604193508625
-0.015438464470207691
0.035035666078329086
-0.029735134914517403
-0.009722593240439892
-0.0074028922244906425
-0.03245309367775917
0.01815187744796276
-0.02266974002122879
0.010462046600878239
0.03486288711428642
0.06862644851207733
0.04535941034555435
0.055841363966464996
0.013859673403203487
-0.020283609628677368
-0.02091463841497898
-0.07810474932193756
-0.021524811163544655
-0.023936644196510315
0.0005924486904405057
0.008228439837694168
-0.003807445289567113
0.004311359021812677
0.0290859192609787
-0.026710623875260353
-0.00414701784029603
0.011353536508977413
-0.020372653380036354
0.06843460351228714
0.07620888203382492
0.03753987327218056
-0.012548449449241161
-0.03181658312678337
0.14446167647838593
0.04157412424683571
-0.027541883289813995
-0.09629622101783752
-0.02962467260658741
0.011022185906767845
-0.03250071406364441
-0.012627631425857544
-0.0073443688452243805
0.009853939525783062
-0.0037476103752851486
0.026592755690217018
0.0035620967391878366
0.04845447838306427
0.08151201158761978
0.06367717683315277
-0.014131685718894005
-0.009996229782700539
0.05982741713523865
-0.02542625553905964
-0.08234278857707977
-0.054039936512708664
-0.002482143696397543
-0.007734662387520075
-0.012547358870506287
-0.04349837079644203
-0.013693233020603657
0.0006896533304825425
-0.01280402485281229
-0.00920052733272314
-0.038801077753305435
0.024281291291117668
0.011307752691209316
0.004465365782380104
0.014417832717299461
0.04967170208692551
-0.006552066188305616
-0.03377000242471695
-0.016717376187443733
0.04296576604247093
0.0040563372895121574
0.0006022455636411905
0.004198829643428326
-0.03689234331250191
0.011036514304578304
0.007921736687421799
-0.017679207026958466
-0.01607436127960682
0.004754980560392141
-0.0034615215845406055
-0.0026748531963676214
0.000898350088391453
0.002498473273590207
0.019027942791581154
0.005542777944356203
-0.008099982514977455
-0.0009200653294101357
-0.03922414779663086
0.002711091423407197
-0.0036098232958465815
-0.02076203189790249
0.0031585716642439365
-0.00309565057978034
-0.024344168603420258
0.02671927586197853
0.010983312502503395
-0.008246569894254208
0.0005040270043537021
0.0695687085390091
0.09790511429309845
0.05888201668858528
0.013425315730273724
0.01573263853788376
-0.05855172500014305
-0.08669282495975494
0.023002175614237785
-0.011094601824879646
-0.039581216871738434
0.02047629840672016
-0.0025607149582356215
-0.013526732102036476
-0.017564527690410614
-0.018931083381175995
0.00246555358171463
-0.01955670677125454
0.012853974476456642
0.01128612644970417
0.017083264887332916
-0.000431732798460871
-0.010898678563535213
-0.004795180168002844
-0.006445158272981644
-0.007266928907483816
-0.013948558829724789
-0.040569473057985306
-0.012286522425711155
-0.016332661733031273
0.013654801063239574
-0.003970601595938206
0.01280593778938055
0.06252790987491608
-0.015800587832927704
0.010041719302535057
0.037906043231487274
0.04294024407863617
0.004389659501612186
-0.03301021084189415
-0.01759369485080242
0.014619415625929832
-0.017857545986771584
-0.015769965946674347
-0.0027011772617697716
0.00038291545934043825
0.01762169785797596
0.00901803094893694
0.022632930427789688
0.027379639446735382
0.026244984939694405
-0.025343168526887894
-0.017075244337320328
-0.007679176516830921
0.016492769122123718
-0.02198595553636551
0.003330572973936796
0.006796356290578842
0.045272346585989
0.03475060313940048
-0.008082154206931591
-0.005153580568730831
-0.00545279448851943
0.0255985576659441
-0.0014612303348258138
-0.0125789949670434
0.0043228245340287685
-0.01566128060221672
-0.01608923077583313
-0.004788016434758902
-0.02015695534646511
0.013017036020755768
-0.06015152484178543
-0.005946275778114796
-0.08077628165483475
0.015304765664041042
0.014668093994259834
0.0008127582841552794
0.02904384210705757
0.032932817935943604
0.051370322704315186
0.0017361841164529324
-0.01441757008433342
0.008970879949629307
0.02271871641278267
0.013034099712967873
0.020023752003908157
0.007322524208575487
-0.02649453654885292
0.01764773763716221
-0.01129018235951662
-0.014856630936264992
-0.008517238311469555
0.009039786644279957
-0.0023778495378792286
-0.022092120721936226
0.01507748942822218
-0.011307284235954285
-0.036399394273757935
-0.016007406637072563
-0.022689182311296463
0.013639171607792377
-0.046872809529304504
-0.03767247498035431
0.018349405378103256
0.03146009519696236
-0.07911050319671631
-0.07820067554712296
-0.029790541157126427
-0.058099523186683655
-0.06363017112016678
0.04285033419728279
0.07698126882314682
-0.029646921902894974
0.034083280712366104
0.0656033381819725
-0.08914130181074142
0.0013648774474859238
0.023268992081284523
0.016641000285744667
0.003409347264096141
-0.015990564599633217
-0.020388541743159294
0.03225259855389595
0.0076362937688827515
-0.010631709359586239
0.030004605650901794
0.022829575464129448
-0.008128856308758259
-0.024588387459516525
0.015134486369788647
0.05905875563621521
-0.018185816705226898
-0.17300082743167877
-0.04358242079615593
0.024538086727261543
-0.02889225445687771
-0.0040033007971942425
-0.00258400896564126
-0.003915748558938503
0.008540377952158451
-0.019872261211276054
-0.0050358762964606285
-0.0012889920035377145
-0.0010561179369688034
0.0019227504963055253
-0.047524113208055496
-0.018996750935912132
-0.002229155972599983
-0.02467752993106842
-0.018894566223025322
-0.00033151821116916835
-0.02693106047809124
-0.008073469623923302
0.007494987454265356
-0.004111101850867271
0.008487958461046219
0.005580978933721781
-0.0015207566320896149
-0.009427783079445362
-0.02136268839240074
-0.014299974776804447
0.009675629436969757
0.0350017249584198
0.020811228081583977
-0.0023447126150131226
-0.0011735855368897319
0.05954596400260925
0.021520625799894333
-0.02875775471329689
0.00039643511991016567
0.024661032482981682
0.07312339544296265
-0.043264809995889664
0.00474965013563633
-0.029972707852721214
-0.05649252235889435
-0.050016675144433975
-0.0036979401484131813
0.02756957896053791
0.0014988714829087257
-0.0006706693675369024
0.01026808749884367
-0.017363252118229866
0.034894656389951706
0.014193085953593254
0.04329773038625717
-0.02422172762453556
-0.0191256832331419
-0.03521467000246048
-0.055372972041368484
-0.024348929524421692
0.0345105342566967
0.007685805205255747
-0.028519131243228912
-0.023638904094696045
0.017770858481526375
0.02502909116446972
0.005561190657317638
-0.004879928193986416
-0.016428448259830475
-0.012507575564086437
-0.013213838450610638
0.012454075738787651
0.0038696303963661194
0.04915362969040871
0.005441742483526468
0.04521109163761139
0.004659069702029228
-0.010297149419784546
0.01740453764796257
-0.04020495340228081
-0.030935848131775856
-0.017363151535391808
-0.03785029426217079
-0.01648114249110222
0.013290922157466412
-0.006872431840747595
-0.034222256392240524
0.004958432167768478
0.033287160098552704
0.02151249162852764
0.012836240231990814
0.05223577842116356
0.01136152446269989
-0.05033481866121292
0.07943321019411087
-0.0077855829149484634
0.06020234897732735
0.14603997766971588
-0.06563296169042587
-0.04155171290040016
-0.1359325498342514
-0.06565389782190323
0.0028400844894349575
0.014115434139966965
0.018404297530651093
0.05538598448038101
0.10759340226650238
0.07029780745506287
-0.036037229001522064
-0.053011454641819
0.003746873466297984
-0.017933374270796776
0.013086939230561256
-0.015615119598805904
-0.0007915045134723186
0.022402700036764145
0.003631624858826399
-8.141362923197448e-05
-0.03291051462292671
-0.02342652715742588
0.008065062575042248
0.007913506589829922
0.01581035740673542
-0.0398932620882988
0.0006727524450980127
-0.014020733535289764
-0.002663024701178074
0.016558127477765083
-0.008942466229200363
0.023570945486426353
0.0030128853395581245
0.003476383164525032
-0.052924368530511856
-0.0537940189242363
-0.0018686169059947133
0.007237045094370842
0.0985335111618042
0.11060384660959244
0.007122925948351622
-0.014291197061538696
0.016921864822506905
0.0030071090441197157
-0.023076195269823074
-0.03947976976633072
0.0173930823802948
0.06021251156926155
-0.03408772125840187
0.018082547932863235
0.04259686544537544
0.01528448797762394
0.034705325961112976
-0.05976869910955429
-0.028732091188430786
-0.035603102296590805
0.021305792033672333
0.0999174639582634
0.022696999832987785
0.035639289766550064
0.046912044286727905
0.026699123904109
-0.008412796072661877
-0.0074621341191232204
0.005282361060380936
-0.04645439609885216
0.009713093750178814
0.04598024860024452
0.003943520598113537
0.01785690151154995
-0.04408003389835358
-0.059316348284482956
0.015089483931660652
-0.0010363560868427157
0.028785359114408493
0.06789439171552658
-0.03345949947834015
-0.02238466590642929
0.016751650720834732
0.02354944311082363
-0.00507490336894989
-0.04442645609378815
0.024236023426055908
0.00794725026935339
0.00573331955820322
0.028696440160274506
0.045736413449048996
0.015786131843924522
-0.02977331355214119
0.007798084057867527
-0.014901446178555489
0.021713996306061745
-0.0608954057097435
-0.027673473581671715
0.031634919345378876
0.02982926554977894
0.016742443665862083
0.0015857027610763907
-0.019293392077088356
0.01886054500937462
0.005837761331349611
-0.023787127807736397
0.003954649902880192
-0.0367470346391201
-0.0024359633680433035
0.0010078405030071735
0.012272395193576813
-0.013758804649114609
0.024607500061392784
-0.003136225277557969
0.03473161906003952
-0.03510354831814766
-0.008583306334912777
0.01143820770084858
0.020800260826945305
-0.016565144062042236
-0.039587438106536865
0.012593877501785755
-0.0014313957653939724
-0.00542572932317853
0.036794211715459824
-0.013686698861420155
-0.029513532295823097
-0.014744565822184086
0.028299406170845032
0.022096306085586548
0.0034838546998798847
-0.004352110903710127
-0.0026705623604357243
0.00012258003698661923
0.007640344090759754
0.02066592127084732
0.03742880001664162
0.006947760935872793
0.0439833402633667
0.017538312822580338
-0.009779657237231731
-0.024788733571767807
-0.0011349146952852607
0.0844385102391243
0.08482727408409119
-0.051477961242198944
0.03525317832827568
-0.0011375397443771362
-0.10331178456544876
-0.06407766044139862
-0.12660489976406097
-0.12952297925949097
0.0010628208983689547
-0.014083201996982098
0.004710884764790535
-0.02105899155139923
-0.02877773903310299
0.00997079722583294
0.014073699712753296
0.018691355362534523
0.05819238722324371
0.022139281034469604
0.008902662433683872
0.014789708890020847
-0.017496926710009575
-0.005392380524426699
0.027834462001919746
-0.01385528314858675
-0.013346356339752674
0.017668114975094795
-0.048969876021146774
-0.03794791176915169
-0.004697154741734266
-0.033325646072626114
-0.04365690052509308
0.004444850608706474
0.02513253502547741
0.01567867398262024
0.06270284205675125
0.003156953724101186
-0.017313694581389427
-0.009959331713616848
0.006259595975279808
-0.017114603891968727
-0.011245839297771454
0.004451392218470573
-0.00404102448374033
-0.03505174443125725
0.009489105083048344
0.0038006308022886515
0.0012594271684065461
-0.009989814832806587
0.02931937202811241
-0.01702612079679966
-0.023812459781765938
0.0007070544525049627
-0.007242253515869379
0.005217792931944132
-0.007542732171714306
0.009835475124418736
-0.026566842570900917
-0.04607411101460457
0.03141321614384651
0.016576159745454788
0.017292950302362442
0.06468652933835983
-0.07034827023744583
-0.05412609502673149
-0.026109127327799797
-0.05173587426543236
-0.034174662083387375
0.009913279674947262
0.014679878950119019
0.0569140799343586
0.06608394533395767
0.0003988829266745597
-0.012192758731544018
-0.01285050343722105
0.032082345336675644
-0.004556593019515276
0.005824940744787455
0.015619623474776745
0.01673342101275921
0.0024496614933013916
-0.039920177310705185
-0.04338882490992546
0.006768012419342995
-0.02442809008061886
0.0015524992486461997
0.013691539876163006
-0.0031430223025381565
0.005085716489702463
0.0029128023888915777
-0.021331531926989555
0.019713938236236572
0.01246524229645729
0.010071026161313057
0.02781972847878933
-0.0003744369314517826
-0.022324690595269203
0.006720473524183035
-0.0025105683598667383
0.02531670778989792
-0.01806885376572609
-0.024849053472280502
0.00313754309900105
-0.01820012554526329
-0.023768601939082146
-0.010743650607764721
0.008460013195872307
-0.0057455506175756454
0.012394119054079056
0.0255685206502676
-0.024198897182941437
0.01331865694373846
0.0646897703409195
-0.0505664125084877
-0.04461583122611046
-0.02975294552743435
-0.06310761719942093
0.00607710238546133
0.00868775974959135
-0.025009946897625923
0.044819388538599014
0.020677857100963593
-0.034532397985458374
0.010689588263630867
0.00025067629758268595
0.004905312322080135
-0.009508544579148293
-0.018904397264122963
-0.03484106808900833
-0.02937287464737892
-0.07514902949333191
-0.019733455032110214
-0.0066700284369289875
-0.027593348175287247
-0.006094177253544331
0.014179154299199581
0.02272387407720089
-0.017661791294813156
0.025850005447864532
0.03870720416307449
-0.023676054552197456
-0.025014104321599007
-0.0038542281836271286
-0.01106598973274231
0.02517315000295639
0.06924080848693848
0.026526648551225662
0.004593330901116133
0.04202685505151749
-0.0155826136469841
-0.013823773711919785
0.003312373301014304
-0.039835572242736816
0.014088477939367294
0.007864684797823429
-0.031429752707481384
0.0023570845369249582
-0.03005734272301197
-0.027096478268504143
-0.0155995674431324
-0.004387927241623402
-0.005217649973928928
-0.0018349827732890844
0.03617075830698013
0.012100557796657085
0.0055632987059652805
0.008864027447998524
0.0032104835845530033
0.01031351089477539
-0.017797494307160378
-0.009818118996918201
-0.03625942021608353
-0.01904076337814331
0.019517119973897934
-0.007772349286824465
0.01764962077140808
0.048834070563316345
0.0009035202674567699
0.011364406906068325
0.010125715285539627
-0.03354591131210327
-0.023475483059883118
0.023468811064958572
-0.01683628372848034
-0.0493927039206028
0.028637217357754707
0.008877704851329327
0.0063344151712954044
0.03430335223674774
-0.011042102240025997
-0.024390609934926033
-0.0127292200922966
-0.02433556504547596
-0.018452497199177742
-0.00638582045212388
-0.007469614036381245
0.011972622945904732
-0.015585748478770256
0.004783607088029385
0.002190770348533988
-0.021154116839170456
-0.03892024978995323
-0.035702694207429886
-0.017560172826051712
-0.03198155760765076
-0.01160944439470768
0.028312936425209045
0.004262321628630161
0.0045820423401892185
-0.01833849400281906
-0.0433771014213562
0.007123556919395924
-0.03266683220863342
-0.015782035887241364
-0.011141360737383366
-0.025789445266127586
0.04939033091068268
0.06462661176919937
-0.029389766976237297
0.036540452390909195
0.008818419650197029
-0.057604603469371796
-0.021550627425312996
-0.06853378564119339
-0.04192458093166351
0.019330423325300217
-0.0068859439343214035
-0.004905718844383955
0.0050401161424815655
-0.01672368124127388
-0.03292504698038101
0.01580905169248581
0.0006912171957083046
-0.0022815829142928123
0.013025871478021145
-0.014635507948696613
0.00932316854596138
-0.0186286810785532
-0.051802922040224075
0.014490890316665173
-0.0015653119189664721
0.012238469906151295
-0.0025005878414958715
0.008321713656187057
0.0478951558470726
-0.007900383323431015
0.012929805554449558
0.013573856092989445
-0.050491154193878174
-0.046993762254714966
-0.08123473823070526
-0.06508050858974457
0.018859893083572388
-0.008115357719361782
0.014519328251481056
0.018445273861289024
-0.013389617204666138
0.043403737246990204
0.037673499435186386
0.02704700455069542
0.055201079696416855
0.0008756420575082302
0.006056874059140682
0.013137958012521267
-0.030909761786460876
-0.05010579526424408
0.009168954566121101
-0.02015211433172226
-0.035706352442502975
0.014939013868570328
0.02331032231450081
-0.009754016064107418
-0.009316932410001755
0.009489050135016441
-0.022539326921105385
-0.011513969860970974
0.002915804274380207
-0.0057084462605416775
0.0053117950446903706
0.014672932215034962
0.0019949094858020544
0.007453620433807373
0.0027409479953348637
-0.019380759447813034
0.0022212231997400522
-0.005058827809989452
0.009695029817521572
0.016692068427801132
0.0773494765162468
0.0861022025346756
-0.03359362855553627
0.06518702208995819
0.013272013515233994
-0.1163269579410553
-0.038239941000938416
-0.07193809002637863
-0.08750824630260468
0.013307496905326843
0.0039740377105772495
-0.013385731726884842
0.008794600144028664
0.00477559631690383
-0.004963436629623175
0.011975825764238834
0.004234724212437868
-0.007635537069290876
0.007858917117118835
0.0049555180594325066
0.02741657942533493
0.016360079869627953
-0.01733163185417652
-0.007727986667305231
0.014955463819205761
-0.025582702830433846
-0.009476539678871632
-0.00897554773837328
-0.014967483468353748
-0.008731139823794365
-0.0151454983279109
-0.0089418338611722
-0.0006394306547008455
-0.002246493473649025
0.01091380137950182
0.024485094472765923
0.0006831727805547416
-0.0378669798374176
-0.03356603905558586
-0.006960016209632158
-0.03110024705529213
0.0015981164760887623
-0.003992364276200533
0.01318287756294012
0.02515358291566372
-0.012620051391422749
-0.0009462516172789037
-0.024487636983394623
-0.014905483461916447
-0.012919466942548752
-0.014597431756556034
-0.0026981071569025517
-0.011631428264081478
-0.013718649744987488
-0.014263530261814594
0.01996411196887493
-0.018809959292411804
-0.027721641585230827
-0.011842324398458004
-0.0225380789488554
-0.011848872527480125
-0.036990564316511154
0.02656254544854164
-0.013368526473641396
0.004488678649067879
0.008029099553823471
-0.004848805721849203
-0.013353434391319752
-0.011606911197304726
-0.0038576126098632812
-0.006707639899104834
-0.007632404565811157
-0.00839791540056467
-0.012022290378808975
-0.014591828919947147
0.001521018915809691
0.004235160071402788
0.004785689525306225
-0.010926248505711555
0.01135166548192501
0.019993046298623085
-0.0327223502099514
-0.02206021174788475
0.013005984015762806
-0.020653337240219116
-0.013793596997857094
-0.0077073583379387856
-0.01732845976948738
-0.0027390504255890846
0.026238901540637016
-0.021005520597100258
0.007850590161979198
-0.01062588207423687
-0.013826939277350903
0.0858270451426506
-0.004271936137229204
-0.007153968792408705
0.0011412611929699779
-0.0019284074660390615
-0.09528803080320358
-0.07416727393865585
-0.0026143176946789026
-0.08764521032571793
-0.07769371569156647
0.04902399331331253
-0.058448031544685364
-0.031793802976608276
0.07759708166122437
0.03867696225643158
-0.01066102460026741
0.007925576530396938
0.039461348205804825
-0.018469085916876793
0.014923266135156155
-0.00013251241762191057
0.006709580775350332
0.028133617714047432
0.056540898978710175
0.08494652807712555
0.0019504394149407744
0.04720236361026764
0.05092829093337059
-0.037899449467659
-0.04538149759173393
-0.05815299227833748
-0.08208941668272018
-0.012340356595814228
0.010606699623167515
-0.03524891659617424
0.07409649342298508
0.0910484790802002
-0.006870084907859564
-0.009966736659407616
-0.002991125453263521
-0.045736923813819885
-0.03348526358604431
0.0075066424906253815
-0.020054258406162262
-0.02491108328104019
0.04722944274544716
0.04436114430427551
-0.017762770876288414
-0.010579606518149376
0.01422992255538702
-0.03623458370566368
-0.006330365315079689
-0.007816258817911148
-0.04103442281484604
0.01265682652592659
0.008801760151982307
-0.021463828161358833
0.02707507647573948
0.0014655233826488256
-0.01019375491887331
0.006045506335794926
-0.00557021563872695
-0.026456821709871292
-0.010786375030875206
-0.01887562684714794
-0.004441113211214542
-0.022710837423801422
-0.003848800901323557
-0.029519636183977127
-0.015792226418852806
-0.00863557867705822
0.0028721794951707125
0.01024614367634058
0.0005158021813258529
-0.023393414914608
-0.052436038851737976
-0.04923374578356743
0.0026793121360242367
-0.012714260257780552
-0.026086313650012016
-0.0019085559761151671
-0.011008961126208305
-0.0074965679086744785
0.0004965645493939519
-0.00782084185630083
0.013072341680526733
0.011237491853535175
-0.0015819580294191837
0.01944884844124317
0.010728266090154648
-0.004276287276297808
0.01616055518388748
-0.042723219841718674
-0.0191551111638546
-0.03282555192708969
-0.04335182532668114
-0.05796467885375023
-0.006678322330117226
-0.04961637035012245
-0.047124918550252914
0.09158045798540115
0.023075448349118233
0.07152479141950607
0.10848107933998108
0.01582804135978222
-0.002279918175190687
-0.04948922619223595
0.00603371299803257
-0.009788156487047672
0.005772115662693977
0.005444502457976341
-0.004237097222357988
-0.002690444001927972
0.03412832319736481
0.02619478851556778
-0.02615181915462017
-0.0012219824129715562
-0.04580787569284439
-0.09441997110843658
-0.0012195490999147296
-0.04793500155210495
-0.03619829937815666
0.04335278272628784
0.017687713727355003
0.01315553579479456
0.005439708940684795
-0.013576215133070946
0.01795661821961403
0.017982376739382744
0.031609632074832916
0.005488863680511713
-0.07863951474428177
-0.07405820488929749
0.013880282640457153
-0.08745666593313217
-0.051142770797014236
0.033149782568216324
-0.021904172375798225
-0.029896587133407593
0.003658105619251728
0.00013392989058047533
0.014306866563856602
0.00949556939303875
0.012206420302391052
0.012480536475777626
-0.002069511916488409
-0.00938588660210371
0.00021854885562788695
-0.014261656440794468
0.008768074214458466
0.029907116666436195
-0.018551023676991463
0.00640201848000288
-0.030582452192902565
-0.026972362771630287
0.018137190490961075
0.0006304444978013635
-0.007431096397340298
0.011484585702419281
0.026065297424793243
0.018557701259851456
0.017189260572195053
0.02190547063946724
0.01437205821275711
0.0024361785035580397
-0.009983359836041927
-0.02139797806739807
0.020486578345298767
0.010351401753723621
-0.006402106955647469
0.022589897736907005
-0.011246086098253727
0.005088760517537594
-0.005604266654700041
0.002054580021649599
-0.010188842192292213
0.00604754313826561
-0.006181758362799883
-0.0011469862656667829
0.0019760706927627325
-0.0016922892536967993
0.0021110093221068382
0.010942059569060802
0.005938220303505659
0.015878500416874886
-0.011846537701785564
-0.003764396533370018
0.004737015813589096
0.001613367348909378
-0.01929905079305172
0.009270841255784035
0.015904955565929413
0.017661692574620247
0.039630062878131866
0.0061564394272863865
-0.015808403491973877
-0.004319589585065842
-0.009168778546154499
-0.023068012669682503
-0.0008431124733760953
-0.016711026430130005
-0.008006970398128033
-0.0037616114132106304
0.010802363976836205
-0.00993376225233078
0.00862086657434702
-0.04273908585309982
-0.000551183766219765
0.014159793965518475
-0.013890880160033703
0.006562541238963604
0.02038092166185379
-0.020275572314858437
-0.005358506925404072
-0.026566805317997932
-0.014253932982683182
0.00822493713349104
-0.010205128230154514
-0.02433628961443901
0.00012768799206241965
-0.014938459731638432
-0.03329798951745033
0.020692486315965652
-0.03008021041750908
-0.040740568190813065
-0.03342797979712486
-0.002119220793247223
-0.008537570014595985
-0.014229631051421165
0.024605123326182365
-0.014555259607732296
-0.02731993794441223
-0.007100741844624281
0.00381305068731308
-0.00674073351547122
0.028870735317468643
-0.0118850227445364
-0.005980783607810736
0.002077509881928563
0.0007598348893225193
-0.00024048083287198097
-0.007949252612888813
-0.0039392681792378426
-0.00048463724670000374
-0.007024092599749565
-0.008762234821915627
0.001638283021748066
0.022829046472907066
0.022560184821486473
-0.02432917058467865
-0.06273520737886429
-0.02100471407175064
-0.023091353476047516
-0.0735572800040245
-0.04569174721837044
-0.0449344664812088
-0.07621905952692032
0.009151285514235497
-0.020308909937739372
-0.029318394139409065
-0.013573192059993744
-0.02580147609114647
-0.024513302370905876
-0.017104797065258026
0.003360964823514223
0.024023104459047318
0.030626805499196053
0.04213868826627731
0.027116820216178894
0.0014903354458510876
-0.009427407756447792
0.01127671729773283
-0.006772216875106096
-0.01067053247243166
0.0007585720741190016
0.0022870302200317383
0.005689190700650215
0.0046283476985991
-0.0009664914687164128
-0.0010520825162529945
0.012541801668703556
0.012870684266090393
0.017551494762301445
0.008208494633436203
-0.03195218741893768
-0.014721318148076534
-0.014590233564376831
0.017232045531272888
0.014225834049284458
0.011124546639621258
0.004269976168870926
-0.0023894994519650936
-0.011853989213705063
-0.022782975807785988
-0.006988434121012688
-0.022170331329107285
-0.013598470948636532
0.01708884723484516
0.0017086958978325129
-0.02716858685016632
-0.002517643617466092
-0.038604121655225754
0.018613586202263832
0.0031580193899571896
-0.025848282501101494
0.0009696459746919572
0.01514324452728033
-0.007608411833643913
-0.004843092989176512
-0.013922831043601036
-0.010093806311488152
-0.018366005271673203
-0.0006012095254845917
0.023523006588220596
-0.019200673326849937
-0.006716176401823759
0.018208108842372894
-0.013127130456268787
0.00989733450114727
0.023693513125181198
-0.0837896317243576
-0.08050203323364258
-0.039788249880075455
-0.06069403514266014
-0.018534064292907715
0.043911293148994446
-0.022618694230914116
0.009789492934942245
0.0398210734128952
-0.0030325723346322775
-0.018423298373818398
-0.007968708872795105
-0.01602785848081112
-0.0321214534342289
-0.005523913074284792
-0.01006196066737175
-0.007058470509946346
-0.009746033698320389
0.0027864412404596806
0.020061932504177094
-0.009679214097559452
-0.00788132194429636
-0.012010551057755947
-0.00386994332075119
-0.001057990244589746
-0.0198254082351923
0.0036796401254832745
0.0441584512591362
0.025567656382918358
-0.0019258789252489805
-0.005975489970296621
-0.015404275618493557
0.005984480492770672
0.0013459044275805354
-0.0007291731308214366
0.021118849515914917
0.021150998771190643
-0.01356689166277647
-0.025874890387058258
-0.01870204135775566
-0.011415086686611176
-0.02946217730641365
-0.00034531415440142155
-0.015311400406062603
-0.02522129938006401
0.014379668049514294
0.02403870038688183
-0.005309035535901785
0.003679815214127302
0.01426472794264555
-0.0038412008434534073
0.0038193895015865564
-0.008653052151203156
-0.0022720571141690016
-0.028729097917675972
-0.002342336578294635
0.019897958263754845
0.018407173454761505
0.029130931943655014
0.004973455797880888
0.01177748292684555
0.0054475171491503716
0.02313152700662613
-0.036165304481983185
-0.02652275376021862
0.0035607214085757732
-0.01577351801097393
0.034637559205293655
0.012087646871805191
-0.016968658193945885
-0.003985333256423473
-0.04199373722076416
-0.061409588903188705
-0.06253522634506226
-0.019474513828754425
-0.00814997311681509
-0.017144642770290375
0.03367467224597931
0.0494287833571434
0.046025350689888
0.06761986762285233
0.004302619490772486
0.011367829516530037
-0.010243086144328117
-0.020227981731295586
0.019373569637537003
-0.021109703928232193
-0.014029699377715588
-0.008322585374116898
-0.0007090179133228958
0.06684495508670807
0.06004193425178528
0.011123115196824074
0.006597582716494799
-0.009646582417190075
-0.0003719374944921583
0.010570646263659
0.0005763205699622631
0.019845224916934967
-0.07924467325210571
-0.06758052110671997
-0.04469645395874977
-0.0489363893866539
-0.04899212345480919
-0.013288958929479122
-0.0012717631179839373
0.0024978723376989365
0.049267321825027466
-0.02154897153377533
0.010417221114039421
0.02710101567208767
-0.013799714855849743
0.018514247611165047
0.019033001735806465
-0.02416381984949112
0.025377122685313225
-0.016889696940779686
0.003172457218170166
0.01948145218193531
-0.004105601459741592
-0.013432164676487446
0.010630661621689796
0.003817829070612788
0.01735011301934719
-0.0038826412055641413
0.016332317143678665
0.03391825407743454
0.022737903520464897
0.031229117885231972
0.04064510762691498
0.010537206195294857
0.01909288950264454
0.01486682053655386
0.014385184273123741
-0.008802294731140137
0.05884522199630737
0.013350028544664383
-0.017532682046294212
-0.004502008203417063
-0.02643820457160473
-0.04682218283414841
-0.03864077478647232
-0.028705637902021408
-0.04051525518298149
0.04875762388110161
0.09495119005441666
0.010285603813827038
0.05719928443431854
0.08145716041326523
-0.06649678945541382
-0.025905098766088486
-0.06896938383579254
-0.06889886409044266
0.0020896117202937603
-0.0011092369677498937
0.008811257779598236
-0.0259406641125679
0.010582665912806988
-0.017402391880750656
-0.0051884837448596954
-0.005234766285866499
-0.008559010922908783
0.027378901839256287
0.006420217454433441
0.018629372119903564
-0.010511140339076519
0.00941932387650013
0.005434978753328323
0.006599094718694687
-0.0028780989814549685
-0.023612380027770996
0.007767512928694487
0.026062775403261185
0.039440009742975235
0.05850673094391823
0.06081593781709671
0.08589781075716019
0.06560268998146057
0.07737211138010025
0.11235881596803665
0.02048620581626892
-0.0016618947265669703
0.033692531287670135
0.015503576025366783
-0.01741805672645569
0.01568807289004326
0.006132377777248621
0.01208448689430952
-0.0009640314383432269
-0.031313829123973846
2.4215529265347868e-05
-0.026634451001882553
-0.035533174872398376
-0.027736637741327286
-0.0072874766774475574
-0.0323173962533474
-0.01875857450067997
-0.006826579570770264
-0.016887117177248
0.009535844437777996
-0.04709375277161598
-0.03475029394030571
-0.024912578985095024
-0.036832887679338455
-0.018879538401961327
-0.015166409313678741
-0.012490908615291119
-0.0028525993693619967
0.012845330871641636
-0.0049992455169558525
-0.01003312412649393
-0.010841548442840576
-0.005075705237686634
0.009327004663646221
0.007087044883519411
-0.0017304978100582957
0.00902170967310667
0.025401631370186806
0.02660040371119976
-0.014543605037033558
0.0008469632011838257
0.012258592993021011
-0.02553630620241165
-0.024458056315779686
0.01802101545035839
0.023949703201651573
0.022208847105503082
-0.009163177572190762
-0.006077315658330917
0.010264134965837002
-0.008078999817371368
-0.019681047648191452
-0.019803252071142197
-0.020604537799954414
-0.008031296543776989
-0.021084122359752655
-0.02883145399391651
-0.015439060516655445
-0.022895779460668564
-0.02060999535024166
-0.00543989846482873
-0.0005370860453695059
0.02913966029882431
-0.011371673084795475
-0.014659831300377846
0.018611686304211617
-0.00898671243339777
0.0013250726042315364
0.020264334976673126
-0.007393840700387955
0.021121889352798462
-0.01908044144511223
-0.004714804235845804
0.00366393243893981
-0.022408921271562576
0.004605588503181934
-0.004882616922259331
-0.010839054360985756
0.006762980483472347
-0.0021395336370915174
-0.03905424848198891
-0.0028959596529603004
-0.015798574313521385
-0.00619868841022253
-0.004901227541267872
-0.007671807426959276
0.006207894999533892
0.0031904352363198996
-0.002557937288656831
0.018989810720086098
-0.028862018138170242
-0.0033643790520727634
0.0024656816385686398
-0.00943963322788477
-0.005092212930321693
-0.020877940580248833
-0.006029824260622263
-0.024511847645044327
-0.0027406446170061827
-0.005687881261110306
-0.009442434646189213
-0.002724887803196907
-0.009058049879968166
-0.0156289953738451
0.007915026508271694
0.0177578404545784
0.004993494134396315
0.010616124607622623
-0.020310627296566963
-0.005797466263175011
-0.005551003850996494
0.0008105221786536276
-0.00984553899616003
0.005268603563308716
0.024047918617725372
0.011853707022964954
-0.045886214822530746
-0.015225189737975597
0.00994984619319439
-0.0009058366995304823
0.011380520649254322
0.03587527945637703
0.020117703825235367
-0.014047210104763508
-0.003419842105358839
-0.005051096435636282
0.040899742394685745
0.005379487294703722
-0.028216442093253136
0.004591546021401882
-0.00860476866364479
0.008560598827898502
0.0027827834710478783
0.001914834720082581
-0.0019168229773640633
0.028138844296336174
-0.011329050175845623
-0.015647657215595245
0.0030946664046496153
0.027910079807043076
-0.03225315734744072
-0.03187800943851471
-0.0037940344773232937
0.00791868194937706
0.008237607777118683
0.023497510701417923
0.05304781347513199
0.004172702319920063
0.032564375549554825
0.019801724702119827
0.03165671229362488
-0.00457959296181798
0.035331759601831436
0.03783547878265381
0.02752666547894478
0.018818514421582222
0.00789401214569807
0.014792148023843765
-0.013388760387897491
0.00020309632236603647
-0.026888955384492874
0.018378330394625664
0.014232047833502293
0.009183342568576336
-0.00905045960098505
0.014394642785191536
-0.0007050253334455192
-0.005168655887246132
0.0044260513968765736
-0.002811827464029193
-0.008062888868153095
0.010281487368047237
0.017639901489019394
-0.0064391703344881535
0.026556797325611115
0.018221458420157433
-0.004109849222004414
-0.020403224974870682
0.004017822444438934
-0.01352912187576294
-0.005655258893966675
-0.013740693219006062
0.007898437790572643
0.011895519681274891
0.011197879910469055
0.005924841854721308
0.012470437213778496
0.020891107618808746
0.009021376259624958
0.012719855643808842
-0.005032157059758902
0.0014628693461418152
0.010585134848952293
0.032428015023469925
-0.007124060299247503
-0.003686016658321023
-0.01938924565911293
-0.010568104684352875
-0.0060271588154137135
0.013916527852416039
0.012640424072742462
0.023161649703979492
0.021054329350590706
0.00835065171122551
-0.013840158469974995
-0.021110130473971367
0.0035470754373818636
-0.02281065098941326
-0.032336875796318054
0.0200963094830513
0.02916000597178936
0.0463060587644577
0.018853336572647095
0.010399986058473587
0.010965627618134022
-0.02727794460952282
0.018751701340079308
-0.015125684440135956
-0.0023906531278043985
0.01929081603884697
-0.012131614610552788
0.010632428340613842
0.020942503586411476
-0.012405216693878174
-0.008108578622341156
0.15274061262607574
0.11263947933912277
-0.03148457780480385
0.05807722732424736
-0.031416602432727814
-0.09524624794721603
-0.02310289442539215
-0.07146350294351578
-0.04637093469500542
0.02418985217809677
-4.9656267947284505e-05
-0.008840526454150677
0.00368833402171731
-0.008509843610227108
-0.0064214360900223255
-0.0011921083787456155
0.007916422560811043
0.01161136943846941
-0.03803212195634842
-0.023097222670912743
-0.007177499122917652
-0.035088617354631424
0.010860925540328026
0.013640226796269417
0.0006344914436340332
0.00974762812256813
0.007366995792835951
-0.044183503836393356
-0.01619023084640503
0.012243274599313736
-0.04034922271966934
-0.01789364404976368
0.028911445289850235
-0.006517589092254639
-0.010490001179277897
0.009165795519948006
0.004362132400274277
0.013119198381900787
0.001844158861786127
0.01155510637909174
-0.01303075347095728
-0.009565689601004124
-0.023313816636800766
0.001160890213213861
0.002677067881450057
-0.021179620176553726
-0.006221257150173187
0.0017608808120712638
-0.004742419347167015
0.011101137846708298
0.011296048760414124
-0.014529308304190636
0.02984267845749855
0.002438286319375038
0.006918332539498806
0.00929370615631342
0.03007812611758709
-0.00426119938492775
0.004955986514687538
-0.004733845591545105
0.03135984018445015
0.0019034947035834193
-0.004724222235381603
-0.036726173013448715
0.0057285139337182045
0.13919445872306824
-0.04299230873584747
0.0009402282303199172
0.0771407037973404
-0.050050344318151474
-0.0049478583969175816
0.024693123996257782
0.011757207103073597
0.0020812321454286575
0.005588988307863474
0.004299025982618332
0.003598684212192893
0.006414721719920635
-0.004561704583466053
0.003701650770381093
0.009892510250210762
0.03583773970603943
0.012553398497402668
0.0017223568866029382
0.026867492124438286
-0.012634430080652237
0.02228446863591671
0.02841668762266636
0.0022291080094873905
0.03583123907446861
-0.008019613102078438
0.022712375968694687
0.03448379039764404
-0.036426447331905365
0.12055278569459915
0.031801700592041016
0.015654752030968666
0.004520127549767494
0.0028657878283411264
0.01383870281279087
-0.004550341982394457
0.0026325364597141743
-0.004082720261067152
-0.04208294302225113
-0.0032236408442258835
0.020699992775917053
0.002090768190100789
0.016565175727009773
-0.0118032805621624
0.026634855195879936
0.02937661111354828
0.004625208675861359
-0.002328752540051937
0.006718677934259176
0.03140748664736748
0.0077619063667953014
0.005320224445313215
-0.007272440008819103
-0.028556013479828835
0.028240105137228966
-0.02690049819648266
0.022099288180470467
0.005035167559981346
0.0027527103666216135
-0.029896095395088196
-0.01775789074599743
-0.007614017929881811
-5.648343721986748e-05
0.014289465732872486
-0.017365822568535805
0.0012223642552271485
0.017042789608240128
0.004834923427551985
0.006648722104728222
0.00695830537006259
0.02246294729411602
0.012169694527983665
-0.00028754459344781935
0.01719043217599392
-0.023779230192303658
0.010291291400790215
0.007977534085512161
0.019240455701947212
-0.009733879938721657
0.004078760743141174
0.008904441259801388
0.003241863800212741
-0.0004334988188929856
-0.015412735752761364
-0.016358381137251854
-0.005454598926007748
0.005811123177409172
0.011748581193387508
0.011545855551958084
0.01523579377681017
-0.014804036356508732
0.02571980468928814
0.006476491689682007
-0.019266214221715927
0.015986161306500435
0.0018425200833007693
-0.019494250416755676
-0.030936267226934433
-0.03514239192008972
-0.00740277161821723
0.022125612944364548
0.013339193537831306
0.006399327423423529
0.010092481039464474
-0.021154608577489853
-0.007109326776117086
-0.019695471972227097
-0.023121848702430725
0.0013730571372434497
-0.009251849725842476
-0.019474634900689125
0.029689215123653412
-0.013703287579119205
-0.007357959169894457
0.024730326607823372
-0.029562311246991158
-0.01933532953262329
-0.018263662233948708
-0.0321442112326622
0.033686790615320206
0.003351341700181365
-0.01863148994743824
-0.008323383517563343
-0.0328080877661705
-0.02627726085484028
-0.015768513083457947
0.006242630071938038
-0.05815574526786804
-0.02317824773490429
-0.012050945311784744
-0.018107397481799126
-0.02856140024960041
-0.008602534420788288
0.019953066483139992
-0.004465962294489145
-0.006664533168077469
-0.014926856383681297
0.02919653058052063
0.009611937217414379
-0.01378604955971241
0.011965607292950153
-0.012824930250644684
-0.022438352927565575
0.01108522154390812
0.0032350800465792418
0.004802197217941284
-0.038543086498975754
-0.016056673601269722
0.016203654929995537
-0.004170581232756376
-0.007412032224237919
0.03205274045467377
0.03948734700679779
-0.011197267100214958
0.04588589817285538
0.0015603207284584641
-0.03338629752397537
0.052255094051361084
0.0191792082041502
-0.0032173290383070707
0.007741732522845268
-0.010178021155297756
-0.015639903023838997
-0.007790256291627884
-0.0021657387260347605
0.013175890780985355
-0.02935892716050148
-0.005638535134494305
0.012344473972916603
0.035963889211416245
0.04166813939809799
0.04362782463431358
0.018978940322995186
-0.04927363246679306
-0.021166425198316574
-0.0019305896712467074
-0.034084584563970566
-0.030804792419075966
-0.013308154419064522
-0.012779945507645607
-0.04480356350541115
-0.008316634222865105
-0.019980918616056442
-0.03105224296450615
0.004749976564198732
0.023482508957386017
0.006540474481880665
0.00781731866300106
0.03286907076835632
0.018041016533970833
0.03095473162829876
0.1250900775194168
0.04559539258480072
0.037602607160806656
0.10095931589603424
-0.0018483210587874055
0.006434400100260973
0.03564181178808212
0.013213089667260647
0.020673278719186783
-0.0039381603710353374
-0.007965915836393833
0.011577644385397434
-0.0018087910721078515
-0.005358042195439339
0.025032829493284225
0.005644217599183321
-0.005534156691282988
0.039996542036533356
0.008064952678978443
0.0026716822758316994
0.022829603403806686
0.01026945374906063
-0.035863108932971954
0.009040034376084805
0.016716929152607918
-7.093470048857853e-05
0.029841259121894836
0.00654016574844718
-0.005807405337691307
0.01448338758200407
0.005785814486443996
-0.008684521540999413
-0.002820979803800583
0.007589224725961685
0.006486467085778713
0.008519608527421951
0.008849713020026684
0.0017677220748737454
-0.004926718305796385
-0.03540811315178871
-0.00811726227402687
0.00879447441548109
-0.013357745483517647
0.022729417309165
-0.00221531605347991
-0.042936570942401886
0.028357353061437607
0.009598884731531143
-0.00047773198457434773
0.0058897389099001884
0.028317386284470558
0.022930553182959557
0.03034369833767414
0.012195572257041931
-0.021848555654287338
-0.00354932714253664
0.03579717129468918
-0.007764048874378204
0.04270553216338158
0.009729328565299511
-0.010979519225656986
0.031170031055808067
0.02004275470972061
-0.012702330946922302
0.019041430205106735
0.004285795148462057
-0.04791554436087608
0.009394114837050438
0.019050447270274162
0.02969195321202278
-0.03800833225250244
0.07042212784290314
0.0707303062081337
-0.013508297502994537
-0.01583191379904747
0.038391027599573135
-0.0017953891074284911
0.021819161251187325
0.004531424026936293
0.0031379784923046827
-0.018070194870233536
-0.06133638322353363
0.0011479457607492805
0.017728742212057114
0.013851500116288662
0.006164890713989735
-0.0076642525382339954
0.016609758138656616
0.04438278451561928
0.0073829153552651405
0.007955864071846008
0.04475702717900276
-0.015519529581069946
-0.03175162523984909
-0.0037898155860602856
0.0012220743810757995
-0.019833026453852654
-0.015826886519789696
-0.017127705737948418
0.017005210742354393
-0.008526741527020931
-0.015470022335648537
0.010712331160902977
-0.016922689974308014
-0.017768992111086845
-0.012258686125278473
0.01157357543706894
-0.013273420743644238
-0.01686927117407322
0.03634500503540039
0.027478091418743134
0.009180446155369282
-0.0025966011453419924
-0.04872789978981018
-0.02398860454559326
0.01715683750808239
-0.02307632565498352
-0.0474332831799984
0.02393205650150776
0.003689653007313609
0.010307690128684044
0.07743498682975769
0.017385415732860565
0.016046125441789627
0.0010955794714391232
0.02332262322306633
0.012376165017485619
-0.002688250970095396
0.015220161527395248
-0.0071135833859443665
-0.005430352408438921
0.006906959228217602
0.0067328498698771
-0.002671118127182126
-0.002557175699621439
0.00335085135884583
-0.026633478701114655
0.0026257906574755907
0.005760632921010256
-0.009933472611010075
-0.0468728169798851
-0.024220168590545654
-0.01335208397358656
-0.02756005898118019
0.023249110206961632
0.00976724736392498
-0.04007560759782791
0.002620405750349164
0.03333109989762306
-0.03745456412434578
0.011860205791890621
0.04527062922716141
-0.007933329790830612
-0.014897077344357967
-0.02154824137687683
0.004560457542538643
-0.0072425659745931625
0.010839634574949741
-0.011889438144862652
-0.005666452459990978
0.008511584252119064
-0.03591841831803322
-0.02794153057038784
-0.023977093398571014
-0.03408486023545265
-0.04086730629205704
-0.0530359260737896
0.01212491188198328
-0.0004308935604058206
-0.005689537152647972
-0.014893768355250359
-0.008624931797385216
-0.012231488712131977
-0.010527768172323704
-0.026661410927772522
-0.004430340602993965
-0.004611447919160128
-0.008057796396315098
0.019890135154128075
0.0038982422556728125
-0.02185874432325363
-0.009545974433422089
-0.005199882201850414
-0.036117684096097946
-0.017913999035954475
0.053207267075777054
0.014877188950777054
-0.04300801455974579
0.01843532733619213
-0.03323603793978691
-0.01572493277490139
-0.020215490832924843
0.003466446651145816
0.047563571482896805
0.008559631183743477
-0.017474228516221046
-0.004490818828344345
0.007241089828312397
0.0230848528444767
0.001250040135346353
-0.012774044647812843
-0.01833757758140564
-0.001478302525356412
-0.003628980601206422
-0.007988395169377327
0.014438524842262268
-0.012201009318232536
0.01300985086709261
-0.023931657895445824
0.015366965904831886
-0.006544320844113827
-0.011000965721905231
-0.024115800857543945
-0.02751155011355877
-0.008153505623340607
-0.02869086153805256
-0.007582414895296097
-0.03949708119034767
0.013488473370671272
-0.01815604232251644
-0.05039752274751663
0.07531560212373734
0.059270333498716354
0.02507418766617775
0.07003577798604965
0.0455566868185997
0.08966528624296188
0.029316548258066177
0.07022225111722946
0.037906039506196976
-0.024248065426945686
-0.008191151544451714
0.03221921995282173
-0.0137257669121027
0.06032898649573326
0.013613710179924965
0.021634863689541817
0.03444867208600044
-0.02262790873646736
0.012197081930935383
-0.017549831420183182
0.006035724189132452
-0.026317046955227852
-0.04998992010951042
0.008649188093841076
-0.0022546101827174425
-0.01752021722495556
0.00968321505934
-0.08785448968410492
-0.06858474761247635
-0.04301502928137779
-0.08856862038373947
-0.06877561658620834
-0.044266004115343094
-0.05494698882102966
-0.05673122778534889
-0.03659756854176521
-0.01988707296550274
0.022355427965521812
0.11339730024337769
-0.03905067220330238
-0.04680469259619713
0.08233921974897385
-0.03566276282072067
-0.05676870048046112
0.04756927490234375
-0.03698592260479927
-0.015690086409449577
0.02809247560799122
-0.019534019753336906
-0.036304399371147156
-0.0033383730333298445
0.01562354527413845
-0.007349273655563593
-0.020584378391504288
0.017203213647007942
-0.005012514069676399
0.02859070897102356
-0.0029069071169942617
-0.07444710284471512
-0.023247288540005684
0.03563079610466957
-0.003523078979924321
0.06015210971236229
-0.027263374999165535
-0.0037833128590136766
-0.03768686577677727
-0.0003694270853884518
-0.017582302913069725
0.0040726205334067345
0.023166751489043236
-0.0030008996836841106
-0.005086138844490051
-0.0023284642957150936
-0.001248451299034059
-0.018900258466601372
-0.0252629853785038
-0.00011862302926601842
-0.020499518141150475
0.000658965262118727
-0.0004082252853550017
-0.0021988041698932648
-0.0015584354987367988
0.0013496316969394684
0.0019219801761209965
-0.01644495129585266
0.04737367853522301
0.005213380791246891
-0.010630580596625805
0.008992064744234085
-0.011963680386543274
0.018126633018255234
0.021728677675127983
0.07823973894119263
0.027599897235631943
-0.01799345389008522
0.03853462636470795
0.07006548345088959
0.008437526412308216
0.03417709842324257
0.06922891736030579
0.013844008557498455
0.026351291686296463
0.04474049434065819
-6.42858722130768e-05
0.02790537290275097
0.009259478189051151
0.024456556886434555
0.06688632071018219
-0.017765074968338013
-0.006282651796936989
-0.003646519500762224
0.003601782489567995
-0.0032347922679036856
-0.0006670054281130433
-0.008576992899179459
-0.03403763845562935
-0.028032835572957993
-0.017363736405968666
0.022272219881415367
0.04175926744937897
-0.015716519206762314
0.005731796845793724
0.005110760219395161
0.010390061885118484
0.0100015914067626
-0.0022376582492142916
-0.052673861384391785
0.005466194823384285
-0.0618470199406147
-0.05824995040893555
0.005308305844664574
-0.01886824145913124
-0.052828505635261536
-0.031939469277858734
-0.0012670569121837616
-0.012760307639837265
-0.011113369837403297
0.03478256240487099
-0.006829999852925539
0.03697114810347557
0.02048727311193943
0.04864528030157089
0.028560567647218704
0.02298005484044552
-0.041169989854097366
0.005447940435260534
0.024504709988832474
0.008504321798682213
0.023612728342413902
-0.016069702804088593
0.018108565360307693
-0.009370408020913601
-0.021754298359155655
0.023845970630645752
-0.006627335678786039
0.006101366598159075
0.0007279840065166354
-0.020130950957536697
-0.01127492543309927
0.01423777174204588
0.007621737662702799
-0.0043294415809214115
-0.027559487149119377
0.06774022430181503
-0.010069425217807293
0.05486929789185524
0.06426868587732315
0.04743506386876106
-0.0162911769002676
0.023155774921178818
-0.01488739438354969
-0.031266238540410995
-0.0035874571185559034
0.018358958885073662
-0.01724209077656269
-0.004306445363909006
0.04068666696548462
-0.015378819778561592
0.027589382603764534
0.09246279299259186
0.0032523965928703547
0.023911474272608757
0.004514187574386597
0.011948731727898121
-0.014345916919410229
-0.041839275509119034
-0.0048793707974255085
0.021629566326737404
-0.036895301192998886
-0.019458753988146782
-0.005596292205154896
-0.007487124763429165
-0.04482286050915718
-0.047983963042497635
-0.03511548042297363
0.01075720228254795
-0.0042265187948942184
-0.005416632164269686
-0.029966983944177628
-0.016960570588707924
-0.01884065940976143
-0.023084858432412148
0.017212627455592155
-0.043751172721385956
-0.004055961035192013
0.008032632060348988
-0.018479550257325172
0.027743877843022346
-0.007587731815874577
-0.03270161524415016
-0.016562627628445625
-0.09141800552606583
-0.03401920199394226
-0.05570507422089577
-0.03171445056796074
0.0257990974932909
-0.036620087921619415
-0.021528825163841248
0.01594673842191696
-0.0804649293422699
-0.06991537660360336
-0.04155411571264267
-0.056211795657873154
-0.08331386744976044
-0.047748830169439316
-0.026965493336319923
-0.010438929311931133
0.027537968009710312
-0.017351312562823296
0.009405076503753662
0.04341958835721016
0.010303336195647717
0.010470199398696423
0.02826821804046631
-0.013369818218052387
0.0037296402733772993
0.039811328053474426
0.008941707201302052
0.004426502622663975
0.06144781410694122
0.03630707412958145
0.04818502441048622
0.061739563941955566
-0.019757289439439774
-0.012738923542201519
-0.03604279085993767
0.009761552326381207
0.0022629161830991507
-0.01755325309932232
0.03371720388531685
0.007829551585018635
0.04897874593734741
-0.00037258132942952216
-0.043540045619010925
0.0032614662777632475
0.0378524549305439
0.06122799217700958
-0.014638087712228298
0.06367870420217514
0.039145004004240036
-0.036225832998752594
0.03932372108101845
0.0057700504548847675
-0.017327161505818367
0.011495939455926418
-0.06069144979119301
-0.07559031248092651
0.02232586033642292
-0.002634537173435092
-0.027169054374098778
0.02130015380680561
0.002879528561607003
-0.00537458760663867
0.0004334559489507228
-0.020169850438833237
-0.024450425058603287
-0.008488179184496403
-0.03350089117884636
-0.01994990184903145
-0.03197147324681282
0.002913682721555233
0.03167117014527321
-0.02537664771080017
0.015287455171346664
-0.021231351420283318
0.02217675745487213
0.02823031321167946
0.01981791853904724
-0.017901761457324028
0.011493794620037079
-0.004852804820984602
-0.0017838591011241078
-0.029600735753774643
-0.008635690435767174
-0.004411038476973772
-0.0023867639247328043
-0.008377479389309883
-0.035852618515491486
-0.0029051611199975014
0.015651289373636246
-0.018876874819397926
-0.0002509986807126552
-0.020874686539173126
0.014154928736388683
0.01293203979730606
-0.010574843734502792
0.026491478085517883
0.004540632478892803
0.03706393763422966
0.007041027303785086
0.023340879008173943
0.02887592650949955
0.04888356477022171
0.028120948001742363
0.030855273827910423
0.05607549473643303
0.026784367859363556
-0.02322475053369999
0.012875355780124664
-0.02580532804131508
-0.03335999697446823
0.0016044648364186287
-0.001641036244109273
-0.008302638307213783
-0.00639682961627841
0.002262352267280221
0.013077587820589542
-0.03309778869152069
-0.030210502445697784
-0.018653344362974167
0.007128202822059393
-0.031401295214891434
-0.0033679166808724403
-0.014811101369559765
-0.04276927933096886
-0.010910183191299438
-0.015728000551462173
-0.03858885541558266
-0.01262526772916317
0.010289082303643227
0.0025682628620415926
0.021491920575499535
0.002284424379467964
6.520785973407328e-05
0.0124400295317173
0.00548720033839345
0.019260603934526443
0.011205397546291351
0.020419064909219742
-0.0009144949726760387
-0.0008411577437072992
-0.01453310064971447
0.08986850082874298
0.06408949941396713
0.09970036149024963
0.13339786231517792
0.011372831650078297
0.033604998141527176
0.018735673278570175
-0.06068209186196327
0.03721705824136734
-0.006871313787996769
0.014242676086723804
0.0023055579513311386
-0.034346021711826324
-0.015027928166091442
0.05275047942996025
0.0384647361934185
0.05167129263281822
0.00409914692863822
0.00037918740417808294
0.008869042620062828
-0.018552886322140694
-0.012134850025177002
-0.007435132749378681
-0.013711261563003063
0.004438584670424461
0.011400587856769562
0.011305826716125011
0.011000937782227993
0.004963564686477184
0.013660862110555172
0.027425585314631462
0.016928428784012794
0.02674499712884426
-0.0014745945809409022
0.018202824518084526
-0.05340372025966644
-0.034478526562452316
0.00393028324469924
-0.02223067544400692
-0.024810871109366417
-0.017669718712568283
-0.003781960578635335
-0.01600809022784233
0.01733831875026226
-0.028604745864868164
-0.009560512378811836
0.006853017490357161
0.02630551904439926
0.040102243423461914
0.007719728164374828
0.06840270012617111
0.0274503231048584
-0.03025524504482746
-0.01954035833477974
0.009846937842667103
0.04247448220849037
0.0031620946247130632
0.08601132035255432
0.006611127406358719
0.036594148725271225
0.01657920330762863
-0.04102424159646034
-0.0007556711789220572
-0.014439374208450317
-0.029412537813186646
-0.023923642933368683
-0.01954679936170578
-0.040790244936943054
-0.025766633450984955
-0.009053211659193039
-0.010325340554118156
-0.030645165592432022
0.0699755847454071
0.05475538223981857
0.0638677105307579
0.1215403601527214
0.0495726615190506
0.03750757500529289
0.029003271833062172
-0.033120449632406235
0.03144631162285805
0.016645001247525215
0.012515878304839134
-0.035212259739637375
0.016448942944407463
0.012916261330246925
0.0025666463188827038
0.02676105499267578
-0.01319186296314001
0.011932437308132648
0.008368915878236294
0.018815167248249054
0.010577831417322159
0.0019223961280658841
0.003908779472112656
0.02986929938197136
0.002110581612214446
0.03583863377571106
0.0041888682171702385
0.003051480045542121
0.017979726195335388
0.00793762132525444
-0.01245721522718668
-0.007958784699440002
0.008484204299747944
0.0002262161870021373
-0.013732174411416054
0.025563919916749
0.005378318019211292
0.00233603292144835
-0.020273437723517418
-0.010922509245574474
-0.009454178623855114
-0.014653196558356285
-0.02954491227865219
0.014793839305639267
0.03429780900478363
0.038283102214336395
0.026065001264214516
0.012315834872424603
0.0011397175258025527
0.027906350791454315
-0.01823836751282215
-0.011727562174201012
0.00976902898401022
-0.029299208894371986
-0.018480034545063972
-0.021053284406661987
-0.013166023418307304
0.002457672730088234
-0.062176235020160675
0.027145735919475555
0.03329050913453102
-0.027132324874401093
-0.020032884553074837
-0.03750905022025108
0.014168130233883858
-0.027035733684897423
-0.007222358603030443
-0.0038747035432606936
0.04338012635707855
0.0050834533758461475
0.025522878393530846
-0.010496684350073338
0.0037653951440006495
-0.0033027329482138157
-0.010122710838913918
-0.00917303841561079
-0.032794706523418427
0.006723631639033556
-0.016642671078443527
-0.017993219196796417
-0.0033318782225251198
-0.0019994548056274652
-0.03373850882053375
0.0010989770526066422
-0.013822083361446857
-0.0245039239525795
0.002068691188469529
-0.001384318107739091
0.016858844086527824
0.03070678561925888
0.019921602681279182
0.04869966581463814
0.0003894789260812104
-0.022847671061754227
-0.016777662560343742
0.020202428102493286
-0.03962913155555725
-0.03213854879140854
0.07240182161331177
-0.01787293143570423
0.02297855168581009
0.028255635872483253
-0.04442932456731796
-0.019165318459272385
0.017743363976478577
-0.020875461399555206
-0.04547077789902687
0.011276810429990292
0.0023452143650501966
0.009983890689909458
0.014422622509300709
0.016404904425144196
-0.024711186066269875
0.02853703498840332
-0.02111031860113144
-0.01415807381272316
-0.010715454816818237
0.00662278663367033
-0.010345197282731533
0.012197431176900864
-0.02227960340678692
-0.03028828650712967
0.04158623889088631
-0.0033461248967796564
-0.05515291541814804
-0.0489836186170578
-0.04440882429480553
0.026867859065532684
-0.021957427263259888
-0.035838063806295395
-0.028025703504681587
-0.015543362125754356
-0.023278003558516502
-0.0682154968380928
-0.028142672032117844
0.00703534297645092
0.0034776695538312197
-0.05004650354385376
-0.0144656365737319
0.06484474241733551
0.011929836124181747
0.10152295231819153
0.03676413372159004
-0.001955657033249736
0.012933504767715931
0.005734148435294628
-0.012112616561353207
0.007100690621882677
-0.026228047907352448
-0.00720159150660038
-0.017840346321463585
-0.019611146301031113
-0.008481514640152454
0.020411236211657524
-0.019055264070630074
0.02994599938392639
0.01593436859548092
0.010421078652143478
0.025090204551815987
-0.005186840426176786
-0.00608142651617527
0.009010725654661655
0.06758639216423035
-0.0061256010085344315
0.07354236394166946
0.12799310684204102
-0.015657629817724228
0.008872617036104202
-0.01951972022652626
-0.025992006063461304
0.007323693949729204
-0.006649376824498177
-0.010853984393179417
0.014383825473487377
0.03672541305422783
0.018869586288928986
-0.012656288221478462
-0.02391524612903595
-0.03113919124007225
-0.03038300760090351
-0.09941733628511429
-0.05009971186518669
-0.09294936805963516
-0.16598783433437347
-0.10856123268604279
-0.01585344597697258
-0.08189237117767334
-0.03900270536541939
-0.021674180403351784
-0.019214900210499763
0.02818380855023861
0.01159302145242691
0.027997326105833054
-0.004660619422793388
0.02393440343439579
0.01438414677977562
-0.024391502141952515
0.026585856452584267
0.012676930986344814
-0.008089075796306133
-0.010337164625525475
0.006420811638236046
0.009059364907443523
-0.01596512272953987
0.02664460800588131
0.005354378372430801
0.02271663397550583
0.0387253612279892
0.017325041815638542
-0.0017834074096754193
0.004111348185688257
-0.0012279151706025004
0.00391291594132781
-0.005809243302792311
-0.044255975633859634
0.01695138029754162
-0.0031813355162739754
0.0012154654832556844
-0.010573194362223148
-0.021108219400048256
0.016660386696457863
-0.0307601448148489
-0.028676573187112808
0.020331010222434998
0.020843977108597755
0.008372386917471886
-0.0020746306981891394
6.978631427045912e-05
0.017768619582057
-0.024074692279100418
-0.046783290803432465
-0.027196453884243965
-0.03501954674720764
-0.0015528635121881962
-0.011928102001547813
-0.028367584571242332
0.0025827838107943535
0.0023717128206044436
-0.02683917246758938
0.005093888379633427
0.015047100372612476
-0.0021391548216342926
-0.00323276873677969
-0.024579359218478203
0.011204123497009277
-0.02558266371488571
-0.05176679417490959
-0.04358738288283348
0.0316942073404789
-0.007677107118070126
-0.008520973846316338
0.01378569658845663
-0.007118461653590202
0.014667038805782795
-0.0042401566170156
-0.03601351007819176
0.012283087708055973
-0.012275658547878265
-0.007423353381454945
0.020170850679278374
0.01718284748494625
-0.02204151079058647
0.018623322248458862
0.034065794199705124
0.007551287766546011
0.03833690658211708
0.03906332328915596
0.015472013503313065
-0.0020523916464298964
0.0372031107544899
0.007471222896128893
-0.0426589697599411
-0.008172902278602123
-0.09253604710102081
-0.00549342343583703
-0.025927109643816948
0.0008399317739531398
0.07463189214468002
0.018076330423355103
0.0045271990820765495
-0.01375702116638422
-0.018939299508929253
-0.0327388234436512
-0.029665978625416756
-0.020607851445674896
-0.00461672805249691
0.0013079814380034804
-0.012077883817255497
-0.002028510207310319
-0.01699754223227501
-0.034804556518793106
-0.04919518157839775
-0.03197261691093445
-0.021020958200097084
-0.005116413347423077
-0.0048522246070206165
0.007559768855571747
0.03707748278975487
-0.009698502719402313
-0.018659919500350952
-0.029188139364123344
-0.0247397068887949
0.013152167201042175
-0.010019437409937382
0.01321237999945879
0.004354206845164299
0.023374125361442566
-0.041822414845228195
0.012422647327184677
0.03485860303044319
-0.031266067177057266
-0.010193495079874992
0.01939593069255352
-0.025712577626109123
0.021605858579277992
-0.009309620596468449
-0.02111218310892582
0.01284732110798359
-0.03519159555435181
-0.03773373365402222
-0.000941199716180563
-0.043171193450689316
-0.031149089336395264
-0.005761522799730301
-0.004067655187100172
-0.014365225099027157
0.012676753103733063
0.03854908421635628
0.013175612315535545
-0.01526838168501854
-0.009416691958904266
0.005198335275053978
-0.008099819533526897
-0.056161437183618546
-0.032660260796546936
0.03035670705139637
-0.028247136622667313
-0.046034425497055054
0.01574128121137619
0.001655964064411819
-0.06186294928193092
-0.04402713105082512
-0.056186843663454056
0.0733841061592102
-0.03251286596059799
-0.06265709549188614
0.14106759428977966
-0.04029367119073868
0.002643401036038995
0.08157453685998917
-0.012518136762082577
0.008765995502471924
-0.028316529467701912
-0.014260736294090748
0.021114440634846687
0.01408433634787798
-0.03329051285982132
-0.03250671550631523
-0.022005286067724228
-0.009690611623227596
-0.00973369088023901
0.004226586315780878
0.022816721349954605
0.031428854912519455
0.003663564333692193
-0.030940232798457146
-0.03944546356797218
-0.001611399813555181
0.023863302543759346
0.03033830039203167
-0.004412104841321707
-0.01437685638666153
-0.10021835565567017
-0.010832380503416061
0.011123484000563622
-0.07128120958805084
-0.009525501169264317
-0.008122299797832966
-0.00566251901909709
-0.01990349031984806
-0.007370748091489077
-0.01816873997449875
0.008641592226922512
-0.026823798194527626
-0.012664590030908585
-0.012013742700219154
0.006487313192337751
-0.020295757800340652
-0.02435324899852276
0.013746384531259537
-0.013562756590545177
-0.017578603699803352
0.003171461634337902
-0.023556223139166832
-0.009579591453075409
-0.010797383263707161
0.018464235588908195
0.01680992729961872
-0.023940855637192726
0.02683795429766178
-0.006148864049464464
-0.009008040651679039
0.00452331593260169
-0.010669887065887451
-0.029752690345048904
-0.032092928886413574
0.014814435504376888
-0.0274715144187212
0.01511808019131422
0.016899792477488518
-0.023438427597284317
0.010353661142289639
-0.0013374605914577842
0.04031363129615784
0.025335034355521202
0.022314978763461113
-0.011006738990545273
-0.00905684195458889
0.006885827984660864
-0.008986368775367737
-0.02271420694887638
-0.0038022759836167097
-0.033944014459848404
0.02874806709587574
-0.0017753683496266603
-0.03207112476229668
0.023037437349557877
0.013374502770602703
-0.0643213540315628
-0.02968309074640274
-0.018649600446224213
0.01638469658792019
-0.010343300178647041
0.008476185612380505
-0.01313670352101326
-0.08728192746639252
0.0012855968670919538
0.041577521711587906
-0.00044289292418397963
0.04357597976922989
0.007314985152333975
0.030430177226662636
-0.004202159121632576
0.023885216563940048
0.04869770631194115
-0.008727950043976307
-0.0038110793102532625
0.023932572454214096
-0.029404904693365097
-0.026529883965849876
0.013959319330751896
0.005119146779179573
-0.015419024974107742
0.0239323228597641
-0.03364008292555809
-0.027074245736002922
-0.001951333018951118
-0.013232187367975712
-0.0048361364752054214
-0.029298221692442894
-0.017798960208892822
-0.011729811318218708
-0.05317091941833496
-0.06611483544111252
-0.00774053018540144
-0.04466036707162857
-0.03525741770863533
0.06010299548506737
0.015027754008769989
-0.03663468733429909
0.03102223388850689
-0.03196435049176216
-0.04260355234146118
0.036285001784563065
-0.013735088519752026
-0.022181840613484383
-0.03157997503876686
-0.04459509998559952
-0.016924316063523293
-0.04535995051264763
-0.0027793135959655046
-0.03629111126065254
-0.010211151093244553
-0.028616048395633698
0.0030900873243808746
-0.02906528301537037
-0.02287459559738636
0.09529995918273926
-0.06590335816144943
-0.0041223629377782345
0.12750455737113953
0.007822973653674126
0.031264372169971466
0.1042587161064148
-0.04847943037748337
-0.02295592986047268
-0.02375243790447712
-0.06582164764404297
0.028791215270757675
0.007330490741878748
-0.03408844769001007
-0.03268419951200485
-0.037747323513031006
-0.003410028526559472
0.01807914860546589
-0.02793208695948124
-0.0018356882501393557
-0.019511928781867027
-0.026841724291443825
-0.024218013510107994
0.03156270459294319
0.03921022266149521
0.006551277823746204
0.015992239117622375
-0.014265616424381733
0.0006132077542133629
0.011595903895795345
-0.05818198621273041
0.021408993750810623
-0.030487798154354095
-0.010562862269580364
-0.008150825276970863
0.02201867662370205
0.014606618322432041
-0.035419829189777374
0.026486024260520935
0.010473406873643398
0.010267049074172974
0.03132284805178642
0.014481816440820694
0.030799932777881622
0.04397843778133392
0.012500131502747536
0.014809348620474339
0.0709879919886589
-0.0008866899297572672
0.009308204054832458
-0.03369151055812836
0.006413175258785486
-0.003932373598217964
-0.004016026388853788
0.014425231143832207
0.05307688191533089
0.04820600152015686
0.032436151057481766
-0.00507717952132225
0.013348117470741272
0.0038587283343076706
-0.013364334590733051
0.022132687270641327
0.026187049224972725
-0.04579085856676102
-0.02545873261988163
-0.023456837981939316
-0.04610256105661392
-0.014035003259778023
0.014415561221539974
-0.06595489382743835
0.009003513492643833
-0.013664097525179386
-0.04519237205386162
0.16661933064460754
-0.016660155728459358
-0.04882105439901352
-0.007495663594454527
-0.06202409416437149
0.009911172091960907
0.015992697328329086
-0.01227134745568037
-0.02397008053958416
-0.013068117201328278
-0.07973311841487885
0.0030730569269508123
0.01863717846572399
-0.040502216666936874
-0.01065132487565279
-0.013013466261327267
-0.04269855469465256
0.002268737182021141
0.03918757662177086
-0.028881307691335678
-0.04356994852423668
0.0063332789577543736
-0.01545189879834652
-0.018148422241210938
0.01994846947491169
-0.02144523710012436
-0.052982207387685776
0.061658211052417755
-0.02585020661354065
-0.02541401796042919
0.0018711641896516085
-0.04195256531238556
-0.014751385897397995
0.006768621504306793
0.013184161856770515
0.003615000518038869
0.012667248025536537
-0.030069736763834953
-0.0001901208597701043
0.018765367567539215
0.022700391709804535
-0.004697244614362717
-0.013392587192356586
-0.0280557032674551
-0.02316378615796566
-0.04340394213795662
-0.049996517598629
-0.02152489684522152
-0.052903201431035995
-0.04635284096002579
-0.03504686802625656
-0.017243241891264915
-0.05972622334957123
-0.023173052817583084
-0.004937922116369009
-0.06140102073550224
-0.015029716305434704
0.0069597200490534306
-0.036438193172216415
0.04714025557041168
0.011395014822483063
-0.07836233079433441
0.06844176352024078
0.03376523405313492
-0.07925262302160263
0.0650385394692421
0.04044104367494583
-0.06151995435357094
0.018308473750948906
-0.008570115081965923
-0.022457482293248177
-0.00173605524469167
0.006773850880563259
-0.014180769212543964
-0.013316628523170948
-0.03479526564478874
-0.023181919008493423
0.011470716446638107
0.020180877298116684
0.014911340549588203
0.024541473016142845
0.038098253309726715
0.01757168583571911
0.02642013505101204
0.04513223469257355
0.04012131690979004
-0.00917082279920578
0.028892861679196358
-0.007651214953511953
0.0013386796927079558
0.03256332874298096
-0.006643794011324644
-0.03146689385175705
-0.007176796905696392
0.028194569051265717
-0.007747539784759283
0.027671681717038155
-0.022462649270892143
-0.007885381579399109
0.08555211871862411
0.011980932205915451
-0.05529920384287834
-0.012691114097833633
-0.05441907420754433
0.03613189607858658
0.02519882097840309
-0.07485869526863098
0.07966745644807816
0.06545636057853699
-0.06771121174097061
0.045499853789806366
0.012873955070972443
-0.07580144703388214
-0.016709715127944946
-0.03003537841141224
-0.03218962997198105
-0.018339307978749275
-0.042130183428525925
-0.017144156619906425
-0.005804054904729128
-0.012600124813616276
-0.02714553102850914
-0.0021758158691227436
-0.02637382224202156
0.025265567004680634
-3.0957249691709876e-05
-0.005864557810127735
-0.005494560115039349
0.025970423594117165
0.02620716392993927
0.021220901980996132
-0.02240096963942051
-0.025568058714270592
-0.03143337741494179
-0.005552813410758972
0.016741394996643066
0.012700028717517853
-0.026977436617016792
-0.02504918724298477
-0.02236785925924778
-0.02392805740237236
-0.007587419357150793
-0.03004121594130993
0.04332068935036659
0.04363090917468071
0.028590133413672447
0.0014922916889190674
0.008510305546224117
0.0028306946624070406
-0.0002580568252597004
-0.023501677438616753
-0.004424241371452808
0.00809378083795309
-0.0024593051057308912
-0.00997648574411869
-0.005698670167475939
0.0046333130449056625
-0.011930279433727264
0.00821054819971323
-0.004520023707300425
0.010586846619844437
0.007623320445418358
0.006558794528245926
0.030807338654994965
-0.0071078636683523655
0.017057916149497032
-0.0040046744979918
-0.01504011545330286
0.01807159185409546
-0.020645584911108017
0.015608957037329674
0.05808323994278908
-0.023883385583758354
0.014426643028855324
-0.001778592704795301
-0.010004171170294285
-0.016853999346494675
-0.03764474391937256
-0.00564404483884573
0.015461564064025879
-0.03566708415746689
0.05901240184903145
-0.051533255726099014
-0.049384940415620804
0.031628869473934174
-0.020989030599594116
-0.030583422631025314
-0.008248412050306797
-0.020873960107564926
-0.0013013554271310568
-0.014316800981760025
-0.03399466350674629
-0.02290809154510498
0.006828108802437782
-0.0072720167227089405
-0.03250379115343094
-0.028035815805196762
0.0008813810418359935
-0.06018439680337906
-0.034553445875644684
-0.025958945974707603
-0.026534581556916237
-0.005458264611661434
-0.010630136355757713
0.025204379111528397
-0.06942048668861389
0.01685473509132862
0.029586590826511383
-0.04137701168656349
0.004724274389445782
0.06296214461326599
-0.03362267091870308
0.048314567655324936
0.007396900560706854
-0.005591203924268484
0.005418740678578615
-0.02508785016834736
-0.052603453397750854
-0.010940540581941605
-0.07259134948253632
-0.048409681767225266
-0.01771521382033825
0.0443405881524086
-0.02391606755554676
0.01191495731472969
0.06012604758143425
-0.0024211157578974962
-0.015177245251834393
0.02411051280796528
0.011279623955488205
0.0061534978449344635
0.004604380112141371
-0.04760293662548065
-0.022272944450378418
-0.0016783922910690308
-0.06010020151734352
0.000883722270373255
-0.00884086824953556
-0.05036556348204613
0.07474270462989807
-0.029214341193437576
-0.0007705509196966887
0.018928583711385727
-0.11140061914920807
-0.0007619481766596437
-0.00991524662822485
-0.041596148163080215
0.011251408606767654
-0.0011413851752877235
0.016979724168777466
-0.01976594515144825
0.031624771654605865
0.0575532503426075
-0.03181589022278786
-0.016483591869473457
-0.017304275184869766
-0.05105547606945038
-0.0348115973174572
-0.06686581671237946
-0.01647680252790451
-0.05602484568953514
-0.08929305523633957
-0.019207190722227097
-0.03869500011205673
-0.025047708302736282
-0.0390375554561615
0.0004185373545624316
0.00650412030518055
-0.012815900146961212
-0.008551087230443954
0.06098589301109314
-0.03849085047841072
-0.00874574575573206
0.030269894748926163
-0.03210762143135071
-0.006021607201546431
0.003986224997788668
-0.01078731007874012
-0.007953912951052189
-0.003937609493732452
0.015449507161974907
-0.035592179745435715
-0.03521713986992836
-0.008554399013519287
-0.01670762524008751
0.026830345392227173
-0.013787442818284035
-0.028497638180851936
0.055576059967279434
-0.03626460209488869
-0.0010467431275174022
0.035715892910957336
-0.041999008506536484
-0.0013282293220981956
-0.02809702418744564
0.015233301557600498
0.007991030812263489
-0.032640326768159866
0.005394554231315851
0.026265809312462807
-0.0034285238943994045
-0.01931375451385975
-0.017850033938884735
-0.003479416947811842
-0.03151818364858627
-0.014724506996572018
-0.03307792916893959
-0.045832276344299316
-0.02802419289946556
-0.03456379845738411
-0.02143646404147148
0.014224185608327389
-0.009943950921297073
0.012670287862420082
-0.010191506706178188
0.004972023423761129
0.01624641753733158
-0.01925784908235073
0.001895225839689374
-0.01432048436254263
0.0034610785078257322
0.03364377096295357
-0.009479440748691559
-0.010735074989497662
0.046108413487672806
-0.0013583883410319686
-0.01264083944261074
0.034716930240392685
-0.002713098656386137
-0.04955087974667549
-0.00488309096544981
-0.013090108521282673
0.011368253268301487
0.04806521534919739
0.0422501415014267
-0.025262122973799706
-0.02161562442779541
-0.005133426748216152
-0.024947743862867355
-0.0004901879001408815
0.05867072939872742
-0.004986700601875782
0.024960465729236603
0.07259441167116165
-0.01991686224937439
0.02488003857433796
0.03966761752963066
0.030643891543149948
0.06086226925253868
0.03213810175657272
0.004529905039817095
0.035928692668676376
0.040856584906578064
0.01668420247733593
0.045852165669202805
0.032148346304893494
0.006787825375795364
-0.0015411010244861245
0.0392802469432354
0.007615527603775263
-0.07750258594751358
-0.07205427438020706
-0.023966383188962936
-0.009634299203753471
-0.01908818632364273
0.017525766044855118
0.017277942970395088
-0.029630379751324654
-0.00628261175006628
0.02334718033671379
0.03226405382156372
-0.002786940196529031
0.006459057796746492
0.019322501495480537
-0.015764731913805008
0.031750235706567764
-0.024310048669576645
0.0038131822366267443
0.00881001353263855
-0.03382439911365509
0.012636556290090084
0.0201866514980793
-0.019258130341768265
-0.018771639093756676
0.04087645187973976
0.07273999601602554
-0.011412023566663265
-0.1121000126004219
0.028265567496418953
0.0004158064548391849
-0.024842644110322
-0.03947603702545166
-0.029266545549035072
0.009090830571949482
-0.07173585891723633
-0.03818531706929207
0.03141062334179878
-0.07233443111181259
-0.05645313113927841
-0.0474545992910862
-0.03612268343567848
-0.024166133254766464
-0.04677237942814827
-0.05643892660737038
0.013835207559168339
0.027244433760643005
-0.008318126201629639
-0.023914942517876625
-0.020896220579743385
0.0031108870171010494
-0.038107480853796005
0.01672009751200676
-0.01025181170552969
-0.02579621598124504
0.028558630496263504
3.441042281338014e-05
-0.05289575085043907
-0.011994043365120888
0.0075650946237146854
0.03460731357336044
-0.010961656458675861
0.05848546326160431
0.028290947899222374
-0.0072508305311203
0.08909492939710617
-0.004634983371943235
0.03634965792298317
0.05149465054273605
-0.019848419353365898
-0.013253334909677505
0.023311583325266838
0.001342659117653966
0.04762115702033043
0.019039757549762726
-0.022296365350484848
-0.00560990534722805
-0.015514691360294819
0.0013913470320403576
-0.002516631968319416
0.020881837233901024
-0.022273994982242584
-0.014329645782709122
0.006668791640549898
-0.0038528055883944035
-0.019578460603952408
0.05488355830311775
-0.04123598337173462
-0.07200942933559418
0.012239162810146809
-0.010614938102662563
-0.10997287184000015
0.00912969559431076
0.0053011872805655
-0.06593610346317291
-0.001192573457956314
0.03254042938351631
0.019296564161777496
-0.004321380518376827
0.03511514142155647
-0.005193479359149933
-0.04537428542971611
0.03432746231555939
0.013547861948609352
-0.007676336448639631
-0.05189602077007294
0.030556920915842056
0.0013425779761746526
-0.05893399566411972
-0.01618042215704918
0.05683852732181549
-0.054978352040052414
-0.03642493486404419
0.03155588358640671
0.025856507942080498
0.011807906441390514
-0.03568200767040253
0.017272504046559334
0.02245628833770752
-0.007051511202007532
-0.01725430227816105
0.004809121135622263
-0.052990157157182693
0.010621395893394947
0.019939342513680458
0.028032653033733368
-0.010283034294843674
0.025990908965468407
0.02042566053569317
-0.03348158299922943
0.0035158153623342514
0.012689908966422081
-0.024566084146499634
-0.026830773800611496
-0.01390147302299738
-0.006108695175498724
-0.024244990199804306
-0.013832969591021538
-0.01827068254351616
-0.016169162467122078
-0.02645457163453102
-0.01486303098499775
-0.042111270129680634
-0.022178607061505318
-0.010417663492262363
-0.05893966928124428
-0.005579968448728323
-0.010097499005496502
-0.03428442403674126
0.0205021183937788
-0.00189647835213691
0.0019408019725233316
-0.04689663276076317
0.02594796195626259
0.048701878637075424
-0.049840912222862244
0.012810725718736649
0.008193980902433395
-0.06932544708251953
0.025297872722148895
0.020333129912614822
-0.0722465068101883
-0.07319307327270508
-0.10586895793676376
-0.050428446382284164
-0.00790147203952074
-0.00302881165407598
0.002456613350659609
0.011618155054748058
-0.007635302376002073
-0.04484519362449646
0.026275187730789185
-0.02526155300438404
-0.050677962601184845
0.021814614534378052
-0.02657104656100273
-0.033331550657749176
0.0018655541352927685
-0.013028310611844063
-0.0314827561378479
0.039006032049655914
0.01447887159883976
-0.06142425909638405
0.036642417311668396
0.00630589947104454
-0.057941462844610214
0.009889183565974236
0.03876657038927078
-0.046914707869291306
0.0262924712151289
0.16821463406085968
0.009123466908931732
0.0005083779687993228
0.034293726086616516
-0.08296583592891693
0.008446043357253075
-0.0017696184804663062
-0.02109941653907299
-0.03613827005028725
-0.06502480804920197
0.001511448179371655
-0.049588728696107864
-0.03802183270454407
0.0063008759170770645
0.02501688338816166
0.01914571225643158
-0.03742009028792381
0.006863356102257967
-0.022577442228794098
-0.06837090104818344
0.007151844911277294
-0.013575749471783638
-0.03961658105254173
0.015614190138876438
-0.03430144116282463
-0.0012004279997199774
0.01829058863222599
-0.030491815879940987
0.0528549924492836
-0.00482280645519495
-0.04382209852337837
0.029384493827819824
-0.024420564994215965
-0.0008503012941218913
-0.0005922362906858325
-0.024810435250401497
-0.0624258816242218
-0.0003416880208533257
-0.023575063794851303
0.0070809731259942055
0.04111538454890251
0.000622973486315459
-0.024595782160758972
0.05821024626493454
-0.032543014734983444
-0.04788883402943611
0.04492121562361717
-0.05151614919304848
0.022576287388801575
-0.02181926928460598
0.0005084282020106912
0.056754522025585175
-0.02713991515338421
0.018075283616781235
0.04602998122572899
-0.05893368273973465
0.02857518196105957
0.042323872447013855
-0.07284129410982132
0.006636613979935646
0.005684694740921259
-0.0072245108895003796
-0.0025769604835659266
0.0316033810377121
-0.0015064086765050888
-0.020099889487028122
0.0011838937643915415
0.01024648081511259
-0.005656214896589518
-0.03480619937181473
0.04913332685828209
0.021539436653256416
-0.034241657704114914
0.04386111721396446
0.004202108830213547
-0.006155632436275482
-0.012084373272955418
0.048130102455616
0.04226519167423248
-0.07611226290464401
0.03222314640879631
0.10458771139383316
-0.11602741479873657
0.03386397287249565
0.0615558996796608
-0.05624650791287422
0.024338163435459137
0.043004054576158524
-0.0033086584880948067
-0.0031217122450470924
0.04260101914405823
-0.002546692965552211
0.0034918682649731636
0.0095518222078681
0.002542792120948434
0.01508386991918087
-0.0015485848998650908
0.023440644145011902
-0.0026329830288887024
0.01070919819176197
0.017630478367209435
-0.0019265334121882915
0.008304286748170853
-0.030560733750462532
0.02453560382127762
0.03129124268889427
0.010054156184196472
0.056889984756708145
-0.026247404515743256
0.022044945508241653
-0.0037971879355609417
-0.01847660169005394
-0.023908793926239014
-0.003924023360013962
0.017693888396024704
0.00969583261758089
-0.0293501615524292
0.043239299207925797
0.033607158809900284
-0.04078119620680809
-0.005125311203300953
0.021226542070508003
-0.01011795736849308
-0.02110215276479721
0.005099869333207607
-0.02090233750641346
0.0018701819935813546
-0.003175147110596299
-0.016944486647844315
-0.01707625202834606
0.0022032971028238535
-0.024128731340169907
0.0060244663618505
-0.03391682356595993
-0.03057464212179184
0.09630267322063446
-0.011713353917002678
-0.012847574427723885
0.04394485428929329
-0.02686183713376522
-0.06821206212043762
0.011567129753530025
0.1055539920926094
-0.07270511984825134
0.013929300010204315
0.15702985227108002
-0.004511987790465355
0.03723952919244766
0.1573764830827713
-0.007536629680544138
-0.0344979427754879
-0.02786412090063095
-0.004596287850290537
-0.09192229062318802
-0.016041068360209465
0.010151187889277935
-0.02593103237450123
-0.01984335295855999
0.0059208981692790985
-0.04341227188706398
-0.02740952931344509
0.0070443470031023026
-0.026882678270339966
-0.027122803032398224
0.04773295670747757
0.017655348405241966
0.018720459192991257
0.006741558667272329
-0.02411467768251896
-0.040756478905677795
-0.014678818173706532
-0.03551226854324341
-0.04379292204976082
-0.0036682705394923687
-0.021812602877616882
0.003943718504160643
-0.020207423716783524
-0.010968487709760666
-0.03840195760130882
-0.008660728111863136
-0.0065194773487746716
-0.06576722115278244
-0.004497888498008251
-0.034646131098270416
-0.017466211691498756
-0.04654575139284134
0.00019465255900286138
-0.0020822857040911913
-0.014296566136181355
0.08917346596717834
0.015196952037513256
-0.02785174362361431
0.014679265208542347
-0.0017984445439651608
-0.012488173320889473
-0.004144232254475355
-0.02200336940586567
-0.013356662355363369
-0.0029368738178163767
-0.06010306254029274
0.028002534061670303
0.012745659798383713
-0.0021071212831884623
0.06339878588914871
-0.04216361790895462
0.009538903832435608
-0.01142102386802435
-0.11800871044397354
0.05493625998497009
-0.005051346030086279
0.038094550371170044
0.07824477553367615
-0.013126515783369541
-0.010783713310956955
0.006233371794223785
-0.0009499413426965475
-0.042694635689258575
-0.005052807740867138
0.018022431060671806
-0.01151471957564354
0.023140788078308105
0.024444645270705223
0.011987173929810524
0.003948184661567211
-0.00012993643758818507
0.019728945568203926
0.008036868646740913
0.01709865592420101
0.02629936672747135
0.016062073409557343
0.06098248437047005
0.05309626832604408
-0.02163614332675934
-0.040110424160957336
-0.0577889047563076
-0.09729482233524323
0.054492853581905365
0.017351306974887848
-0.03914133459329605
-0.027193108573555946
0.0024564003106206656
0.022465504705905914
-0.001965574687346816
0.026401909068226814
0.010056625120341778
-0.014005107805132866
-1.4293248113972368e-06
-0.015651140362024307
0.018229475244879723
0.03960727900266647
0.014124756678938866
-0.029128292575478554
-0.06097432225942612
-0.01863384246826172
0.015332881361246109
0.03145149350166321
0.055979929864406586
-0.007326038088649511
-0.004020512569695711
-0.008572135120630264
-0.010639707557857037
0.033175960183143616
-0.013888824731111526
0.0057118781842291355
0.03925531357526779
-0.01850067265331745
-0.020206205546855927
-0.01030786894261837
-0.025667186826467514
-0.04993368685245514
-0.039928942918777466
-0.03894813731312752
-0.023759616538882256
-0.037161681801080704
-0.0414758063852787
0.04841054603457451
-0.02205224521458149
0.02327510342001915
0.0022674943320453167
-0.09943405538797379
0.005505557172000408
0.06412429362535477
-0.001476735109463334
0.04655251279473305
-0.01390339806675911
-0.0722162127494812
-0.01234334148466587
-0.009993422776460648
-0.09732945263385773
0.006555747706443071
0.007340386044234037
-0.0520535483956337
-0.0006004759343340993
0.024493716657161713
0.020600447431206703
-0.06561838090419769
0.039558280259370804
0.010986994951963425
-0.05979432538151741
-0.014497916214168072
-0.04268695414066315
-0.057559046894311905
-0.01373843103647232
-0.027102917432785034
-0.019944561645388603
0.0329335555434227
-0.014665629714727402
-0.022295230999588966
0.005652860272675753
0.039003875106573105
0.026249658316373825
-0.004026415292173624
0.03610836714506149
-0.025643954053521156
0.006128905341029167
0.05027259886264801
-0.025198254734277725
0.019359644502401352
0.027086196467280388
-0.028161946684122086
-0.01557120680809021
0.010403420776128769
0.004153361078351736
-0.045161016285419464
-0.03969644010066986
-0.02235068753361702
-0.007061225362122059
-0.03711521252989769
0.0009201809298247099
-0.05370376259088516
-0.017004908993840218
-0.015416544862091541
-0.03826572373509407
-0.03950422629714012
-0.05674092471599579
0.002485861536115408
-0.015790769830346107
-0.0509273037314415
-0.059538066387176514
-0.06955064833164215
0.0011472022160887718
-0.06804849952459335
-0.05150395259261131
0.061547745019197464
0.004038356244564056
0.014939066022634506
0.044685814529657364
0.03766993060708046
0.02052692323923111
-0.02182472124695778
-0.0013848637463524938
-0.010827777907252312
-0.023646967485547066
0.013198425993323326
-0.012116671539843082
-0.0331147164106369
-0.02295861206948757
0.004048781935125589
0.00021885233581997454
0.013523044995963573
0.01583251543343067
-0.030093127861618996
0.0007853030692785978
-0.006410855334252119
-0.009132668375968933
0.0004330980300437659
0.01517773699015379
0.001717961160466075
0.01955735869705677
-0.004314719699323177
-0.05241592973470688
-0.012629864737391472
-0.036744531244039536
-0.012051813304424286
-0.005701038055121899
0.010236667469143867
0.007116544991731644
-0.01245309878140688
0.009945792146027088
0.0012894400861114264
-0.016002492979168892
0.035258036106824875
0.01053985022008419
-0.01231754943728447
-0.038482774049043655
-0.017811650410294533
-0.029016710817813873
0.02255415916442871
0.0008710750844329596
-0.022032536566257477
-0.005812318529933691
0.001940557500347495
0.06576185673475266
0.04923328012228012
-0.05821039527654648
0.03571871668100357
-0.010433480143547058
-0.11478878557682037
-0.013223505578935146
-0.05576130375266075
-0.06359902769327164
0.01661410927772522
0.016700400039553642
-2.1245981770334765e-05
-0.00412437180057168
0.031047392636537552
0.01931034028530121
-0.00463087297976017
0.017238356173038483
0.015180729329586029
-0.04769214242696762
0.0029126768931746483
-0.015215427614748478
0.029059473425149918
0.03985791280865669
0.01895063929259777
-0.002927248366177082
0.0022241617552936077
0.05809586122632027
0.053775154054164886
0.010858440771698952
-0.03998163342475891
0.023395869880914688
-0.03184962272644043
-0.07045876979827881
0.005980111658573151
-0.014469899237155914
-0.02969447337090969
0.0999702662229538
-0.009148713201284409
-0.06116316094994545
0.07166102528572083
-0.14887961745262146
