0.22752267122268677
0.008674697950482368
-0.06734643131494522
-0.06877865642309189
0.35977452993392944
-0.20166732370853424
-4.84308875456918e-05
0.023735083639621735
0.39549344778060913
0.03707880154252052
0.006879298482090235
0.2757774889469147
-0.07027227431535721
-0.23970173299312592
-0.08175276964902878
-0.09413190186023712
-0.14543557167053223
0.037301138043403625
-0.36173853278160095
-0.3956138789653778
-0.4078902006149292
0.003555883886292577
-0.2787797451019287
-0.03529949486255646
-0.07028120756149292
0.21005497872829437
-0.004636228084564209
-0.1966480314731598
-0.2806607782840729
-0.01654038205742836
0.26451846957206726
-0.0893588438630104
-0.21046000719070435
-0.13026094436645508
0.1721465289592743
0.05340288579463959
-0.22295446693897247
-0.048033349215984344
0.24571602046489716
0.2094952017068863
0.16220024228096008
0.11369843780994415
0.11456646025180817
-0.14870058000087738
-0.03215042129158974
-0.3054879903793335
0.49124661087989807
0.1087302640080452
0.01277904212474823
0.10044180601835251
0.4155333936214447
-0.01470983400940895
0.02392233908176422
0.09981203824281693
-0.17273147404193878
0.10078171640634537
-0.1456356942653656
-0.22735387086868286
0.13636517524719238
0.20126575231552124
-0.057430434972047806
0.2353019267320633
-0.1129874438047409
0.309330552816391
