0.0245603509247303
0.05933968722820282
0.1347484141588211
-0.10894796997308731
-0.04695308953523636
-0.13590435683727264
-0.054964251816272736
0.050946179777383804
-0.06132833659648895
0.09155452251434326
0.0031165010295808315
-0.02743886038661003
-0.053891073912382126
0.017680084332823753
0.04319571703672409
0.007427080534398556
0.054773103445768356
-0.032123565673828125
-0.0223542507737875
0.014150958508253098
-0.21503761410713196
-0.11595390737056732
0.048596858978271484
-0.11413830518722534
0.10656775534152985
0.03547513112425804
0.013958137482404709
0.017725668847560883
0.07811780273914337
0.13305704295635223
0.013865632936358452
0.04472082108259201
0.10629895329475403
0.05281628295779228
-0.05385364592075348
-0.1159946471452713
0.10548952966928482
-0.15909326076507568
0.009957009926438332
0.11965973675251007
0.01704845391213894
0.09292416274547577
-0.06745336949825287
0.09874472767114639
0.10335696488618851
0.05009346455335617
0.02973102778196335
0.028065815567970276
-0.007469406351447105
-0.05765436217188835
-0.014447170309722424
-0.16401156783103943
0.12546312808990479
0.08169417828321457
0.06353133916854858
0.09361130744218826
0.021275170147418976
0.048635102808475494
-0.11739398539066315
0.0237400121986866
-0.217731311917305
0.009857147932052612
-0.18828894197940826
0.046724580228328705
-0.0828680619597435
0.05849224701523781
-0.03057771362364292
0.050947412848472595
0.05405975133180618
-0.16710615158081055
0.011537721380591393
-0.03024187870323658
-0.1393236219882965
0.011473515070974827
0.04284265264868736
0.1188722476363182
-0.12889358401298523
0.047883570194244385
0.04740208759903908
-0.06251908838748932
0.000926666718441993
-0.01443999633193016
0.09092430025339127
0.13419243693351746
-0.033815450966358185
0.056014128029346466
0.08481830358505249
-0.0466899611055851
0.02283100225031376
-0.009707950055599213
0.1360161006450653
-0.26247286796569824
0.00875092577189207
-0.055257827043533325
0.038344308733940125
-0.07201220840215683
0.0906558632850647
0.16124238073825836
-0.10756920278072357
0.1010783314704895
-0.051919832825660706
0.08377666771411896
-0.07037976384162903
-0.08063510805368423
-0.024309927597641945
0.05330337584018707
0.12770502269268036
0.1403360217809677
-0.05929970741271973
-0.06388522684574127
-0.07659044861793518
-0.11626163870096207
0.06614666432142258
-0.16442431509494781
0.04216095805168152
-0.2786121070384979
-0.10063417255878448
-0.06958819180727005
-0.07613978534936905
0.037115972489118576
-0.024698682129383087
0.09158718585968018
-0.019960490986704826
-0.017605332657694817
0.029790597036480904
-0.03727932274341583
0.046599093824625015
-0.1370542198419571
