0.005697287619113922
0.0020359312184154987
0.016695890575647354
0.004594394937157631
0.009699683636426926
-0.009880134835839272
0.0009845237946137786
-0.04885140433907509
-0.011793113313615322
-0.049436211585998535
0.008446166291832924
-0.024122510105371475
0.01753598265349865
-0.006409760098904371
0.00050904112868011
-0.048687390983104706
0.0580204539000988
0.012468810193240643
-0.014955064281821251
0.02846026048064232
0.027386045083403587
-0.0008140148711390793
-0.028833746910095215
0.03408657759428024
0.016056543216109276
0.020983360707759857
0.0021774894557893276
-0.030855847522616386
0.0648609846830368
-0.006212154868990183
-0.013977277092635632
-0.013024302199482918
0.01382807083427906
0.007321015000343323
0.02581206150352955
-0.007510173134505749
0.07456712424755096
-0.0069513930939137936
0.047676973044872284
-0.034247882664203644
-0.013636275194585323
0.009126516059041023
-0.006863010581582785
-0.01691940426826477
0.04613536596298218
-0.029793022200465202
-0.008592148311436176
-0.0007804747438058257
-0.017391344532370567
-0.013273761607706547
-0.0027339071966707706
0.013585792854428291
0.034426577389240265
-0.0251283161342144
-0.025418544188141823
0.0405084490776062
-0.021902354434132576
0.01289764977991581
0.002615398494526744
-0.04356512427330017
-0.06044918671250343
0.030170243233442307
-0.003033747198060155
-0.04874512180685997
-0.004167185630649328
-0.005461312364786863
-0.00611027842387557
-0.0015376965748146176
0.029196564108133316
0.025187702849507332
-0.04082326963543892
-0.003921163734048605
0.0475182868540287
0.024715542793273926
-0.02144605852663517
-0.014780823141336441
0.05461461469531059
0.006321800872683525
0.0007097522611729801
-0.0005655548884533346
0.0054888417944312096
-0.042806558310985565
0.009688014164566994
0.04390854015946388
0.0013624221319332719
-0.02422238327562809
0.059512753039598465
-0.0007722345762886107
-0.009740795008838177
-0.03246312588453293
-0.018587511032819748
0.040131501853466034
0.018973132595419884
-0.03517306596040726
0.007756450679153204
-0.08999034017324448
-0.03219230845570564
-0.008602110669016838
0.026616081595420837
-0.005513596348464489
-0.03182842582464218
-0.008624115027487278
-0.03342125564813614
-0.005592509172856808
-0.011144185438752174
-0.013276003301143646
-0.03123694472014904
0.009355264715850353
-0.019922835752367973
0.003283651312813163
0.03306976705789566
0.00023567814787384123
-0.010922684334218502
-0.005027439445257187
-0.020488694310188293
-0.03616155683994293
-0.012573420070111752
-0.05842399224638939
0.03209238499403
0.00964482594281435
-0.048632144927978516
0.026502618566155434
0.001473377924412489
0.020344959571957588
0.021220875903964043
0.08784500509500504
-0.033560022711753845
0.02596293017268181
0.010353687219321728
0.0145344790071249
0.09355069696903229
-0.04279392585158348
-0.019862037152051926
-0.011033371090888977
0.0759013444185257
0.013380277901887894
-0.018027927726507187
-0.0672997534275055
-0.030864601954817772
0.012593344785273075
-0.01031262706965208
-0.05206393077969551
0.015819262713193893
-0.004082969855517149
0.030683325603604317
-0.015408617444336414
0.0427757129073143
-0.017789587378501892
-0.00491693988442421
0.03195682913064957
-0.012235733680427074
-0.02616257593035698
-0.010720700956881046
-0.01828821934759617
0.016471588984131813
0.023451732471585274
0.008908871561288834
0.013106999918818474
-0.04055523872375488
-0.014892729930579662
0.016208983957767487
-0.023744093254208565
0.021333377808332443
-0.0004666436288971454
-0.02060086280107498
0.011931589804589748
-0.023921171203255653
0.005040282383561134
0.005717083346098661
0.0008920116233639419
-0.021029362455010414
-0.021582625806331635
0.0055863154120743275
-0.01162339560687542
0.00421949103474617
-0.030542122200131416
-0.023274073377251625
0.036009132862091064
-0.02233225293457508
-0.010740464553236961
0.0030232886783778667
0.015270404517650604
0.027626080438494682
0.03840116411447525
0.022713372483849525
-0.051235511898994446
-0.0047289347276091576
0.005798062775284052
0.019068125635385513
-0.012238936498761177
0.010597134940326214
-0.011894095689058304
-0.02593952976167202
-0.001008391845971346
0.015365324914455414
0.005085415672510862
0.038571733981370926
-0.051548268646001816
0.01639518328011036
-0.015225734561681747
0.0021650369744747877
0.020409133285284042
-0.037837304174900055
0.06235510855913162
-0.004517436493188143
0.05486245080828667
-0.01136102806776762
0.002654828829690814
0.012523452751338482
-0.003254455514252186
-0.024340402334928513
0.016154421493411064
-0.0034123423974961042
-0.02944360114634037
0.0012432824587449431
0.010385618545114994
-0.001595083624124527
0.08974001556634903
-0.01861826330423355
0.003308254759758711
-0.019416941329836845
0.024931898340582848
0.0067064655013382435
0.0012745504500344396
0.009220566600561142
0.004632977303117514
0.010053497739136219
-0.017508896067738533
0.003749978030100465
-0.024503029882907867
-0.058909524232149124
-0.01435067132115364
-0.012805205769836903
0.004732485394924879
-0.03794935718178749
0.07220540940761566
0.012853010557591915
-0.014290079474449158
0.0054568639025092125
0.014068030752241611
0.0006470752996392548
0.0043035936541855335
-0.021566012874245644
-0.07621526718139648
-0.0046342965215444565
-0.023060394451022148
-0.02501804567873478
-0.013483102433383465
-0.001974195009097457
-0.003532170318067074
-0.03056199476122856
-0.010011754930019379
-0.010243292897939682
0.008466171100735664
-0.027449853718280792
0.009670977480709553
-0.027122823521494865
-0.01571313478052616
0.054290641099214554
-0.007233225274831057
0.04510236531496048
0.06573572754859924
-0.011838683858513832
-0.003578867996111512
0.01802784949541092
0.011965686455368996
-0.029022855684161186
0.09272963553667068
0.021246185526251793
0.036142490804195404
0.01102779433131218
-0.019392546266317368
-0.016222650185227394
0.0013171529863029718
-0.03311411663889885
-0.019764725118875504
0.007185918278992176
-0.0049696071073412895
0.013620855286717415
0.005739037413150072
0.003911550156772137
0.029978232458233833
-0.01838667504489422
-0.010637763887643814
0.04108831286430359
0.015700723975896835
-0.056452427059412
0.030535949394106865
-0.035834357142448425
-0.021992510184645653
0.012305806390941143
-0.014053433202207088
0.004324097651988268
-0.08826453983783722
0.006538690067827702
0.009531056508421898
0.01717829331755638
0.031617023050785065
-0.057847172021865845
-0.02045835554599762
-0.037405721843242645
-0.09424099326133728
0.001672358368523419
-0.024463659152388573
0.05381128937005997
0.0051657212898135185
0.014146894216537476
-0.010494064539670944
-0.05591358244419098
-0.021207667887210846
0.07266510277986526
0.023453010246157646
0.005752150900661945
0.02576126903295517
0.012460902333259583
0.026043759658932686
-0.05318131297826767
-0.025820961222052574
-0.04334906488656998
0.052170414477586746
0.04970761388540268
-0.022430315613746643
-0.008203343488276005
0.0007424275972880423
-0.011196001432836056
-0.03646602854132652
0.041071318089962006
-0.008539387956261635
0.058380283415317535
-0.01834426075220108
0.0038302952889353037
-0.0517888143658638
-0.005532985553145409
0.03801649436354637
0.049615804105997086
0.008553382940590382
0.008053173311054707
0.03855310380458832
-0.002131161978468299
0.026161598041653633
-0.0003743601846508682
-0.0195964053273201
-0.027012312784790993
0.004079257603734732
0.004224870353937149
-0.006591425742954016
-0.021279044449329376
-0.025045938789844513
-0.016615960747003555
-0.006333380937576294
-0.021695321425795555
-0.013990319333970547
0.021019743755459785
-0.10280057787895203
0.05457133427262306
-0.007384733762592077
0.0043947105295956135
-0.030978677794337273
0.07329105585813522
-0.016094889491796494
0.010732975788414478
0.02065039612352848
-0.06175843998789787
0.016378197818994522
0.0009239602368324995
-0.06931013613939285
0.005204151384532452
0.058583080768585205
-0.03242285177111626
-0.011053409427404404
0.0010784826008602977
-0.01431751437485218
-0.046076368540525436
-0.0253063403069973
0.025665754452347755
0.02150769531726837
-0.05069378763437271
-0.04558051377534866
-0.04090145602822304
0.0026783577632158995
-0.06925326585769653
-0.049097198992967606
0.01242500264197588
0.003592747962102294
-0.007969374768435955
-0.05923672020435333
-0.007012628950178623
0.00156441330909729
0.017388129606842995
0.018099762499332428
0.005328587256371975
0.026132142171263695
-0.05263669043779373
-0.006783564109355211
-0.029626375064253807
0.012745716609060764
-0.04369870573282242
-0.02327648736536503
0.055067092180252075
-0.007216691505163908
-0.017000408843159676
0.02960287593305111
0.021505508571863174
0.004179465584456921
0.022012239322066307
-0.0052948459051549435
-0.002112465910613537
0.07797129452228546
-0.031346987932920456
0.003623494179919362
-0.0505569726228714
0.02360377460718155
-0.02789304219186306
-0.027990926057100296
0.011561539955437183
-0.08629485219717026
-0.008544421754777431
0.00773856695741415
0.060667507350444794
-0.028070366010069847
0.02245740219950676
-0.02850157953798771
-0.020301194861531258
-0.015040136873722076
-0.0064136190339922905
-0.012420116923749447
-0.019092250615358353
0.1326221376657486
-0.019708119332790375
-0.022878170013427734
-0.034022871404886246
-0.01569605991244316
-0.0573139414191246
0.016060328111052513
0.005100127775222063
-0.019109321758151054
0.0017785648815333843
-0.003986625000834465
-0.01042433176189661
-0.007818230427801609
0.012894053012132645
-0.09563697129487991
-0.01991865038871765
-0.09764344245195389
-0.02509736642241478
0.04621638357639313
0.07271423190832138
-0.030674876645207405
0.02200256660580635
0.02504061348736286
0.01680353470146656
-0.007019905373454094
-0.01368749514222145
-0.017790187150239944
0.01662682183086872
0.006710576359182596
0.03442205488681793
0.017531543970108032
0.008118216879665852
0.0197875015437603
0.005415925290435553
-0.024384472519159317
0.06371201574802399
-0.020787935703992844
0.023424947634339333
0.007644205819815397
0.03514014557003975
-0.02300066128373146
-0.06533577293157578
0.029159782454371452
-0.008270232006907463
0.010056577622890472
-0.026558008044958115
0.08348628878593445
-0.021001340821385384
0.004307278431952
-0.1107267513871193
-0.06509210169315338
0.022541668266057968
0.035182349383831024
0.017502686008810997
0.01860058307647705
0.032515913248062134
0.021496064960956573
0.0227300263941288
0.0004422222846187651
-0.0062415217980742455
-0.010134153068065643
0.0006344950525090098
0.04269928112626076
0.0031778679694980383
-0.05147369205951691
0.035205528140068054
-0.040312230587005615
0.011958400718867779
0.011233693920075893
0.02554239146411419
-0.005287205334752798
0.017397040501236916
0.027034036815166473
0.0110727958381176
0.024766646325588226
-0.005166347604244947
0.002825330011546612
-0.0029215046670287848
0.003020917298272252
-0.0014327316312119365
0.016741948202252388
0.0035968555603176355
-0.02063065581023693
-0.030793095007538795
0.0013228311436250806
-0.05231544375419617
-0.035293757915496826
0.03942345455288887
-0.0020222945604473352
0.009635409340262413
0.0736260637640953
0.028889557346701622
-0.010556197725236416
-0.03470277413725853
-0.05925557389855385
0.025105630978941917
0.03624572604894638
0.0340995267033577
0.011572343297302723
0.003712431062012911
-0.027607649564743042
0.005613631568849087
0.05966152995824814
0.046275727450847626
0.023686343804001808
-0.03441285714507103
0.03531922772526741
0.011809182353317738
-0.010094409808516502
-0.005861828103661537
-0.017999574542045593
-0.034562498331069946
-0.0013621938414871693
0.05476889759302139
0.020324280485510826
-0.035986676812171936
0.013519421219825745
0.03164838254451752
0.02004718780517578
-0.06965601444244385
-0.03621403127908707
-0.015647245571017265
-0.029690999537706375
-0.033948834985494614
0.02227497287094593
-0.04430088400840759
0.011773032136261463
-0.06258919090032578
0.05737482011318207
-1.3274345292302314e-05
0.02354992926120758
-0.0038522083777934313
0.01107739843428135
0.014568543992936611
0.0077064004726707935
0.010180097073316574
-0.012743327766656876
-0.00120846729259938
-0.0173446424305439
0.03242636099457741
0.04337625950574875
0.06405016034841537
-0.05570068955421448
0.07825580984354019
-0.06097022071480751
-0.06286848336458206
-0.04326380789279938
0.016416406258940697
0.030832728371024132
-0.0002493548672646284
-0.07865914702415466
-0.01780889183282852
-0.022606750950217247
0.03611474111676216
-0.05887017771601677
0.0005176009144634008
0.03759251534938812
-0.026368509978055954
0.013201795518398285
0.014113804325461388
-0.034209273755550385
0.02264425903558731
0.02999928593635559
-0.02236623503267765
-0.04343901202082634
0.06566692888736725
0.004130735993385315
-0.01882903277873993
0.018458345904946327
-0.0104737663641572
0.0012777440715581179
0.024272922426462173
-0.008150150999426842
-0.0006422533770091832
0.09974362701177597
-0.00725786155089736
0.007117978762835264
-0.04023764282464981
0.08044607192277908
-0.03440096601843834
-0.030696429312229156
0.00380098563618958
0.009045620448887348
-0.011804536916315556
-0.029915323480963707
0.016986919566988945
0.06528598070144653
0.027327394112944603
0.015534067526459694
0.06111929938197136
-0.026254253461956978
-0.007215640973299742
-0.020056091248989105
-0.014585508033633232
-0.005138569511473179
-0.04398585483431816
-0.0008424302213825285
-0.02643786557018757
-0.001978517509996891
0.0023717298172414303
0.0011852645548060536
-0.05724313482642174
0.012312130071222782
-0.03851962834596634
0.037885867059230804
0.007046198006719351
0.04415486380457878
0.07501590996980667
0.06332825124263763
0.05811068415641785
-0.050530072301626205
0.007513626012951136
0.008892363868653774
-0.046038392931222916
-0.022800860926508904
0.04150201752781868
-0.004481492564082146
-0.04800016060471535
0.026532979682087898
-0.016225088387727737
0.006627211347222328
-0.003965388517826796
-0.030227653682231903
-0.0459781177341938
0.04877513647079468
-0.008168226107954979
-0.002932741306722164
0.016596395522356033
-0.025063101202249527
-0.023303961381316185
-0.016377108171582222
-0.011242161504924297
0.01957348734140396
-0.05199331417679787
-0.0392485149204731
-0.03264884278178215
-0.08430126309394836
0.02807581052184105
-0.05304086208343506
0.04581407457590103
-0.03736577555537224
0.03498869761824608
0.06499769538640976
-0.013574426993727684
-0.0320391021668911
0.020401807501912117
-0.015961624681949615
0.016556469723582268
0.000673881673719734
0.032795075327157974
-0.033696338534355164
-0.006685205735266209
0.0013748160563409328
0.04528385028243065
0.008116820827126503
-0.01650397665798664
-0.015205697156488895
0.024432936683297157
-0.003812046954408288
-0.02586132101714611
-0.00118445314001292
-0.012087056413292885
0.017481081187725067
-0.02752877026796341
-0.050180286169052124
0.04828144237399101
0.005525284446775913
-0.04382751137018204
0.014519166201353073
-0.053323980420827866
-0.018754104152321815
0.06001739203929901
0.06973414868116379
-0.016009455546736717
0.006147831678390503
-0.032793838530778885
0.00698309438303113
0.016557931900024414
-0.0531923770904541
-0.02984156459569931
0.004871492739766836
0.028623010963201523
0.01309112273156643
0.03911383077502251
0.010962638072669506
0.01739536039531231
0.0004622573615051806
0.029389411211013794
-0.014457913115620613
0.014775249175727367
0.005988898687064648
0.03973998501896858
-0.04134921357035637
0.005934490356594324
-0.023515261709690094
0.04286625608801842
-0.05330536141991615
-0.007874208502471447
0.013693414628505707
-0.006616263650357723
-0.019739359617233276
0.048016540706157684
-0.04075992852449417
-0.047617100179195404
0.04539530724287033
0.019081490114331245
0.009145625866949558
-0.0037984775844961405
-0.04203934967517853
-0.049349989742040634
0.045360222458839417
0.0392523929476738
-0.029710305854678154
0.0029507733415812254
-0.013009829446673393
-0.004252256825566292
-0.01864333637058735
-0.012004759162664413
0.04406656697392464
0.05465374141931534
0.03866429254412651
0.009188978001475334
-0.007378294598311186
-0.04589727148413658
0.011940499767661095
-0.005189236719161272
0.015391872264444828
-0.04095199704170227
-0.008087103255093098
-0.03142281249165535
-0.016712268814444542
-0.025210155174136162
0.03533080965280533
0.02730371244251728
0.026230772957205772
-0.03143898397684097
-0.03756335377693176
-0.025238385424017906
-0.03816051036119461
-0.026385050266981125
-0.044272281229496
-0.008187361061573029
-0.07174908369779587
-0.01251990906894207
0.05882501229643822
-0.0015680777141824365
0.2798793613910675
0.026445094496011734
0.020444581285119057
0.007692985702306032
0.015972889959812164
-0.022756028920412064
-0.006555967964231968
-0.011764339171350002
-0.010217438451945782
0.02049565315246582
-0.019236190244555473
-0.013078226707875729
0.010519148781895638
-0.011385645717382431
-0.0034545925445854664
-0.01265741791576147
-0.011659372597932816
0.007143602706491947
-0.026412129402160645
-0.02172078564763069
0.002348758280277252
0.020529165863990784
0.0011662563774734735
-0.026067355647683144
-0.03466348350048065
0.03983393311500549
-0.026986582204699516
0.07463537901639938
0.07980985194444656
0.001374320243485272
-0.007726424373686314
-0.006334538105875254
0.03539256379008293
-0.024643948301672935
0.06610491126775742
0.023274393752217293
-0.027494672685861588
0.039813242852687836
-0.08109526336193085
-0.0633702203631401
0.00027519933064468205
-0.007076703477650881
0.0071496861055493355
-0.01466198731213808
-0.0018059498397633433
-0.033750761300325394
0.010570351034402847
0.03371506556868553
0.052912816405296326
-0.023812590166926384
-0.004155709873884916
-0.0016885423101484776
-0.015129445120692253
-0.0015514681581407785
-0.061709530651569366
0.01525709219276905
-0.078900545835495
-0.014558473601937294
-0.008405678905546665
0.004440718796104193
0.02512318640947342
0.036090556532144547
-0.017628736793994904
-0.015802448615431786
-0.004844177979975939
0.0718056783080101
-0.06242113932967186
0.033074505627155304
0.01666375622153282
-0.017715739086270332
0.02127215638756752
-0.007417956367135048
0.019800858572125435
-0.025641771033406258
-0.015899576246738434
0.04700430482625961
-0.0883217453956604
-0.029215650632977486
-0.013791084289550781
0.010090792551636696
-0.006373870652168989
-0.0013528424315154552
0.003075295826420188
-0.006630644667893648
0.0017606167821213603
0.05719844624400139
-0.0012478600256145
0.006251594051718712
0.004303386900573969
0.0583936981856823
-0.08052822947502136
-0.005290402099490166
0.020205175504088402
0.037778064608573914
0.012275828048586845
0.01830984465777874
0.043953653424978256
-0.0032038947101682425
0.03176245838403702
0.020681994035840034
-0.0030747747514396906
0.07888446003198624
0.003897547721862793
-0.010082856751978397
0.007858388125896454
-0.0003698428045026958
-0.07419092208147049
0.004113595001399517
-0.01729186438024044
0.009414995089173317
0.005636685527861118
-0.005522353574633598
0.0057090213522315025
-0.016168655827641487
0.008360613137483597
0.011400102637708187
-0.000981865799985826
-0.008820446208119392
-0.04188781976699829
0.008884989656507969
0.015978220850229263
-0.002725481754168868
0.02540426515042782
0.009382928721606731
-0.016926469281315804
-0.002550349570810795
-0.029697325080633163
0.01890224777162075
0.026192959398031235
0.02343687042593956
0.006890182849019766
-0.04921625554561615
-0.033764488995075226
-0.017315007746219635
-0.012299794703722
-0.08144489675760269
0.016526946797966957
0.020773187279701233
0.028698215261101723
-0.044370803982019424
0.003479215083643794
0.002846225630491972
-0.0350678488612175
-0.018469637259840965
-0.0009866181062534451
-0.006256679072976112
-0.05936696380376816
0.1260746568441391
-0.01714722439646721
0.0016411253018304706
0.013421705923974514
-0.012095221318304539
0.06651873886585236
-0.02684156410396099
-0.006454033777117729
0.010738703422248363
-0.009513921104371548
0.01973734050989151
0.022691620513796806
0.004269443918019533
0.014658527448773384
-0.010685669258236885
0.030081214383244514
0.012887424789369106
-0.04622390493750572
-0.004570496268570423
-0.005758874583989382
0.016786806285381317
-0.02265232615172863
-0.00798019953072071
-0.012966656126081944
-0.005046873353421688
0.02107064612209797
-0.003514697775244713
0.022343598306179047
-0.02470550872385502
0.029319629073143005
0.019718598574399948
-0.023936454206705093
-0.02874757908284664
0.045451562851667404
0.03606234863400459
0.017024671658873558
-0.013478931039571762
-0.013608209788799286
0.0004047412658110261
-0.047081053256988525
-0.01422870997339487
0.131055548787117
-0.047711003571748734
0.03677764907479286
0.01650596410036087
-0.016163839027285576
-0.010142195038497448
-0.0007514708559028804
-0.001864821300841868
0.003028183476999402
0.09760438650846481
-0.004173486027866602
0.010083424858748913
0.025033066049218178
0.005716162733733654
0.0066541219130158424
-0.07434161752462387
-0.02202770672738552
-0.007157192565500736
-0.031225379556417465
0.00926229078322649
0.003131100907921791
0.011689935810863972
-0.008557974360883236
0.005849835928529501
-0.10111991316080093
-0.03865354135632515
-0.00654244190081954
0.0263961311429739
0.05027436092495918
-0.04418182373046875
-0.008718137629330158
0.0051871370524168015
-0.013796023093163967
0.010789071209728718
-0.021387699991464615
0.019337473437190056
0.0001566219434607774
-0.003188580507412553
0.05374957248568535
-0.0359734408557415
-0.003797980723902583
-0.017005126923322678
-0.05271267518401146
0.009681958705186844
0.0363178625702858
-0.0747944563627243
-0.0601336844265461
0.07568898051977158
0.011339045129716396
0.01019764319062233
-0.023275228217244148
0.012607414275407791
0.004734014626592398
-0.0023750243708491325
0.02421821840107441
-0.011102943681180477
0.03190496191382408
0.004571342375129461
-0.049332160502672195
-0.007278669159859419
0.0191029105335474
-0.007963406853377819
0.02759259194135666
0.0334799624979496
0.024482358247041702
-0.04015138000249863
-0.0016960925422608852
-0.03090699017047882
-0.03512781113386154
0.022060710936784744
0.01012676302343607
-0.019310979172587395
-0.016503512859344482
-0.025782858952879906
0.011956511996686459
-0.011644682846963406
-0.03043006733059883
0.04417736083269119
-0.03565510734915733
-0.00846980232745409
-0.00982316117733717
0.03535797819495201
0.03173767775297165
-0.004790122155100107
-0.022577429190278053
-0.005643454380333424
-0.011847891844809055
-0.030794423073530197
0.02818230725824833
-0.010877279564738274
-0.014484059996902943
0.016118863597512245
0.010967927984893322
-0.010997440665960312
0.006144207436591387
-0.036934200674295425
-0.010192280635237694
0.017377935349941254
-0.0035132919438183308
-0.030237698927521706
0.013781641609966755
-0.03425607085227966
-0.0313388928771019
0.014380591921508312
0.0023180784191936255
-0.0016682487912476063
0.019382257014513016
0.01995041035115719
-0.01102082896977663
0.017866190522909164
-0.06716431677341461
-0.021577151492238045
-0.018315637484192848
-0.040463197976350784
0.03766867518424988
-0.0032321505714207888
-0.01448849868029356
-0.0061073279939591885
-0.017062917351722717
0.0021543747279793024
0.030500873923301697
0.002215441782027483
-0.014395823702216148
-0.05350952595472336
-0.0013576690107584
0.012093009427189827
-0.012595223262906075
-0.022118575870990753
-0.004432800225913525
0.011845923960208893
-0.013890896923840046
0.004268015269190073
-0.0025705485604703426
0.007431847974658012
-0.017769157886505127
-0.004864152055233717
-0.00311855087056756
-0.0035413538571447134
-0.006612884812057018
0.0033636908046901226
0.016623027622699738
0.07246079295873642
0.004085439722985029
0.0071685886941850185
0.010156136937439442
0.0412449836730957
0.019799457862973213
-0.0045380364172160625
0.051356565207242966
0.026469290256500244
0.009758688509464264
-0.015388770028948784
0.01929585635662079
-0.011021836660802364
0.019741429015994072
-0.028885601088404655
-0.018518859520554543
0.03072400949895382
0.031173037365078926
0.049622900784015656
-0.014344267547130585
-0.013910303823649883
-0.03458002209663391
-0.011334209702908993
-0.004368229303508997
0.04877735674381256
0.006112018134444952
-0.007225629407912493
0.012875411659479141
-0.047557029873132706
-0.024457793682813644
-0.030005943030118942
0.015630166977643967
0.0312652550637722
0.06534174084663391
-0.020400071516633034
-0.02920992113649845
0.007121885661035776
0.05375243350863457
-0.019163386896252632
-0.023486169055104256
-0.00490601547062397
0.0389634408056736
-0.004883938003331423
-0.002505776472389698
-0.019050579518079758
0.02169175259768963
0.016247816383838654
0.009005652740597725
7.697451655985788e-05
0.03321591019630432
-0.02984178625047207
0.02406800165772438
-0.0008572929655201733
0.010523835197091103
-0.012067608535289764
-0.012670286931097507
0.05692267417907715
0.03103378415107727
0.007030034437775612
-0.019962690770626068
0.044436462223529816
0.0015923755709081888
-0.036315977573394775
-0.003063819371163845
0.005508276633918285
0.010856258682906628
-0.0026534763164818287
0.0029644721653312445
0.0013992188032716513
0.033320020884275436
0.005093667656183243
0.029493290930986404
-0.009428014047443867
-0.023831749334931374
0.0364496149122715
0.003646247088909149
0.007938151247799397
0.040927447378635406
0.04159838333725929
0.03466026112437248
-0.010111914947628975
0.007388819940388203
-0.00888756476342678
-0.005703265313059092
-0.008537914603948593
0.0082640266045928
0.0035273616667836905
0.02566661313176155
-0.012681356631219387
0.034177351742982864
0.0038079756777733564
-0.010271698236465454
-0.011245043016970158
0.033151775598526
-0.0037917972076684237
0.005871501751244068
-0.00019397238793317229
0.04068326577544212
0.0016232923371717334
0.053805164992809296
-0.0076047987677156925
0.007844537496566772
-0.01637839525938034
0.004779832437634468
0.027782516553997993
0.030025677755475044
0.030600454658269882
0.011545700952410698
0.00048669983516447246
-0.03129003942012787
0.048142239451408386
-0.0028629472944885492
0.07550082355737686
0.009122950956225395
-0.018925156444311142
-0.03657597303390503
0.03771749138832092
0.018083374947309494
-0.025858081877231598
0.02934635803103447
0.042422715574502945
0.008059012703597546
0.0013535821344703436
0.002086515538394451
-0.00042894817306660116
0.001260679797269404
-0.011142641305923462
-0.023615829646587372
0.0020726826041936874
0.004415459930896759
0.06708608567714691
-0.010117764584720135
0.000242969166720286
0.04056968167424202
-0.04384413734078407
-0.0030167000368237495
-0.008581370115280151
0.03966090828180313
-0.004027665592730045
0.0030659600161015987
0.04231550917029381
0.01917376182973385
-0.04298979789018631
-0.015169660560786724
-0.03871367871761322
-0.02084217593073845
0.003286256454885006
0.016568399965763092
0.02059544250369072
-0.0009404798038303852
0.009595677256584167
-0.024359164759516716
0.03272424638271332
-0.03633281961083412
0.036128513514995575
0.005384948570281267
0.08147026598453522
-0.01910802721977234
0.013227006420493126
-0.041053980588912964
-0.025469085201621056
0.039409440010786057
-0.06534378975629807
0.018481656908988953
-0.0182065200060606
0.024877352640032768
-0.006480705924332142
0.013553526252508163
0.014649264514446259
-0.05736405402421951
-0.009761227294802666
0.005216603167355061
-0.0009861248545348644
0.01795678213238716
-0.03502294048666954
-0.00880290288478136
-0.009711834602057934
0.02044929563999176
-0.015291130170226097
-0.0018876593094319105
0.029759550467133522
0.02626793645322323
0.0063338326290249825
-0.01115734875202179
0.009052060544490814
-0.026352625340223312
-0.01222018338739872
0.0695791095495224
0.036824990063905716
-0.003258515615016222
-0.023059675469994545
0.04911581799387932
-0.011460763402283192
-0.025688504800200462
0.04275728762149811
-0.00675890501588583
0.018168406561017036
0.020927611738443375
0.0008755507878959179
-0.02250695414841175
-0.014735178090631962
0.037165042012929916
0.013182227499783039
-0.004323568660765886
-0.007789162918925285
-0.04646015167236328
-0.09181109815835953
0.016390198841691017
-0.025636684149503708
0.024673165753483772
0.017347116023302078
-0.03717924654483795
0.0029335240833461285
-0.013417511247098446
-0.02441849745810032
0.003692830912768841
0.0055377366952598095
-0.001853675814345479
0.015579979866743088
0.010983477346599102
-0.0219135582447052
-0.02638031356036663
-0.004839396104216576
0.0349913127720356
0.007949083112180233
-0.044926926493644714
-0.060572102665901184
-0.025856884196400642
0.01969282515347004
0.021128777414560318
0.038184329867362976
0.035980865359306335
-0.0210792925208807
-0.050629567354917526
0.002079425845295191
0.01389947347342968
0.03186146914958954
-0.025317357853055
-0.009024902246892452
0.058200348168611526
0.0025971082504838705
-0.015484035946428776
0.03778471052646637
0.0278692077845335
0.013380139134824276
0.007231130264699459
0.03836009278893471
0.01577611453831196
0.05570473149418831
0.012847915291786194
0.011066548526287079
0.022351061925292015
0.010789163410663605
-0.0149652985855937
-0.00815644022077322
-0.00012449816858861595
-0.007836718112230301
-0.03990333154797554
0.019516615197062492
0.03199353441596031
-0.0030004943255335093
-0.010305921547114849
0.015901196748018265
-0.018976867198944092
0.013738549314439297
-0.0012910410296171904
0.01912216655910015
-0.10851536691188812
-0.011910010129213333
-0.020462073385715485
0.03401339799165726
-0.0047987778671085835
-0.08684364706277847
0.0323471762239933
-0.015206106007099152
-0.013225761242210865
-0.005072054453194141
-0.0034742867574095726
-0.0020651095546782017
0.01320741232484579
0.02787068858742714
0.0072418516501784325
0.008543013595044613
2.6441657610121183e-06
-0.04331400990486145
0.013584906235337257
0.013105924241244793
-0.05655406787991524
0.026893287897109985
0.024312566965818405
-0.03756476566195488
-0.023706430569291115
-0.01732669770717621
0.04199398308992386
-0.006797109264880419
-0.021810242906212807
0.06356707960367203
0.016702646389603615
-0.03903688117861748
0.0004717792326118797
0.02278963103890419
0.03301984816789627
0.036372605711221695
-0.043720684945583344
0.0005095353699289262
-0.02639489434659481
0.01129554957151413
0.026294726878404617
-0.046134840697050095
-0.01809816248714924
-0.009240864776074886
-0.010835574008524418
-0.0235252995043993
0.02174958772957325
0.03414808213710785
-0.049575358629226685
0.014534568414092064
-0.015187384560704231
0.03489597886800766
0.0039014106150716543
-0.00492024514824152
-0.029790882021188736
0.040474385023117065
-0.025865506380796432
-0.030684152618050575
0.019319575279951096
-0.039849236607551575
-0.005236933007836342
0.02383805252611637
0.009667725302278996
0.025554591789841652
-0.027810055762529373
-0.05592350289225578
-0.009784409776329994
-0.06427229940891266
-0.04688498005270958
0.007212924305349588
-0.039245277643203735
-0.002021546009927988
-0.030957819893956184
-0.08528915047645569
0.003205535002052784
-0.000510493409819901
-0.039921581745147705
0.005321866367012262
-0.002292971359565854
0.027979958802461624
0.019636591896414757
-0.02781609632074833
-0.03789159283041954
-0.016849514096975327
-0.029081419110298157
-0.005348059814423323
0.007201042491942644
-0.0044450098648667336
0.05204052850604057
-0.035090371966362
0.02073192596435547
-0.013519568368792534
-0.044060010462999344
-0.05742296949028969
-0.005969368852674961
-0.006054027006030083
0.03072514571249485
0.05561908707022667
0.02609466202557087
0.023534784093499184
0.04110997915267944
-0.025271277874708176
-0.0054038893431425095
-0.021755827590823174
-0.059778422117233276
-0.026837430894374847
0.015650659799575806
-0.019918523728847504
0.08092928677797318
-0.009562785737216473
-0.00474833557382226
0.01118133869022131
-0.013811859302222729
0.008451986126601696
-0.044877853244543076
0.019623076543211937
-0.03251442685723305
0.03583061695098877
-0.06403975933790207
0.01788434386253357
-0.011218100786209106
-0.02489299699664116
-0.027210330590605736
0.02088422141969204
-0.029875509440898895
-0.029964333400130272
0.007213976699858904
0.011500977911055088
0.006175163201987743
0.018212705850601196
-0.023021550849080086
0.0012378985993564129
-0.023974575102329254
-0.03511301055550575
0.04752858728170395
-0.002946229185909033
-0.0046260422095656395
0.027084751054644585
-0.02128184586763382
0.030232038348913193
0.05795586481690407
0.003598293522372842
0.027729367837309837
0.03512249514460564
-0.010042663663625717
0.061402104794979095
-0.025877851992845535
0.04818322882056236
-0.03147072345018387
-0.01725480519235134
-0.005364727228879929
0.009633434005081654
-0.00887196883559227
0.020325271412730217
0.049192123115062714
0.007695808075368404
-0.011653859168291092
0.0581342950463295
-0.0329195074737072
-0.022159280255436897
-0.020257815718650818
-0.03533497080206871
-0.010931101627647877
-0.023240720853209496
0.004354202654212713
-0.006222794763743877
-0.013392891734838486
0.006619486026465893
0.08599134534597397
0.004202874377369881
-0.0548226535320282
-0.015448355115950108
-0.13698028028011322
0.03888453170657158
0.011876644566655159
-0.020319534465670586
0.056112635880708694
0.02189987525343895
0.04478181526064873
-0.015017213299870491
0.023631731048226357
-0.007654986809939146
0.025960315018892288
-0.022280877456068993
-0.03671584650874138
-0.005750223528593779
0.008190947584807873
-0.010501054115593433
-0.03365064039826393
0.0033769092988222837
-0.000932461756747216
0.035954833030700684
0.02655458264052868
0.006101155653595924
-0.012765498831868172
-0.0005549003835767508
-0.01713484898209572
0.019386742264032364
-0.019938459619879723
0.04352303966879845
-0.08895448595285416
0.08508580923080444
0.03300350531935692
0.01452302373945713
-0.08784234523773193
0.0057367305271327496
-0.049169715493917465
0.01902603730559349
-0.03090054914355278
-0.12494627386331558
0.04942178726196289
0.013993415981531143
-0.0225326307117939
0.012037774547934532
0.013067713938653469
0.040909115225076675
0.008209663443267345
0.01629677228629589
-0.010776977054774761
-0.04995265603065491
0.0019000355387106538
0.011881956830620766
-0.02425363101065159
0.016126642003655434
0.04195580258965492
0.0025120642967522144
0.004199547227472067
0.061976660043001175
-0.11445822566747665
-0.03620468080043793
0.008732442744076252
0.018457777798175812
0.05845193192362785
-0.020640486851334572
-0.022621186450123787
0.12890447676181793
0.07831698656082153
-0.07073760777711868
0.0864025130867958
-0.020526383072137833
-0.026076210662722588
-0.0077322013676166534
-0.007422798313200474
-0.002171221422031522
-0.0041953022591769695
0.07252643257379532
0.0028696320950984955
-0.005968611687421799
-0.008471492677927017
-0.027378549799323082
0.05720635876059532
-0.00896536186337471
0.06607157737016678
-0.0018472629599273205
-0.03387951850891113
-0.04482036083936691
-0.010636480525135994
-0.12941163778305054
0.02335752546787262
0.05644161254167557
-0.08164096623659134
-0.016192622482776642
-0.04917114973068237
0.010477767325937748
-0.01510167308151722
0.05591817945241928
-0.021259382367134094
0.012993705458939075
0.0016868645325303078
0.01545457448810339
-0.04431868717074394
0.017304522916674614
-0.024590590968728065
-0.02124638669192791
0.023824825882911682
-0.019083168357610703
-0.01154731959104538
-0.012705866247415543
-0.10270769149065018
0.04458555951714516
0.0017891773022711277
-0.0020643165335059166
-0.010896596126258373
-0.024915169924497604
-0.01172820944339037
-0.007036989089101553
0.018447231501340866
0.025207282975316048
0.030728282406926155
0.016306526958942413
-0.006756902672350407
-0.0026346775703132153
0.03965567797422409
-0.035296712070703506
-0.036116257309913635
0.05046321451663971
-0.03408992663025856
-0.0256425142288208
0.0020305169746279716
-0.12425799667835236
0.02136971987783909
-0.019051168113946915
0.008274623192846775
-0.03849859535694122
-0.02564093843102455
-0.017837390303611755
0.02812545746564865
-0.05590415373444557
0.05162467062473297
0.0021973783150315285
0.10585503280162811
-0.024086125195026398
0.00036670296685770154
0.0037355185486376286
-0.03851442039012909
0.00935927964746952
-0.011517840437591076
-0.004116653464734554
-0.004749434068799019
-0.02876337245106697
0.007305453065782785
0.047073137015104294
0.0028612306341528893
-0.0541292168200016
-0.03613917529582977
-0.002072446048259735
0.0514380969107151
0.0016026023076847196
0.03949274495244026
-0.038872431963682175
-0.03551989793777466
-0.0024303344544023275
-0.013480927795171738
-0.022014424204826355
-0.006705265026539564
-0.007824690081179142
-0.03839936852455139
0.008213688619434834
0.06710079312324524
-0.00827906932681799
-0.030153807252645493
0.03918451815843582
-0.031113317236304283
0.016829177737236023
-0.021513771265745163
0.010132764466106892
-0.011486114002764225
0.022670621052384377
0.04394101724028587
0.0032422065269201994
-0.01692194864153862
-0.016261233016848564
-0.06237762048840523
-0.030358657240867615
0.017670011147856712
-0.04349229484796524
-0.04918057098984718
0.07749626040458679
0.038428086787462234
0.035141993314027786
-0.021623047068715096
0.008204016834497452
0.03504534810781479
-0.0489129014313221
-0.00937832985073328
-0.00835381355136633
-0.0033806967549026012
0.039187245070934296
0.06572530418634415
-0.11599154025316238
0.010080900974571705
0.02559950388967991
-0.006512768100947142
0.07855120301246643
-0.006866524927318096
0.03814590349793434
-0.017130129039287567
-0.08350376784801483
-0.016820548102259636
0.0062701161950826645
0.005883251782506704
-0.027244461700320244
0.021449793130159378
-0.006245599593967199
0.053458862006664276
-0.04870650917291641
0.04467175900936127
-0.021693451330065727
-0.04208977892994881
-0.006225350312888622
0.020427027717232704
-0.03419753164052963
0.0022573822643607855
0.017599547281861305
-0.0004028289986308664
0.006626639049500227
-0.007893087342381477
-0.001655181753449142
-0.05628889799118042
0.028039148077368736
0.009782613255083561
0.028130821883678436
-0.13217376172542572
-0.03629859909415245
0.0010304300813004375
-0.08108827471733093
0.0030699584167450666
-0.0029588020406663418
0.03716011345386505
-0.00024469848722219467
-0.04312176629900932
0.14035819470882416
-0.033805858343839645
0.01756511814892292
0.007431932259351015
0.02191082388162613
-0.026036402210593224
0.030153626576066017
0.01949334889650345
-0.03811483085155487
0.014709013514220715
0.010345857590436935
-0.005265206564217806
0.03137688711285591
0.06969284266233444
-0.022954201325774193
0.018298311159014702
-0.054129816591739655
-0.0011269472306594253
0.010632830671966076
0.007740920875221491
0.0028462002519518137
-0.03175612539052963
0.028732018545269966
0.06259878724813461
-0.004163155797868967
-0.01796664483845234
-0.005014121066778898
0.036335550248622894
0.00730245653539896
0.001703081768937409
0.018623488023877144
0.026437440887093544
-0.0025424333289265633
-0.03613406419754028
-0.007744553964585066
-0.0012959111481904984
0.0493139922618866
0.016025491058826447
0.052506495267152786
0.028499910607933998
0.061000000685453415
0.017000114545226097
-0.000703863799571991
0.024682849645614624
0.09955217689275742
-0.09147234261035919
-0.07232092320919037
0.027251485735177994
-0.0071914042346179485
-0.06262459605932236
-0.013703454285860062
-0.0626479759812355
-0.0031010082457214594
-0.021900834515690804
0.04063593968749046
-0.0404059998691082
-0.014684023335576057
-0.08659655600786209
-0.060090210288763046
-0.025345154106616974
0.0026145330630242825
0.0008229784434661269
0.020264005288481712
0.0526127889752388
0.0005249084206297994
-0.004703771322965622
-0.02485356479883194
0.02905559167265892
-0.026452140882611275
0.131659597158432
-0.05019021034240723
-0.029681958258152008
-0.03764933720231056
0.020395731553435326
0.03593379259109497
-0.021438617259263992
-0.0140885254368186
0.04428662359714508
0.019053425639867783
0.03112596832215786
0.162043496966362
0.0037959334440529346
0.057762447744607925
-0.07774294912815094
-0.0966496542096138
0.0223391130566597
-0.03162798658013344
0.030800171196460724
-0.0033805305138230324
-0.03931637853384018
0.004491395782679319
-0.055024612694978714
-0.007109844591468573
-0.021180346608161926
-0.00689175957813859
-0.0010026099625974894
0.008628417737782001
-0.036577362567186356
0.048931144177913666
0.025157904252409935
-0.01740727759897709
-0.04148656129837036
-0.06590743362903595
0.027206890285015106
-0.0178803950548172
-0.017909077927470207
-0.026996977627277374
0.019916336983442307
0.02462712861597538
0.04620696231722832
0.04280433803796768
0.02560708299279213
-0.02111157588660717
-0.0020045109558850527
-0.048406995832920074
0.027004845440387726
0.13752086460590363
-0.021495090797543526
-0.1128075048327446
0.020454905927181244
-0.021958516910672188
-0.01850353367626667
-0.06370889395475388
-0.040067367255687714
-0.020597174763679504
-0.004722726531326771
-0.024352747946977615
-0.0781569629907608
0.00840878114104271
-0.009824435226619244
-0.003892486682161689
0.02415175922214985
0.01984563283622265
-0.029830768704414368
-0.04139867052435875
0.01730554737150669
0.011325160041451454
0.009765153750777245
-0.01203812938183546
0.000673624046612531
-0.014759928919374943
-0.0347333624958992
0.20509877800941467
0.043942008167505264
0.07737179100513458
-0.021764077246189117
-0.05252339318394661
-0.010822572745382786
0.011921974830329418
-0.008450545370578766
0.02806665562093258
-0.01347836758941412
0.009758285246789455
0.002882597502321005
0.011865518055856228
0.01503387838602066
0.0008201202726922929
-0.006701688747853041
0.03325200825929642
-0.035426147282123566
-0.005484560504555702
0.004831710364669561
0.00034786929609254
-0.047153670340776443
-0.08781145513057709
-0.02317730337381363
-0.03690043091773987
8.655988494865596e-06
0.005174077581614256
0.047187428921461105
-0.057819247245788574
-0.09596326947212219
-0.016266614198684692
0.07136159390211105
-0.048849690705537796
-0.01218870934098959
-0.003601418575271964
0.022393181920051575
0.020374655723571777
-0.001608306891284883
-0.019544951617717743
-0.03183917701244354
-0.012027300894260406
0.0633431077003479
0.002689282177016139
-0.017416859045624733
-0.013188734650611877
-0.0009140927577391267
0.032116085290908813
-0.015769509598612785
-0.02319497801363468
0.009477594867348671
-0.02676560916006565
0.025263678282499313
0.016072150319814682
0.019946830347180367
-0.015660710632801056
-0.04859944060444832
0.001945881056599319
0.02152392826974392
0.05292563885450363
-0.00826927088201046
-0.010217061266303062
-0.10831373184919357
0.014961455948650837
0.0678594633936882
0.07029298692941666
0.030498256906867027
-0.007953373715281487
-0.04720655456185341
-0.009071771055459976
-0.0175139419734478
-0.0034066070802509785
-0.038212068378925323
-0.06961572915315628
0.002387921791523695
-0.025631440803408623
-0.014584640972316265
0.011274738237261772
-0.002663783496245742
0.022680897265672684
-0.0036558767315000296
-0.05354244261980057
-0.008106589317321777
-0.014895192347466946
-0.008245037868618965
0.026746654883027077
-0.033673591911792755
0.00101375428494066
-0.017303748056292534
0.013025854714214802
-0.00044252214138396084
-0.0018861490534618497
0.0320945605635643
0.017163001000881195
0.020561978220939636
0.006889720913022757
-0.020279092714190483
-0.0028116318862885237
-0.008109581656754017
-0.005873490124940872
0.00622310908511281
-0.0511944480240345
-0.0013511563884094357
0.006244376301765442
0.016070261597633362
-0.006143635138869286
0.05708085000514984
-0.01933588832616806
-0.023522576317191124
-0.007004982326179743
0.02384698949754238
0.0756310224533081
-0.008402233012020588
-0.008260035887360573
-0.10798053443431854
0.056548815220594406
0.015607394278049469
0.053383633494377136
-0.011179684661328793
0.0030840933322906494
0.07027648389339447
-0.010545359924435616
-0.03142658993601799
-0.03070487268269062
-0.03423434495925903
-0.015710534527897835
-0.010321919806301594
-0.010186552070081234
-0.007651662919670343
-0.028200389817357063
-0.013804417103528976
0.017324507236480713
-0.008657274767756462
-0.04615956172347069
-0.027043381705880165
-0.04542301222681999
-0.03953003138303757
-0.04030529782176018
0.03278608247637749
-0.0006866772891953588
0.01822071149945259
0.007184689398854971
-0.07639149576425552
-0.023648623377084732
-0.012049412354826927
-0.013193454593420029
0.028792642056941986
-0.036703385412693024
0.05199657008051872
-0.04631754010915756
-0.02139997109770775
-0.0007181465625762939
0.004128647036850452
0.015358516946434975
-0.03887046128511429
0.006624438799917698
-0.007960551418364048
-0.010842300951480865
-0.013017049059271812
0.020091691985726357
0.0373484268784523
-0.011459913104772568
-0.025315027683973312
-0.018433669582009315
0.02093742974102497
-0.02709929831326008
-0.00025111419381573796
0.010913132689893246
-0.012471694499254227
-0.020009886473417282
-0.018314296379685402
-0.013098902069032192
0.02524476870894432
-0.03008752502501011
0.018689310178160667
-0.01768818497657776
0.019515300169587135
-0.0016889083199203014
-0.017145203426480293
0.0620393231511116
0.0448361374437809
-0.03883712738752365
0.028750674799084663
0.0011551420902833343
-0.0005088997422717512
-0.03210229054093361
-0.013242408633232117
0.013239327818155289
-0.06508064270019531
0.006670786999166012
0.01705225184559822
-0.011826164089143276
0.014499306678771973
0.0014306085649877787
0.014767882414162159
-0.02534388191998005
0.03499402478337288
0.04647185280919075
0.00011592914961511269
0.0167312640696764
-0.004891309421509504
-0.023008881136775017
0.005063963122665882
0.03215948864817619
0.01837022975087166
0.008441692218184471
-0.0024761951062828302
-0.010408859699964523
-0.042658042162656784
0.012607108801603317
0.006452904082834721
-0.0007867838139645755
-0.004607062321156263
-0.010933153331279755
-0.008305152878165245
-0.008784127421677113
0.05065670982003212
-0.0362609326839447
0.0016775396652519703
-0.018602438271045685
0.00332980346865952
0.01015327125787735
0.008895603008568287
-0.008182097226381302
0.04893115162849426
0.029052505269646645
-0.039509423077106476
-0.014812302775681019
0.02952595427632332
-0.004571501165628433
0.026997437700629234
0.012246998958289623
0.005773892160505056
-0.03144529461860657
-0.029840361326932907
-0.04117478430271149
0.0071729267947375774
0.051491428166627884
0.011000825092196465
-0.05327949300408363
0.01649894192814827
0.0033277906477451324
0.019077017903327942
0.004560178145766258
0.007908613421022892
0.017387937754392624
0.04660653695464134
0.016351930797100067
-0.01839660108089447
0.019064338877797127
-0.004472516942769289
0.02751939930021763
0.01268717460334301
0.032286617904901505
0.010587253607809544
-0.027246475219726562
0.021671298891305923
0.028560249134898186
0.06404528766870499
0.01437477208673954
0.009769115597009659
-0.000995413982309401
0.021066736429929733
-0.07005377858877182
-0.03461729362607002
-0.024335363879799843
0.000799290370196104
0.019620200619101524
0.013456235639750957
-0.013458027504384518
-0.020496780052781105
0.04865524545311928
0.011674952693283558
0.04646513983607292
-0.019195543602108955
-0.0026609001215547323
-0.013177771121263504
-0.00023975658405106515
-0.02467215247452259
0.018391218036413193
0.025838110595941544
0.036170147359371185
-0.016082091256976128
0.01613527722656727
-0.0037639925722032785
-0.009955255314707756
0.022936414927244186
-0.01908636838197708
0.0028988260310143232
-0.00280516198836267
0.06359482556581497
0.009767974726855755
0.011004823260009289
0.010196538642048836
0.017260031774640083
0.0012823306024074554
-0.05612777918577194
-0.038608770817518234
-0.014114364050328732
0.009851350449025631
0.012779508717358112
0.009735560044646263
0.018376464024186134
0.01817123219370842
-0.02978540025651455
0.01778620108962059
-0.006248326040804386
0.0031170020811259747
-0.07729724049568176
0.011462807655334473
-0.006342063657939434
-0.000499752233736217
0.001088624238036573
-0.018465228378772736
0.062256164848804474
0.04866259917616844
0.015957405790686607
-0.023623721674084663
0.015417499467730522
-0.026610732078552246
-0.019607707858085632
0.013110886327922344
0.02015274204313755
0.01848265342414379
0.006222916301339865
-0.0459665022790432
-0.005728064104914665
-0.00571325933560729
-0.038265593349933624
0.005471131298691034
0.011995956301689148
0.004138552118092775
0.021024996414780617
-0.05378298833966255
0.028567958623170853
0.0031338713597506285
-0.021846000105142593
-0.028312811627984047
0.006562951020896435
0.048057299107313156
0.03719355911016464
-0.020596524700522423
-0.03333807364106178
0.016817059367895126
-0.02458885870873928
-0.0015285806730389595
-0.004164854064583778
0.06631745398044586
-0.009842797182500362
-0.04137494042515755
-0.015171133913099766
-0.007136555388569832
0.003660844173282385
0.0170601774007082
-0.006828866433352232
0.006818258203566074
-0.000813456776086241
-0.004861920140683651
0.0660533756017685
0.00582507299259305
0.0375070683658123
-0.0053734611719846725
-0.033777911216020584
0.012261615134775639
-0.007219844032078981
0.0016455972800031304
-0.04747842252254486
0.025482870638370514
0.011781709268689156
0.01907769963145256
-0.017652204260230064
0.0041960752569139
0.024047693237662315
-0.009791207499802113
-0.005263973027467728
-0.015208465978503227
0.004442729987204075
0.013516739942133427
-0.03434508666396141
0.03195949271321297
-0.009341820143163204
-0.004238542169332504
-0.03166063874959946
0.020896602421998978
0.028787149116396904
-0.013053885661065578
-0.021676117554306984
-0.03980013728141785
0.006342769600450993
0.02057504467666149
-0.010624214075505733
0.04139585793018341
-0.009397603571414948
0.06671567261219025
0.030509650707244873
-0.016811354085803032
0.02283947728574276
-0.028488673269748688
-0.018303783610463142
-0.02108074724674225
-0.012956179678440094
0.03926470875740051
-0.0074002486653625965
-0.02698976919054985
-0.0281998161226511
-0.0352882519364357
-0.006164067890495062
0.006060432177037001
-0.018250340595841408
-0.0296893659979105
-0.03209006413817406
-0.049612198024988174
-0.014336683787405491
-0.013441077433526516
-0.001014716224744916
0.026224808767437935
0.00980591680854559
1.584486017236486e-05
-0.0002999817952513695
-0.04059629887342453
0.004113593604415655
-0.03435971587896347
0.01831694133579731
-0.00832180306315422
-0.009651447646319866
-0.04125073179602623
-0.004475637339055538
-0.00395132414996624
0.013838110491633415
-0.0027845974545925856
-0.010853028856217861
-0.0030220109038054943
0.030556386336684227
0.01666552945971489
0.0036163399927318096
-0.052391499280929565
0.0027999901212751865
-0.033875882625579834
0.04389805719256401
0.017299994826316833
-0.010215033777058125
-0.016125179827213287
-0.020297029986977577
-0.01403279509395361
0.034968018531799316
0.0174177847802639
0.003651042003184557
-0.03848196566104889
-0.0003823608858510852
-0.006832497660070658
0.018901929259300232
0.005542834755033255
-0.021696418523788452
-0.02625083364546299
0.01756923459470272
-0.0382135808467865
-0.006851905956864357
0.02078966051340103
-0.01831173524260521
0.03341555967926979
0.01247876975685358
-0.032138098031282425
0.029112694784998894
0.024676518514752388
-0.026095882058143616
-0.010339177213609219
0.05173612758517265
-0.005359944421797991
-0.0439961701631546
-0.014481496065855026
0.009649615734815598
-0.02428293786942959
-0.06731417775154114
0.026113884523510933
-0.008251603692770004
-0.0012354761129245162
-0.009675777517259121
-0.021525541320443153
0.024771278724074364
-0.014358214102685452
-0.03095710091292858
0.012238710187375546
-0.03515700250864029
0.009749454446136951
-0.0001175022407551296
0.013671865686774254
0.03996691852807999
-0.04259433597326279
-0.013433798216283321
0.03979017585515976
0.01838662102818489
0.004962151404470205
0.019661232829093933
0.005274670198559761
-0.009931046515703201
-0.028738124296069145
0.015518490225076675
0.0064046988263726234
0.03666448965668678
0.02929691970348358
-0.010418997146189213
-0.014057721942663193
0.006924505345523357
0.05533277615904808
-0.009689363650977612
0.08079104125499725
-0.011950104497373104
0.028269009664654732
0.016889112070202827
-0.002653648843988776
-0.008259037509560585
0.06932371854782104
-0.039342157542705536
0.0011565699242055416
0.005571750458329916
-0.037786319851875305
-0.016207002103328705
-0.0035309968516230583
-0.014684935100376606
-0.0353807657957077
-0.01679706573486328
-0.013586493209004402
-0.011867065913975239
0.012631546705961227
0.0013818973675370216
0.016809407621622086
-0.005830577574670315
0.03601718693971634
-0.010683666914701462
0.023693520575761795
0.01702130399644375
-0.004033840727061033
-0.0007575334748253226
-0.03383822366595268
-0.0334976464509964
-0.029328670352697372
0.011578290723264217
-0.021539121866226196
-0.030231690034270287
-0.028791246935725212
0.023978227749466896
-0.0376722477376461
-0.03496718034148216
-0.00420349882915616
-0.03044893592596054
0.018501615151762962
0.00843941979110241
0.003320015501230955
0.008821879513561726
-0.00701190996915102
0.041733767837285995
-0.00852692686021328
-0.06290119886398315
-0.00047443085350096226
-0.013410323299467564
-0.0056318677961826324
-0.0315810963511467
-0.011998114176094532
-0.017323417589068413
0.0018192195566371083
-0.025960123166441917
-0.012889644131064415
0.0058515979908406734
0.041276004165410995
-0.03387381136417389
-0.011979956179857254
-0.029438313096761703
-0.016465432941913605
-0.05003007501363754
0.06854789704084396
0.021077534183859825
-0.0038808679673820734
0.02117491327226162
-0.02860816940665245
-0.02132599428296089
0.009958289563655853
-0.015283051878213882
0.01803458295762539
0.009419689886271954
0.01840278133749962
-0.020925123244524002
-0.016513580456376076
0.02057236060500145
0.02607104182243347
0.007341567426919937
-0.008423139341175556
-0.010123546235263348
0.012846341356635094
0.008590231649577618
0.025270240381360054
0.004602793138474226
0.0023388725239783525
-0.0037779153790324926
0.025982001796364784
-0.00658446317538619
0.013531902804970741
0.040581200271844864
0.002918982645496726
0.0037619657814502716
0.0054137855768203735
-0.0011189869837835431
-0.026484418660402298
0.005115434993058443
0.0024774507619440556
0.008229422383010387
-0.012518956325948238
-0.003481862600892782
-0.017001137137413025
-0.017450835555791855
0.036758553236722946
0.001197786652483046
-0.022827059030532837
0.05106624960899353
0.010100620798766613
-0.025766396895051003
0.05902234837412834
-0.008773045614361763
-0.009111354127526283
0.05409475788474083
0.039728108793497086
0.0046103042550385
-0.03076864406466484
-0.020328443497419357
-0.008480789139866829
-0.014110764488577843
-0.010937119834125042
0.09892258048057556
-0.019478680565953255
0.01995566301047802
-0.017266197130084038
-0.027458496391773224
-0.020035581663250923
-0.01656373217701912
0.028925567865371704
-0.013635929673910141
-0.06674624979496002
-0.0007171310135163367
0.008637974970042706
0.0071474723517894745
0.00424205232411623
-0.004764562007039785
0.024964556097984314
-0.009341011755168438
-0.015309611335396767
0.00882461667060852
0.0031497078016400337
0.010332019068300724
0.06137553229928017
0.009608431719243526
0.008090580813586712
0.024581551551818848
-0.01907305233180523
-0.012439451180398464
-0.0030114082619547844
-0.009779442101716995
0.013040449470281601
-0.00374042009934783
-0.02918131835758686
-0.015622057020664215
0.0018647117540240288
0.02214021235704422
0.011867539957165718
-0.006320690270513296
0.006223774049431086
0.018451008945703506
-0.004836000502109528
-0.04325999319553375
-0.0032116202637553215
0.032557182013988495
-0.013617066666483879
0.02853677049279213
0.005251126829534769
0.0338626429438591
0.002514083869755268
0.007104146759957075
-0.01152377761900425
-0.014654322527348995
0.0017288342351093888
-0.007096616551280022
0.0066702598705887794
-0.0018971131648868322
-0.0016173268668353558
0.015968093648552895
0.00898023322224617
-0.05521221086382866
0.03255205228924751
-0.002790001453831792
-0.02515149675309658
-0.002150624757632613
-0.011436705477535725
-0.00690868403762579
-0.0010395905701443553
-0.02074362337589264
-0.0041570477187633514
0.0367971770465374
0.0023431035224348307
-0.01083665806800127
0.010238157585263252
-0.019178194925189018
-0.0028461713809520006
0.020507249981164932
-0.016058068722486496
-0.016427626833319664
0.016296986490488052
0.002593193668872118
0.012202274054288864
-0.04886568337678909
0.01426046621054411
-0.0052075996063649654
-0.009890459477901459
0.00561631890013814
-0.012576988898217678
-0.004846615716814995
0.0038114169146865606
0.0031260300893336535
-0.009831785224378109
-0.055115390568971634
-0.016333648934960365
0.002691837726160884
-0.005781043320894241
-0.02238198183476925
-0.004622087813913822
0.011729434132575989
-0.001345179509371519
-0.004520658403635025
0.0009505278430879116
-0.02774183824658394
0.0194016732275486
-0.02560548484325409
-0.02228524535894394
-0.010152199305593967
-0.0006783034768886864
-0.005292295478284359
-0.014789748936891556
-0.009639606811106205
-0.0064209578558802605
0.005927614402025938
0.0011245418572798371
0.00010242892312817276
0.06064651533961296
0.03792399540543556
0.02873159945011139
0.017646977677941322
0.027818547561764717
-0.011383396573364735
0.01456375140696764
0.006531159393489361
-0.056081753224134445
-0.021010426804423332
0.027909765020012856
0.009477532468736172
0.027854735031723976
-0.020997416228055954
0.003483458887785673
-0.015781430527567863
0.004181772004812956
0.020462891086935997
0.006853122729808092
-0.015906620770692825
-0.03386995941400528
0.007041767705231905
-0.004087069537490606
0.00033731921575963497
-0.0635475441813469
-0.002942699007689953
-0.012858620844781399
-0.010802458971738815
-0.01072707213461399
-0.03503965958952904
0.039647217839956284
-0.009574688039720058
-0.002029312076047063
-0.004599924199283123
0.0218922458589077
0.00950264185667038
0.0009760789107531309
0.02095024287700653
0.01366234477609396
0.012538710609078407
-0.012816636823117733
0.01260017603635788
0.019691044464707375
0.009457320906221867
-0.022153735160827637
0.012005450204014778
0.0022255592048168182
0.01227551605552435
-0.020262060686945915
0.02866193652153015
-0.007759714033454657
-0.01932022161781788
-0.011871879920363426
0.02234865166246891
-0.053494229912757874
-0.007510408293455839
-0.005909852683544159
-0.0029643301386386156
0.015976378694176674
-0.026607973501086235
-0.017533576115965843
-0.012760928831994534
-0.018819088116288185
-0.027838481590151787
0.016189953312277794
0.010258225724101067
-0.018581364303827286
0.012599976733326912
-0.007673623971641064
0.010057315230369568
-0.0073774573393166065
-0.028073633089661598
0.006305125541985035
-0.01752595230937004
0.014043718576431274
0.00788978673517704
0.004518850706517696
-0.012432403862476349
0.010766877792775631
0.0005133198574185371
-0.030754394829273224
-0.008664282038807869
-0.0102002564817667
-0.016445254907011986
0.00785775575786829
0.008045175112783909
0.005188467912375927
-0.02503849007189274
-0.015050547197461128
-0.011456926353275776
-0.02557976543903351
-0.00440217973664403
-0.0178811177611351
-0.02314087003469467
0.009267440997064114
0.008107835426926613
-0.0028379245195537806
-0.010957973077893257
-0.007475746795535088
-0.021867388859391212
-0.026897136121988297
0.007618581410497427
0.013512194156646729
0.006011170335114002
0.0182610172778368
-0.03426123410463333
0.02608318068087101
0.03601940721273422
-0.01511705294251442
-0.010781675577163696
0.0014847121201455593
-0.00553274666890502
0.03119749389588833
-0.01835622638463974
-0.006073454394936562
0.03220854699611664
-0.01676720194518566
0.01015378162264824
0.007103495765477419
-0.0033163288608193398
0.020521247759461403
-0.02153024822473526
-0.0037928277160972357
-0.000905783090274781
-0.02909691631793976
0.020514341071248055
0.005718466825783253
-0.0011244311463087797
0.003012340283021331
-0.004526006523519754
-0.005419326480478048
-0.014467847533524036
-0.01401519775390625
-0.012344073504209518
0.006388653069734573
0.013493559323251247
0.03000142052769661
-0.0018472432857379317
-0.03092172183096409
-0.013854438439011574
-0.001923136180266738
-0.009317955002188683
0.011675573885440826
-0.00845542922616005
-0.005211824085563421
-0.009373806416988373
0.019703030586242676
-0.006408733781427145
0.009467072784900665
0.004052054136991501
0.010089118964970112
0.007709366735070944
-0.020306477323174477
-0.024465544149279594
0.01164777111262083
0.01709802821278572
0.014807600528001785
0.04152451083064079
-0.021040581166744232
-0.04038386419415474
0.011893845163285732
0.014058663509786129
0.0016361934831365943
0.01573251001536846
0.017406219616532326
0.03141891956329346
-0.04525943100452423
0.0036008208990097046
0.013140076771378517
0.030536208301782608
-0.036108773201704025
-0.013858367688953876
-0.01174989715218544
-0.011498034000396729
0.06619621813297272
0.005514933727681637
-0.014293086715042591
0.048181261867284775
0.01073360163718462
-0.017680587247014046
-0.017857031896710396
-0.002110713394358754
-0.000729774939827621
-0.031497128307819366
0.02755795232951641
0.011734377592802048
0.0011366059770807624
-0.011517402715981007
-0.02202247641980648
-0.04878872632980347
0.051909107714891434
0.03561914712190628
-0.017529398202896118
-0.02619103714823723
-0.013204424642026424
-0.01225986611098051
-0.016575615853071213
-0.016566894948482513
0.025343170389533043
0.026848774403333664
-0.0036451539490371943
-0.03579925745725632
-0.054336871951818466
-0.004998170770704746
0.05055118352174759
0.017881672829389572
0.022045696154236794
0.023081939667463303
-0.07187224179506302
-0.059038471430540085
0.01305227167904377
-0.001158311846666038
-0.039392560720443726
0.0014861460076645017
0.0139874666929245
0.07798309624195099
0.004822522401809692
0.031084785237908363
-0.0028818987775593996
0.04500231519341469
0.024436278268694878
0.00884643942117691
-0.02550750970840454
0.029494522139430046
0.032836850732564926
-0.009297028183937073
0.03702452778816223
0.017235036939382553
-0.030442554503679276
-0.024469638243317604
-0.019918816164135933
0.029448915272951126
-0.01382774580270052
0.010803219862282276
0.024061063304543495
-0.01596991717815399
-0.0036465609446167946
0.012123861350119114
0.007298189681023359
0.015432525426149368
-0.002140687545761466
-0.046681277453899384
-0.021590344607830048
0.00807228870689869
-0.04277545213699341
0.08156026899814606
0.021943066269159317
0.020405221730470657
0.020775381475687027
-0.013554886914789677
0.01963808387517929
-0.02650482766330242
-0.022790774703025818
0.04704881086945534
-0.011575361713767052
0.06409624218940735
0.006048017181456089
0.04364466294646263
0.0009557070443406701
0.004054455552250147
0.005572943948209286
-0.014019660651683807
-0.023815803229808807
0.007338436786085367
-0.02149243839085102
0.005084875971078873
-0.015399287454783916
-0.008939648978412151
-0.07624826580286026
-0.019019119441509247
-0.012724869884550571
0.026163529604673386
0.015968339517712593
-0.010096467100083828
0.009618335403501987
0.003744956571608782
0.027145549654960632
0.005883941892534494
0.01311950758099556
-0.02880508452653885
-0.0002054127398878336
-0.017733795568346977
0.026755964383482933
0.011769073083996773
-0.0031029810197651386
0.015962468460202217
-0.030456626787781715
-0.021324895322322845
-0.02237001806497574
-0.011808477342128754
0.03862539306282997
-0.01871461421251297
-0.023528441786766052
0.016222219914197922
-0.03813406080007553
-0.018652472645044327
-0.03679186850786209
0.04702334478497505
-0.03985439985990524
-0.005519239231944084
-0.0296548530459404
-0.002947328146547079
0.05124862119555473
-0.045673660933971405
0.037068113684654236
-0.004861128516495228
-0.03050965443253517
0.017969854176044464
-0.001710974844172597
0.009327827021479607
-0.0068172914907336235
-0.03062703087925911
-0.03990400955080986
-0.009429758414626122
-0.012498991563916206
0.020571833476424217
0.00861359667032957
0.000499962829053402
0.014154108241200447
0.023257697001099586
0.0053625344298779964
-0.035870615392923355
-0.029256809502840042
-0.04493517056107521
0.03754044324159622
-0.00993258785456419
-0.03847825154662132
-0.021254828199744225
0.017815910279750824
0.01640695333480835
-0.0012901343870908022
-0.005760019179433584
-0.016586139798164368
-0.02855852246284485
-0.025795405730605125
0.003987857140600681
-0.010946867056190968
-0.009382224641740322
-0.05298484116792679
0.026426730677485466
-0.01225986611098051
0.02647988870739937
0.01979074813425541
0.01380686555057764
0.015505984425544739
-0.0018770908936858177
0.0575266033411026
-0.007051991298794746
-0.054260704666376114
-0.013864020816981792
0.0448741540312767
-0.03302743285894394
-0.012396027334034443
-0.08960762619972229
-0.008154820650815964
0.017786506563425064
-0.02505435422062874
0.008358048275113106
-0.014465607702732086
-0.0075091891922056675
0.012915887869894505
0.06275847554206848
0.006796471308916807
0.009705089963972569
0.06533191353082657
-0.029866978526115417
0.02071564644575119
-0.024559512734413147
0.025338737294077873
-0.013696422800421715
-0.015608614310622215
-0.01104752067476511
0.014184198342263699
-0.008630147203803062
-0.01792364940047264
0.005343038588762283
0.022892948240041733
-0.02965325489640236
-0.011462525464594364
0.04097754508256912
0.03375530615448952
0.029697544872760773
-0.015848007053136826
0.013826552778482437
-0.03377055376768112
-0.04203537851572037
-0.031262725591659546
-0.032194629311561584
-0.0030614070128649473
0.03885683789849281
0.006814242340624332
-0.0010862816125154495
-0.0019260195549577475
-0.01878083311021328
-0.02430204302072525
-0.018923506140708923
-0.010242333635687828
-0.013071678578853607
0.015769079327583313
-0.011863375082612038
0.03175894916057587
0.009565208107233047
-0.025030141696333885
0.030692562460899353
-0.014277560636401176
-0.007761032320559025
-0.013623954728245735
-0.02322547137737274
0.022848105058073997
-0.018861567601561546
0.03710697218775749
-0.013512620702385902
0.06560325622558594
-0.027779916301369667
-0.02559598907828331
-0.02200987935066223
-0.02199021354317665
-0.07090995460748672
-0.03792114928364754
0.02145739458501339
0.06564441323280334
-0.03421953693032265
0.0578208789229393
0.0020916652865707874
-0.007235304918140173
-0.003615786088630557
-0.012148737907409668
0.0027526109479367733
-0.0246829055249691
-0.008515366353094578
0.008365307003259659
0.02455366589128971
-0.032277777791023254
-0.039584722369909286
-0.0015302388928830624
-0.056865498423576355
0.002866565715521574
-0.05592968687415123
-0.03321738541126251
0.014945678412914276
-0.03196481615304947
-0.003199170110747218
0.013628488406538963
0.07735110819339752
0.024864424020051956
-0.0325377993285656
0.037890102714300156
-0.027141109108924866
-0.03623341768980026
-0.037570055574178696
0.046928662806749344
-0.025182127952575684
-0.032835230231285095
0.012393050827085972
0.017672015354037285
0.1057886853814125
0.013672136701643467
0.0009631689754314721
-0.049529556185007095
0.018576184287667274
0.023757167160511017
0.008265238255262375
0.011526107788085938
0.02391466312110424
-0.04317187890410423
-0.0020207862835377455
-0.02419700101017952
-0.03740447759628296
-0.020293114706873894
-0.006174332462251186
-0.03663164749741554
-0.00042150216177105904
0.020593728870153427
0.06613555550575256
0.0537470281124115
0.05429689958691597
-0.0025891249533742666
0.03531532362103462
0.014594724401831627
-0.013231801800429821
-0.04361982271075249
-0.0025306998286396265
-0.12117773294448853
0.01572086289525032
0.041458483785390854
-0.11066270619630814
-0.02549409307539463
0.02155838906764984
0.0026299627497792244
0.02029397152364254
0.008079875260591507
0.1120295599102974
0.01337612234055996
-0.015168909914791584
-0.056053515523672104
-0.02991926111280918
-0.03078082948923111
-0.027413900941610336
0.01765783317387104
0.041478853672742844
0.005028828978538513
-0.002944995416328311
0.06138063222169876
0.009900867007672787
0.008882026188075542
-0.06657242029905319
0.02564408630132675
0.0953458845615387
0.029626188799738884
-0.007921048440039158
-0.002503305673599243
-0.016497358679771423
0.035308994352817535
0.008137719705700874
-0.009427368640899658
0.003944945987313986
-0.04240744933485985
-0.022633882239460945
0.09558019042015076
-0.02352437563240528
-0.009192725643515587
0.0135209821164608
-0.02963585965335369
0.029441077262163162
-0.02254992164671421
0.01925504580140114
-0.04237174242734909
-0.037155475467443466
0.059660766273736954
-0.011038781143724918
0.0027038236148655415
-0.020985573530197144
-0.017995433881878853
0.023631295189261436
0.006803355645388365
0.02205154486000538
0.01672348938882351
0.0105345593765378
0.001025203731842339
0.003184193978086114
0.023984238505363464
0.043805576860904694
0.017337333410978317
0.0025498331524431705
-0.013844083994626999
0.0007513543241657317
0.015974443405866623
-0.024211794137954712
-0.06420912593603134
0.024915475398302078
-0.01109332125633955
-0.02701445296406746
0.08540245145559311
0.012393606826663017
0.041227784007787704
-0.046598296612501144
-0.008558174595236778
0.020633038133382797
-0.03934464976191521
-0.03156182914972305
0.0048981462605297565
-0.017121583223342896
0.017977410927414894
-0.04771692678332329
0.014287897385656834
0.01849994622170925
-0.03653263673186302
0.01735374704003334
0.020864414051175117
0.04521802067756653
-0.039389654994010925
-0.006404297426342964
-0.017773643136024475
-0.015678763389587402
0.003987709991633892
-0.02596227079629898
0.004950640723109245
0.047195058315992355
-0.0023614743258804083
-0.025132423266768456
-0.0018045319011434913
0.00866049062460661
0.04270780086517334
-0.014057784341275692
-0.015960538759827614
-0.00598614988848567
0.013448316603899002
0.01866081729531288
-0.01283698994666338
0.010791067965328693
0.020731935277581215
-0.005130785051733255
0.018707165494561195
0.0028333566151559353
-0.009278369136154652
-0.002596760168671608
-0.03902720659971237
-0.005123487673699856
0.04418920353055
0.03176051750779152
0.03934914991259575
0.009185335598886013
-0.0005593767273239791
0.07604778558015823
0.03500281274318695
-0.036648936569690704
-0.003843551967293024
0.011715254746377468
-0.015420603565871716
0.03568795323371887
-0.024988219141960144
-0.0034215382765978575
-0.03481286019086838
-0.015686215832829475
-0.021957268938422203
-0.03149889037013054
-0.002986976644024253
0.02048950269818306
0.07354579120874405
-0.014427405782043934
-0.07456397265195847
0.009685049764811993
0.05145350471138954
-0.036007288843393326
0.010329158045351505
0.0013496371684595942
-0.006235513370484114
0.028751276433467865
0.013694031164050102
-0.13373760879039764
0.010876369662582874
0.002749277278780937
-0.04715768247842789
-0.0159898828715086
0.03183598071336746
-0.01924525760114193
0.01080860011279583
0.03475658595561981
0.014915471896529198
0.02192498929798603
0.020540006458759308
0.037849798798561096
0.009432455524802208
-0.012742928229272366
0.07721882313489914
0.017301790416240692
-0.004929428920149803
-0.039878178387880325
0.008327450603246689
0.010801861062645912
-0.00914078950881958
-0.000309175462462008
-0.0075210281647741795
0.007630164735019207
-0.0304111260920763
0.18143069744110107
-0.06676936149597168
0.026016492396593094
0.011951953172683716
-0.013774692080914974
-0.009553414769470692
-0.010529454797506332
-0.012431466020643711
0.01664252206683159
0.015818653628230095
-0.009000485762953758
-0.012892376631498337
0.08385694772005081
-0.014397863298654556
-0.03849361836910248
0.006173412781208754
-0.026174867525696754
0.005915041081607342
-0.012641672044992447
0.01610488072037697
-0.03151604160666466
0.010590847581624985
-0.013452280312776566
0.005480417516082525
-0.060047369450330734
-0.00014447985449805856
0.019855394959449768
-0.005366237834095955
-0.0029704375192523003
-0.03997379168868065
-0.029332393780350685
0.03122708573937416
0.029253553599119186
0.006502470001578331
-0.010420573875308037
0.03314730152487755
0.016657467931509018
0.0014331568963825703
0.008346318267285824
0.03008164092898369
-0.020245900377631187
-0.007898143492639065
-0.027696914970874786
-0.0011390660656616092
-0.006264211609959602
-0.013910956680774689
-0.002971129957586527
0.014562133699655533
-0.012444964610040188
0.0022268975153565407
0.012052359990775585
-0.03756091743707657
-0.024564817547798157
-0.011624188162386417
0.033910077065229416
-0.010210766457021236
-0.01755603216588497
0.032557133585214615
0.012975474819540977
-0.00908148568123579
-0.0009479571599513292
0.0007228187168948352
-0.0035899237263947725
0.005811519920825958
0.0009160935878753662
-0.005172074306756258
-0.008096830919384956
-0.03451257944107056
-0.04642331972718239
0.006027254741638899
-0.015121904201805592
-0.01090741716325283
-0.004476830363273621
0.0025148564018309116
-0.045363157987594604
-0.019371086731553078
-0.026502283290028572
0.0049858917482197285
-0.012428204528987408
-0.010701802559196949
0.01657082699239254
-0.015908077359199524
0.014298905618488789
-0.0004948621499352157
0.005409569945186377
-0.013478675857186317
-0.009513900615274906
-0.014239653013646603
-0.0031113470904529095
0.022906605154275894
0.007163729052990675
-0.006873586215078831
-0.00969428289681673
0.017386632040143013
0.01644822768867016
0.02157505229115486
-0.012183465994894505
0.0006466176710091531
0.009127856232225895
-0.01797325722873211
0.0013932205038145185
0.021226152777671814
0.031234940513968468
-0.03097441792488098
0.004227947443723679
-0.0044018118642270565
0.011881306767463684
0.017765851691365242
0.012036897242069244
0.003658898873254657
-0.018531374633312225
0.005291312467306852
-0.011303907260298729
-0.004494189750403166
-0.02612859196960926
0.013262874446809292
0.0010224318830296397
0.010724843479692936
-0.008717386052012444
-0.00021847171592526138
-0.013622274622321129
-0.05559195578098297
0.0029850236605852842
-0.01232750341296196
-0.017508743330836296
0.014415920712053776
-0.005798765458166599
0.029888035729527473
-0.01870444044470787
0.025710780173540115
0.0099857272580266
-0.029213545843958855
-0.04812077432870865
-0.011303919367492199
-0.01262547355145216
-0.00870398711413145
0.0035331742838025093
-0.004156647715717554
-0.03137502819299698
-0.0256410650908947
0.0098880585283041
-0.0011627026833593845
-0.05856966972351074
-0.021799232810735703
0.010897260159254074
-0.011911147274076939
0.015564256347715855
0.0019641900435090065
0.01494902465492487
0.029958339408040047
-0.007835696451365948
0.03009551763534546
-0.003779810620471835
-0.00804254598915577
-0.0002367403358221054
-0.019297758117318153
-0.02015560306608677
0.005464480724185705
0.015099759213626385
0.020733527839183807
-0.0053826067596673965
-0.0068732379004359245
-0.0031489466782659292
-0.014253603294491768
-0.031889498233795166
0.024238932877779007
0.0026686345227062702
-0.015593898482620716
-0.018890375271439552
-0.03245417773723602
0.019750911742448807
0.05588992312550545
0.0051733399741351604
0.026709433645009995
-0.0022572274319827557
0.025302039459347725
0.054404713213443756
-0.012203198857605457
-0.027543220669031143
0.010692447423934937
-0.01296662911772728
-0.0019805897027254105
-0.012118957936763763
-0.006775702815502882
-0.027157878503203392
-0.02426469512283802
-0.01520447339862585
0.008549847640097141
0.019711609929800034
0.011750138364732265
-0.022151052951812744
0.01024419441819191
0.012361044064164162
-0.005603165831416845
-0.04563942179083824
-0.021685654297471046
-0.015054848976433277
-0.001791217946447432
0.011492238380014896
-0.0007422666531056166
0.0011410713195800781
-0.017360704019665718
-0.031071113422513008
0.0009262213134206831
0.00010672348435036838
0.0020558994729071856
0.005657817702740431
0.013997486792504787
-0.009705577977001667
-0.0422026589512825
0.006353303324431181
-0.024608129635453224
0.037907592952251434
-0.06436613202095032
0.018058273941278458
0.0005274593713693321
-0.02708464302122593
0.009646311402320862
0.0037523205392062664
-0.023280536755919456
-0.004038636106997728
0.015187705866992474
-0.012089178897440434
0.012122551910579205
0.002144540660083294
-0.02304549515247345
-0.003193667158484459
0.0023454169277101755
-0.0135228605940938
0.0443936362862587
-0.0031459378078579903
-0.004209855105727911
4.702253136201762e-05
-0.046174027025699615
0.008180988021194935
0.013948834501206875
-0.01003262959420681
-0.0073645468801259995
0.027068695053458214
-0.01869865134358406
0.007372250780463219
-0.013011837378144264
0.032589007169008255
0.03517206013202667
-0.01077257003635168
-0.01498938724398613
-0.006066089030355215
-0.010643468238413334
-0.020775457844138145
0.001997776795178652
0.033269964158535004
-0.02172616869211197
0.0145789859816432
-0.009786844253540039
-0.008274691179394722
-0.006615894380956888
-0.02694513276219368
-0.01017085276544094
0.01917429454624653
-0.0007182762492448092
-0.012933897785842419
0.008431851863861084
0.009508141316473484
0.022525973618030548
-0.01801086775958538
0.027529794722795486
-0.00405696639791131
0.04454176500439644
0.015838809311389923
-0.016481764614582062
-0.05005393549799919
-0.009034394286572933
-0.032589659094810486
0.04369919374585152
-0.05502597987651825
0.004499217960983515
-0.017272891476750374
-0.021284421905875206
0.02594693936407566
0.001931799459271133
0.015392296016216278
-0.001228494686074555
-0.06316434592008591
-0.004850703291594982
-0.07450352609157562
0.017705749720335007
0.018427781760692596
0.003652076004073024
0.04640977457165718
-0.021263262256979942
-0.0004808137600775808
0.018539341166615486
0.01391779538244009
-0.02735026925802231
-0.005620259791612625
-0.00973166711628437
-0.0029114638455212116
-0.007392146158963442
-0.010113000869750977
-0.009554947726428509
0.02214079163968563
0.047428809106349945
-0.060409676283597946
0.05763740837574005
0.010794304311275482
-0.04608484357595444
-0.00996412243694067
-0.022096026688814163
0.005770471412688494
0.020203743129968643
0.019936656579375267
0.01690940372645855
-0.06464659422636032
-0.030378520488739014
0.041325464844703674
0.012680541723966599
0.005324814468622208
0.011068085208535194
-0.01597932167351246
-0.027912398800253868
0.0002058335521724075
0.0005598749266937375
-0.006601962260901928
0.01310768537223339
-0.020346075296401978
-0.044528376311063766
0.04809127002954483
0.004155061207711697
-0.0016471202252432704
-0.002220074413344264
0.030001387000083923
-0.02851583994925022
-0.01679064705967903
-0.03448902815580368
-0.0028233323246240616
0.015180936083197594
-0.054250698536634445
-0.023230284452438354
-0.021611995995044708
-0.00776522234082222
0.0756661668419838
0.11919640749692917
0.04324260726571083
0.0019724639132618904
0.0009950363310053945
-0.004737017676234245
0.009992177598178387
-0.02442329190671444
0.032525189220905304
0.02711229771375656
0.09561081230640411
-0.02829928509891033
0.03821361064910889
-0.01186151523143053
0.016676312312483788
0.015720678493380547
-0.02594037353992462
0.01467068213969469
-0.06965811550617218
0.014584665186703205
-0.024656036868691444
0.026700535789132118
-0.030186671763658524
-0.03086901642382145
0.0182608924806118
-0.0055205849930644035
-0.003572090296074748
-0.019555453211069107
0.028394712135195732
-0.025885403156280518
-0.04781508445739746
-0.009083257988095284
-0.054770663380622864
-0.12082025408744812
-0.005229348782449961
0.05989970266819
-0.00847292598336935
-0.006854966748505831
0.015014867298305035
0.03591758385300636
0.10055945068597794
0.007263933774083853
0.02001343108713627
-0.008652085438370705
-0.00020707286603283137
-0.035268571227788925
0.007066753692924976
0.003343615448102355
-0.012061724439263344
-0.015867892652750015
-0.017693955451250076
0.017464978620409966
0.04498901218175888
-0.03388803452253342
0.03467585891485214
-0.011786513030529022
-0.005039843264967203
-0.006045443005859852
0.0036504697054624557
-0.0033494620583951473
0.0016462336061522365
-0.0793592780828476
-0.04039188101887703
0.019542353227734566
-0.023206310346722603
-0.06719230115413666
0.015137447975575924
0.030656011775135994
-0.0048852902837097645
0.046946462243795395
-0.026779480278491974
-0.04055393487215042
-0.05153157189488411
0.0060837650671601295
0.03233117237687111
-0.013936519622802734
-0.028644848614931107
-0.005129487719386816
-0.0009700139635242522
0.0331377349793911
0.009887740015983582
-0.0179540254175663
0.012801297940313816
-0.0056862374767661095
-0.00618721591308713
0.0370241217315197
-0.0681508257985115
-0.03644680231809616
0.08460820466279984
0.002905491041019559
0.015315470285713673
-0.010211700573563576
0.03282300382852554
-0.007718812208622694
0.021061841398477554
-0.027742447331547737
-0.01477731205523014
0.05027016997337341
-0.004668044857680798
-0.02124846912920475
-0.014918484725058079
0.04272310808300972
0.014162990264594555
-0.0404951348900795
-0.00404739286750555
-0.010584263131022453
0.0401056744158268
0.0028228024020791054
0.0026633008383214474
-0.007637227885425091
0.013752905651926994
-0.026259232312440872
0.02276829443871975
0.01131462212651968
-0.031851425766944885
0.026748407632112503
-0.035255733877420425
-0.002682363847270608
0.0336478054523468
-0.004878906067460775
0.08981011807918549
0.035356104373931885
-0.01867729425430298
-0.081222765147686
-0.03431409224867821
-0.01686057634651661
-0.0175823625177145
0.017702005803585052
0.005632110871374607
-0.02317029982805252
0.0033048074692487717
-0.014406848698854446
-0.006418755743652582
0.00012949950178153813
-0.006806924473494291
-0.02352404035627842
0.018446525558829308
0.007382727228105068
0.015104249119758606
0.02422451227903366
0.026724519208073616
0.015868229791522026
-0.045140817761421204
-0.003958305809646845
0.005408769939094782
0.02787557803094387
0.030496856197714806
-0.057294733822345734
-0.019107425585389137
-0.02040979079902172
0.03636855259537697
-0.05460639297962189
-0.02371820993721485
-0.02319921925663948
-0.012808339670300484
0.01603037118911743
-0.005336628295481205
0.02625955082476139
0.03276767209172249
0.011847029440104961
-0.02359335869550705
0.020630085840821266
-0.03762364387512207
-0.018939584493637085
-0.05224308371543884
0.1078026071190834
0.040735531598329544
0.03865725174546242
0.015356577932834625
-0.009958132170140743
-0.05475278198719025
-0.047885145992040634
-0.025731133297085762
0.04890037700533867
-0.0554078184068203
-0.0020302392076700926
-0.007118531968444586
0.01837301440536976
0.02970006875693798
0.0239628367125988
-0.02929581142961979
-0.01591959223151207
-0.01989505998790264
0.020711874589323997
0.024546965956687927
-0.034141428768634796
0.06211758032441139
-0.03269939869642258
-0.009389886632561684
-0.010341936722397804
-0.08002366870641708
0.03724022954702377
-0.019387006759643555
-0.0395076759159565
0.010135114192962646
0.027798030525445938
0.06655079871416092
-0.00707853352651
-0.005980856250971556
0.0003600424388423562
-0.025688957422971725
-0.029941534623503685
-0.052632734179496765
0.03906241059303284
0.014601418748497963
0.027904223650693893
-0.007233320269733667
-0.03319930285215378
-0.014944663271307945
-0.026964521035552025
0.024745894595980644
0.017720095813274384
-0.028438881039619446
0.05852523073554039
-0.005075269844383001
-0.049943957477808
0.010779078118503094
-0.008145228959619999
-0.02255941368639469
0.041988179087638855
-0.005050989333540201
-0.04946465417742729
-0.04032881185412407
-0.029552726075053215
0.020007284358143806
-0.027425110340118408
-0.0761578157544136
0.05602879449725151
0.024193257093429565
-0.029613355174660683
0.01110120303928852
-0.06589382141828537
-0.005240499973297119
0.024294143542647362
0.022381458431482315
-0.03442876785993576
0.021366644650697708
-0.006402105093002319
0.06885319203138351
0.047367729246616364
-0.02301112189888954
-0.02856569178402424
0.0024231630377471447
-0.028974708169698715
0.027787424623966217
0.029678065329790115
0.019496159628033638
-0.011577462777495384
-0.014798359014093876
-0.010775233618915081
0.08475882560014725
-0.00429316284134984
0.02257763221859932
-0.006511003244668245
-0.006291490979492664
0.0240054652094841
-0.0006926734349690378
-0.047660376876592636
0.004887820221483707
-0.021096251904964447
0.05045628175139427
0.03383312374353409
0.008894233964383602
0.07996993511915207
0.019374927505850792
-0.03004113957285881
0.028346609324216843
0.01775464601814747
-0.013943803496658802
0.035043176263570786
-0.041622597724199295
0.009046327322721481
-0.029470348730683327
-0.008750775828957558
-0.02863084338605404
-0.0069356574676930904
-0.01696230284869671
-0.027097642421722412
-0.021389372646808624
0.0013219522079452872
0.017073912546038628
0.04345981031656265
0.020887630060315132
0.0484791100025177
0.009848510846495628
0.013130714185535908
-0.01612033322453499
-0.014043774455785751
-0.018156901001930237
0.020011553540825844
-0.010252516716718674
-0.0665740966796875
0.03740674629807472
0.0008167452178895473
-0.06909716874361038
-0.05128577724099159
0.01333650667220354
-0.008358151651918888
-0.05524015054106712
0.011665750294923782
-0.02846812829375267
0.04871516302227974
-0.02632902003824711
0.021742455661296844
-0.024579700082540512
-0.010031590238213539
-0.006387592758983374
0.030367927625775337
-0.019884886220097542
-0.0034265366848558187
-0.0009632277069613338
0.0012698302743956447
0.0033754603937268257
0.04919257387518883
0.05392557010054588
0.014099787920713425
0.04808129742741585
0.01970341056585312
0.048369430005550385
-0.006908179726451635
0.005248941481113434
-0.043583691120147705
0.014389192685484886
0.005209116265177727
-0.03470106050372124
0.004729000385850668
0.040647003799676895
-0.03308192640542984
-0.019127171486616135
0.05219708010554314
0.0016340200090780854
0.04038691520690918
0.013144527561962605
0.007979925721883774
-0.01981714554131031
0.0035364769864827394
-0.06426051259040833
0.005671032704412937
-0.004862300585955381
0.02399798110127449
-0.010104530490934849
-0.05022256076335907
-0.07829074561595917
-0.04211282357573509
0.01983235403895378
-0.006022923160344362
-0.07400433719158173
-0.026398446410894394
0.010652690194547176
0.010867604054510593
0.026437291875481606
-0.021592319011688232
0.004562498535960913
0.01407119631767273
-0.0032915074843913317
-0.006177946925163269
0.0837942510843277
0.01297797355800867
-0.010420041158795357
-0.02630937471985817
0.0013890181435272098
-0.0655837133526802
0.0318036787211895
-0.02335001341998577
-0.02629789523780346
0.027540503069758415
-0.029473453760147095
-0.043016333132982254
0.01673281006515026
-0.05420588329434395
-0.003771711140871048
0.0032423834782093763
0.030034245923161507
0.049632132053375244
0.023344801738858223
-0.053366709500551224
0.04639984667301178
0.04546603187918663
-0.016307419165968895
0.009177611209452152
0.017320888116955757
0.0014278034213930368
0.01435486413538456
-0.03325781971216202
-0.021030331030488014
0.005746363662183285
0.01198367029428482
-0.06482423841953278
-0.059542637318372726
-0.018855152651667595
0.027185233309864998
0.023572472855448723
-0.0056291790679097176
-0.004646138288080692
0.05428694933652878
-0.103305384516716
0.00041519489604979753
-0.0038687747437506914
0.001375921186991036
-0.00029403806547634304
0.023632274940609932
-0.01982147991657257
0.01936654932796955
-0.016619887202978134
0.00432202871888876
0.015240105800330639
0.0016066700918599963
-0.05768141150474548
-0.0255893487483263
-0.0027370171155780554
0.0010294598760083318
0.017558827996253967
0.033802371472120285
-0.018925312906503677
0.009726207703351974
0.03318704664707184
-0.029530661180615425
0.004787191282957792
-0.0008900613174773753
0.026802880689501762
0.03984621912240982
-0.01858522556722164
-0.0640946477651596
-0.0728316456079483
0.020188752561807632
-0.08288607001304626
-0.014894130639731884
0.0023745871149003506
-0.02064371667802334
0.03715015947818756
0.06480132043361664
-9.786383452592418e-05
-0.003554399823769927
0.04704346880316734
-0.008136319927871227
0.00640292651951313
-0.011526225134730339
0.007590831723064184
-0.035921841859817505
-0.03634778410196304
0.00039313515298999846
-0.028075534850358963
-0.054832134395837784
-0.012669280171394348
0.03693103790283203
0.03207240253686905
-0.06464186310768127
-0.0015444529708474874
0.030467474833130836
0.04589875042438507
0.004591098055243492
0.009298555552959442
0.026581136509776115
-0.013425689190626144
-0.0047330958768725395
0.03627048805356026
0.01400683168321848
-0.01208244264125824
-0.022968241944909096
0.02827380783855915
-0.0028057934250682592
-0.005419505760073662
-0.048455946147441864
0.01136165764182806
0.030066994950175285
0.019176824018359184
0.0034055544529110193
-0.014659814536571503
-0.003720609936863184
-0.033451128751039505
-0.025372527539730072
8.143666491378099e-05
-0.03801209479570389
0.009853876195847988
-0.008704855106770992
0.00638600392267108
0.031173836439847946
-0.01706116460263729
0.03477952629327774
-0.017904652282595634
0.004781764931976795
-0.00020534753275569528
0.05189221724867821
-0.03395029902458191
-0.003444224363192916
-0.04166693985462189
-0.030648166313767433
-0.046560972929000854
0.040729910135269165
0.036974526941776276
0.0024226834066212177
0.027515646070241928
-0.004678880330175161
-0.04222509637475014
-0.01626693457365036
0.01139125321060419
0.021810924634337425
-0.03186694160103798
0.06092177703976631
0.03258581832051277
-0.016894284635782242
0.010209687054157257
-0.03816746175289154
0.0064593288116157055
-0.011021905578672886
-0.024068865925073624
0.053302302956581116
0.016631029546260834
-0.006072733551263809
-0.12837673723697662
0.044915854930877686
0.012615087442100048
-0.010955609381198883
0.022113235667347908
0.019775809720158577
0.012431193143129349
-0.0229880902916193
-0.04161452129483223
0.06465064734220505
0.011086516082286835
-0.030879294499754906
-0.055202700197696686
0.025371570140123367
-0.024044644087553024
0.049985554069280624
-0.011241919361054897
0.022424373775720596
-0.04610712081193924
-0.008556206710636616
0.01731681264936924
-0.008181513287127018
0.18578821420669556
0.030460646376013756
-0.01327725313603878
0.03505239263176918
0.029795464128255844
-0.04661521688103676
0.04241576045751572
-0.015337316319346428
-0.006898446474224329
0.003522770944982767
-0.002657624427229166
0.029505925253033638
-0.000701402488630265
0.11681058257818222
-0.020351095125079155
0.014109861105680466
0.030526457354426384
0.004276133142411709
-0.000528280041180551
0.01901267096400261
-0.0711098462343216
-0.07598976790904999
0.01361802313476801
0.001324412296526134
-0.0081911850720644
0.002686935942620039
0.04732835292816162
0.010589475743472576
-0.016924943774938583
0.016200993210077286
0.002055747900158167
0.031208768486976624
-0.016529962420463562
-0.032977212220430374
-0.017929967492818832
-0.007476282771676779
0.020363789051771164
-0.02619621343910694
0.04313081502914429
0.005937229376286268
-0.05407966673374176
0.0008041882538236678
-0.0677226334810257
0.0010573352919891477
-0.010080981999635696
-0.019352354109287262
0.049415137618780136
0.0154323261231184
0.03040844015777111
0.01970105618238449
-0.0608220174908638
0.01554127223789692
-0.0033332619350403547
0.02186731994152069
-0.020206250250339508
0.019792087376117706
-0.010015594772994518
0.017338523641228676
0.09444170445203781
-0.007651986554265022
-0.0013460591435432434
-0.030058953911066055
0.013540553860366344
-0.0006475396803580225
0.01621530018746853
0.005026856437325478
0.022376004606485367
0.047521378844976425
-0.014783855527639389
-0.09211204946041107
0.0006202927906997502
-0.0005478810053318739
-0.024730026721954346
-0.046420685946941376
-0.003465409157797694
0.002409601118415594
-0.01212630420923233
0.026865417137742043
0.00012154595606261864
-0.025804543867707253
0.012105847708880901
0.13508260250091553
0.003985979128628969
-0.020130885764956474
0.05959067866206169
-0.020757095888257027
0.059685513377189636
-0.012855442240834236
0.0028779846616089344
-0.006562203634530306
0.04238666221499443
0.045574575662612915
0.03386582061648369
0.013939011842012405
0.011598124168813229
0.004068778827786446
0.001837809686549008
0.03338860720396042
-0.02189730294048786
-0.0028901651967316866
0.058476630598306656
-0.03448304161429405
-0.020249275490641594
0.05577801167964935
-0.02052934095263481
-0.01734262891113758
-0.06043532118201256
0.009459886699914932
-0.017877129837870598
0.022629838436841965
-0.004801169969141483
0.034076668322086334
-0.0077846599742770195
-0.008262788876891136
0.02008439041674137
0.0010386216454207897
-0.026397274807095528
0.020337875932455063
0.07273004949092865
0.0388299897313118
-0.04237131401896477
0.006612809840589762
-0.09293258935213089
-0.006940669845789671
0.016238471493124962
-0.016688603907823563
-0.01815951243042946
-0.08000966906547546
0.013952219858765602
0.049566600471735
0.01812073215842247
-0.008812248706817627
0.010504852049052715
0.006469058338552713
-0.013101574033498764
-0.011920246295630932
0.030824624001979828
0.08595236390829086
0.015255816280841827
0.030078010633587837
-0.018618078902363777
0.02079293131828308
-0.005212117917835712
-0.012817643582820892
0.002160383854061365
-0.11279787123203278
0.03238506242632866
-0.01058389525860548
0.07327212393283844
-0.026396552100777626
-0.10828369110822678
0.030145728960633278
0.006108512636274099
0.054645754396915436
0.021472781896591187
-0.024731047451496124
-0.024339236319065094
0.007090453524142504
-0.026891373097896576
0.01237258967012167
-0.005977289751172066
-0.016176799312233925
-0.005368031095713377
0.024820365011692047
-0.04780169203877449
-0.02146795205771923
-0.02478831261396408
0.024981709197163582
0.01663214899599552
-0.027492281049489975
-0.05176692456007004
0.02616647258400917
0.033489298075437546
0.002345214132219553
0.04474364593625069
-0.03325041010975838
-0.017825625836849213
0.08956766873598099
0.007687312550842762
-0.027052123099565506
0.007765317801386118
0.011923440732061863
-0.002012488665059209
-0.0020084241405129433
-0.00157504144590348
-0.02120278961956501
0.005899443291127682
-0.03063822165131569
0.007262650411576033
-0.019171563908457756
0.0001815039140637964
0.02865738607943058
-0.009082220494747162
-0.020228715613484383
-0.0154014453291893
0.02342044934630394
-0.004825656767934561
-0.013035783544182777
-0.01418650709092617
-0.06504891067743301
0.02041131630539894
0.007089766673743725
-0.012394050136208534
0.02076568454504013
-0.028987297788262367
-0.010496452450752258
0.023948103189468384
-0.003962007351219654
-0.04598010703921318
0.054389838129282
-0.01656397245824337
-0.08936690539121628
-0.028423206880688667
-0.017157770693302155
0.012714456766843796
-0.013542423956096172
-0.005950205959379673
-0.009928325191140175
-0.08294033259153366
-0.03171054646372795
-0.0311184823513031
0.049011897295713425
0.009651943109929562
-0.0048675998114049435
-0.05498584359884262
-0.08356431871652603
-0.053680893033742905
0.0814589411020279
-0.019437316805124283
0.03371328115463257
0.0076447357423603535
-0.003600828116759658
-0.004238797817379236
-0.026537898927927017
-0.07139435410499573
-0.029392573982477188
-0.0020163783337920904
0.009860752150416374
-0.014029938727617264
0.023680465295910835
-0.021699149161577225
-0.01800340786576271
-0.03796396031975746
0.012210105545818806
-0.03537148982286453
-0.02396349050104618
-0.08668797463178635
-0.012477831915020943
0.028377294540405273
0.0327947661280632
0.01832766644656658
0.0047479779459536076
0.004325134214013815
0.016650889068841934
-0.030576489865779877
-0.11917842924594879
0.08575937896966934
0.007721520494669676
0.021459097042679787
0.006497161462903023
0.011480215936899185
-0.039975013583898544
0.029654860496520996
-0.034066714346408844
-0.001748167909681797
0.015875814482569695
-0.01111733727157116
0.0645328238606453
-0.028247099369764328
0.037063129246234894
-0.06318104267120361
-0.0021628562826663256
-0.021868186071515083
-0.01694614440202713
-0.01236990187317133
-0.023298010230064392
-0.02013573795557022
-0.01817128248512745
0.006409852299839258
-0.013253678567707539
-0.010578631423413754
-0.004170962609350681
-0.047527190297842026
-0.019319090992212296
0.028915653005242348
-0.03918210417032242
-0.06956368684768677
0.04044206067919731
0.002692293142899871
0.02446928434073925
0.0004624153662007302
-0.0009989284444600344
0.04913727566599846
-0.02475866489112377
-0.005921096075326204
-0.08315426111221313
-0.04005032777786255
-0.028877293691039085
-0.03730197623372078
-0.019655214622616768
0.004852139391005039
-0.010852283798158169
-0.07827217876911163
-0.010996227152645588
-0.007010367698967457
0.034975796937942505
-0.061861880123615265
-0.008510945364832878
0.04322349280118942
0.08584125339984894
0.009073598310351372
-0.021494314074516296
-0.020252544432878494
0.03942904621362686
0.0187012180685997
-0.012741240672767162
-0.034267205744981766
0.04115289822220802
-0.05179256945848465
0.018744757398962975
-0.04356847330927849
-0.02480882592499256
-0.04283347725868225
0.04811470955610275
-0.03099486418068409
0.02828279696404934
0.018474288284778595
0.004158353433012962
-0.007058356422930956
0.02158685214817524
0.01512659527361393
-0.0026234544347971678
0.016300052404403687
0.024524131789803505
-0.007268420420587063
-0.027030346915125847
0.03425387293100357
0.02535051479935646
-0.01936452090740204
-0.00924356747418642
0.021520568057894707
-0.02193973772227764
0.0003898759023286402
-0.022147759795188904
-0.04047882556915283
0.01102315541356802
-0.0072522638365626335
0.022551264613866806
-0.027111325412988663
0.00104397046379745
0.016101902350783348
0.021932171657681465
-0.014063255861401558
-0.016258135437965393
-0.02922097034752369
-0.0407324843108654
0.014827807433903217
0.04007765278220177
0.02919388748705387
0.137425035238266
-0.05720611289143562
-0.012369703501462936
0.04071300849318504
-0.0969003438949585
0.020801281556487083
-0.01472548209130764
-0.021781492978334427
0.03587353602051735
-0.13085125386714935
-0.0143874017521739
0.02062540501356125
0.03446270897984505
0.04400065913796425
0.02150581032037735
0.03837902843952179
-0.014675609767436981
0.01193203590810299
0.007879436016082764
0.06090081110596657
0.015975862741470337
-0.01252096425741911
0.01323991734534502
-0.0016553591703996062
0.0313694104552269
-0.01804049126803875
0.03394979611039162
0.032499659806489944
0.09786386787891388
-0.02543500065803528
-0.03015844151377678
-0.010338479653000832
0.012459663674235344
0.00454603461548686
0.012431204319000244
-0.031152132898569107
-0.035367950797080994
-0.08040004968643188
0.034708019345998764
0.03203265368938446
0.032232340425252914
-0.006274939980357885
-0.015542096458375454
0.052200865000486374
0.027965722605586052
0.04556259885430336
-0.12572908401489258
-0.03803325071930885
-0.004217993002384901
-0.008669765666127205
-0.08337249606847763
0.03479377180337906
0.004590129014104605
0.007640434894710779
0.03473552688956261
0.024783778935670853
0.029509717598557472
0.03212761878967285
0.004599383100867271
-0.03730380907654762
0.0393429771065712
-0.002860879059880972
0.01293911412358284
-0.028724204748868942
0.06567180156707764
-0.05346060171723366
-0.00962236151099205
0.03024214506149292
-0.1549740582704544
-0.006452001631259918
0.011387323029339314
-0.01146451011300087
-0.004063152242451906
0.02034236676990986
-0.0869106724858284
0.011151273734867573
-0.0018739993683993816
0.02446214109659195
0.04379376769065857
0.012339228764176369
0.010856753215193748
-0.0017542911227792501
0.010985923931002617
-0.029562275856733322
0.0025019568856805563
-0.00776042090728879
0.04035256803035736
0.029245909303426743
-0.020360184833407402
-0.014577038586139679
-0.022600997239351273
0.024594802409410477
-0.008884144946932793
-0.02679862640798092
0.021412663161754608
-0.021785732358694077
0.040367241948843
0.020729433745145798
0.004756554029881954
-0.031562041491270065
-0.08134782314300537
-0.0017549102194607258
-0.009262261912226677
-0.0008103680447675288
0.008248906582593918
-0.028710026293992996
-0.001486932160332799
-0.05906616151332855
0.06908217072486877
-0.04703911766409874
0.0008584160823374987
-0.006340060383081436
0.0008236666326411068
0.020303506404161453
-0.03545456379652023
-0.10502278059720993
-0.04477626457810402
0.02026304602622986
0.007439405657351017
-0.009768744930624962
-0.003625886281952262
0.027795182541012764
-0.026827497407794
0.01651080884039402
-0.07485126703977585
0.042548082768917084
0.0024189618416130543
-0.020209461450576782
-0.040550705045461655
0.004301299341022968
-0.011032833717763424
0.049475908279418945
0.02538474276661873
0.01141403242945671
0.056851331144571304
0.009668726474046707
0.011222802102565765
-0.020573804154992104
0.04024646803736687
0.08537391573190689
-0.01531215850263834
-0.018284481018781662
-0.016605088487267494
-0.07002948224544525
-0.03571641817688942
-0.021748723462224007
0.01817539893090725
0.018034420907497406
0.031491268426179886
0.01020489539951086
0.005419520661234856
-0.025979075580835342
-0.0379142090678215
0.007877053692936897
-0.012622036039829254
-0.019545527175068855
-0.02726360596716404
-0.002078346209600568
-0.014038638211786747
-0.019518490880727768
-0.01635850965976715
0.06226674094796181
0.030065327882766724
0.019776375964283943
0.016352543607354164
-0.053669948130846024
