0.05759342014789581
-0.09511435776948929
-0.02027232199907303
-0.0745558813214302
-0.7993080019950867
-0.21283598244190216
0.06557068973779678
-0.09653367102146149
-0.01211061142385006
-0.006994442082941532
0.014265955425798893
0.0005582405719906092
0.04123804718255997
-0.16125325858592987
-0.02320779487490654
0.0032886832486838102
0.007177858613431454
0.07168635725975037
-2.362729567551014e-09
-3.9269693274945894e-08
-3.2971211538779244e-08
2.1736866528954124e-08
8.329946510343689e-09
1.2542622052080787e-08
1.1381504627649974e-08
8.80957973237173e-09
1.550572292785546e-08
0.0012640991481021047
-0.005123574286699295
0.006958825048059225
-0.02127145230770111
-0.06826751679182053
-0.0157204307615757
0.02588840015232563
-0.014607325196266174
-0.005325928330421448
-4.935351682888722e-09
-5.329396923769991e-09
2.8847266797527027e-09
-3.010594440411296e-09
-1.4824128591328645e-09
-4.972586786777811e-09
-1.8826655789894176e-09
4.445074308634389e-10
3.031242479245577e-10
0.044148385524749756
0.01470870990306139
-0.01617959327995777
0.05081755667924881
0.09993240237236023
0.049735553562641144
-0.013057964853942394
0.009908982552587986
0.0005293557187542319
-0.009709984064102173
-0.037262823432683945
-0.05950719118118286
0.007246826309710741
-0.031141946092247963
-0.012039639055728912
-0.003426973009482026
0.02991923876106739
0.0035146016161888838
-2.2794358400801684e-08
-1.9992519639799866e-08
1.126932414052817e-08
-2.683238164991053e-08
-1.234126756344267e-08
1.798269622099724e-08
-1.0500244229660893e-08
1.5422502164241791e-09
2.2014619460719587e-08
0.026170164346694946
0.0033302779775112867
-0.0014249022351577878
0.06941275298595428
0.006062579341232777
0.009820172563195229
0.055916957557201385
0.028776831924915314
0.02349298819899559
4.656806495972887e-09
-2.195426134221634e-07
-1.1052391002408513e-08
-6.788223316789299e-08
-2.2126663168364757e-07
8.774833304414642e-08
1.7832232401815418e-07
6.246474271165425e-08
3.1276468348551134e-07
0.014612201601266861
0.06391624361276627
-0.046212173998355865
0.1006927639245987
-0.26133981347084045
-0.13377325236797333
0.013502554967999458
0.06762774288654327
-0.05028935894370079
-6.965791544644162e-05
0.08398071676492691
0.0401507169008255
0.04228854179382324
0.044000569730997086
0.044241249561309814
0.05519387125968933
0.025566929951310158
0.037659902125597
-0.02994691953063011
-0.06688009947538376
-0.018360566347837448
-0.030457505956292152
-0.15815427899360657
-0.051851339638233185
0.001561090350151062
-0.032676488161087036
0.024586055427789688
-5.214180873736041e-07
-6.836584134362056e-07
2.1346787448806026e-08
-3.75983489675491e-07
-7.057178095237759e-07
6.880280807308736e-07
9.255127793039719e-07
9.97776282929408e-07
1.6108317595353583e-06
0.003325393656268716
-0.013376947492361069
-0.04192017763853073
-0.026672901585698128
0.08231517672538757
-0.019272329285740852
-0.04679349064826965
0.03666660562157631
-0.0599883534014225
0.025599129498004913
0.019176164641976357
0.047079164534807205
0.007160577457398176
-0.06893977522850037
-0.0034985789097845554
0.008159806951880455
0.003631740575656295
0.016653770580887794
0.002302771434187889
0.02499500662088394
-0.027639705687761307
-0.014130720868706703
-0.014579805545508862
0.011624814011156559
0.0040924642235040665
0.07335003465414047
0.05654105916619301
0.008537511341273785
0.003098588204011321
-0.008721286430954933
0.008015790954232216
-0.015064476989209652
-0.0012369111645966768
0.015941694378852844
0.004692519549280405
0.019163906574249268
0.01607586070895195
-0.012129181995987892
-0.02242799662053585
-0.00844827014952898
-0.0635305792093277
-9.835978562477976e-05
0.009258488193154335
-0.0002499828115105629
0.004604024346917868
0.013251975178718567
0.012070084922015667
0.0664416030049324
0.06252455711364746
-0.10370742529630661
-0.011637473478913307
-0.011447897180914879
-0.07831967622041702
-0.010986174456775188
-0.043726254254579544
-0.08382623642683029
0.012315713800489902
-0.050260428339242935
0.0054224953055381775
-0.009114427492022514
-0.045358166098594666
-0.013688357546925545
-0.048722200095653534
0.016847746446728706
0.11204454302787781
0.04799116030335426
-0.03591866046190262
-0.005340553354471922
0.0379992313683033
-0.04530088230967522
-0.005700418259948492
0.0274045430123806
-0.009694990701973438
-0.0010988391004502773
-0.05439058318734169
-0.04877585545182228
0.02232866734266281
-0.04663427919149399
-0.02648741565644741
-0.027761980891227722
-0.0634273961186409
0.0778641626238823
0.02898484282195568
0.0682690292596817
0.020726121962070465
-0.054371178150177
0.018943024799227715
0.04182722046971321
0.039368510246276855
0.014907727017998695
0.024956556037068367
-0.0377303808927536
-0.07479167729616165
0.08984260261058807
-0.41218504309654236
-0.0432748943567276
-0.02475409023463726
0.046579983085393906
0.02933369018137455
-0.043146513402462006
0.043736331164836884
-0.06901779025793076
-0.005367072764784098
0.029393590986728668
-0.028200361877679825
0.049383193254470825
-0.03911454230546951
-0.004471259191632271
-0.001170893432572484
0.036284878849983215
0.0623343251645565
-0.04344779625535011
-0.12184387445449829
0.03606387600302696
0.00458228075876832
0.04309438169002533
0.005116414278745651
0.03660028427839279
-0.007121119182556868
-0.003928197547793388
-0.0008430568850599229
-0.08077806234359741
-0.00730906892567873
0.03863849490880966
0.04096377640962601
0.048709966242313385
-0.03144403174519539
0.03880629688501358
-0.010823192074894905
-0.06277579069137573
-0.04434648156166077
0.009081555530428886
-0.014570438303053379
0.12622086703777313
0.058770447969436646
-0.009800584055483341
0.01680396869778633
0.013145152479410172
-0.007819414138793945
-0.11815089732408524
0.006317524239420891
0.018833842128515244
-0.0763796865940094
-0.010866472497582436
-0.027218414470553398
-0.027702176943421364
-0.06241845339536667
0.02462545968592167
-0.25248342752456665
-0.38183900713920593
-0.03006102330982685
0.00797685980796814
-0.05674051493406296
0.0011633258545771241
-0.0440460741519928
-0.01334525179117918
-0.031639549881219864
-0.13953687250614166
-0.05421842262148857
0.03638642653822899
-0.039927706122398376
0.027956141158938408
0.023026343435049057
0.007342636119574308
-0.009269043803215027
-2.16732169064926e-05
-0.05810284614562988
-0.01593351550400257
0.017962563782930374
0.06354435533285141
0.04460441321134567
0.009423119015991688
-0.012747827917337418
-0.017972061410546303
-0.0163434986025095
-0.0437377393245697
-0.021582672372460365
0.027989160269498825
0.06573569774627686
-0.0037163114175200462
0.005719039589166641
-0.014513717964291573
-0.0024139429442584515
-0.02131469175219536
-0.04886043816804886
0.014755894429981709
0.01925363764166832
0.05403739586472511
0.03740435466170311
-0.004935918375849724
0.026408225297927856
0.033027056604623795
-0.0031414658296853304
0.013583273626863956
0.02230805903673172
0.035269394516944885
0.07819300889968872
0.06057603657245636
-1.5934318753352272e-08
-6.376553951525921e-09
2.9717670546602903e-09
-1.2362526113918193e-08
-2.1789763327006995e-09
5.952575765633128e-09
-6.376503325355998e-09
4.2603981453837036e-10
7.197844098527639e-09
-0.008764281868934631
0.07836571335792542
-0.00630164984613657
-0.018532563000917435
0.019571293145418167
-0.009693451225757599
-0.013830420561134815
0.06224047392606735
0.046096380800008774
-6.3430678487463865e-09
-8.964401665423338e-09
2.0965460478805653e-09
-8.323975397850347e-10
-2.8769767124181556e-10
6.578119160494111e-10
-4.010210830074357e-09
5.31499178002548e-10
7.304598259594286e-09
-0.015145355835556984
-0.006108975503593683
0.032330285757780075
0.08688339591026306
-0.2960585355758667
-0.028223246335983276
0.03631509467959404
-0.051562365144491196
-0.03836102411150932
0.05395594239234924
0.05754414573311806
0.0384804904460907
0.06774716824293137
-0.016126886010169983
0.056314803659915924
0.009881913661956787
0.06758963316679001
0.03647018224000931
-0.004926316440105438
-0.0140298530459404
0.010526884347200394
-0.010823340155184269
-0.011010749265551567
-0.029455428943037987
-0.03709859400987625
0.01628616452217102
-0.05621536076068878
0.0016214419156312943
-0.03174831345677376
-0.00867835246026516
0.05175211280584335
-0.4875943660736084
-0.03807758167386055
0.05448741465806961
-0.015688655897974968
-0.01048986241221428
-0.06843163818120956
0.03318864852190018
-0.0011174546089023352
0.05041595548391342
-0.035283204168081284
0.027674153447151184
-0.00549801392480731
0.08687487244606018
0.06858007609844208
-0.08345837891101837
-0.032475538551807404
-0.033833473920822144
0.017252910882234573
-0.09032467752695084
-0.036516524851322174
0.008295553736388683
0.015315723605453968
-0.030323928222060204
0.0517495833337307
0.07358381897211075
0.015823058784008026
-0.034762755036354065
-0.051996368914842606
-0.05199206992983818
0.0009741054964251816
0.08664810657501221
0.018301844596862793
-0.0025047273375093937
0.049590762704610825
0.008705603890120983
-0.027329832315444946
-0.05299407243728638
-0.03952888026833534
-0.011130550876259804
0.019305868074297905
-0.014093360863626003
0.014657562598586082
0.025385035201907158
0.011668571271002293
0.14143267273902893
-0.12247823178768158
0.13355688750743866
-0.0023990259505808353
0.08761511743068695
-0.02561921998858452
-1.1349576833907804e-09
4.532350939001617e-09
6.594830015416164e-09
-6.451658318695763e-09
1.7755536624308732e-11
4.099067751894836e-09
-4.682049858928394e-09
5.851769291354003e-09
7.358361919784784e-09
0.030482148751616478
0.07055070996284485
-0.03205876797437668
0.08867882192134857
-0.08581778407096863
0.04659881442785263
-0.04696447029709816
0.030437815934419632
0.027302172034978867
-0.022951750084757805
0.11246124655008316
0.02224051021039486
-0.03197178989648819
0.06994777172803879
0.012403958477079868
0.03892454877495766
0.08656442910432816
0.0021474172826856375
0.023497063666582108
0.09212915599346161
0.06959279626607895
0.06792686879634857
-0.08045271784067154
0.05505204573273659
-0.03800789266824722
0.04659230634570122
0.02583608590066433
-0.029383644461631775
0.0022660773247480392
0.00520278699696064
-0.03525090590119362
-0.07498281449079514
0.009740935638546944
-0.004070006310939789
0.08264073729515076
0.010552981868386269
-0.03967792168259621
0.039317913353443146
0.01775551028549671
0.03979016840457916
-0.04408586770296097
0.017233263701200485
0.004902152344584465
0.02193526178598404
0.024381784722208977
-0.021263016387820244
-0.003716516075655818
-0.0013936134055256844
-0.024851331487298012
-0.017350759357213974
-0.016973666846752167
-0.0011124842567369342
-0.0018067318014800549
-0.005901004653424025
0.0007153947954066098
0.0402907133102417
0.025608528405427933
0.026278937235474586
-0.014657214283943176
0.06775244325399399
0.025716399773955345
0.02197016216814518
0.08504416793584824
0.03940391540527344
0.054741956293582916
-0.029769787564873695
0.009358556009829044
-0.014874289743602276
0.00983933825045824
0.03896641358733177
-0.035832133144140244
0.04629114270210266
0.04582590609788895
0.05835522338747978
0.027684565633535385
0.06002045422792435
-0.029878975823521614
0.08215580135583878
-0.006233431398868561
0.040425222367048264
0.11778862774372101
0.010449055582284927
-0.015757841989398003
0.003441429231315851
0.0036782973911613226
-0.06324779987335205
-0.05774947628378868
0.003494001692160964
0.03944532200694084
0.010772072710096836
-0.05370525270700455
0.02929687686264515
-0.031001755967736244
-0.03245627135038376
-0.02950570173561573
-0.0046002925373613834
0.038308434188365936
-0.03885329142212868
0.022764865309000015
0.013535126112401485
0.044127948582172394
0.029252687469124794
0.05197250470519066
-0.02106429450213909
0.028392862528562546
-0.01360032893717289
0.05117007717490196
0.023542698472738266
-0.036920562386512756
0.018293969333171844
-0.029358185827732086
-0.0986146554350853
-0.043645229190588
-0.052716854959726334
-0.07963508367538452
0.029395656660199165
0.004147916566580534
0.016947627067565918
0.013978191651403904
0.009672748856246471
0.014297282323241234
-0.0006698464276269078
-0.022076839581131935
0.01239805482327938
0.03545407950878143
-0.022319812327623367
-0.02260005846619606
-0.025330545380711555
-0.023547574877738953
0.06086033955216408
-0.09677916765213013
0.02405744604766369
-0.012750262394547462
0.09223683178424835
0.004015195183455944
0.022160042077302933
0.042176783084869385
-0.01642816886305809
-0.02966666966676712
0.05686464160680771
0.02548643760383129
0.004384743981063366
0.051188353449106216
0.010436457581818104
0.025341859087347984
0.05437379702925682
0.053888287395238876
-0.0283343568444252
-0.20138850808143616
-0.056358229368925095
0.05677428096532822
0.07418768107891083
0.0215852539986372
-3.1457712879046085e-08
3.533538617261911e-08
5.3790810028431224e-08
-2.6896017857325205e-08
5.1529600142430354e-08
5.447961726190442e-08
-3.8486728470843445e-08
-1.123404924641136e-08
-7.578684346754017e-09
0.04463808238506317
0.008862804621458054
-0.012007787823677063
0.010114055126905441
-0.06403884291648865
0.0006374223157763481
0.021762138232588768
0.0012461388250812888
0.009584038518369198
-3.3578329006189733e-09
-4.714737489308618e-09
-2.8874489466090836e-09
-3.733097830860288e-09
4.71150274350407e-09
1.2499437040958128e-08
3.034149598235558e-09
-4.707544354332072e-10
1.29847883556522e-08
-0.0016546882688999176
0.028173893690109253
0.012030134908854961
-0.022292014211416245
0.00900858361274004
-0.004945955704897642
0.009150649420917034
-0.00636047450825572
-0.034928854554891586
-0.026029715314507484
-0.038699813187122345
-0.021822046488523483
0.014193731360137463
-0.03716393560171127
0.017383815720677376
0.042700570076704025
0.002675463445484638
-0.019872747361660004
-6.676032615615668e-09
2.8011585939680117e-08
4.450332014016567e-08
2.3740718280151896e-09
5.033379579799657e-08
6.1572428933232e-08
1.2913061731012476e-09
4.183509361155302e-08
4.8733330260120056e-08
0.029850417748093605
-0.012776852585375309
-0.01769566349685192
0.05427256599068642
-0.04066281020641327
-0.0014726564986631274
-0.02690967358648777
-0.011231721378862858
-0.02912616916000843
-2.463461612478568e-07
2.3029892304293753e-07
3.960684296089312e-07
1.4982943241648172e-07
9.708865036373027e-07
9.90784769783204e-07
1.3744772786594694e-07
6.982472200434131e-07
7.519301448155602e-07
0.0212898887693882
-0.09902156889438629
-0.0036858778912574053
-0.09136092662811279
0.12137004733085632
0.07173892855644226
-0.05300626531243324
-0.10526388883590698
-0.018864335492253304
0.042722173035144806
-0.04970536753535271
0.06903710961341858
0.06845136731863022
-0.08562248945236206
0.014723477885127068
-0.08563856035470963
0.07607036828994751
0.049261562526226044
0.0012540590250864625
0.03510424494743347
-0.0029771747067570686
-0.05174383521080017
-0.09696421027183533
-0.051686231046915054
0.042290158569812775
0.10520477592945099
0.02689851075410843
-5.003158776162309e-07
1.379151399305556e-06
2.089071358568617e-06
1.1274620419499115e-06
4.230031208862783e-06
4.08141613661428e-06
3.435333724155498e-07
2.321442934771767e-06
2.5910462682077195e-06
-0.05541668459773064
-0.02421678975224495
-0.053540922701358795
0.08659692853689194
-0.03948606550693512
-0.19748686254024506
-0.027597658336162567
-0.08901370316743851
-0.11021792143583298
0.006904963869601488
0.008039639331400394
0.047672249376773834
-0.007587670348584652
0.01699807681143284
0.030994802713394165
0.027868229895830154
0.016776230186223984
-0.007414883002638817
-0.04023449495434761
-0.009144757874310017
0.008935967460274696
0.012054267339408398
0.09867681562900543
0.08267665654420853
0.009408287703990936
0.05859409645199776
0.0044049774296581745
-0.029435301199555397
0.00633383821696043
0.009684531018137932
-0.00569910416379571
0.08519478887319565
0.05954291298985481
-0.02228209562599659
0.03393701836466789
0.021558823063969612
-0.10165994614362717
-0.06307701021432877
-0.05005728453397751
-0.020693685859441757
0.09228309988975525
-0.04372652992606163
-0.06045147776603699
-0.004928180947899818
-0.06697524338960648
-0.06692671030759811
-0.08797452598810196
-0.12702065706253052
-0.21354149281978607
-0.12444800138473511
-0.1338466852903366
-0.07798044383525848
0.10673164576292038
-0.032783035188913345
0.011215079575777054
0.027267763391137123
0.027008870616555214
0.16717427968978882
-0.13480797410011292
0.09787896275520325
-0.022686157375574112
-0.08528843522071838
0.06606580317020416
-0.08041373640298843
-0.013779670000076294
-0.04366477578878403
0.011890394613146782
0.15728400647640228
0.09217239916324615
-0.11669191718101501
-0.0096367746591568
-0.02840922400355339
0.06776569038629532
-0.043155837804079056
-0.009833112359046936
0.0514381006360054
-0.17976199090480804
0.08854737132787704
-0.014387408271431923
-0.10987526178359985
0.022894488647580147
-0.015935763716697693
0.0374513678252697
-0.0017688601510599256
0.038571640849113464
0.1028863787651062
0.004647973459213972
-0.007949518971145153
0.02122844196856022
-0.011735238134860992
0.004313149023801088
0.014782478101551533
-0.0006877113482914865
-0.0819847509264946
0.07919961214065552
0.04516013711690903
0.014941507950425148
-0.03308657184243202
-0.033299438655376434
-0.01021618489176035
0.033526547253131866
0.03746979683637619
-0.21619264781475067
0.094475656747818
-0.0144406259059906
-0.0796346515417099
0.02909858338534832
-0.04330877959728241
-0.09438149631023407
0.006063253153115511
-0.047191593796014786
-0.06905604153871536
0.03230771794915199
-0.02865937538444996
-0.12049994617700577
-0.2507759928703308
-0.08150149136781693
0.002751339925453067
0.017003443092107773
0.024849729612469673
0.01839403249323368
0.06990886479616165
0.05076891556382179
0.0041019669733941555
0.015487832017242908
0.0007275575189851224
0.025884851813316345
0.015563588589429855
0.008340325206518173
0.07077912241220474
0.03155049681663513
0.07581859081983566
0.06703498214483261
0.04846916347742081
0.0008254359709098935
0.011811383068561554
0.04978051409125328
-0.005686493590474129
0.0785781592130661
0.023529546335339546
-0.004737891256809235
0.011094395071268082
-0.0707213282585144
0.019588572904467583
0.011459826491773129
0.03412861004471779
0.024544114246964455
-0.02352774329483509
0.031726934015750885
0.1034979522228241
-0.020475439727306366
0.013078276067972183
0.04773498326539993
-0.04060729593038559
0.02670873887836933
0.007074391469359398
-0.014094565995037556
0.08508674800395966
0.04838109388947487
-0.028369085863232613
-0.0017970086773857474
0.034867770969867706
-0.007749744225293398
0.0035441380459815264
0.0364992581307888
-0.005419558379799128
0.03098156489431858
0.05112619325518608
0.015402210876345634
0.025891665369272232
0.018659451976418495
0.003605935722589493
0.022514233365654945
0.03385738655924797
-0.000556707032956183
0.03516128286719322
0.013832262717187405
0.051871661096811295
0.04586345702409744
0.039356328547000885
-0.05784433335065842
0.03011399507522583
-0.04012889415025711
0.02146831713616848
0.14558443427085876
-0.0028845949564129114
-0.0658714771270752
-0.018934739753603935
-0.039667364209890366
-0.00442194938659668
0.001996496459469199
-0.023875677958130836
0.02334839478135109
-0.05755016580224037
-0.016264284029603004
0.03450606390833855
0.014391987584531307
-0.008822059258818626
-5.550667925291464e-09
3.978661400338979e-09
1.0456465027175454e-08
8.752267355305321e-09
2.2688201539722286e-08
1.8379326505169047e-08
-1.7269440322209562e-09
1.5445639434119585e-08
1.690396622677781e-08
-0.06571546941995621
-0.020653381943702698
-0.046510934829711914
-0.04676254093647003
0.08778080344200134
0.03353870287537575
-0.06545905768871307
0.032523706555366516
-0.030043022707104683
-8.089378944475811e-09
-1.2229252055462325e-09
4.716177670616162e-09
-1.2787332082098146e-08
6.836845756197363e-09
-4.582770829486549e-10
-6.0574172344729504e-09
-6.731937229886853e-10
8.43416891882498e-09
0.00516161322593689
0.01820424385368824
-0.010696248151361942
-0.04065760597586632
0.023135490715503693
-0.016084594652056694
0.012735700234770775
0.007565368432551622
-0.01498508732765913
-0.0009453158127143979
-0.012529914267361164
0.003348512575030327
0.04885111004114151
0.03897795081138611
-0.009482520632445812
-0.0018308763392269611
0.006803455296903849
-0.04222160950303078
-0.02449965290725231
-0.03890404477715492
0.050944969058036804
0.038340482860803604
-0.06230849400162697
0.05273253098130226
0.011020706035196781
-0.0844552144408226
0.09217860549688339
0.01939661055803299
0.022670289501547813
-0.06078523397445679
-0.04545891657471657
0.012691590003669262
0.012510120868682861
0.03918398171663284
0.03629010543227196
0.0005786004476249218
0.043762970715761185
-0.008860350586473942
-0.003052477026358247
-0.13878439366817474
0.1260574609041214
0.10984218120574951
-0.029746530577540398
0.09427476674318314
-0.08164290338754654
-0.0037466525100171566
-0.01187830325216055
0.02367491088807583
-0.0850161612033844
0.10910540074110031
-0.06500010937452316
-0.05731804296374321
0.04438123479485512
0.0008834616746753454
0.03971230238676071
-0.0007202359265647829
0.010117709636688232
0.013270338997244835
-0.0771651566028595
-0.009781152941286564
0.07474496960639954
0.005754049401730299
0.03181473910808563
-0.07166170328855515
0.08252338320016861
0.06589002162218094
-0.048229847103357315
0.10477352142333984
0.06202731281518936
-0.0175216905772686
-0.002954508876428008
-0.04110318049788475
-0.025544248521327972
-0.017609253525733948
0.013343735598027706
-0.08545970916748047
0.13323134183883667
-0.05674583837389946
-0.002495948923751712
-0.08522497862577438
0.017729101702570915
-6.127839569103344e-09
-2.6896285199029535e-09
1.1039094971465602e-08
-6.5603358301302706e-09
1.2929432635644389e-08
1.490878887011604e-08
-2.724411141130645e-09
8.796511075104263e-09
1.2486883527174086e-08
0.0007652190397493541
0.013112008571624756
-0.025830913335084915
0.060912247747182846
-0.048957355320453644
0.040326379239559174
0.11934991180896759
0.035860516130924225
0.045067381113767624
0.029078897088766098
-0.06592429429292679
0.03271736204624176
0.04604586586356163
-0.07711653411388397
-0.00026096554938703775
-0.03930322825908661
0.015689631924033165
-0.05787920579314232
0.005209286231547594
0.05746811628341675
0.01583971455693245
0.06980525702238083
-0.13354186713695526
0.010675731115043163
-0.008879006840288639
0.05972440168261528
-0.010136030614376068
-0.002926402958109975
-0.023254096508026123
-0.0031313265208154917
-0.024064553901553154
-0.052837904542684555
-0.01104809995740652
0.020448759198188782
-0.042221471667289734
-0.02200365625321865
0.013173926621675491
-0.02554350160062313
0.0657421126961708
-0.054524172097444534
0.029255826026201248
-0.002711788984015584
-0.02787529118359089
-0.01596914790570736
1.240058281837264e-05
0.0019038188038393855
-0.0010517460759729147
-0.020551640540361404
0.004544511437416077
-0.027777014300227165
-0.011469926685094833
0.004566752817481756
-0.0028994614258408546
-0.00964962039142847
0.0379696749150753
-0.049930915236473083
0.0040636262856423855
0.06134774535894394
0.013000155799090862
-0.0010583793045952916
-0.0666159987449646
0.04749207943677902
-0.057499248534440994
-0.039886243641376495
-0.012685315683484077
-0.04344668239355087
-0.16330768167972565
0.14097703993320465
-0.019239557906985283
-0.20549911260604858
-0.009512229822576046
-0.04287785664200783
-0.06359269469976425
-0.11338432878255844
-0.03446538746356964
-0.11648646742105484
0.02419525943696499
-0.009642014279961586
-0.004025138448923826
0.09128641337156296
-0.009290853515267372
0.013888456858694553
0.031071338802576065
-0.0012357743689790368
0.041135791689157486
-0.09197905659675598
-0.043923407793045044
0.019122522324323654
0.04130363464355469
0.00536683015525341
0.0345812626183033
0.027296442538499832
0.03157623112201691
0.01653735525906086
0.060419823974370956
0.01357927918434143
0.0005629651714116335
0.04332970082759857
0.04079369455575943
0.014709980227053165
0.06091705709695816
-0.055252738296985626
0.01340688206255436
-0.053857844322919846
0.04635520651936531
-0.04911205172538757
0.0732882097363472
-0.03232884779572487
-0.1275385171175003
0.04355211928486824
-0.06560653448104858
-0.06046222522854805
0.15988756716251373
-0.0077069541439414024
-0.09420202672481537
0.050750087946653366
-0.0781538262963295
-0.03330857679247856
0.0016631383914500475
-0.008849671110510826
0.015552773140370846
-0.05827662721276283
-0.027436988428235054
0.013125778175890446
-0.030267544090747833
-0.0021660521160811186
-0.004231323953717947
0.03451704978942871
0.003819262608885765
0.054317448288202286
-0.01245677750557661
0.03289977088570595
0.00021999949240125716
0.01603981852531433
0.12764103710651398
-0.03524700552225113
0.00807478278875351
0.02035316824913025
0.017343569546937943
-0.024320445954799652
-0.0001551086170366034
-0.00027633574791252613
0.028024207800626755
-0.002377731492742896
-0.023741465061903
-0.003205748973414302
-0.005705895833671093
-0.011581524275243282
0.0017200210131704807
0.021067460998892784
0.004360590595752001
-0.04645892605185509
-0.07295405119657516
3.1002215905573394e-08
5.3568140145898724e-08
3.1872875894123354e-08
-1.606289856681542e-08
-1.8072071839014825e-08
-1.950757111401913e-09
-5.833939553667733e-08
-4.5365968759369935e-08
-1.2395107162888053e-08
-0.0024974301923066378
-0.015963967889547348
-0.0002844543778337538
-0.02838035300374031
-0.012797295115888119
-0.00966587569564581
-0.04057767242193222
-0.03581064194440842
-0.027091018855571747
1.7094151649743594e-09
-2.4110915486375006e-09
-2.1123638394016098e-09
2.8398261520123924e-09
-1.1671615673947144e-08
-1.144536132535734e-09
2.877926230659966e-10
3.895126887698552e-09
5.988956552904767e-11
-0.06577016413211823
0.0003575596201699227
-0.05380567908287048
0.014221337623894215
0.10846351087093353
0.023724637925624847
-0.017804045230150223
-0.026755867525935173
-0.038055792450904846
-0.3078303635120392
0.07194237411022186
0.28850477933883667
-0.522236168384552
0.10858578234910965
0.548088014125824
-0.20933197438716888
-0.08795610815286636
0.10128644853830338
4.4976072643976295e-08
2.1440763831037657e-08
-1.9826829955604808e-08
4.321078250768551e-08
-7.755156516964234e-09
-3.749643084915988e-08
3.911059920369553e-08
5.800278479739518e-09
-2.310228275348436e-08
-0.048392362892627716
-0.024617722257971764
-0.003419671207666397
0.016585206612944603
0.039613403379917145
0.008556201122701168
-0.011110576801002026
0.004749959800392389
-0.02129104547202587
-2.7983051609226095e-07
-4.62400066680857e-07
-5.960475846222835e-07
-1.508871321220795e-07
-4.0497658915228385e-07
-5.511718654815922e-07
-1.5863726332554506e-07
-1.892122298841059e-07
-2.3492331990837556e-07
-0.01400059275329113
0.03266599029302597
0.02357502095401287
0.037335433065891266
-0.025472931563854218
-0.041248057037591934
0.012764042243361473
0.0024053037632256746
0.028785644099116325
0.012172785587608814
-0.022872604429721832
-0.035477302968502045
-0.034454796463251114
0.05684985965490341
0.05227476358413696
0.008931603282690048
0.0163626316934824
-0.038821637630462646
0.017443785443902016
0.007296390365809202
0.008375095203518867
-0.008149078115820885
-0.026597758755087852
-0.03824128210544586
0.05692112445831299
-0.03172016143798828
-0.03593320772051811
-3.735580321517773e-06
-2.063796728180023e-06
-3.0331167977237783e-07
-4.373150659375824e-06
-3.8055657114455244e-06
-1.463048079131113e-06
-3.6421922686713515e-06
-2.8854692573077045e-06
-4.759900207318424e-07
0.007333752699196339
-0.024094177410006523
-0.02342524193227291
0.031344521790742874
0.016428178176283836
0.025146430358290672
0.0014455094933509827
-0.01481496263295412
-0.036669760942459106
0.006710894871503115
-0.07788600027561188
0.010106015019118786
0.010158900171518326
0.022647228091955185
0.03127644583582878
-0.030964503064751625
-0.06885779649019241
0.029867174103856087
-0.15305836498737335
0.09666164964437485
0.27254047989845276
-0.28006356954574585
0.07666677236557007
0.40958544611930847
-0.22743262350559235
-0.051553696393966675
0.18543235957622528
-0.025689486414194107
-0.01571170799434185
-0.0029208140913397074
-0.031067941337823868
-0.04239644855260849
-0.01848847046494484
-0.0359068438410759
-0.03372885659337044
-0.010082060471177101
0.0004740821023005992
0.021719085052609444
-0.0022974470630288124
0.010132797062397003
-0.037611741572618484
-0.022018982097506523
0.0031138891354203224
-0.008491267450153828
-0.004338912200182676
-0.002955626929178834
-0.0043641347438097
0.03825511038303375
0.015351887792348862
-0.0032107196748256683
0.045527439564466476
-0.006611232180148363
-0.02044636383652687
-0.004078813828527927
-0.037526678293943405
-0.014897535555064678
0.018939431756734848
-0.019158540293574333
0.0362100712954998
0.06145858019590378
-0.027409058064222336
-0.03069930151104927
-0.012199650518596172
0.014857570640742779
-0.024756748229265213
-0.06670359522104263
0.033951614052057266
-0.05614830181002617
-0.10148923844099045
0.011114586144685745
-0.04825184866786003
-0.05388475954532623
0.0190842617303133
-0.016082176938652992
0.04402347281575203
-0.005518015474081039
0.07508065551519394
0.093747578561306
0.0044834185391664505
0.013463279232382774
0.017759844660758972
0.1017279252409935
-0.09242036938667297
-0.014801776967942715
-0.0289146788418293
-0.15521115064620972
0.06609785556793213
0.03448212146759033
-0.021888770163059235
0.055231835693120956
-0.03027801215648651
0.037626516073942184
-0.0015565439825877547
0.023190686479210854
-0.040395140647888184
-0.011648528277873993
-0.0123257115483284
0.020192978903651237
0.02099006623029709
-0.000418984389398247
-0.022354474291205406
-0.023342829197645187
-0.012343372218310833
0.01957116648554802
-0.04246044531464577
-0.0025808627251535654
-0.04313699156045914
-0.011151090264320374
0.03776196017861366
0.0013269911287352443
-0.02524174377322197
0.006496801972389221
-0.031896233558654785
-0.01752076856791973
0.014953737147152424
0.009990091435611248
-0.00717553636059165
0.052888184785842896
-0.06274823844432831
-0.19106806814670563
0.1760946661233902
0.0011267594527453184
-0.2388688623905182
0.12701928615570068
0.06802357733249664
-0.08863461017608643
-0.1961294710636139
0.008785810321569443
0.28002557158470154
-0.38603314757347107
-0.06872178614139557
0.45745155215263367
-0.31446197628974915
-0.15096613764762878
0.26880884170532227
0.013356124982237816
0.0007319609285332263
-0.03318929299712181
0.011622074991464615
0.027753019705414772
0.026040926575660706
-0.08845075219869614
-0.017502347007393837
0.046598926186561584
0.001978627173230052
-0.0002903977583628148
0.04071769118309021
-0.0320151150226593
-0.022379161790013313
-0.051597390323877335
-6.294087506830692e-05
0.008547309786081314
0.009155106730759144
0.06341974437236786
0.024650944396853447
-0.007746471557766199
-0.05893108248710632
-0.02159876376390457
0.05881381034851074
0.03648136556148529
0.051368534564971924
-0.023636452853679657
-0.04612300172448158
0.016051573678851128
0.0071779838763177395
-0.04510045796632767
0.03973381221294403
0.03961816430091858
-0.027073131874203682
0.03169246390461922
0.03597249090671539
0.36307042837142944
-0.08056285232305527
-0.41743165254592896
0.5557452440261841
0.01986052468419075
-0.4960997402667999
0.24439947307109833
0.176240473985672
0.007604279555380344
-0.038465771824121475
-0.00889861024916172
0.029230872169137
-0.0721340924501419
-0.04614376649260521
0.034249626100063324
-0.07131838798522949
-0.024044789373874664
0.03043961152434349
0.007879188284277916
-0.009096726775169373
-0.005899418611079454
0.04569123312830925
-0.006784229539334774
-0.03817901015281677
0.04152196645736694
-0.00766237685456872
0.005974418018013239
2.4508358009711628e-08
1.2591622855495643e-08
-2.0648398546541102e-08
5.631030752795141e-09
-3.0096194425510703e-09
-1.894887446951543e-08
-3.6349652177136704e-09
-3.5072889037479626e-09
-2.2789860665284323e-08
0.0033363818656653166
0.059108126908540726
0.13543537259101868
-0.03405557572841644
0.05212084576487541
0.16428984701633453
-0.0012262697564437985
0.026042595505714417
0.11009065806865692
4.961657196211888e-10
1.4589451174940038e-11
1.0026519614569906e-09
3.415003391182836e-09
-4.398069408662053e-10
1.0273101258562178e-09
-1.0915849557591173e-08
-3.5603751058488342e-09
-3.0687341556756564e-10
0.014160030521452427
-0.018085157498717308
0.031023869290947914
0.0287308432161808
0.02387896180152893
0.005584382452070713
-0.026400165632367134
0.009486575610935688
-0.0105412183329463
-0.03406711667776108
0.05779494345188141
-0.014433222822844982
-0.0028334965463727713
-0.01720825396478176
0.0014517075615003705
-0.016818271949887276
0.00025038645253516734
0.007395896594971418
-0.04236327111721039
-0.011485149152576923
-0.029559319838881493
0.03619628772139549
0.030469294637441635
0.041969723999500275
0.03067990206182003
-0.026745788753032684
-0.025562196969985962
-0.015892550349235535
0.0023901588283479214
0.02266559563577175
0.02141394652426243
-0.011299564503133297
-0.022242169827222824
-0.005015019327402115
0.015374770388007164
-0.013356171548366547
-0.02455713599920273
-0.005819875746965408
0.0037565738894045353
0.03789939731359482
0.05347336083650589
-0.0655818060040474
0.009692096151411533
-0.013192279264330864
-0.004839286673814058
-0.047196924686431885
-0.033576127141714096
-0.015700845047831535
0.021304765716195107
0.022349201142787933
0.026326090097427368
0.018985791131854057
-0.02522275410592556
-0.015114663168787956
0.10134522616863251
-0.06458486616611481
-0.20158183574676514
0.2414604276418686
-0.011753610335290432
-0.30224230885505676
0.1544152945280075
0.06237568333745003
-0.08999474346637726
0.011351633816957474
-0.018069740384817123
-0.06722116470336914
0.0336148701608181
-0.022490739822387695
-0.06086551398038864
0.026729881763458252
-0.004856469575315714
-0.006745695602148771
-0.050177883356809616
0.08354967087507248
-0.022165708243846893
0.035173892974853516
-0.08290553838014603
0.005643559154123068
-0.014319359324872494
0.03987353295087814
0.002532780868932605
6.228250359896492e-09
1.1097281316096996e-08
9.41563094158937e-09
-1.1048884474007536e-08
-3.2758511459007877e-09
-2.0430099834101156e-09
-3.832072437148781e-09
-6.71900179938234e-09
6.442528732719666e-09
0.003374897874891758
-0.03901403397321701
-0.007399631664156914
-0.011417422443628311
0.06168888136744499
-0.009064572863280773
-0.006462038028985262
-0.0414014607667923
0.039750684052705765
-0.014061887748539448
-0.023707179352641106
-0.004511730745434761
-0.009011699818074703
0.02177993208169937
0.007492477539926767
0.01716184988617897
-0.03974262252449989
0.017899105325341225
0.004178469534963369
-0.07730825990438461
-0.0066682868637144566
0.0018628067336976528
0.06293028593063354
-0.023301338776946068
0.015285094268620014
-0.05181548744440079
0.00635637529194355
0.1789875328540802
-0.08384891599416733
-0.19870129227638245
0.40741607546806335
-0.07705897837877274
-0.4495418965816498
0.17923995852470398
0.0903552770614624
-0.027953824028372765
0.004178877454251051
-0.0589960478246212
0.019964415580034256
-0.01527707464993
0.07011184096336365
-0.004280042834579945
-0.015023194253444672
-0.01630421355366707
3.857612318824977e-05
0.015472409315407276
-0.0017913307528942823
-0.005694362334907055
-0.0023826665710657835
-0.00946616567671299
-0.025239694863557816
-0.029132209718227386
-0.03146246075630188
-0.020463215187191963
-0.010981874540448189
-0.01146683655679226
-0.02824363484978676
0.023389628157019615
-0.015265644527971745
0.02538328804075718
0.01613001711666584
-0.027133766561746597
-0.006541660521179438
-0.014320739544928074
-0.024244964122772217
-0.00039870376349426806
0.0511908233165741
0.07030638307332993
0.033380694687366486
0.016846245154738426
0.017060253769159317
-0.026358721777796745
-0.0028192137833684683
-0.020598595961928368
-0.006153784226626158
0.054370779544115067
-0.004837986081838608
-0.01066307257860899
0.0028132949955761433
-0.01091743167489767
-0.028758620843291283
0.0077837081626057625
0.021841159090399742
0.014798733405768871
-0.0486324317753315
-0.006750335916876793
0.07979080826044083
0.011485732160508633
-0.03898249566555023
0.010384956374764442
0.01725422404706478
-0.004946125205606222
-9.207961738866288e-06
0.005784234032034874
0.054692596197128296
-0.0381731316447258
-0.014909502118825912
-0.03280270844697952
-0.001824215054512024
-0.010435746051371098
0.04223160818219185
0.013485497795045376
0.02700091153383255
-0.04012751579284668
-0.032468706369400024
0.006276195403188467
0.033766768872737885
0.034247733652591705
-0.001968867378309369
-0.02680875174701214
-0.04376032203435898
0.024517597630620003
-0.02839609794318676
-0.03589557856321335
-0.00017883244436234236
-0.02466113120317459
-0.020084761083126068
0.021550899371504784
0.0022788674104958773
-0.025823209434747696
0.023271888494491577
-0.007933306507766247
-0.002081384416669607
-0.0057062432169914246
-0.02693364769220352
-0.01442054845392704
-0.019673872739076614
0.027914464473724365
-0.02002485655248165
0.06322244554758072
-0.039077278226614
-0.0033219854813069105
-0.02743358723819256
0.01139036938548088
-0.0031607893761247396
-0.043501995503902435
-0.021033121272921562
-0.02167377434670925
-0.3054543435573578
-0.31833505630493164
-0.041795358061790466
-0.013863359577953815
0.009126310236752033
-0.01494305394589901
0.05093806982040405
0.03632865846157074
0.028468165546655655
-0.24309109151363373
-0.2334149181842804
-0.05825189873576164
-0.059239864349365234
-0.039766911417245865
-0.028254926204681396
1.3547450272710648e-08
2.9825975023101137e-09
2.339218774238816e-08
1.8559321190991795e-08
3.4713213636905493e-08
4.5472678067426386e-08
3.638792600568763e-09
6.930609863786685e-09
1.4587768326634887e-08
-0.004958478268235922
0.007274117320775986
-0.008017094805836678
-0.04332515969872475
-0.027896134182810783
-0.008487220853567123
-0.017623893916606903
0.011701424606144428
-0.006515975575894117
-8.851289479139268e-09
-2.6969235733531605e-09
-3.1079958606738955e-09
-6.183248135727126e-09
-6.2437934822412444e-09
-1.186229892091717e-09
-5.659744228836416e-09
-7.86295206722798e-09
-4.530035457861459e-09
0.015037266537547112
0.0014203132595866919
-0.020083336159586906
-0.005196467041969299
0.001805184641852975
0.026522360742092133
-0.02195960283279419
-0.00047516243648715317
-0.015065066516399384
-0.0035478125791996717
0.015637019649147987
0.040313996374607086
-0.014478656463325024
-0.009027914144098759
0.015070934779942036
-0.03665879741311073
0.012454655021429062
0.013729744590818882
4.101042172521829e-09
3.191604536212367e-09
7.736960405679838e-09
-1.4445387108708019e-08
-2.0813837320332595e-09
1.6481415121560872e-09
-2.141164401336937e-08
-1.3574898538593061e-08
-1.0817647888572424e-09
-0.007430332247167826
0.009148839861154556
0.039014168083667755
-0.02089802362024784
0.03654065355658531
0.004303640685975552
-0.0814666599035263
-0.02086103893816471
0.00010143120744032785
2.1498172486644762e-07
1.3988187674840447e-07
1.6331087238086184e-07
6.853694856090442e-08
4.98005192639539e-08
1.1867819438293736e-07
-5.2934186811626205e-08
-7.982966110375855e-08
2.3022263206939897e-08
-0.06265605241060257
-0.10698641836643219
0.026383012533187866
-0.0244289580732584
-0.2537783682346344
0.059173278510570526
0.03225846588611603
-0.08419762551784515
0.007775058038532734
0.011761877685785294
0.019228413701057434
-0.06110946089029312
0.02176223322749138
-0.07865030318498611
0.05335281789302826
0.04401359707117081
0.011851617135107517
0.0452328696846962
-0.007880457676947117
-0.003890520427376032
0.0014479240635409951
-0.07863322645425797
-0.09803280979394913
-0.05247543752193451
0.009616021998226643
0.012769144959747791
-0.005887145642191172
3.428122568038816e-07
4.344261697042384e-07
3.4030171036647516e-07
3.672977584301407e-07
3.781954092119122e-07
4.114913565445022e-07
-1.1253006704237123e-07
-2.3966637741068553e-07
-4.694729582865875e-08
0.021836834028363228
0.05782854184508324
0.0015559198800474405
0.06077156960964203
0.025037238374352455
-0.04404133930802345
0.0023068017326295376
0.009629196487367153
0.01659046672284603
0.03764966502785683
-0.014805781655013561
-0.02383051998913288
-0.07395227998495102
-0.02939428575336933
-0.0064133345149457455
-0.010074370540678501
0.00590130127966404
-0.000230835605179891
-0.0020467001013457775
0.031638409942388535
0.0291257593780756
-0.03466266021132469
-0.0008790999418124557
0.001363351009786129
-0.01682603918015957
0.004285784903913736
-0.04506818205118179
-0.0032339536119252443
0.0003546366933733225
0.0030307695269584656
0.0023555324878543615
-0.004521078895777464
0.008767703548073769
-0.026583749800920486
-0.03088999353349209
-0.014881317503750324
-0.005919998046010733
0.004265687894076109
0.005319987889379263
0.007569949608296156
-0.00030091337976045907
0.0019215750508010387
-0.011019214056432247
-0.016499368473887444
-0.020036693662405014
-0.021061252802610397
-0.060249727219343185
0.059761498123407364
-0.04462527483701706
-0.06866399943828583
0.07865427434444427
0.05124663934111595
0.014812461100518703
0.021401887759566307
-0.003178147366270423
0.0439692847430706
0.013679204508662224
0.03433840349316597
0.07081002742052078
-0.02693447843194008
-0.0012043972965329885
0.025800012052059174
0.009049076586961746
0.03656788542866707
0.07588762789964676
0.0702393651008606
0.024849189445376396
-0.004586122930049896
0.030520925298333168
-0.03409416973590851
-0.08183478564023972
-0.04950353875756264
0.017875313758850098
-0.009607749991118908
0.04029221460223198
-0.011857571080327034
0.011448218487203121
0.020644214004278183
-0.020512675866484642
0.03163435682654381
-0.017503974959254265
0.0010037206811830401
-0.004048922099173069
0.036149557679891586
-0.00949180033057928
-0.029658686369657516
0.025224534794688225
-0.029539678245782852
-0.04806866869330406
-0.023138830438256264
0.03836783766746521
-0.05872134491801262
-0.009078972041606903
-0.020993944257497787
-0.28438735008239746
0.058102160692214966
-0.06426660716533661
-0.04793015122413635
0.007246764842420816
0.02230614423751831
-0.004991569556295872
0.06315698474645615
0.003846876323223114
0.01309500727802515
0.015912242233753204
0.0043923575431108475
0.012655924074351788
-0.007142208516597748
0.021992838010191917
0.03410842642188072
0.09510263055562973
-0.08455640822649002
-0.21294832229614258
-0.012500827200710773
0.00013091664004605263
-0.024990586563944817
0.07510963827371597
0.003581540659070015
0.03220931813120842
0.04016449302434921
-0.03340807929635048
-0.029754571616649628
0.02766120247542858
-0.038922909647226334
-0.021309448406100273
-0.0028536287136375904
0.0587933212518692
0.03002885729074478
0.0618780180811882
6.142848724266514e-05
-0.08619297295808792
0.042595408856868744
0.015356624498963356
-0.028620602563023567
-0.011366159655153751
0.005579124204814434
0.04623841121792793
-0.011773773469030857
-0.005697000306099653
-0.03856073319911957
-0.01956218108534813
-0.027652926743030548
-0.019667452201247215
-0.03320532664656639
-0.019554393365979195
-0.1871815323829651
-0.002288494724780321
0.04710198938846588
-0.3661268353462219
0.15689776837825775
0.06852260231971741
-0.08054479211568832
0.01967678591609001
-0.026966940611600876
-0.057118382304906845
0.031055325642228127
-0.06426241248846054
-0.13084745407104492
0.029719052836298943
0.005789484828710556
-0.021954255178570747
0.049410298466682434
-0.0009797326056286693
0.030411671847105026
0.03596426174044609
-0.03342544659972191
-0.028736675158143044
-0.0035960387904196978
-0.029946722090244293
0.009854712523519993
-0.0014285384677350521
-0.012165381573140621
0.007757313083857298
0.0032251751981675625
-0.006599652115255594
-0.010856101289391518
0.036330971866846085
-0.01146765798330307
-0.020545367151498795
-0.012096868827939034
0.014872115105390549
0.03246079385280609
0.003027603728696704
0.01244859118014574
0.016036834567785263
0.012014196254312992
0.00824896339327097
0.016748642548918724
-0.0024742523673921824
0.034651000052690506
0.005188112147152424
0.005499572027474642
-0.0053415196016430855
-0.0030832814518362284
-0.008914483711123466
0.007536332588642836
0.008013585582375526
-0.029268966987729073
4.706812717358844e-09
3.611766219435708e-09
1.854100428744232e-09
-1.8598124429392016e-10
-1.3989666092228958e-09
-2.274384680589492e-09
2.9477817964362885e-09
-4.504243644731787e-09
9.207665740973425e-10
0.017938682809472084
0.050160203129053116
0.026084477081894875
0.01557924970984459
-0.016812095418572426
-0.01255635917186737
0.0123443016782403
-0.009080846793949604
-0.041240740567445755
2.0772810138680597e-09
-1.5555595700433855e-09
-2.3361630407947587e-09
-6.643870453792999e-10
-7.266246632164908e-11
3.8640091126751486e-09
-1.679478084382069e-10
-4.950893028876635e-10
5.967450089627846e-09
-0.06004513427615166
-0.023582404479384422
-0.04399019107222557
-0.044452324509620667
-0.13012491166591644
0.10885254293680191
0.00781088275834918
0.008673579432070255
0.07202348113059998
-0.001097490661777556
-0.025661515071988106
0.029745932668447495
-0.03450438007712364
-0.07659036666154861
0.03912398964166641
-0.07191849499940872
-0.026898806914687157
-0.02598312497138977
0.01450518798083067
0.027326717972755432
0.018954332917928696
0.017710477113723755
0.034134794026613235
-0.028280237689614296
-0.019923273473978043
-0.0025280502159148455
-0.05093979835510254
-0.024607190862298012
0.02177578955888748
-0.019706791266798973
-0.21854476630687714
-0.327879399061203
0.035091545432806015
-0.01847493089735508
0.007393517531454563
0.000945562613196671
0.039840880781412125
-0.03876253962516785
0.06583902984857559
0.021001815795898438
-0.07408398389816284
0.15079355239868164
0.017981475219130516
-0.0554974228143692
-0.03013070672750473
0.02659393660724163
0.020771272480487823
0.029938042163848877
0.014477251097559929
0.010192761197686195
-0.0036079345736652613
-0.022213466465473175
0.012077776715159416
-0.07276520878076553
0.037147924304008484
0.0368683896958828
0.013664385303854942
-0.01997413858771324
-0.041248004883527756
-0.0021461243741214275
0.05601109191775322
0.07535245269536972
0.05192132294178009
0.04500333219766617
0.017361290752887726
0.07018866389989853
0.027413267642259598
-0.0731496810913086
-0.008218339644372463
0.010325741954147816
-0.00486541073769331
0.003983646631240845
0.06260658800601959
-0.07123803347349167
0.09710319340229034
0.09394560754299164
-0.06894006580114365
0.0835021436214447
-0.016494588926434517
0.023987965658307076
-0.006542321294546127
-6.734765634064388e-09
9.842717751951113e-10
-3.451516406016708e-09
-1.973598839910551e-09
-4.6291450672697465e-09
-3.000119264129353e-09
4.184730784118074e-09
-5.8329518992650264e-09
1.7709185897232804e-12
-0.01238961797207594
-0.001138203078880906
0.00823351088911295
0.0008145536412484944
-0.17911101877689362
0.07921867817640305
0.006250213831663132
0.016613930463790894
0.04914000630378723
0.03522152826189995
0.032234590500593185
-0.034016869962215424
0.03250402957201004
-0.025325985625386238
0.06116965413093567
-0.01642788201570511
0.017890866845846176
0.04680847004055977
0.00040988161345012486
0.010959277860820293
0.019799215719103813
0.017533011734485626
-0.1023554801940918
0.05470085144042969
0.0816207155585289
0.041304923593997955
0.0735185518860817
0.06323602050542831
0.010453233495354652
0.0074837543070316315
0.0014864072436466813
-0.06771474331617355
0.042826831340789795
0.0005943533615209162
-0.05180967599153519
-0.028988856822252274
-0.00036822492256760597
-0.004930728115141392
-0.008208849467337132
0.060041479766368866
-0.0923473909497261
0.09122303128242493
0.0344248041510582
0.04850858449935913
0.07584798336029053
0.0143765052780509
0.016196291893720627
0.011969706043601036
-0.0012717775534838438
-0.005867245141416788
-0.004938072059303522
0.0017052884213626385
0.009361600503325462
-0.00487951934337616
0.036292191594839096
0.05058971419930458
0.08123324811458588
-0.01364796981215477
0.054955191910266876
0.013866852968931198
-0.02723773568868637
0.036120280623435974
-0.06873992085456848
0.05710744485259056
-0.012841454707086086
-0.04737696424126625
-0.05280841141939163
-0.06776917725801468
-0.044293977320194244
0.014351910911500454
0.00124291458632797
-0.007522296160459518
-0.035541802644729614
-0.024079063907265663
0.029727280139923096
-0.11087092012166977
-0.044284526258707047
0.0708613470196724
-0.016008934006094933
-0.0333760641515255
-0.036150671541690826
0.003724948735907674
-0.00014386083057615906
0.041789982467889786
-0.03771018609404564
-0.06545382738113403
-0.004804908763617277
-0.005445354152470827
0.04470488429069519
0.05051273852586746
0.0015972390538081527
0.03845888003706932
-0.017427869141101837
0.006692387629300356
0.03696322441101074
-0.055835872888565063
-0.031283847987651825
-0.0036684132646769285
-0.01973189041018486
0.10656136274337769
0.03703226149082184
0.08912590891122818
-0.045025959610939026
-0.22462302446365356
0.10023288428783417
0.05125226825475693
0.029737165197730064
0.020456276834011078
0.050671204924583435
0.07658690214157104
0.048660799860954285
0.029935212805867195
0.0034148860722780228
-0.02092311531305313
0.004512463230639696
-0.0277403574436903
-0.06259433925151825
0.00395536981523037
0.019455892965197563
0.006764707155525684
-0.0015812163474038243
-0.00758075388148427
-0.014769744127988815
-0.01580810546875
0.000877857964951545
-0.0022456608712673187
0.013010665774345398
0.02143108658492565
0.0667511597275734
0.0036839826498180628
-0.22339238226413727
0.0591483935713768
-0.0030592496041208506
0.02559470571577549
0.011347043327987194
-0.055691514164209366
-0.008639792911708355
-0.0096484599635005
-0.048409514129161835
0.0009979762835428119
0.03671533986926079
-0.019433481618762016
0.012064656242728233
0.02279532514512539
-0.00935538113117218
-0.012241500429809093
0.026757873594760895
0.009302128106355667
0.027002092450857162
0.023325959220528603
-0.021563582122325897
0.014419379644095898
0.023137489333748817
1.1052083692675296e-08
3.363052414329104e-08
5.11934175051465e-08
-6.658732232267539e-09
3.424018402142792e-08
6.18313151790062e-08
-1.259969018008178e-08
-6.957734388635117e-09
-4.167115097430951e-09
0.03142378479242325
0.022877346724271774
0.016247816383838654
0.034559596329927444
0.009709933772683144
-0.004341731313616037
0.01133717130869627
-0.03396831452846527
-0.02751019224524498
-9.9027341882163e-10
2.557224709764938e-10
-2.128141218804558e-09
-1.3553801414545319e-09
-3.727734121383719e-09
-2.8799824747238745e-09
-9.196228223373737e-10
-4.947449561143458e-09
2.101111284957824e-09
-0.007912594825029373
-0.04493526369333267
-0.00662816409021616
-0.007336994633078575
-0.11121305823326111
-0.019505012780427933
0.023115014657378197
0.0027953796088695526
0.026140041649341583
-0.012579851783812046
0.0259714312851429
0.010624167509377003
-0.005231957882642746
-0.013606344349682331
-0.017248328775167465
0.0044732107780873775
-0.01348002627491951
0.010430751368403435
-9.983708082472731e-09
1.3396637577045567e-08
2.8389850470489364e-08
-1.3944428722822977e-08
9.409675705285281e-09
3.186015717915325e-08
-4.955269972128917e-09
5.660880209035213e-09
1.659795145769749e-08
0.04003783315420151
-0.14809179306030273
0.03311498835682869
0.03342323377728462
-0.23780283331871033
0.020902739837765694
0.014326892793178558
-0.09882790595293045
-0.0028752819634974003
1.6386195511586266e-07
4.2645308440114604e-07
5.99280099322641e-07
-4.666486930204883e-08
3.2199631050389144e-07
6.542596224790032e-07
-1.1738777061509609e-07
1.729364953462209e-07
5.199967745284084e-07
-0.0028123522642999887
0.026960020884871483
0.023995252326130867
-0.003870223881676793
0.06097845360636711
0.07949461787939072
-0.024033715948462486
-0.00964412372559309
0.006528724916279316
0.0001480138162150979
-0.050776999443769455
0.003426506882533431
-0.12593890726566315
-0.08483928442001343
0.009205492213368416
0.014329181052744389
0.01526276022195816
0.03834127262234688
-0.03395729139447212
0.003986786585301161
0.02337101474404335
0.005968737881630659
0.03454999253153801
0.03218727931380272
-0.010943104512989521
-0.014702143147587776
0.01014154776930809
1.157601516865725e-07
1.150960883933294e-06
2.0591612610587617e-06
-7.700429023316246e-07
1.2290680615478777e-06
2.7606947696767747e-06
-1.5326829725381685e-06
2.0700927905181743e-07
2.038881348198629e-06
-0.006072757299989462
-0.09946706891059875
-0.031346824020147324
0.004456124268472195
-0.08120471984148026
-0.04961242899298668
0.06791017949581146
0.1057872548699379
0.008634081110358238
-0.024090323597192764
0.008500836789608002
-0.020749086514115334
-0.014603547751903534
-0.020754871889948845
0.021424967795610428
0.03812196105718613
0.0035437021870166063
0.027733081951737404
0.009330147877335548
0.00725241843611002
0.030379293486475945
-0.011930855922400951
-0.021151313558220863
0.03608915954828262
-0.039355210959911346
-0.021060248836874962
0.036859750747680664
-0.015589355491101742
0.004429762717336416
0.007027438376098871
-0.012012721039354801
0.025035496801137924
0.034133944660425186
-0.02794390358030796
-0.0005005269777029753
0.021653981879353523
0.00041008845437318087
0.010652804747223854
0.008541210554540157
-0.01374070718884468
0.032766323536634445
0.03372717276215553
-0.04548066109418869
-0.007338998839259148
0.004972850903868675
0.010563977994024754
-0.03013644367456436
0.04168045520782471
0.10617727786302567
-0.018962237983942032
0.01797064207494259
0.03542696312069893
-0.03757402300834656
0.008694120682775974
-0.03855821490287781
-0.2172871232032776
0.07989585399627686
-0.060636259615421295
-0.3063327670097351
-0.028249623253941536
0.02450641430914402
-0.08463224768638611
0.024513356387615204
-0.015513277612626553
-0.0100786704570055
0.034497130662202835
-0.04530506953597069
-0.0072559816762804985
0.08479196578264236
-0.04407723993062973
-0.020550109446048737
0.060474906116724014
0.07005187124013901
-0.04173044115304947
0.006590544246137142
0.03597911447286606
-0.2743290364742279
-0.11293428391218185
0.05845554545521736
-0.16535283625125885
-0.024819040670990944
0.004696954507380724
0.0006755832582712173
0.01576734147965908
0.02688833698630333
-0.01825760491192341
0.023022592067718506
0.004241485148668289
-0.01088336855173111
0.007717400789260864
-0.021033838391304016
-0.02288329042494297
-0.02215733379125595
0.024969248101115227
-0.0684630498290062
-0.014544818550348282
-0.023697204887866974
-0.008110331371426582
0.016834503039717674
-0.048745814710855484
-0.17792287468910217
-0.010000325739383698
-0.00950128398835659
-0.35000333189964294
0.042546506971120834
0.05267992243170738
-0.0568673349916935
0.08602069318294525
-0.0027226940728724003
0.047019463032484055
0.027258550748229027
0.022846005856990814
0.0426616407930851
0.09130512923002243
0.0004428847460076213
0.002270032884553075
-0.028971217572689056
-0.007567184045910835
0.020097797736525536
-0.007180175743997097
-0.029279686510562897
-0.01607406698167324
-0.005611631087958813
-0.0012630934361368418
0.017144910991191864
0.006687463726848364
0.014687455259263515
0.0277272816747427
0.03677031397819519
-0.0020969933830201626
-0.033526983112096786
-0.00020619688439182937
0.01209376659244299
-0.0037456643767654896
0.015041655860841274
-0.026248961687088013
-0.014492359012365341
0.03869304805994034
-0.002362793544307351
-0.024804972112178802
0.00039414031198248267
-0.002065868815407157
0.013121143914759159
0.031750455498695374
-0.029522238299250603
0.01191029790788889
0.05255158618092537
0.03187274560332298
0.08614137023687363
0.11223321408033371
-0.04793696850538254
-0.008338266052305698
0.021257132291793823
-0.005875097122043371
-0.015997854992747307
-0.00037276410148479044
-0.037287112325429916
-0.01878705993294716
0.021443737670779228
-0.00035269002546556294
0.002375839976593852
0.01656227558851242
0.007554993033409119
0.0197915006428957
0.026620015501976013
-0.009633071720600128
-0.0029193053487688303
0.02157573029398918
0.006699764635413885
0.005683738272637129
0.007182836066931486
0.007419881876558065
-0.0020390166901052
-0.025863077491521835
-0.004841005429625511
-0.00039087465847842395
0.014512571506202221
-0.027390966191887856
0.0025561426300555468
0.00890127569437027
-0.006489658262580633
0.009584992192685604
0.006601227447390556
-0.02749432437121868
0.012707875110208988
0.03506254777312279
-0.033746398985385895
-0.015187130309641361
0.025241481140255928
-0.0033618242014199495
-0.003537252312526107
0.024450179189443588
0.0006966402870602906
-0.011938577517867088
0.014733780175447464
0.006108563393354416
-0.011661955155432224
0.029292576014995575
-5.385297985327497e-09
-4.672686890194733e-11
1.1784056397345921e-08
-5.7395355135270165e-09
5.4891717837790566e-09
1.564826845878997e-08
-7.15622761049417e-09
7.382197964034276e-09
6.6601968384816246e-09
0.0229969322681427
0.027979103848338127
0.043727755546569824
-0.01271100901067257
-0.009219573810696602
0.02709033153951168
-0.02828652411699295
-0.02541053295135498
0.019985340535640717
-1.0900171876215836e-09
-2.6818538501061084e-09
1.1577251157746105e-08
-2.773358431795714e-09
4.935914343917602e-09
2.5579391937924356e-09
-4.006857956539989e-09
-6.7534324799112255e-09
6.32949159751206e-09
-0.08617638051509857
-0.03229368478059769
0.0413920059800148
-0.1400422304868698
-0.09406992793083191
0.07620900124311447
0.02893843501806259
0.02080615982413292
0.04618406668305397
-0.01615789160132408
-0.018185971304774284
-0.021651165559887886
0.014014575630426407
-0.09256333112716675
-0.040866296738386154
-0.002258170396089554
0.0011986751342192292
0.008557247929275036
0.055785518139600754
-0.040616724640131
0.007010198663920164
-0.0834815502166748
-0.25013139843940735
-0.08967851102352142
0.03574782609939575
0.02844577096402645
0.008486449718475342
-0.023141955956816673
0.015039547346532345
0.04369077458977699
-0.02004060335457325
0.020432982593774796
0.09397121518850327
-0.020207321271300316
-0.015402059070765972
0.009001072496175766
0.02368481084704399
0.027700070291757584
-0.037042826414108276
0.10126800090074539
-0.13749396800994873
-0.09284905344247818
-0.03852144256234169
-0.008036565966904163
0.08937763422727585
0.05768587440252304
-0.020486697554588318
-0.024034827947616577
-0.11183248460292816
-0.33486881852149963
-0.11430386453866959
-0.0017154015367850661
-0.009947631508111954
0.022008828818798065
0.0670963004231453
0.027272893115878105
0.03917542099952698
0.03508253023028374
-0.041423872113227844
-0.000834912178106606
0.020783115178346634
-0.053845226764678955
-0.026107722893357277
-0.008464998565614223
-0.007544200401753187
0.033394958823919296
-0.029199881479144096
-0.0333525575697422
0.04921671003103256
-0.025070711970329285
0.0024870478082448244
0.027508173137903214
0.03822614252567291
-0.09570419043302536
-0.08708647638559341
0.011514474637806416
-0.13514344394207
0.023396430537104607
-0.03709462285041809
0.03904978185892105
-0.001213480019941926
-3.790873837061781e-09
1.96664085017062e-09
6.157726772926253e-09
6.876377245390586e-09
8.275796936629831e-09
6.754355741378504e-09
-2.300880153072171e-09
1.0836580521811356e-09
1.4739840459299103e-09
-0.04447794705629349
-0.002897990169003606
0.055055033415555954
-0.05332474410533905
-0.20755185186862946
0.09532612562179565
0.035450149327516556
0.029303347691893578
0.017915446311235428
0.011420796625316143
-0.07501634210348129
-0.01872813142836094
0.04333043098449707
-0.04745256528258324
-0.05138947069644928
-0.00424646632745862
0.05778028815984726
-0.017517047002911568
-0.0034818428102880716
-0.012049876153469086
0.09981557726860046
-0.023580778390169144
-0.15803219377994537
0.018275177106261253
0.03168250620365143
0.026797037571668625
0.008018353953957558
0.03073013201355934
0.018793953582644463
-0.002168024890124798
-0.008960043080151081
-0.016662701964378357
0.00038653178489767015
-0.01250949501991272
0.0042547015473246574
0.0015700397780165076
-0.0991259440779686
-0.07103705406188965
0.01568962261080742
-0.06236187368631363
-0.10301192104816437
0.008085384964942932
0.03473997861146927
0.05111195519566536
0.03922884538769722
-0.01124514825642109
-0.004279730841517448
-0.0014348936965689063
0.013289639726281166
-0.0007730750367045403
-0.004668471869081259
0.014041866175830364
-0.010977368801832199
0.0034251001197844744
0.004071298986673355
-0.071661576628685
-0.0010417632292956114
-0.02963710017502308
-0.18573296070098877
-0.015992499887943268
-0.0039664930664002895
-0.0005128534394316375
0.005630417261272669
-0.08345755189657211
-0.04745097458362579
0.01741153560578823
-0.16530261933803558
-0.12243159115314484
0.09885557740926743
-0.011036244221031666
-0.07641487568616867
0.04832873493432999
-0.01819482445716858
-0.001827082596719265
0.007015082985162735
0.010247185826301575
0.01979268155992031
0.02846050262451172
-0.0568871907889843
-0.004724695812910795
0.04648510366678238
-0.019517282024025917
0.004448793828487396
0.01014578714966774
-0.0036057287361472845
0.027273183688521385
-0.007366891950368881
0.005490298382937908
-0.005625725258141756
-0.020244905725121498
-0.04905623570084572
-0.10615523159503937
-0.05366852879524231
-0.015076301991939545
-0.22147144377231598
-0.015001149848103523
0.027269810438156128
-0.03474615514278412
-0.012522811070084572
0.06227211654186249
0.018810581415891647
-0.014862360432744026
0.08701110631227493
0.005917237140238285
-0.03801491856575012
-0.006937975063920021
-0.005568843800574541
0.06299351900815964
0.004942845553159714
0.02915109321475029
0.06173362582921982
-0.04058585688471794
0.018528634682297707
0.08727336674928665
-0.04316125810146332
0.0193789079785347
0.07846114784479141
-0.011577552184462547
-0.022024258971214294
0.012925248593091965
-0.007913686335086823
-0.016640497371554375
-0.002735808724537492
0.013896833173930645
-0.0010545209515839815
-0.02159634791314602
0.05641848221421242
-0.007795464247465134
-0.038739584386348724
0.11363865435123444
-0.010340276174247265
-0.031421877443790436
-0.005845685955137014
-0.02622649259865284
-0.00754123367369175
0.015908127650618553
0.02199128083884716
0.005455420818179846
0.14719456434249878
-0.03300819918513298
0.011834215372800827
0.06579410284757614
-0.013608857989311218
0.033849943429231644
0.015712618827819824
0.025407176464796066
0.035192422568798065
0.1335800737142563
0.005337115377187729
-0.0038386185187846422
0.09250078350305557
0.008075921796262264
-0.0066956267692148685
-1.345989542045345e-08
-3.5478930016097365e-08
-1.8434029414038378e-08
1.3318799396699887e-09
-4.25185078256618e-08
-1.3939647658389731e-08
-4.263085440214809e-09
-4.0571205062178706e-08
-1.8530320389231747e-08
0.010481101460754871
0.013243337161839008
0.004976073745638132
-0.01245369017124176
-0.024616174399852753
-0.00442082155495882
-0.0008178008138202131
-0.019010839983820915
0.01100214384496212
1.809399186036842e-09
-2.1296790997382686e-09
-4.832476641070116e-09
7.893484754717406e-10
-2.3594735054643934e-09
-2.586301450779871e-10
-5.621045406911662e-09
-4.069928394301314e-09
-3.731394748740513e-09
0.011676535941660404
0.05354528874158859
0.028651434928178787
-0.013969816267490387
-0.07993721216917038
-0.013372562825679779
-0.0013124713441357017
-0.047795794904232025
-0.0168957207351923
-0.00867458712309599
-0.00394825404509902
-0.011274213902652264
0.02008116990327835
0.008597077801823616
0.04538695886731148
-0.029931744560599327
-0.016919557005167007
0.020400531589984894
-1.0240446712828088e-08
-1.1197022198317086e-09
-4.583681434411346e-09
1.9938892759086002e-09
-7.23430293447791e-09
-1.1137545108397262e-08
4.957899091273532e-10
1.3279867205895357e-09
2.3497082057843954e-10
-0.0006910685915499926
0.05686809867620468
0.01815023273229599
0.06542312353849411
-0.0723920539021492
-0.04236163571476936
0.049294885247945786
-0.03235883265733719
-0.018387604504823685
1.444377488724058e-07
1.5959303212298437e-08
2.105162622001444e-08
1.5696873845172377e-07
-6.132300711669814e-08
-8.169578080696738e-08
3.126815499854274e-07
8.776487447903492e-08
8.28299064892235e-08
-0.020075205713510513
0.021797478199005127
0.005548387765884399
0.09567873179912567
0.01841249130666256
-0.009577563963830471
-0.022431092336773872
0.025204738602042198
0.04820852726697922
-0.008565574884414673
-0.030842477455735207
-0.031188983470201492
0.042868394404649734
-0.12586814165115356
-0.08805423974990845
-0.001872092834673822
-0.11814670264720917
-0.06543581187725067
0.012819546274840832
-0.026813384145498276
-0.0014368857955560088
0.03154578432440758
-0.0024749264121055603
0.0073637086898088455
-0.0016832123510539532
0.00732284365221858
0.009968324564397335
2.2840210078811651e-07
-3.27282975831622e-07
-3.291090706625255e-07
4.019428274659731e-07
-2.4597903802714427e-07
-3.54600643959202e-07
3.6959409044357017e-07
-2.2365602703189325e-08
-4.140423470744281e-07
-0.027412839233875275
0.0315622016787529
0.020937643945217133
-0.041293371468782425
-0.00013446324737742543
0.011292320676147938
-0.04738983139395714
-0.01897840015590191
0.0012976016150787473
0.0245618037879467
-0.01535237580537796
0.006830084603279829
0.10658440738916397
-0.07830888032913208
-0.00688800448551774
0.02185879647731781
-0.0777805894613266
-0.03282685577869415
-0.03489597886800766
0.002759469673037529
0.006885792128741741
-0.0017953951610252261
0.0036121876910328865
0.038629453629255295
0.00013998638314660639
-0.0006011071382090449
0.011278225108981133
0.011388038285076618
0.009824971668422222
0.02901926450431347
0.0185482706874609
0.0072457813657820225
0.02188466303050518
0.015721183270215988
0.008101197890937328
0.010931270197033882
0.02065099962055683
0.014874747022986412
0.0275716669857502
0.003711496014147997
-0.007852355018258095
0.017743373289704323
0.010118900798261166
0.02153078280389309
0.022128501906991005
0.004335425794124603
-0.04057673364877701
-0.01833493262529373
-0.03163597360253334
-0.02543448843061924
0.03705718740820885
-0.009869520552456379
0.05668479576706886
0.04701432213187218
-0.0013893594732508063
0.04397888481616974
0.0363704115152359
0.03614520654082298
0.04704776778817177
0.0581829734146595
0.054466694593429565
0.03412333503365517
0.01044023409485817
-0.08660190552473068
-0.03747571259737015
-0.004842511378228664
-0.033430349081754684
-0.03406013175845146
-0.0034904738422483206
-0.03955746814608574
-0.04083781689405441
-0.04804473742842674
-0.04078114405274391
0.03301849588751793
0.055655982345342636
0.009522641077637672
0.009235960431396961
0.11441648751497269
0.002187805948778987
-0.013982061296701431
0.08705029636621475
0.015804441645741463
0.007203999441117048
-0.020510423928499222
0.011047065258026123
0.05011870712041855
0.06807972490787506
-0.07675427943468094
0.041145987808704376
0.07052917778491974
-0.031838104128837585
0.024420004338026047
-0.012749982066452503
0.005101085174828768
0.03758051618933678
0.01899302750825882
-0.006547712720930576
0.03889976441860199
0.039711929857730865
-0.013171416707336903
0.07059904932975769
0.02276667393743992
-0.019419806078076363
-0.03978497162461281
-0.0007780846790410578
-0.020084768533706665
0.03412995859980583
0.010926413349807262
-0.03773252293467522
-0.07568330317735672
-0.06223566085100174
0.06278419494628906
0.0009514557896181941
-0.016952889040112495
-0.015897927805781364
-0.017639951780438423
-0.005916060414165258
-0.005765922833234072
0.0026443873066455126
0.022397397086024284
0.015326818451285362
-0.009788700379431248
0.029181981459259987
0.008702355436980724
-0.0030956296250224113
0.0022425628267228603
-0.043587636202573776
-0.005765220616012812
0.011930329725146294
0.009683335199952126
-0.033449213951826096
0.03319195285439491
0.009454353712499142
-0.004207583609968424
0.05218542739748955
0.01574653387069702
-0.013538173399865627
-0.0033900283742696047
0.046646833419799805
-0.00908088218420744
-0.002168329432606697
-0.016118474304676056
-0.05407348647713661
-0.01809721253812313
0.037371620535850525
0.06498929858207703
0.06331513822078705
0.06870114803314209
0.036264851689338684
-0.043047841638326645
0.00010803995974129066
0.07916320115327835
-0.006965319626033306
0.009507295675575733
0.008464834652841091
-0.04065706953406334
0.06396833062171936
0.007808436639606953
-0.011346735060214996
-0.006023702677339315
-0.0511193685233593
-0.03398561477661133
-0.03214632719755173
-0.015160792507231236
0.013384147547185421
-0.020988289266824722
-0.04424002021551132
0.03150615096092224
0.002327253809198737
0.014102460816502571
0.051330238580703735
-0.018392890691757202
0.009664840064942837
0.013251394033432007
0.002814199309796095
-0.006011927966028452
0.01883235201239586
-0.005152462981641293
-0.008766371756792068
0.02084513194859028
0.042527936398983
0.02990049682557583
0.04535873234272003
0.02167392335832119
-0.01085373479872942
0.02396191470324993
0.021090008318424225
0.016827121376991272
0.02828284353017807
0.011304514482617378
0.005914426874369383
0.02444613352417946
0.01516602374613285
-0.01673368737101555
0.035120733082294464
0.03012971207499504
-0.02098987065255642
0.029494959861040115
-1.0262977134800622e-09
-1.0982543763304875e-09
4.5214920696423633e-10
-6.219267767448855e-09
-3.533633829988503e-09
4.072171932989477e-09
3.4547147365060482e-09
2.4446464852445615e-09
1.989968412274834e-09
-0.043508902192115784
0.00421843770891428
0.028563769534230232
-0.004047669470310211
-0.011022974736988544
0.025019630789756775
0.00330023979768157
-0.006449741777032614
-0.0011259430320933461
4.985307722193966e-09
-7.568061732854403e-09
-2.1935331329103747e-09
-3.3408398270040607e-09
-8.394655637289361e-09
-3.85642273670328e-09
-9.96105420369986e-10
-1.1921668097159e-09
-4.348610360693783e-09
0.004826349671930075
0.018334120512008667
0.028627587482333183
0.04218250513076782
-0.2794789969921112
-0.17050224542617798
0.0530279241502285
-0.12694525718688965
-0.10437417775392532
-0.003981742542237043
-0.0062856473959982395
0.0047897775657474995
-0.03857291117310524
-0.042800724506378174
-2.543003392929677e-05
-0.0034721135161817074
-0.005011908710002899
0.03941284492611885
0.007485328242182732
0.06354862451553345
0.048734262585639954
0.06523775309324265
-0.0052860151045024395
0.03580249845981598
0.03656885772943497
-0.07888909429311752
0.025551123544573784
0.01466261688619852
0.010121715255081654
0.053495120257139206
0.11427829414606094
-0.03457837551832199
0.0005627266364172101
0.08373802155256271
-0.023718535900115967
0.030067991465330124
-0.04845726862549782
-0.02422797866165638
-0.02927730791270733
-0.0207960307598114
-0.09951856732368469
-0.018857894465327263
0.014661701396107674
-0.04500364139676094
-0.021217787638306618
0.01647617295384407
0.046515196561813354
-0.012636838480830193
0.030668385326862335
0.02885550633072853
0.072564996778965
0.036154355853796005
-0.004890946205705404
0.0385282002389431
-0.001280657248571515
0.010337701998651028
0.04936392232775688
0.005063596181571484
-0.06314872205257416
0.043571557849645615
0.03029676340520382
-0.024827033281326294
0.05906020104885101
-0.029743218794465065
-0.010706369765102863
-0.00699801417067647
0.00017754598229657859
0.00622445996850729
-0.014020671136677265
-0.03131820634007454
0.019083188846707344
0.011712338775396347
0.02680974267423153
0.009467026218771935
-0.03195494785904884
-0.04030762240290642
-0.018135201185941696
-0.029272912070155144
-0.016687307506799698
0.009460282512009144
-0.01355693954974413
4.425077249070597e-10
-1.1842786751259382e-09
-4.848494050690988e-09
-3.169979168049508e-09
-4.626624861003847e-09
-5.06760500229575e-09
-6.042641387260517e-10
-4.736696368468074e-09
-3.718205965341781e-09
-0.009872201830148697
0.007708346471190453
0.02781916968524456
0.01817612536251545
-0.29681918025016785
-0.22877611219882965
0.02158574014902115
-0.1638038456439972
-0.1083938404917717
-0.01025880966335535
-0.02094295434653759
0.009307101368904114
-0.034716445952653885
-0.2512166202068329
-0.3015371263027191
-0.008381631225347519
-0.09693340957164764
-0.14794720709323883
0.045960571616888046
0.044046685099601746
0.11452818661928177
0.05724180489778519
-0.3151043653488159
-0.14399655163288116
0.0734589472413063
-0.08847280591726303
-0.017824040725827217
-0.009264425374567509
0.029516879469156265
0.021977722644805908
-0.003576680552214384
-0.04418059065937996
-0.006628922652453184
-0.009522270411252975
-0.05141633749008179
-0.0014917370863258839
0.05990821495652199
0.05286918953061104
0.047154977917671204
0.12531697750091553
-0.32764196395874023
-0.2825433611869812
0.1003994420170784
-0.07406620681285858
-0.10826495289802551
-0.0010915400926023722
-0.010712034069001675
-0.010993256233632565
-0.02780901826918125
-0.015494860708713531
-0.005809292662888765
-0.021729635074734688
0.012068183161318302
0.026146352291107178
0.003338240087032318
0.05723259598016739
0.028826389461755753
0.011741328984498978
0.02921381965279579
0.02730606310069561
0.00042167503852397203
0.038815032690763474
0.024857720360159874
0.07116462290287018
0.06226322427392006
-0.005299656186252832
0.16333512961864471
-0.05252731963992119
0.003382038325071335
0.09256316721439362
-0.07431027293205261
0.015759749338030815
0.006251602433621883
-0.03425450250506401
-0.021156011149287224
0.042218636721372604
-0.04430193454027176
-0.02102884091436863
0.028767086565494537
-0.050399299710989
-0.07521898299455643
0.03523297980427742
-0.016426917165517807
0.01170601136982441
0.019678907468914986
-0.049565136432647705
-0.05512130260467529
0.008352699689567089
-0.006464104633778334
0.014944118447601795
-0.002231414895504713
0.06323270499706268
0.01274036057293415
0.09804084151983261
-0.10696181654930115
6.950942770345137e-05
0.11050467193126678
-0.020384887233376503
0.044674668461084366
-0.06077994033694267
-0.06221204623579979
-0.03218427672982216
-0.04980779066681862
-0.06431661546230316
-0.008964668959379196
-0.002873341552913189
0.011434205807745457
0.016506532207131386
-0.0494864396750927
-0.011697755195200443
0.0017628015484660864
-0.024156630039215088
-0.0016374989645555615
0.034075777977705
-0.03834391385316849
-0.010962714441120625
0.017886092886328697
0.048839107155799866
0.01828070357441902
0.04045120254158974
0.010936848819255829
-0.03893984481692314
-0.019203266128897667
0.016552813351154327
-0.049942001700401306
-0.028705868870019913
-0.012647200375795364
-0.004297593142837286
-0.018634134903550148
0.0011946955928578973
0.02821763977408409
0.0013088756240904331
0.01466272585093975
0.048736922442913055
0.03223152086138725
0.001360184047371149
0.08318784832954407
-0.004671541042625904
-0.014547810889780521
-0.18551494181156158
0.12718236446380615
0.03593523055315018
-0.06445799767971039
-0.009875306859612465
-0.045995716005563736
-0.08689787238836288
-0.1109800711274147
-0.004160751588642597
-0.06478457897901535
0.07087220996618271
-0.006497880909591913
-0.0706641748547554
-0.0026375793386250734
-6.839801613978125e-09
-2.4915181029427913e-08
-2.2695971324537823e-08
-1.4436700723763352e-08
-6.29333030133239e-08
-2.9373017795819578e-08
-1.4543592996574262e-08
-5.3094986185442394e-08
-2.6901826544190044e-08
0.014558943919837475
0.06975436955690384
-0.04357225447893143
0.025618743151426315
-0.0736103504896164
0.006127694621682167
0.02094634436070919
-0.09783007204532623
-0.009409021586179733
3.956233118884711e-09
7.50296891283142e-09
1.2674101768084256e-08
-2.1019417317802436e-09
-7.681725255892502e-10
8.265960360631652e-09
-7.864384143907444e-10
-7.79521158733587e-09
-8.773647586224342e-09
0.013698241673409939
0.03253721073269844
0.0037745556328445673
-0.022282352671027184
0.046917591243982315
-0.0585511289536953
0.011387110687792301
0.03320552781224251
-0.03371520712971687
0.056947261095047
0.2742217183113098
0.07070569694042206
0.03984527662396431
-0.13428561389446259
-0.12041794508695602
-0.002445307094603777
-0.10840859264135361
-0.12012913823127747
1.3925379960255668e-08
2.52130067934786e-08
3.7380104345174914e-08
-1.043811614920287e-08
-2.195892800926913e-09
2.188014214254963e-08
-1.96552996101218e-08
-2.894229922389968e-08
-6.797172602546198e-09
0.029180707409977913
0.0659031942486763
0.02005580998957157
0.061983127146959305
-0.06372116506099701
0.06011857092380524
-0.007263599429279566
0.052624791860580444
-0.004420931451022625
7.94519010582917e-08
1.7113944750235532e-07
2.6092621396855975e-07
-2.65933067566948e-07
-3.035838460618834e-07
-8.067512879961214e-08
-3.0988849175628275e-07
-5.040097335040628e-07
-2.2088912032813823e-07
-0.019693337380886078
0.03704758733510971
-0.024694260209798813
0.047653574496507645
-0.07121483236551285
0.025394877418875694
0.021851200610399246
0.06190275028347969
0.008516727015376091
0.013598800636827946
-0.03786362707614899
0.023503035306930542
0.04313885420560837
-0.03093930333852768
0.11720546334981918
-0.05095252767205238
0.00676447618752718
0.04068891704082489
-0.009094500914216042
0.029137056320905685
0.037201352417469025
-0.011424623429775238
-0.1572163999080658
0.04958130791783333
0.045293547213077545
0.00968314427882433
0.04823372885584831
1.2880454391961393e-07
1.5726868696219753e-06
1.4465929325524485e-06
-9.260202773475612e-07
-3.3891799944285594e-07
-2.2380012865141907e-07
-1.1472469623186043e-06
-1.682920583334635e-06
-1.197924802909256e-06
0.017579857259988785
-0.004787638317793608
0.020783063024282455
0.05722390487790108
0.0013531922595575452
-0.07184499502182007
0.006721236277371645
0.026295095682144165
-0.03318982198834419
0.02896854281425476
-0.02159780077636242
-0.059463806450366974
0.014474001713097095
-0.09580843895673752
0.01673612743616104
0.028263503685593605
-0.04364055022597313
0.021340470761060715
-0.052460700273513794
0.09292839467525482
0.010672950185835361
0.014364272356033325
-0.06285977363586426
-0.06529881060123444
0.0028330928180366755
-0.0669846162199974
-0.02624593675136566
-0.011483128182590008
0.028165606781840324
0.01739864982664585
-0.016418272629380226
-0.032783739268779755
-0.029642146080732346
-0.029251791536808014
-0.06558527797460556
-0.049058105796575546
-0.016758598387241364
0.04516051337122917
-0.016884589567780495
-0.015316881239414215
-0.08505190908908844
0.013827935792505741
0.013035438023507595
-0.0799974575638771
-0.024081367999315262
-0.07783578336238861
0.07927177101373672
0.04741654917597771
0.04213494434952736
-0.07344479858875275
0.04864596202969551
0.05492290109395981
-0.042682163417339325
0.04291152209043503
0.0035619030240923166
0.009076869115233421
0.020085567608475685
-0.030986730009317398
0.03020036593079567
0.059360653162002563
0.008875250816345215
0.021884735673666
0.005389203783124685
-0.0707072913646698
0.031776558607816696
-0.07586904615163803
0.020276475697755814
0.08666563779115677
0.031583886593580246
-0.008413413539528847
-0.05269097536802292
-0.027693619951605797
-0.08816857635974884
-0.004855693783611059
-0.05583461746573448
-0.025289425626397133
-0.010117367841303349
-0.0668625608086586
-0.005987982265651226
0.08002187311649323
-0.054106973111629486
-0.12612038850784302
0.11009644716978073
0.03733636066317558
0.050385572016239166
0.03205081447958946
-0.045678239315748215
0.06860532611608505
-0.035037580877542496
-0.0487716943025589
-0.07858970016241074
0.07342526316642761
0.045989446341991425
0.017641551792621613
-0.07868217676877975
-0.004405380692332983
-0.021254630759358406
-0.07927078753709793
0.040957190096378326
0.02448461204767227
0.02882801741361618
-0.01963788829743862
-0.009000452235341072
0.02366270124912262
-0.02735971473157406
-0.01685168780386448
0.04403664171695709
0.011060698889195919
-0.0016758762067183852
0.04530997946858406
0.033599525690078735
0.008500494994223118
-0.024386290460824966
0.013081759214401245
0.008198742754757404
-0.027018699795007706
-0.02379257045686245
0.08693534880876541
0.17059478163719177
0.06882175803184509
0.0561516247689724
-0.1081673726439476
-0.08835328370332718
-0.021780118346214294
-0.16385270655155182
-0.13243365287780762
0.021385332569479942
0.3735627233982086
0.08236102759838104
-0.0007211935007944703
-0.11775652319192886
-0.13844072818756104
-0.03234652802348137
-0.07215675711631775
-0.0769687369465828
-0.08995371311903
-0.06340713798999786
-0.09350354969501495
-0.03363877534866333
0.025720108300447464
0.05806427448987961
0.050749361515045166
-0.20275411009788513
0.1267717033624649
0.05887403339147568
0.036285992711782455
0.004667355213314295
0.04560589790344238
-0.10378322005271912
0.001464526983909309
0.01062239520251751
0.0684812143445015
-0.014620151370763779
-0.0016251308843493462
0.01872440241277218
-0.019796404987573624
-0.06412559747695923
-0.05405684933066368
0.005346453748643398
-5.042613702244125e-05
-0.07973463088274002
0.04705767333507538
0.05394105240702629
0.170129656791687
0.02187908999621868
0.03789112716913223
-0.12886588275432587
-0.08531224727630615
0.009018437936902046
-0.06360101699829102
-0.08949030935764313
0.1117807924747467
0.20458121597766876
0.0412609837949276
0.0818924531340599
-0.1020931527018547
-0.09691477566957474
0.028130779042840004
-0.08010335266590118
-0.07117179781198502
0.04928255453705788
0.09488414227962494
0.03965037316083908
-0.023272041231393814
-0.11944416165351868
-0.0013320914003998041
-0.022842399775981903
-0.021219691261649132
-0.022378835827112198
0.009016231633722782
0.03400273621082306
0.017799874767661095
-0.029178407043218613
-0.04540669918060303
0.006362426094710827
-0.04083377495408058
-0.026476597413420677
-0.04034243896603584
9.188064531429063e-09
1.277221617357327e-08
1.716724540301584e-08
-1.6437249783507468e-08
3.5695435496307937e-09
3.3764617768383687e-09
-9.337667528086513e-09
-7.5574080327101e-09
-1.523555032134638e-10
-0.027460502460598946
0.08085950464010239
-0.03193080052733421
-0.011521278880536556
0.030071713030338287
-0.051376014947891235
0.0023736676666885614
0.038109708577394485
-0.049897972494363785
-2.7184390849477325e-10
3.6365468414345514e-09
7.010894087500219e-09
-1.997130016917481e-09
1.5051113688713258e-09
1.6675714142877496e-09
-3.345507204599585e-10
1.4509212720170694e-09
-1.3586247682439989e-08
0.018969032913446426
-0.0025779211428016424
-0.07264012098312378
-0.016775334253907204
-0.0923977866768837
0.0889752134680748
0.04319429025053978
-0.005291494075208902
-0.014110409654676914
-0.130637064576149
0.1744413673877716
0.018685661256313324
0.037814848124980927
-0.029036102816462517
-0.1281755268573761
0.020412782207131386
-0.13350029289722443
-0.010678074322640896
-0.027386756613850594
0.038415566086769104
-0.10185893625020981
-0.030936239287257195
0.0029027466662228107
0.01786069944500923
0.02038140408694744
-0.008629780262708664
0.023465825244784355
-0.0021594210993498564
0.04489021375775337
-0.08679324388504028
0.007213876117020845
-0.11009297519922256
0.14392942190170288
0.04015427082777023
-0.060250423848629
0.028110457584261894
-0.019450651481747627
-0.014524093829095364
0.010149459354579449
0.016841376200318336
0.003556123934686184
0.02684933878481388
-0.002756576519459486
0.0023743717465549707
-0.07361598312854767
-0.015396907925605774
0.008332236669957638
-0.016683250665664673
-0.06604941189289093
0.03228885307908058
-0.0401809960603714
0.013824298977851868
-0.004945402964949608
-0.005280043929815292
0.028332794085144997
0.11389248073101044
0.04038776829838753
-0.011327904649078846
-0.05571393668651581
-0.06397939473390579
0.0297094713896513
-0.03561839833855629
-0.07531235367059708
-0.017079651355743408
0.1041366308927536
0.03623253479599953
-0.005686458665877581
-0.05417304486036301
-0.04258495196700096
0.056940965354442596
0.01950834132730961
0.010504793375730515
-0.07847224175930023
0.13680903613567352
0.08200640231370926
0.06660883128643036
-0.09762218594551086
-0.06156788393855095
0.0007814824930392206
0.002525162184610963
0.0775301530957222
3.6171881045987675e-09
6.853525746919331e-09
-8.02082456008435e-10
-4.443200474213427e-09
-3.7445735401320235e-09
4.217406868178841e-09
-2.451234770717292e-09
-9.902519693127942e-09
-1.9633370484939405e-09
0.036955367773771286
-0.015970079228281975
-0.020345289260149002
0.00036639723111875355
-0.030444934964179993
0.12330716103315353
0.0066899266093969345
0.07532981038093567
-0.004510802682489157
0.006819333415478468
0.10807380825281143
-0.03062620759010315
-0.04834916815161705
0.032802507281303406
0.0733225867152214
-0.04343500733375549
0.02556314878165722
-0.011316013522446156
0.04877813160419464
0.06913405656814575
-0.01304954569786787
0.0008894496131688356
-0.18421879410743713
0.12046526372432709
0.021982861682772636
0.08996972441673279
-0.030529659241437912
0.05159963667392731
0.20709051191806793
-0.02432442456483841
0.024240020662546158
-0.12247125059366226
-0.05689700320363045
-0.02962731570005417
-0.13890670239925385
-0.03352060541510582
0.0779755637049675
0.06877709180116653
-0.02909053862094879
-0.02162128873169422
-0.1632794290781021
0.11199404299259186
-0.02781924419105053
0.06119246035814285
-0.011146217584609985
-0.03638676926493645
0.01116115227341652
-0.00962160900235176
-0.010247488506138325
0.001883642515167594
-0.004890302196145058
0.020515505224466324
-0.03059934452176094
-0.010625164955854416
-0.09736917912960052
0.11900611966848373
-0.07129603624343872
0.06543087959289551
-0.12030072510242462
-0.00607719924300909
0.04178158566355705
-0.07833617180585861
0.1212272122502327
0.02646830677986145
-0.17352841794490814
-0.0066819447092711926
0.022050417959690094
-0.15152622759342194
0.09273061156272888
0.003940805327147245
-0.03936398774385452
0.07410471886396408
0.0008892714977264404
-0.12646692991256714
-0.014155026525259018
-0.05873894318938255
-0.12503518164157867
-0.01539262942969799
-0.020398132503032684
-0.004337823484092951
0.047639474272727966
0.0006738250376656651
0.0903138741850853
0.025308139622211456
0.04239034280180931
-0.1334417462348938
-0.042010847479104996
0.04682425782084465
0.05015626922249794
-0.013288537040352821
0.009437024593353271
0.003033904591575265
0.005026736296713352
0.011057473719120026
-0.03526366502046585
0.07760371267795563
0.0006868664640933275
0.03404057398438454
-0.028994867578148842
-0.13485147058963776
0.09042349457740784
0.08136622607707977
0.029644276946783066
-0.09528729319572449
-0.054976578801870346
0.018925059586763382
0.004427839536219835
0.10203276574611664
-0.052600596100091934
0.03522709757089615
0.022377444431185722
-0.05954199284315109
0.02793264389038086
-0.022558780387043953
-0.02751498483121395
0.11933725327253342
-0.051519736647605896
-0.049476753920316696
0.005625801160931587
-0.008882835507392883
0.00959638599306345
-0.03620254993438721
-0.031034139916300774
-0.010705594904720783
-0.028707588091492653
-0.03065093606710434
-0.028835218399763107
0.029439235106110573
0.08123647421598434
0.004591037519276142
0.12777799367904663
0.026500651612877846
-0.04027031734585762
0.021225983276963234
0.04140779748558998
0.06448590755462646
0.015277467668056488
-0.024066103622317314
0.05567637085914612
-0.00030875884112901986
-0.058226969093084335
0.05391626060009003
0.017682306468486786
-0.04489799216389656
-0.022939322516322136
-0.013889315538108349
0.00020151061471551657
-0.09942521899938583
-0.13826654851436615
-0.08910343796014786
-0.008136195130646229
-0.06064731255173683
-0.05852627754211426
2.2173905378508607e-08
-1.4432014694421014e-08
-5.296283589473205e-08
6.533656460305792e-08
1.6964257554263895e-08
-3.6828694760515646e-08
5.19797751508122e-08
3.4871135312641854e-08
-2.6341769654436575e-08
0.0033715320751070976
0.0027504446916282177
0.011202368885278702
-0.024989670142531395
-0.025104466825723648
-0.007411689031869173
-0.03562668710947037
-0.025601094588637352
-0.007611779496073723
8.885874258623971e-10
-6.780108474657709e-09
-1.0856513910084686e-08
3.200539389069945e-09
-8.454823507975107e-09
5.610030148761602e-11
4.228430938724159e-09
5.890816168196977e-10
-1.317715936366426e-09
-0.01728021539747715
-0.03458349406719208
-0.022220861166715622
-0.015561589039862156
-0.021145300939679146
-0.04525953531265259
0.003680693218484521
-0.0012610728153958917
-0.006524283438920975
0.012194770388305187
0.0044277990236878395
0.011615240015089512
0.003374706255272031
-0.018983248621225357
-0.01587834022939205
0.021148227155208588
0.010581360198557377
0.012941578403115273
1.0401874028787006e-08
-2.3608153654208763e-08
-5.344200815216027e-08
4.273412557154188e-08
-1.4172019113800616e-09
-3.326658415403472e-08
5.05238659798124e-08
1.8363939702226162e-08
-1.953206485438841e-08
0.008525368757545948
-0.03907832130789757
0.0012493691174313426
0.02781275473535061
-0.014231589622795582
0.035608772188425064
0.010336884297430515
-0.0012080621672794223
0.054441530257463455
-1.265124609517443e-07
-6.308824822554016e-07
-1.019941578306316e-06
4.60109447431023e-07
-9.29852106423823e-08
-6.812127821831382e-07
9.176426942758553e-07
3.962398693602154e-07
-2.589000018815568e-07
0.030112402513623238
-0.01118401251733303
-0.04375072941184044
0.053097277879714966
-0.02380080334842205
-0.09789254516363144
0.06656984984874725
0.047548722475767136
0.024385131895542145
0.02141774632036686
-0.07285667210817337
-0.07892671972513199
0.04096334055066109
-0.0880308449268341
-0.1010514348745346
0.08869266510009766
0.031089337542653084
-0.026545129716396332
0.05068247765302658
0.04599369689822197
0.030818959698081017
-0.014011688530445099
-0.01428331807255745
-0.01961306482553482
-0.03353128954768181
-0.00423872796818614
0.0045857965014874935
-3.423554915116256e-07
-2.769973434624262e-06
-4.893913228443125e-06
2.8200895485497313e-06
1.208797328899891e-07
-2.815925427057664e-06
5.2338846217026e-06
2.6603954665915808e-06
-2.6167640498897526e-07
-0.044139277189970016
-0.11842311173677444
-0.05982403829693794
0.0006043215398676693
-0.18363994359970093
-0.13256366550922394
0.057283900678157806
-0.1138686016201973
-0.11724399030208588
0.015137305483222008
-0.0018013204680755734
0.0020009763538837433
-0.01310370396822691
-0.038261547684669495
-0.0087899686768651
-0.010226077400147915
-0.020842302590608597
0.0007512236479669809
0.0118892015889287
-0.05374184995889664
-0.08016866445541382
0.043125979602336884
-0.03644208982586861
-0.08147668838500977
0.11960141360759735
0.05058988556265831
-0.018713321536779404
0.015367046929895878
-0.03329874947667122
-0.07906559854745865
0.05908333510160446
0.005483634769916534
-0.058378301560878754
0.07651247829198837
0.03469976410269737
-0.02719961479306221
-0.02065180614590645
-0.08058072626590729
-0.11222273856401443
0.06950341910123825
-0.037637244910001755
-0.1028650552034378
0.12279054522514343
0.02137318253517151
-0.0589308999478817
-0.033779311925172806
0.004866435192525387
0.08979213237762451
-0.1631181538105011
-0.0916779413819313
0.04060112684965134
-0.1390715390443802
-0.06015555188059807
0.00320865074172616
0.007232315838336945
-0.010204261168837547
0.08292382955551147
0.0005178579594939947
-0.1044032946228981
0.055123694241046906
-0.00048093224177137017
-0.1017906665802002
0.042245060205459595
0.02182077243924141
-0.10983922332525253
-0.18330071866512299
0.10635528713464737
-0.02795584127306938
-0.1392490714788437
0.182527095079422
0.08688569813966751
-0.016041826456785202
0.04439525678753853
-0.010899444110691547
0.04420420154929161
-0.05529370158910751
-0.07970216870307922
0.004213274922221899
-0.12621670961380005
-0.08716076612472534
0.015123334713280201
0.01326420996338129
0.0002751864376477897
0.05597829818725586
0.00663060462102294
0.009640404023230076
0.05698180943727493
0.014868108555674553
0.010939333587884903
0.029992656782269478
0.010555202141404152
-0.005799476057291031
-0.05813439562916756
0.0588071346282959
0.028473271057009697
-0.04787293076515198
0.029579484835267067
0.015450770035386086
-0.0036064754240214825
0.06424738466739655
-0.022585364058613777
-0.03860365226864815
0.059154558926820755
0.04869299754500389
0.01571449264883995
0.09659742563962936
0.10630875080823898
0.06036703288555145
0.03905069828033447
0.01562752015888691
-0.031017158180475235
-0.007436482235789299
-0.041357140988111496
-0.10295551270246506
-0.037861503660678864
-0.012546902522444725
-0.0026047141291201115
0.014542743563652039
-0.025413453578948975
-0.03530081734061241
0.03844311833381653
-0.0077197677455842495
-0.03604254871606827
0.042562250047922134
0.02498088777065277
-0.003934797830879688
0.052642419934272766
-0.004424475599080324
0.012452908791601658
0.014067749492824078
-0.06292474269866943
-0.049207791686058044
0.045977070927619934
-0.001422374858520925
-0.012141465209424496
0.022767864167690277
0.019118938595056534
0.0261931661516428
0.009824871085584164
-0.008222579956054688
0.02446439303457737
-0.042190730571746826
-0.045589886605739594
0.01366682443767786
0.0059006307274103165
-0.005432514939457178
-0.02040712721645832
0.04373347759246826
0.008882270194590092
-0.012928703799843788
0.07306809723377228
0.059776220470666885
0.00866082776337862
0.03923727944493294
-0.04418499767780304
-0.0953814759850502
0.0820348784327507
0.012539238668978214
-0.071316659450531
0.0976777896285057
0.06331726908683777
-0.011235150508582592
0.006564805284142494
-0.02270657755434513
-0.009156562387943268
0.026792505756020546
-0.018263593316078186
-0.025467311963438988
0.045138657093048096
0.019786067306995392
0.0018158158054575324
0.039674311876297
-0.042536526918411255
-0.08600258827209473
0.0642533153295517
-0.016524434089660645
-0.07177092134952545
0.07519685477018356
0.028316669166088104
-0.02831139601767063
0.017732413485646248
-0.0882897824048996
-0.15115034580230713
0.13167916238307953
-0.005130675621330738
-0.10801685601472855
0.17831432819366455
0.07877183705568314
-0.029332635924220085
0.05671358108520508
0.031101003289222717
0.026133673265576363
0.005349732935428619
-0.02127615362405777
0.005502614192664623
-0.00883812177926302
-0.032516010105609894
-0.014589222148060799
1.3692912359530851e-09
-1.641180169542622e-08
-2.3026775153311974e-08
1.2723719855500804e-08
-3.3461211579322026e-10
-1.4505936007935816e-08
2.1415416995296255e-08
-1.6356724863442196e-09
-1.2959154638281234e-08
-0.0026849773712456226
-0.06399733573198318
-0.0777549222111702
0.04050993174314499
-0.034810055047273636
-0.07120252400636673
0.09601709246635437
0.03643147647380829
-0.012154526077210903
7.467598095445283e-09
-4.056223801285341e-09
-4.2525214460908956e-09
1.094814017221779e-08
-3.3122293796594704e-09
-1.5853196533299752e-09
1.0675337946963737e-08
3.887014710102221e-09
1.0343361722675581e-09
0.009803771041333675
0.007019347976893187
-0.01618071272969246
0.012362894602119923
-0.033730365335941315
-0.045454688370227814
0.016325345262885094
-0.003779751481488347
-0.028306396678090096
-0.0015972458058968186
-0.026514645665884018
-0.05369763448834419
0.026623422279953957
-0.002357690827921033
-0.01647835597395897
0.025802206248044968
0.011113863438367844
-0.00019416044233366847
-0.002684876788407564
-0.06064827740192413
-0.03969286009669304
0.046480294317007065
-0.056804511696100235
-0.0063268570229411125
0.10308681428432465
0.007622636388987303
0.05504809692502022
0.04040168970823288
0.03022659756243229
0.026538757607340813
-0.031101500615477562
-0.03461650386452675
-0.011268442496657372
-0.04360660910606384
-0.025348469614982605
0.029220623895525932
0.05115855485200882
-0.034951429814100266
-0.037115346640348434
0.07765920460224152
0.0026176930405199528
-0.000816028390545398
0.15577563643455505
0.08586285263299942
0.04568946734070778
0.043194860219955444
-0.06865184009075165
-0.06188661605119705
0.08068713545799255
-0.05082721635699272
-0.027288291603326797
0.16624638438224792
0.05470776930451393
0.04386916011571884
0.012440129183232784
0.04033534973859787
0.11784331500530243
-0.0667402520775795
-0.053433068096637726
0.053816020488739014
-0.1074281632900238
-0.07300035655498505
0.030439602211117744
0.04959741607308388
-0.028105106204748154
-0.08700210601091385
0.07997122406959534
0.006095994263887405
-0.06385471671819687
0.13660404086112976
0.0740000307559967
0.023630229756236076
0.021339179947972298
-0.011873283423483372
-0.05701448395848274
0.053646281361579895
0.013732945546507835
-0.013741823844611645
0.1084456741809845
0.04753126949071884
0.02444048598408699
2.5264530467694613e-09
-1.3383673724831624e-08
-1.843899788411818e-08
9.207232309904612e-09
-5.928110891062488e-09
-1.314134756569274e-08
1.0421937091109612e-08
-3.6757936694442606e-09
-7.755547315468903e-09
0.05694117024540901
0.033553022891283035
0.016537969931960106
0.013456379063427448
-0.041354093700647354
0.0036080852150917053
0.035731252282857895
-0.024391815066337585
0.02292492985725403
0.000829989614430815
-0.03982306271791458
-0.0022975432220846415
0.009156911633908749
-0.07582958042621613
-0.015722453594207764
0.03747769445180893
-0.02357439696788788
-0.021863359957933426
0.026147877797484398
0.06563358008861542
0.13330017030239105
-0.05292189493775368
-0.07288456708192825
0.05278979614377022
-0.041034992784261703
-0.06426333636045456
0.007286345586180687
0.049804188311100006
-0.015292445197701454
-0.010602426715195179
0.045302484184503555
-0.03887933865189552
-0.01380107644945383
0.056018926203250885
0.001829223707318306
0.010879465378820896
0.018766343593597412
-0.035629816353321075
-0.04603883624076843
0.03885509818792343
-0.04293369874358177
-0.056466244161129
0.06857646256685257
0.01466131117194891
-0.015262181870639324
0.01583448052406311
0.00817183032631874
0.00860823318362236
-0.0011217502178624272
-0.007879192009568214
-0.0031500172335654497
-0.01707971654832363
-0.010223195888102055
0.0014320233603939414
0.010284489020705223
-0.013549585826694965
-0.001919521833769977
-0.009218026883900166
-0.03558038920164108
-0.001719641382806003
-0.023946013301610947
0.0029895268380641937
0.019750770181417465
0.03829158842563629
-0.016076000407338142
-0.008367516100406647
-0.004689657129347324
-0.014344868250191212
-0.03086806833744049
-0.04289525747299194
0.012957238592207432
0.010631677694618702
-0.07831913232803345
-0.1443595141172409
-0.15824484825134277
-0.03498715162277222
-0.1277676671743393
-0.15484005212783813
0.10739660263061523
0.008151834830641747
-0.09674126654863358
0.03936433419585228
0.01938674785196781
0.021390128880739212
0.001831049332395196
-0.029334377497434616
-0.008031468838453293
-0.017901865765452385
-0.02167176827788353
0.016050191596150398
0.04144183546304703
-0.001526598702184856
0.004876681137830019
0.005862410180270672
-0.022218745201826096
0.02853575348854065
-0.012177872471511364
-0.006377695593982935
0.04032016918063164
0.0785844475030899
0.06133941560983658
0.09653760492801666
-0.0019822779577225447
-0.049265991896390915
0.04466939717531204
-0.04498637840151787
-0.014086335897445679
0.0804799422621727
0.029951684176921844
-0.09337060898542404
-0.1703592985868454
0.10022038221359253
-0.03621584549546242
-0.14858512580394745
0.18196071684360504
0.07537007331848145
-0.03659174591302872
0.009879694320261478
0.014705445617437363
0.021496636793017387
-0.019546275958418846
-0.020166605710983276
0.0006024207687005401
-0.044940877705812454
-0.03649483621120453
-0.0048221866600215435
0.12444446235895157
0.0990624651312828
0.05934510380029678
0.09968900680541992
0.034998420625925064
0.05080191791057587
0.04962104186415672
0.008389069698750973
0.0792296826839447
-0.03747982531785965
-0.01974952034652233
0.03467582166194916
-0.04321731999516487
-0.009776685386896133
0.07059455662965775
0.0008142659207805991
-0.003351213876157999
0.027891846373677254
-0.004379291087388992
-0.02309177815914154
-0.002509234705939889
-0.06014977768063545
-0.07528866827487946
-0.0218132846057415
-0.02608666568994522
-0.04206626117229462
-0.01726279780268669
-1.496986756777119e-09
-2.6943226316689106e-08
-3.895068090287168e-08
-5.889696508276643e-10
-1.1111039199818151e-08
1.6248061784907009e-09
-9.206429396613203e-09
1.0336381528475158e-08
2.1958532769872363e-08
-0.032195352017879486
-0.028551064431667328
-0.009049217216670513
-0.04343365132808685
-0.020647145807743073
0.005855749361217022
-0.02977638691663742
-0.0307275652885437
-0.002307416405528784
-1.024510587477323e-09
2.068724080928064e-09
5.3290496460078884e-09
-7.371830229585541e-11
-3.8671550406377264e-09
-7.92523735526629e-09
7.825820880213996e-09
-4.347210147415126e-09
1.2004446325875051e-09
0.002999675925821066
-0.005090751219540834
-0.03295958414673805
0.007707217242568731
0.004171857610344887
-0.01349620521068573
0.01903487928211689
0.02252144366502762
0.030063152313232422
-0.02688135951757431
-0.001040876260958612
0.002253736136481166
-0.03387331962585449
0.0053528849966824055
0.031005969271063805
-0.009235839359462261
0.004941221326589584
0.02158629335463047
1.9675667761731575e-09
-2.5344817355943405e-09
-5.009953341073015e-09
-5.294240601472211e-10
-3.163256767635403e-09
-1.0449037191051502e-09
-8.025382136622738e-09
-1.4253583868750752e-09
6.198505597687642e-10
-0.033653371036052704
-0.17560523748397827
-0.05831271782517433
-0.17120914161205292
-0.4557015299797058
-0.11481909453868866
-0.049761902540922165
-0.21396413445472717
-0.05190999433398247
-4.175360501790237e-08
-2.5360304078958507e-08
8.890298275332498e-09
-1.025421525469028e-07
-1.245547167627592e-07
-8.400935058716641e-09
-2.0105089504340867e-07
-8.666081896535616e-08
1.4155718019992491e-07
-0.02925548143684864
